~o
<STREAMINFO> 1 39
<VECSIZE> 39<NULLD><MFCC_D_A_Z_0><DIAGC>
~s "silst"
<MEAN> 39
 -9.827197e-01 -3.437786e+00 -1.797805e+01 -9.887056e+00 -1.343826e+01 -1.099012e+01 -3.726732e+00 -5.976367e+00 -4.787693e+00 -3.946553e+00 -4.943604e+00 -3.014629e+00 5.309188e+01 1.051863e-01 8.231787e-02 -5.934276e-02 -5.670578e-02 -2.700162e-02 1.613102e-02 5.952429e-02 -3.442190e-02 -2.728874e-02 -2.722956e-02 -7.164050e-02 3.532609e-03 2.694165e-01 -3.670231e-02 -1.847016e-02 2.166207e-02 -1.949350e-02 6.771321e-03 2.659504e-02 -1.156800e-03 -5.624384e-03 2.924288e-02 -6.994204e-03 -4.135265e-03 -2.847625e-02 -3.876966e-02
<VARIANCE> 39
 4.205086e+01 2.647596e+01 3.589272e+01 2.769906e+01 3.297289e+01 6.215195e+01 4.824424e+01 7.425184e+01 3.133758e+01 2.163431e+01 2.767833e+01 2.004668e+01 1.432428e+02 2.441934e+00 1.900033e+00 2.626636e+00 2.555074e+00 3.273509e+00 3.381591e+00 3.706978e+00 3.821502e+00 2.888824e+00 2.004772e+00 2.480985e+00 1.762405e+00 4.368847e+00 3.877904e-01 3.610728e-01 4.332452e-01 5.374036e-01 6.186389e-01 6.443579e-01 6.732642e-01 5.931758e-01 5.458435e-01 3.715067e-01 4.496292e-01 3.317121e-01 5.500674e-01
<GCONST> 1.230481e+02
~h "k"
<BEGINHMM>
<NUMSTATES> 5
<STATE> 2
<MEAN> 39
 -6.524097e+00 -2.415803e+00 -2.456841e+00 -3.453684e+00 6.382589e-01 2.361732e+00 -6.953563e-01 -1.700502e+00 8.663884e-01 1.759521e+00 1.844963e+00 1.789585e+00 -4.102602e+00 -1.254585e-04 -2.901781e-03 -3.814580e-02 6.375691e-02 3.568900e-01 3.339638e-01 -2.810104e-01 2.533140e-01 -2.931054e-01 1.064485e-01 2.936081e-01 5.475013e-01 -9.132857e-03 4.336610e-03 -5.304801e-02 -6.475928e-02 -3.160610e-02 -1.509018e-01 -2.546694e-01 8.387470e-02 1.587175e-01 -5.827220e-02 1.214124e-02 -9.443152e-02 -4.437553e-01 2.752011e-02
<VARIANCE> 39
 8.532326e-02 2.036756e+00 3.361919e+00 1.445760e+00 2.419239e+00 3.315276e+00 2.456456e+00 9.246470e+00 1.088901e+01 6.663251e+00 3.126888e+00 5.942091e+00 1.005399e-01 1.856745e-02 2.449468e-02 6.808534e-02 4.687505e-01 7.891082e-01 3.761365e-01 3.422027e-01 6.084861e-01 3.546455e-01 3.847783e-01 4.103266e-01 4.915850e-01 3.000027e-03 3.917811e-03 5.307088e-02 1.313281e-01 4.017372e-02 6.123555e-02 3.310675e-02 6.217900e-02 8.621068e-02 2.125461e-01 1.447455e-01 1.378054e-01 7.041603e-02 2.258233e-03
<GCONST> 1.893424e+01
<STATE> 3
<MEAN> 39
 -6.751513e+00 -3.024544e+00 -2.973499e+00 -2.938401e+00 1.593186e+00 3.318660e+00 -2.213001e+00 -2.802218e+00 -5.895252e-01 6.145555e-01 2.133657e+00 2.318128e+00 -4.192069e+00 6.205660e-03 -2.681996e-01 -4.237125e-01 -2.356625e-01 -3.500185e-01 -4.276861e-01 -4.987202e-02 3.677115e-01 -6.912622e-02 2.416764e-02 7.097272e-02 -9.226771e-02 3.417112e-02 3.928083e-02 3.467719e-02 -4.887741e-02 -2.078373e-01 -4.066631e-01 -3.276960e-01 2.210818e-01 2.135513e-01 2.474018e-01 1.774518e-01 -2.004057e-01 -6.102374e-01 2.859209e-02
<VARIANCE> 39
 1.375420e-01 1.768876e+00 5.532256e-01 6.924112e+00 6.656188e+00 5.104876e+00 2.076059e+00 1.124636e+01 7.020581e+00 4.972355e+00 4.770495e+00 1.736216e+00 8.291629e-02 4.663596e-02 1.045739e-01 4.260884e-01 8.124475e-01 1.126843e+00 5.512589e-01 6.344587e-01 1.026256e+00 2.493886e+00 1.314370e+00 6.194155e-01 1.906172e-01 2.274195e-02 2.749815e-03 3.610468e-02 6.352784e-02 1.712050e-01 1.139500e-01 1.032517e-01 6.214264e-02 1.267034e-01 3.820606e-02 6.598442e-02 2.927265e-02 1.065893e-01 2.361297e-03
<GCONST> 2.861086e+01
<STATE> 4
<MEAN> 39
 -6.922048e+00 -3.479574e+00 -3.040088e+00 -3.738729e+00 1.479468e-01 1.374663e+00 -1.109921e+00 -1.373674e+00 -1.248228e+00 8.268799e-01 1.858308e+00 7.770029e-01 -4.097852e+00 4.911324e-02 2.702132e-03 -2.550242e-01 -4.240285e-01 -6.587424e-01 -2.976603e-01 5.265188e-01 6.750912e-01 5.114497e-01 2.383120e-01 -3.061275e-01 -9.252852e-01 7.717866e-03 1.678629e-01 1.570227e-01 3.623490e-02 -2.890181e-03 -1.923255e-01 -8.266052e-02 1.199692e-01 1.481508e-01 3.672203e-01 1.484237e-01 -1.165422e-01 -2.628638e-01 7.745208e-02
<VARIANCE> 39
 3.359056e-01 1.759281e+00 2.482996e+00 3.752931e+00 4.471184e+00 3.621001e+00 8.058597e+00 8.718276e+00 5.504825e+00 4.305179e+00 2.931200e+00 4.088687e+00 1.129346e-01 3.667072e-02 1.377736e-01 3.111495e-01 3.496478e-01 5.273720e-01 5.402306e-01 3.779140e-01 1.014969e+00 1.073164e+00 7.822406e-01 5.202675e-01 3.713540e-01 1.812455e-02 3.092120e-02 5.402276e-02 4.454718e-02 1.730374e-01 1.438031e-01 4.997434e-02 1.990921e-01 3.400939e-01 2.074313e-01 4.188934e-02 1.139876e-01 1.247167e-01 7.174687e-03
<GCONST> 3.551388e+01
<TRANSP> 5
 0.000000e+00 1.000000e+00 0.000000e+00 0.000000e+00 0.000000e+00
 0.000000e+00 1.775502e-06 9.999983e-01 0.000000e+00 0.000000e+00
 0.000000e+00 0.000000e+00 1.168626e-05 9.999883e-01 0.000000e+00
 0.000000e+00 0.000000e+00 0.000000e+00 4.962447e-01 5.037553e-01
 0.000000e+00 0.000000e+00 0.000000e+00 0.000000e+00 0.000000e+00
<ENDHMM>
~h "k-o+s"
<BEGINHMM>
<NUMSTATES> 5
<STATE> 2
<MEAN> 39
 -2.865446e+00 7.858881e-02 -2.731095e+00 -5.856676e+00 -4.606463e+00 -1.580445e+00 2.191378e-01 2.594803e+00 4.102813e+00 3.670116e+00 4.342195e-01 -3.521119e+00 -2.235162e+00 2.390854e+00 1.624763e+00 7.790751e-01 -4.242005e-02 -1.345502e+00 -1.268301e+00 -1.072739e-01 1.309817e-01 3.029167e-01 3.084725e-01 -4.060483e-01 -6.669594e-01 1.293815e+00 5.588672e-01 6.940977e-02 1.898908e-01 2.018254e-01 -7.382003e-02 -1.490273e-01 -9.830920e-02 -4.009347e-01 -5.116059e-01 -1.846082e-01 2.217070e-02 3.880446e-01 4.004126e-01
<VARIANCE> 39
 2.133388e+01 1.900600e+01 1.173565e+01 1.518833e+01 2.720211e+01 1.404457e+01 7.314867e+00 1.740874e+01 1.350871e+01 1.589500e+01 8.996770e+00 7.927864e+00 5.120198e+00 2.336049e+00 1.713766e+00 2.142443e+00 1.317394e+00 2.363621e+00 1.518976e+00 7.495646e-01 2.172133e+00 2.499190e+00 8.983973e-01 5.951954e-01 1.170583e+00 7.966631e-01 2.637759e-01 5.535786e-01 4.660579e-01 2.146236e-01 2.932211e-01 2.665760e-01 1.837721e-01 2.013696e-01 1.504836e-01 1.470355e-01 1.076270e-01 1.913757e-01 5.720068e-02
<GCONST> 8.871148e+01
<STATE> 3
<MEAN> 39
 1.097616e+01 2.033500e+00 -2.692031e-01 -1.836113e+00 -7.304230e+00 -4.786801e+00 1.389494e+00 9.077479e-01 4.334726e-01 1.089323e+00 5.450520e-01 1.979892e+00 7.303200e+00 -9.409115e-02 -2.914133e-01 1.259852e-01 8.250681e-01 9.159987e-01 3.811936e-01 1.902579e-01 2.257834e-01 -7.394075e-02 -3.952459e-01 1.899193e-01 7.973622e-01 1.620524e-02 -4.147736e-01 -2.091205e-01 -9.898981e-02 5.806429e-02 2.462638e-01 1.012704e-01 -4.271465e-02 1.088433e-01 1.123554e-01 2.916613e-02 8.658447e-02 4.197434e-02 -2.534043e-01
<VARIANCE> 39
 2.636914e+01 1.298084e+01 1.281252e+01 1.726812e+01 3.448816e+01 1.335571e+01 4.803242e+00 1.571610e+01 2.260128e+01 1.787006e+01 1.774268e+01 4.088973e+01 1.497346e+01 3.692272e+00 1.883421e+00 1.912608e+00 8.788839e-01 3.138443e+00 9.515631e-01 5.564301e-01 1.661203e+00 1.429052e+00 1.058810e+00 1.323600e+00 1.649472e+00 2.206727e+00 1.816514e-01 4.446354e-01 4.399552e-01 1.533636e-01 5.033965e-01 2.203088e-01 1.133018e-01 2.909741e-01 3.204325e-01 1.941157e-01 2.155393e-01 2.191367e-01 1.415323e-01
<GCONST> 9.551473e+01
<STATE> 4
<MEAN> 39
 -1.333268e+00 -6.385266e+00 -2.293889e+00 5.702023e+00 1.973950e+00 -4.901679e+00 -7.001727e-01 4.403163e+00 2.490630e+00 2.023022e-01 2.624889e+00 5.014435e+00 4.214382e-01 -9.902055e-01 -1.426546e+00 -6.381146e-01 2.537871e-01 -1.817160e-01 -1.007746e+00 -8.943794e-01 -7.401868e-01 -5.459160e-01 -5.497901e-02 6.625553e-02 -2.433002e-01 -3.605633e-01 3.574753e-01 3.676066e-01 1.065215e-01 -2.393809e-01 -2.560276e-01 -2.298854e-02 4.800022e-03 -1.788241e-01 -3.028916e-01 -2.706651e-01 -2.374387e-01 -1.491265e-01 1.776155e-01
<VARIANCE> 39
 9.131723e+00 2.107410e+01 7.995531e+00 1.087207e+01 3.282277e+00 1.630483e+01 1.129937e+01 1.976088e+01 9.584180e+00 6.622731e+00 6.098875e+00 1.135829e+01 2.662441e+00 6.241184e-01 1.400133e+00 9.151001e-01 1.004579e+00 3.971186e-01 7.243728e-01 3.661305e-01 1.579673e+00 1.505028e+00 1.271523e+00 9.809572e-01 9.003704e-01 1.627765e-01 9.258120e-02 2.280463e-01 1.942566e-01 1.384337e-01 2.200666e-01 2.696868e-01 1.353309e-01 4.599761e-01 2.414652e-01 2.067064e-01 1.962150e-01 2.933344e-01 2.496561e-02
<GCONST> 7.423794e+01
<TRANSP> 5
 0.000000e+00 1.000000e+00 0.000000e+00 0.000000e+00 0.000000e+00
 0.000000e+00 6.997727e-01 3.002273e-01 0.000000e+00 0.000000e+00
 0.000000e+00 0.000000e+00 8.818016e-01 1.181984e-01 0.000000e+00
 0.000000e+00 0.000000e+00 0.000000e+00 7.301553e-01 2.698447e-01
 0.000000e+00 0.000000e+00 0.000000e+00 0.000000e+00 0.000000e+00
<ENDHMM>
~h "u-ng"
<BEGINHMM>
<NUMSTATES> 5
<STATE> 2
<MEAN> 39
 -2.980312e+00 2.072614e+00 4.524899e+00 6.203113e+00 8.645088e+00 7.600800e+00 4.512118e+00 2.236338e+00 1.912557e+00 9.572423e-01 7.496892e-01 2.666568e-01 -2.477404e+00 -4.807541e-01 -1.706438e-01 -5.812111e-02 7.808017e-03 2.628608e-01 4.517636e-01 2.637809e-01 7.186641e-02 7.000984e-02 -8.606745e-02 -3.331438e-02 -1.500906e-01 -2.884364e-01 1.048534e-01 3.931336e-04 -7.706904e-02 -1.558270e-01 -2.459500e-01 -3.297181e-01 -1.151931e-01 5.534793e-02 -9.650515e-02 7.315087e-02 1.379793e-01 -4.218729e-02 8.541089e-02
<VARIANCE> 39
 3.784648e+00 1.864832e+01 2.244438e+01 3.111587e+01 3.743464e+01 3.399728e+01 1.696255e+01 8.348327e+00 1.468859e+01 1.779783e+01 1.152835e+01 1.573870e+01 8.727209e-01 1.730976e-01 1.656862e-01 1.107680e-01 1.915267e-01 5.679716e-01 4.541193e-01 2.279982e-01 5.688118e-01 9.394521e-01 7.208984e-01 4.716665e-01 1.171277e+00 7.351930e-02 3.560218e-02 5.247501e-02 2.724044e-02 3.282662e-02 1.098151e-01 1.726787e-01 2.641027e-01 2.416282e-01 3.036564e-01 3.133689e-01 2.402974e-01 1.911874e-01 8.378420e-03
<GCONST> 6.058585e+01
<STATE> 3
<MEAN> 39
 -4.996394e+00 -1.329930e+00 -4.473326e-02 1.736013e+00 4.887644e+00 4.922974e+00 3.360900e+00 2.844153e+00 1.902436e+00 1.605995e+00 2.301609e+00 9.793373e-01 -3.260233e+00 -5.522001e-01 -4.101563e-01 -3.251546e-01 -2.813651e-01 5.799168e-02 8.915135e-02 4.002783e-02 -4.095194e-01 -5.679567e-01 -2.207980e-01 -1.857793e-01 -6.215986e-01 -2.851896e-01 8.921262e-02 2.993251e-02 -9.356382e-02 -2.205993e-01 -3.211262e-01 -4.461400e-01 -4.154160e-01 -2.942429e-01 -2.516297e-01 -1.989948e-02 7.014778e-02 2.161480e-01 7.272989e-02
<VARIANCE> 39
 2.657488e+00 1.489226e+01 2.008656e+01 3.238971e+01 2.393213e+01 2.605037e+01 2.058991e+01 9.779658e+00 4.184234e+00 1.537107e+01 9.355806e+00 9.770710e+00 8.539849e-01 8.815832e-02 2.089272e-01 2.192800e-01 2.191553e-01 3.120981e-01 8.385954e-01 2.137864e+00 7.538246e-01 5.666115e-01 6.386709e-01 8.179353e-01 1.879353e+00 3.770732e-02 6.234415e-02 8.788521e-02 4.407107e-02 7.322025e-02 6.220026e-02 1.160101e-01 1.851162e-01 9.019218e-02 1.536167e-01 9.474593e-02 1.156339e-01 1.548440e-01 1.852427e-02
<GCONST> 5.812934e+01
<STATE> 4
<MEAN> 39
 -5.202848e+00 -8.017078e-02 1.737079e+00 2.448539e+00 6.135767e+00 5.620297e+00 2.369521e+00 8.342640e-01 5.815923e-01 1.095324e+00 9.859280e-01 9.841818e-03 -3.594845e+00 -4.960707e-01 -3.934356e-01 -7.344680e-01 -1.225629e+00 -1.186503e+00 -1.233721e+00 -1.313890e+00 -9.540353e-01 -4.850945e-01 -1.136481e-01 -6.894986e-03 2.621917e-01 -2.392740e-01 1.789928e-01 9.751810e-02 5.432442e-03 -3.249423e-02 -2.193142e-01 -2.407837e-01 -1.917370e-01 -8.598952e-02 4.289675e-02 -3.181641e-02 7.563392e-02 1.146116e-01 1.063080e-01
<VARIANCE> 39
 1.904891e+00 9.381914e+00 1.858947e+01 1.636306e+01 2.342748e+01 2.889827e+01 2.027016e+01 1.554848e+01 1.051165e+01 7.204978e+00 4.627947e+00 7.482799e+00 6.770846e-01 1.125740e-01 4.162501e-01 3.690156e-01 8.953380e-01 1.025958e+00 4.466817e-01 7.589082e-01 4.004279e-01 6.625282e-01 4.622805e-01 5.107637e-01 4.062913e-01 3.916984e-02 4.966051e-02 6.992576e-02 8.500554e-02 1.211361e-01 1.380826e-01 1.666264e-01 2.770106e-01 1.127697e-01 9.810320e-02 3.126394e-02 4.423884e-02 1.505318e-01 1.842185e-02
<GCONST> 5.562599e+01
<TRANSP> 5
 0.000000e+00 1.000000e+00 0.000000e+00 0.000000e+00 0.000000e+00
 0.000000e+00 4.928768e-01 5.071232e-01 0.000000e+00 0.000000e+00
 0.000000e+00 0.000000e+00 1.430573e-01 8.569427e-01 0.000000e+00
 0.000000e+00 0.000000e+00 0.000000e+00 4.596723e-01 5.403277e-01
 0.000000e+00 0.000000e+00 0.000000e+00 0.000000e+00 0.000000e+00
<ENDHMM>
~h "a-t+u"
<BEGINHMM>
<NUMSTATES> 5
<STATE> 2
<MEAN> 39
 2.165596e+00 2.074872e+00 2.285039e+00 2.824779e+00 1.255044e+00 -1.943259e+00 -9.819346e-01 2.324547e-01 -1.209105e+00 -2.133313e+00 -1.495375e+00 6.844284e-01 1.182814e+00 1.643398e+00 1.184574e+00 6.630759e-01 2.543272e-01 -3.716347e-01 -6.735481e-01 -2.156450e-01 5.099949e-01 1.813178e-01 -6.284767e-01 -6.690151e-01 -2.905881e-01 8.355155e-01 -2.743397e-03 -6.528854e-02 -8.981358e-02 -1.228220e-01 -2.298373e-01 -4.974744e-02 1.531932e-01 4.297667e-01 3.964757e-01 1.044791e-01 1.903464e-02 -1.973878e-01 4.674974e-03
<VARIANCE> 39
 3.932546e+01 3.372830e+01 2.450369e+01 1.171829e+01 1.683755e+01 1.113368e+01 7.159667e+00 1.624229e+01 1.400616e+01 2.447582e+01 1.841415e+01 6.763921e+00 1.137254e+01 3.432606e+00 2.689062e+00 2.850254e+00 1.365711e+00 2.566150e+00 1.525744e+00 4.934236e-01 2.359656e+00 2.671773e+00 9.416913e-01 2.712361e+00 4.580994e-01 1.004251e+00 7.550857e-01 7.287455e-01 6.295611e-01 1.989492e-01 2.420281e-01 6.582393e-02 8.528564e-02 2.554365e-01 3.603191e-01 6.000490e-01 5.799278e-01 8.123644e-02 1.914931e-01
<GCONST> 9.697237e+01
<STATE> 3
<MEAN> 39
 7.409337e+00 5.256351e+00 4.510922e+00 3.795469e+00 -1.717783e+00 -5.992284e+00 -2.106990e+00 5.493524e+00 5.576113e+00 1.179542e+00 -3.174904e+00 -4.286398e+00 3.847739e+00 -4.496962e-01 2.175897e-02 5.476577e-01 5.986511e-01 7.851331e-01 6.467147e-01 -4.515022e-02 -1.065888e-01 5.382288e-01 6.828983e-01 -1.913371e-03 -7.354988e-01 -2.849346e-01 -1.982763e-01 1.232721e-02 3.386238e-02 1.156878e-02 2.590542e-01 3.482448e-01 8.522877e-02 -3.902780e-01 -5.697367e-01 -4.249002e-01 -1.966491e-02 2.322618e-01 -1.105422e-01
<VARIANCE> 39
 9.567561e+00 2.614482e+00 1.107652e+01 1.313441e+01 3.312880e+01 1.514213e+01 4.617898e+00 6.875533e+00 1.224381e+01 2.253172e+01 1.242144e+01 6.192415e+00 5.627220e+00 2.466190e-01 1.702668e-01 6.567854e-01 1.535541e+00 3.653102e+00 1.782691e+00 9.783076e-01 1.585357e+00 2.073394e+00 3.243481e+00 1.632473e+00 1.025870e+00 8.191889e-02 6.902064e-02 3.524352e-02 2.613203e-01 2.713058e-01 5.578513e-01 1.323280e-01 1.015255e-01 3.124729e-01 3.018667e-01 6.262152e-01 6.173106e-01 2.138181e-01 2.330039e-02
<GCONST> 7.814075e+01
<STATE> 4
<MEAN> 39
 3.644597e+00 6.053735e+00 7.584270e+00 8.417096e+00 6.745088e+00 2.976746e+00 8.713853e-01 2.043994e+00 1.906405e+00 8.891671e-02 -1.138902e+00 -2.431288e+00 1.276178e+00 -5.879416e-01 -1.269413e-02 1.753081e-01 1.039864e-01 3.423172e-01 6.953976e-01 4.784370e-01 1.304486e-02 -2.043702e-01 -6.931139e-02 1.287371e-01 1.853617e-01 -3.900300e-01 -6.405241e-02 -8.656663e-02 -1.155512e-01 -1.016024e-01 -5.216546e-02 -6.773472e-02 3.290620e-02 2.221243e-02 -2.378482e-02 -1.106935e-02 -6.697807e-02 -4.897407e-02 -3.065666e-02
<VARIANCE> 39
 1.135797e+01 3.148574e+00 5.349763e+00 8.864858e+00 2.086074e+01 3.216912e+01 1.582563e+01 4.446687e+00 6.788783e+00 6.834067e+00 1.544353e+01 6.846375e+00 5.469353e+00 2.023778e-01 2.373122e-01 2.427032e-01 5.273993e-01 6.216434e-01 7.681614e-01 5.479018e-01 5.992938e-01 6.451679e-01 8.338491e-01 1.260870e+00 5.230516e-01 7.699965e-02 3.361732e-02 4.067516e-02 6.894795e-02 1.327013e-01 1.427877e-01 1.616246e-01 1.021357e-01 1.149423e-01 1.358299e-01 1.155064e-01 2.065928e-01 9.006433e-02 1.256783e-02
<GCONST> 5.751027e+01
<TRANSP> 5
 0.000000e+00 1.000000e+00 0.000000e+00 0.000000e+00 0.000000e+00
 0.000000e+00 6.659974e-01 3.340026e-01 0.000000e+00 0.000000e+00
 0.000000e+00 0.000000e+00 6.188412e-01 3.811588e-01 0.000000e+00
 0.000000e+00 0.000000e+00 0.000000e+00 8.832246e-01 1.167754e-01
 0.000000e+00 0.000000e+00 0.000000e+00 0.000000e+00 0.000000e+00
<ENDHMM>
~h "t-u+k"
<BEGINHMM>
<NUMSTATES> 5
<STATE> 2
<MEAN> 39
 -1.393191e+00 4.734090e+00 6.215654e+00 6.325488e+00 7.788506e+00 6.237460e+00 4.064424e+00 2.915012e+00 1.482627e+00 5.835137e-01 -6.124350e-01 -1.730350e+00 -1.971656e+00 -1.390297e+00 -1.432468e+00 -1.868589e+00 -1.822072e+00 -8.370076e-01 -3.887974e-01 -1.150133e-01 -8.305939e-02 -4.267898e-01 -1.183764e-01 1.642566e-01 6.313890e-02 -6.844756e-01 4.106147e-03 -2.512842e-01 -2.887336e-01 -4.165995e-01 -6.249975e-01 -5.585861e-01 -4.598332e-01 -1.740648e-01 5.316985e-02 1.629418e-01 2.016255e-01 1.554182e-01 6.074417e-02
<VARIANCE> 39
 4.280371e+00 4.102446e+00 9.982696e+00 1.899148e+01 3.164168e+01 4.358172e+01 1.874440e+01 6.947978e+00 6.348197e+00 8.924929e+00 9.553622e+00 3.675604e+00 1.203154e+00 1.495369e-01 2.494686e-01 7.745301e-01 1.625689e+00 2.765133e+00 1.134076e+00 8.256283e-01 6.263356e-01 8.649591e-01 1.119951e+00 1.180817e+00 8.758872e-01 5.900836e-02 1.835045e-02 5.477902e-02 2.491686e-01 2.612580e-01 2.704443e-01 1.667235e-01 1.823444e-01 2.088840e-01 1.679884e-01 2.847352e-01 2.085442e-01 1.053934e-01 7.113629e-03
<GCONST> 6.645895e+01
<STATE> 3
<MEAN> 39
 -5.554947e+00 8.964786e-02 1.715499e+00 7.581444e-01 3.026878e+00 3.431142e+00 1.172724e+00 1.140553e+00 5.137910e-01 3.935543e-01 -1.727778e-01 -1.408922e+00 -3.765254e+00 -9.260869e-01 -1.078101e+00 -9.953077e-01 -1.249505e+00 -8.714119e-01 -7.402752e-01 -1.041703e+00 -1.342692e+00 -6.878012e-01 -1.094112e-01 4.681310e-01 6.210333e-01 -3.984257e-01 3.160479e-01 2.958536e-01 2.506020e-01 2.924521e-01 2.078439e-01 1.132568e-01 -3.952712e-03 -1.645246e-01 -1.667674e-02 2.283886e-02 1.154427e-01 6.330265e-02 1.430807e-01
<VARIANCE> 39
 1.621136e+00 2.805263e+00 7.012694e+00 1.385460e+01 1.849012e+01 2.596495e+01 9.128458e+00 4.419315e+00 3.840221e+00 2.188383e+00 4.458498e+00 5.695538e+00 6.393976e-01 3.291533e-01 4.284231e-01 2.330851e-01 6.717988e-01 1.665088e+00 2.027920e+00 1.238626e+00 5.928982e-01 6.719048e-01 1.021531e+00 8.003711e-01 6.438412e-01 7.102826e-02 1.727426e-02 4.490035e-02 1.259590e-01 3.329663e-01 4.007204e-01 2.568961e-01 2.444155e-01 3.870034e-01 2.856083e-01 2.399552e-01 1.671043e-01 2.209601e-01 4.020074e-03
<GCONST> 5.950568e+01
<STATE> 4
<MEAN> 39
 -6.882106e+00 -2.627214e+00 -1.730467e+00 -1.586358e+00 2.158904e+00 2.625281e+00 -7.846575e-01 -2.010395e+00 -1.019633e+00 -9.244994e-02 2.768251e-01 -1.040397e+00 -4.220421e+00 -9.926001e-03 -4.282769e-02 -5.525212e-02 -4.137417e-02 -3.028544e-02 -3.326421e-02 -3.272214e-02 -3.442832e-02 -1.294844e-02 -1.904969e-02 2.730909e-03 7.365902e-03 2.055233e-04 7.147125e-03 6.249913e-03 8.983443e-03 1.196527e-02 7.778752e-03 1.115721e-02 1.355970e-02 1.962179e-02 8.194720e-03 3.464183e-03 -1.712127e-03 3.669267e-03 3.584637e-03
<VARIANCE> 39
 3.441990e-01 2.098954e+00 3.628452e+00 4.957670e+00 4.601772e+00 6.343495e+00 8.510371e+00 8.235557e+00 7.456904e+00 7.171034e+00 7.539157e+00 7.306489e+00 1.301941e-01 3.224259e-02 1.493723e-01 2.951971e-01 4.986264e-01 4.367024e-01 4.684898e-01 7.089199e-01 8.776854e-01 8.587962e-01 8.222865e-01 7.689436e-01 7.533971e-01 1.274798e-02 7.790117e-03 2.712437e-02 5.566671e-02 1.019707e-01 9.352082e-02 9.225585e-02 1.483396e-01 1.857177e-01 1.717933e-01 1.731897e-01 1.558884e-01 1.521631e-01 2.675959e-03
<GCONST> 3.808771e+01
<TRANSP> 5
 0.000000e+00 1.000000e+00 0.000000e+00 0.000000e+00 0.000000e+00
 0.000000e+00 6.171600e-01 3.828400e-01 0.000000e+00 0.000000e+00
 0.000000e+00 0.000000e+00 6.657861e-01 3.342139e-01 0.000000e+00
 0.000000e+00 0.000000e+00 0.000000e+00 9.805488e-01 1.945116e-02
 0.000000e+00 0.000000e+00 0.000000e+00 0.000000e+00 0.000000e+00
<ENDHMM>
~h "o-ng"
<BEGINHMM>
<NUMSTATES> 5
<STATE> 2
<MEAN> 39
 -9.823521e-01 4.825520e+00 6.831559e+00 8.545155e+00 1.097268e+01 9.464357e+00 6.109575e+00 3.564954e+00 2.319726e+00 9.882532e-01 -3.476298e-01 -1.438804e+00 -1.677379e+00 -4.870811e-01 -2.537888e-01 -1.456521e-02 1.582480e-01 3.755535e-01 6.930636e-01 6.701820e-01 2.954718e-01 1.763766e-01 2.284625e-01 3.628125e-01 2.882550e-01 -2.524903e-01 5.379160e-02 -1.596886e-02 -5.786537e-02 -1.846367e-01 -2.663484e-01 -3.303597e-01 -1.928601e-01 1.896172e-02 5.633552e-02 1.393733e-01 1.217616e-01 -3.149709e-02 4.942944e-02
<VARIANCE> 39
 3.995671e+00 3.969129e+00 7.562508e+00 1.306872e+01 1.179260e+01 9.204275e+00 6.264182e+00 5.130692e+00 1.287539e+01 1.229877e+01 7.207175e+00 6.085214e+00 1.172115e+00 1.084189e-01 1.279238e-01 7.037751e-02 1.733509e-01 4.820408e-01 4.743924e-01 4.635443e-01 6.743636e-01 7.859764e-01 9.250943e-01 4.827124e-01 7.754929e-01 4.395796e-02 3.209837e-02 3.757365e-02 2.539945e-02 2.334526e-02 1.111155e-01 1.000626e-01 7.085768e-02 2.343306e-01 2.812397e-01 2.655208e-01 1.820275e-01 1.152697e-01 1.410617e-02
<GCONST> 4.697983e+01
<STATE> 3
<MEAN> 39
 -3.471439e+00 2.342880e+00 3.498258e+00 5.717293e+00 8.958663e+00 9.310449e+00 7.240010e+00 4.040205e+00 1.910419e+00 2.971557e+00 2.032295e+00 -1.774217e+00 -2.839862e+00 -6.198790e-01 -6.506134e-01 -1.441974e-01 -3.761612e-01 -2.609695e-01 -4.493313e-01 -3.991044e-01 -4.919768e-01 -5.448852e-01 -9.485088e-02 2.338193e-01 6.700089e-02 -2.610778e-01 -1.501589e-01 -1.998541e-01 -1.943870e-01 -3.685060e-01 -4.145645e-01 -4.906805e-01 -5.934221e-01 -4.290668e-01 -1.804343e-01 -7.314720e-02 -7.398149e-02 2.166168e-01 -5.293987e-02
<VARIANCE> 39
 2.665570e+00 9.107903e+00 2.873057e+01 4.762288e+01 3.261298e+01 1.272095e+01 3.895195e+00 3.136312e+00 1.546171e-01 5.653885e+00 1.991454e+00 1.351405e+00 9.079332e-01 5.784610e-02 3.138653e-01 5.091019e-01 2.007229e-01 1.394969e-01 1.600168e-01 1.290702e+00 1.404775e+00 9.287062e-01 6.966113e-01 3.193916e-01 1.729332e-01 4.245808e-03 8.558163e-03 2.381740e-03 2.835115e-02 7.756134e-02 4.931239e-02 1.309964e-02 2.743296e-03 2.132987e-02 8.074522e-02 1.654713e-02 1.633844e-02 1.050632e-01 7.308671e-03
<GCONST> 2.117177e+01
<STATE> 4
<MEAN> 39
 -4.888091e+00 1.580249e+00 4.148057e+00 3.779338e+00 7.506609e+00 7.221136e+00 3.722631e+00 2.077521e+00 2.009317e+00 2.398205e+00 8.791831e-01 -4.069670e-01 -3.575412e+00 -5.653627e-01 -6.286247e-01 -1.009153e+00 -1.652354e+00 -1.688369e+00 -1.519458e+00 -1.567443e+00 -9.792971e-01 -2.351579e-01 -2.254757e-01 -3.003578e-02 3.148326e-01 -2.876216e-01 6.430218e-02 1.672244e-02 -6.471881e-02 2.327038e-02 -4.438468e-02 -3.381894e-02 1.069814e-02 8.211201e-03 4.233779e-03 -1.129352e-01 -5.438723e-02 -1.213983e-01 3.423936e-02
<VARIANCE> 39
 1.322359e+00 1.943288e+00 4.646379e+00 1.251095e+01 1.821959e+01 1.498666e+01 1.350405e+01 9.762976e+00 5.527568e+00 3.702985e+00 5.258393e+00 3.383560e+00 2.958905e-01 7.376811e-02 2.997823e-01 3.158060e-01 5.109554e-01 4.405932e-01 2.827775e-01 5.148987e-01 5.940427e-01 5.001326e-01 3.721153e-01 3.865176e-01 2.569849e-01 2.300770e-02 1.072955e-02 5.431167e-02 6.397502e-02 1.915296e-01 2.092816e-01 1.698117e-01 3.286511e-01 1.911814e-01 2.609396e-02 3.201883e-02 2.162492e-02 6.312324e-02 3.381498e-03
<GCONST> 3.786155e+01
<TRANSP> 5
 0.000000e+00 1.000000e+00 0.000000e+00 0.000000e+00 0.000000e+00
 0.000000e+00 7.999870e-01 2.000129e-01 0.000000e+00 0.000000e+00
 0.000000e+00 0.000000e+00 4.077464e-08 9.999999e-01 0.000000e+00
 0.000000e+00 0.000000e+00 0.000000e+00 7.074347e-01 2.925653e-01
 0.000000e+00 0.000000e+00 0.000000e+00 0.000000e+00 0.000000e+00
<ENDHMM>
~h "k+o"
<BEGINHMM>
<NUMSTATES> 5
<STATE> 2
<MEAN> 39
 -6.439475e+00 -2.509232e+00 -3.254600e+00 -3.567331e+00 1.561677e+00 3.945407e+00 -1.128475e+00 -3.813166e+00 5.993972e-01 2.465136e+00 2.652989e+00 3.714847e+00 -4.232614e+00 -1.596968e-02 1.116496e-02 -1.158545e-01 2.698877e-01 9.587795e-01 4.677455e-01 -8.035554e-01 -2.584131e-01 -5.677360e-01 -1.782416e-01 -1.311470e-02 4.715025e-01 -4.779349e-02 -2.634404e-02 -8.657960e-02 1.696443e-02 -2.844729e-03 -2.593570e-02 -1.793983e-01 1.388611e-01 3.464652e-01 -1.058269e-01 -1.246369e-01 -2.912697e-02 -4.242367e-01 4.129388e-02
<VARIANCE> 39
 1.174716e-01 2.847367e+00 2.728171e+00 7.159789e-01 4.032036e-01 1.477016e-01 1.890859e+00 1.014193e+01 1.300942e+01 9.397050e+00 2.207477e+00 9.779047e-01 1.517151e-01 4.555697e-03 2.238199e-03 4.511102e-02 8.709301e-02 1.229652e-01 3.493106e-01 7.827293e-03 2.018272e-01 7.828585e-02 1.358284e-02 2.665848e-01 2.047565e-02 6.955488e-04 3.850347e-03 9.274178e-02 2.297927e-01 1.907246e-02 2.854806e-02 2.522656e-02 3.369321e-02 6.696653e-04 6.124281e-02 1.706887e-01 1.180997e-01 1.053309e-02 5.106522e-05
<GCONST> -2.332002e+01
<STATE> 3
<MEAN> 39
 -6.879142e+00 -3.189267e+00 -3.298966e+00 -2.053837e+00 2.615384e+00 4.530094e+00 -1.885244e+00 -5.136105e+00 -1.513602e+00 1.694406e+00 3.059756e+00 1.838883e+00 -4.155023e+00 -1.318713e-01 -2.653909e-01 -9.652063e-02 9.760188e-02 2.277147e-01 -3.846949e-01 -4.940318e-01 -1.274715e-01 -8.879946e-01 -7.711619e-01 -3.221899e-01 -4.540800e-01 -2.814452e-02 4.607873e-02 1.645580e-02 3.482891e-02 -2.197810e-01 -4.189234e-01 -2.908813e-01 3.564279e-01 4.147716e-01 2.595132e-01 4.222843e-02 -1.379344e-01 -4.345605e-01 4.320990e-02
<VARIANCE> 39
 1.472933e-01 4.516656e-01 3.828311e-01 7.127987e-02 3.421630e+00 7.765247e+00 1.187343e+00 1.189121e+01 8.940040e+00 3.298025e+00 1.130471e+00 2.138585e-01 5.354815e-02 2.557970e-03 1.919982e-01 5.190465e-01 3.657991e-02 3.747381e-02 1.077441e-01 7.997212e-01 2.219551e-01 2.919429e-01 3.576689e-01 2.678383e-01 2.887854e-02 5.250814e-03 2.670907e-03 2.399110e-02 6.560615e-02 3.213074e-02 9.352502e-02 1.687404e-01 4.942643e-02 1.497518e-01 6.968618e-02 6.898109e-02 3.214981e-02 9.186605e-03 1.143911e-03
<GCONST> -5.975271e+00
<STATE> 4
<MEAN> 39
 -6.956610e+00 -3.471777e+00 -3.168753e+00 -3.481445e+00 7.016870e-01 1.796287e+00 -1.317315e+00 -2.066055e+00 -6.260571e-01 1.115354e+00 1.502555e+00 7.900790e-02 -4.196598e+00 2.851495e-02 2.181240e-02 -1.374408e-01 -2.521222e-01 -4.308624e-01 -1.781492e-01 5.962362e-01 8.522789e-01 4.757911e-01 5.821764e-02 -3.695897e-01 -8.428255e-01 1.100316e-02 1.548214e-01 6.956883e-02 -3.285461e-02 -1.077431e-02 -2.105272e-01 -9.433843e-02 1.022961e-01 1.907966e-01 3.182441e-01 5.926571e-02 -4.681195e-02 -7.892223e-02 8.927848e-02
<VARIANCE> 39
 2.731687e-01 2.039366e+00 2.400602e+00 1.952173e+00 1.649891e+00 2.240788e+00 7.688338e+00 7.500189e+00 4.535936e+00 4.892678e+00 3.512378e+00 3.621024e+00 9.281421e-02 3.909847e-02 1.256074e-01 3.016635e-01 4.690792e-01 3.501868e-01 3.637739e-01 3.990600e-01 1.192434e+00 6.915076e-01 2.839199e-01 3.662513e-01 1.592405e-01 1.595139e-02 2.598253e-02 4.477551e-02 3.310834e-02 1.054540e-01 1.280663e-01 3.958742e-02 2.287684e-01 2.791067e-01 1.260649e-01 6.946911e-02 1.367915e-01 1.614593e-01 7.872419e-03
<GCONST> 2.873735e+01
<TRANSP> 5
 0.000000e+00 1.000000e+00 0.000000e+00 0.000000e+00 0.000000e+00
 0.000000e+00 0.000000e+00 1.000000e+00 0.000000e+00 0.000000e+00
 0.000000e+00 0.000000e+00 5.332150e-17 1.000000e+00 0.000000e+00
 0.000000e+00 0.000000e+00 0.000000e+00 7.000038e-01 2.999962e-01
 0.000000e+00 0.000000e+00 0.000000e+00 0.000000e+00 0.000000e+00
<ENDHMM>
~h "s+a"
<BEGINHMM>
<NUMSTATES> 5
<STATE> 2
<MEAN> 39
 2.498131e+00 -1.098703e+00 -1.010493e+00 1.201415e+00 -1.145515e+00 -3.106858e+00 -1.092596e+00 -6.720188e-01 -2.889538e+00 -3.513727e+00 -7.691258e-01 2.684428e+00 1.982557e+00 2.286702e+00 1.055824e+00 4.453275e-01 7.639647e-02 -6.720658e-01 -5.635738e-01 1.108044e-02 8.692160e-03 -3.544115e-01 -6.998602e-01 -7.213994e-01 1.194574e-02 1.330645e+00 9.654122e-02 2.366418e-02 2.210013e-02 -2.571474e-02 -9.784362e-02 -1.194864e-02 7.915720e-02 1.842261e-01 2.142657e-01 1.401680e-01 -3.289931e-02 -1.296708e-01 5.589743e-02
<VARIANCE> 39
 5.688699e+01 3.365453e+01 2.071104e+01 3.056348e+01 1.777806e+01 2.723333e+01 1.810998e+01 2.100753e+01 1.500026e+01 2.902832e+01 1.435434e+01 1.245513e+01 2.006042e+01 2.743422e+00 2.886043e+00 2.386308e+00 2.357788e+00 1.671762e+00 2.541311e+00 2.169267e+00 2.395684e+00 1.812457e+00 2.018012e+00 1.581239e+00 9.391896e-01 8.987909e-01 8.429182e-01 6.934005e-01 5.598961e-01 3.600611e-01 2.488090e-01 4.457498e-01 3.808787e-01 4.601561e-01 3.656780e-01 3.714757e-01 2.823637e-01 1.532328e-01 2.604700e-01
<GCONST> 1.079857e+02
<STATE> 3
<MEAN> 39
 1.032341e+01 4.926016e+00 3.957496e+00 2.647591e+00 -3.520894e+00 -3.869388e+00 8.807346e-01 2.389272e+00 6.309934e-01 -2.396654e+00 -4.862538e+00 -2.879392e+00 6.155683e+00 -5.208328e-01 1.151553e-01 2.719691e-01 1.943401e-01 4.441312e-01 3.773712e-01 1.359459e-01 1.301154e-01 2.211416e-01 3.075481e-01 2.027488e-01 -1.602940e-01 -3.715373e-01 -1.267988e-01 -5.794742e-02 -1.808950e-02 3.078566e-02 9.961927e-02 8.118646e-02 1.213476e-04 -5.578256e-02 -4.279968e-02 1.177355e-02 6.310605e-02 6.657108e-02 -7.238652e-02
<VARIANCE> 39
 1.360911e+01 1.044185e+01 1.484792e+01 1.812379e+01 3.261184e+01 1.451542e+01 1.189987e+01 1.303174e+01 1.122476e+01 1.469524e+01 1.489155e+01 1.827434e+01 8.532419e+00 7.010158e-01 5.660833e-01 6.193992e-01 7.298591e-01 1.512522e+00 1.244020e+00 1.164442e+00 1.254532e+00 8.507525e-01 1.147816e+00 9.246218e-01 8.355854e-01 3.465278e-01 7.490796e-02 1.072286e-01 1.244461e-01 1.194725e-01 2.451072e-01 2.128625e-01 2.271077e-01 2.642370e-01 1.381669e-01 1.675654e-01 1.313013e-01 1.071614e-01 4.004587e-02
<GCONST> 7.819354e+01
<STATE> 4
<MEAN> 39
 -4.669666e+00 -4.725264e-01 1.263691e+00 2.134152e+00 4.038872e+00 2.771380e+00 9.399686e-01 1.086441e+00 6.508950e-01 9.316860e-01 1.076969e+00 -5.449026e-01 -2.991382e+00 -5.649783e-01 -6.224923e-01 -5.715230e-01 -3.542228e-01 -2.771674e-01 -1.079714e-01 -8.924690e-02 -8.580606e-02 6.704406e-02 1.654816e-01 1.285799e-01 1.091193e-02 -2.663736e-01 1.994070e-01 9.548360e-02 1.098664e-02 -5.561670e-02 -1.645527e-01 -1.134394e-01 -3.584693e-02 -1.361499e-02 -4.898116e-03 -1.312671e-02 -6.316096e-02 -3.747800e-02 1.071191e-01
<VARIANCE> 39
 1.188668e+01 1.696453e+01 1.717871e+01 1.632566e+01 1.657949e+01 1.886483e+01 1.076266e+01 8.032455e+00 1.054134e+01 1.131581e+01 7.829267e+00 4.926133e+00 3.074818e+00 6.683146e-01 5.859525e-01 5.391846e-01 9.267942e-01 1.153921e+00 1.016127e+00 7.152615e-01 7.287231e-01 1.242460e+00 1.430095e+00 6.479073e-01 6.670943e-01 1.702795e-01 7.148421e-02 6.053903e-02 9.273686e-02 1.555438e-01 2.464082e-01 2.248484e-01 1.016591e-01 1.314930e-01 2.862517e-01 3.214599e-01 1.725591e-01 1.359022e-01 2.289107e-02
<GCONST> 7.141923e+01
<TRANSP> 5
 0.000000e+00 1.000000e+00 0.000000e+00 0.000000e+00 0.000000e+00
 0.000000e+00 8.396748e-01 1.603252e-01 0.000000e+00 0.000000e+00
 0.000000e+00 0.000000e+00 9.376495e-01 6.235054e-02 0.000000e+00
 0.000000e+00 0.000000e+00 0.000000e+00 8.041717e-01 1.958283e-01
 0.000000e+00 0.000000e+00 0.000000e+00 0.000000e+00 0.000000e+00
<ENDHMM>
~h "t-u"
<BEGINHMM>
<NUMSTATES> 5
<STATE> 2
<MEAN> 39
 -1.393191e+00 4.734090e+00 6.215654e+00 6.325488e+00 7.788506e+00 6.237460e+00 4.064424e+00 2.915012e+00 1.482627e+00 5.835137e-01 -6.124350e-01 -1.730350e+00 -1.971656e+00 -1.390297e+00 -1.432468e+00 -1.868589e+00 -1.822072e+00 -8.370076e-01 -3.887974e-01 -1.150133e-01 -8.305939e-02 -4.267898e-01 -1.183764e-01 1.642566e-01 6.313890e-02 -6.844756e-01 4.106147e-03 -2.512842e-01 -2.887336e-01 -4.165995e-01 -6.249975e-01 -5.585861e-01 -4.598332e-01 -1.740648e-01 5.316985e-02 1.629418e-01 2.016255e-01 1.554182e-01 6.074417e-02
<VARIANCE> 39
 4.280371e+00 4.102446e+00 9.982696e+00 1.899148e+01 3.164168e+01 4.358172e+01 1.874440e+01 6.947978e+00 6.348197e+00 8.924929e+00 9.553622e+00 3.675604e+00 1.203154e+00 1.495369e-01 2.494686e-01 7.745301e-01 1.625689e+00 2.765133e+00 1.134076e+00 8.256283e-01 6.263356e-01 8.649591e-01 1.119951e+00 1.180817e+00 8.758872e-01 5.900836e-02 1.835045e-02 5.477902e-02 2.491686e-01 2.612580e-01 2.704443e-01 1.667235e-01 1.823444e-01 2.088840e-01 1.679884e-01 2.847352e-01 2.085442e-01 1.053934e-01 7.113629e-03
<GCONST> 6.645895e+01
<STATE> 3
<MEAN> 39
 -5.554947e+00 8.964786e-02 1.715499e+00 7.581444e-01 3.026878e+00 3.431142e+00 1.172724e+00 1.140553e+00 5.137910e-01 3.935543e-01 -1.727778e-01 -1.408922e+00 -3.765254e+00 -9.260869e-01 -1.078101e+00 -9.953077e-01 -1.249505e+00 -8.714119e-01 -7.402752e-01 -1.041703e+00 -1.342692e+00 -6.878012e-01 -1.094112e-01 4.681310e-01 6.210333e-01 -3.984257e-01 3.160479e-01 2.958536e-01 2.506020e-01 2.924521e-01 2.078439e-01 1.132568e-01 -3.952712e-03 -1.645246e-01 -1.667674e-02 2.283886e-02 1.154427e-01 6.330265e-02 1.430807e-01
<VARIANCE> 39
 1.621136e+00 2.805263e+00 7.012694e+00 1.385460e+01 1.849012e+01 2.596495e+01 9.128458e+00 4.419315e+00 3.840221e+00 2.188383e+00 4.458498e+00 5.695538e+00 6.393976e-01 3.291533e-01 4.284231e-01 2.330851e-01 6.717988e-01 1.665088e+00 2.027920e+00 1.238626e+00 5.928982e-01 6.719048e-01 1.021531e+00 8.003711e-01 6.438412e-01 7.102826e-02 1.727426e-02 4.490035e-02 1.259590e-01 3.329663e-01 4.007204e-01 2.568961e-01 2.444155e-01 3.870034e-01 2.856083e-01 2.399552e-01 1.671043e-01 2.209601e-01 4.020074e-03
<GCONST> 5.950568e+01
<STATE> 4
<MEAN> 39
 -6.882106e+00 -2.627214e+00 -1.730467e+00 -1.586358e+00 2.158904e+00 2.625281e+00 -7.846575e-01 -2.010395e+00 -1.019633e+00 -9.244994e-02 2.768251e-01 -1.040397e+00 -4.220421e+00 -9.926001e-03 -4.282769e-02 -5.525212e-02 -4.137417e-02 -3.028544e-02 -3.326421e-02 -3.272214e-02 -3.442832e-02 -1.294844e-02 -1.904969e-02 2.730909e-03 7.365902e-03 2.055233e-04 7.147125e-03 6.249913e-03 8.983443e-03 1.196527e-02 7.778752e-03 1.115721e-02 1.355970e-02 1.962179e-02 8.194720e-03 3.464183e-03 -1.712127e-03 3.669267e-03 3.584637e-03
<VARIANCE> 39
 3.441990e-01 2.098954e+00 3.628452e+00 4.957670e+00 4.601772e+00 6.343495e+00 8.510371e+00 8.235557e+00 7.456904e+00 7.171034e+00 7.539157e+00 7.306489e+00 1.301941e-01 3.224259e-02 1.493723e-01 2.951971e-01 4.986264e-01 4.367024e-01 4.684898e-01 7.089199e-01 8.776854e-01 8.587962e-01 8.222865e-01 7.689436e-01 7.533971e-01 1.274798e-02 7.790117e-03 2.712437e-02 5.566671e-02 1.019707e-01 9.352082e-02 9.225585e-02 1.483396e-01 1.857177e-01 1.717933e-01 1.731897e-01 1.558884e-01 1.521631e-01 2.675959e-03
<GCONST> 3.808771e+01
<TRANSP> 5
 0.000000e+00 1.000000e+00 0.000000e+00 0.000000e+00 0.000000e+00
 0.000000e+00 6.171600e-01 3.828400e-01 0.000000e+00 0.000000e+00
 0.000000e+00 0.000000e+00 6.657861e-01 3.342139e-01 0.000000e+00
 0.000000e+00 0.000000e+00 0.000000e+00 9.805488e-01 1.945116e-02
 0.000000e+00 0.000000e+00 0.000000e+00 0.000000e+00 0.000000e+00
<ENDHMM>
~h "sil"
<BEGINHMM>
<NUMSTATES> 5
<STATE> 2
<MEAN> 39
 3.074881e+00 -6.088310e-01 -2.271193e+00 -2.197663e+00 -2.088164e+00 -4.339758e-01 -1.826712e-01 -2.674350e+00 -3.051800e+00 2.490020e-01 4.426210e+00 5.754222e+00 2.159720e+00 3.249539e-02 9.657151e-02 1.249801e-01 4.585615e-02 -9.850037e-03 7.275708e-03 4.638398e-02 7.324388e-02 1.699593e-02 2.056267e-02 8.154890e-03 3.477052e-02 7.814379e-03 -9.686341e-03 -2.018748e-03 -1.666822e-02 -2.578990e-02 4.001043e-02 6.031166e-02 5.450153e-02 5.051441e-02 7.951706e-02 2.696139e-02 -5.937839e-02 -4.363954e-02 -9.460612e-03
<VARIANCE> 39
 7.453560e+01 1.152905e+01 1.462564e+01 9.623666e+00 2.499493e+01 1.678860e+01 1.941598e+01 1.783567e+01 2.283751e+01 2.061748e+01 9.594582e+00 2.614570e+01 3.402933e+01 3.382252e+00 1.692299e+00 1.362917e+00 7.403771e-01 2.274727e+00 1.203165e+00 1.045622e+00 1.272647e+00 2.095255e+00 2.030335e+00 8.920336e-01 1.557575e+00 1.578919e+00 2.288029e-01 3.482921e-01 2.637203e-01 1.322320e-01 3.882595e-01 2.186492e-01 2.076427e-01 3.022121e-01 4.092402e-01 4.021367e-01 1.658251e-01 2.043539e-01 1.094392e-01
<GCONST> 9.723123e+01
<STATE> 3
~s "silst"
<STATE> 4
<MEAN> 39
 -6.743114e+00 -2.352681e+00 -1.876996e+00 -2.382347e+00 1.252206e+00 2.008054e+00 -1.165602e+00 -2.018680e+00 -2.100509e-01 1.233878e+00 1.792756e+00 4.516563e-01 -4.209031e+00 -1.820074e-02 -4.650615e-02 -6.907343e-02 -5.537624e-02 -2.780737e-02 4.373410e-02 2.011520e-02 1.220853e-02 6.683157e-02 8.403406e-02 7.562569e-03 8.120295e-03 -5.900903e-03 1.364226e-02 1.452803e-02 1.308280e-03 -3.974835e-03 1.410696e-03 5.836559e-03 5.620866e-03 7.191307e-03 2.225542e-03 1.168228e-02 1.590209e-02 2.361547e-02 5.328001e-03
<VARIANCE> 39
 2.170337e-01 2.135401e+00 2.961486e+00 3.746969e+00 6.253720e+00 7.515843e+00 7.670866e+00 6.675315e+00 7.241111e+00 6.448698e+00 8.521325e+00 7.266776e+00 9.419695e-02 2.896357e-02 1.773605e-01 2.578240e-01 3.564817e-01 4.504916e-01 5.629499e-01 6.678646e-01 8.045167e-01 7.905872e-01 8.164597e-01 8.311453e-01 8.652145e-01 1.155457e-02 7.236311e-03 3.605681e-02 5.610401e-02 7.989858e-02 8.076298e-02 1.006199e-01 1.353150e-01 1.692963e-01 1.638126e-01 1.665404e-01 1.784738e-01 1.770579e-01 2.613336e-03
<GCONST> 3.657744e+01
<TRANSP> 5
 0.000000e+00 1.000000e+00 0.000000e+00 0.000000e+00 0.000000e+00
 0.000000e+00 8.711429e-01 2.802597e-45 1.288571e-01 0.000000e+00
 0.000000e+00 0.000000e+00 0.000000e+00 1.000000e+00 0.000000e+00
 0.000000e+00 1.045964e-02 0.000000e+00 9.570644e-01 3.247589e-02
 0.000000e+00 0.000000e+00 0.000000e+00 0.000000e+00 0.000000e+00
<ENDHMM>
~h "s-a+t"
<BEGINHMM>
<NUMSTATES> 5
<STATE> 2
<MEAN> 39
 1.559151e+00 -6.251187e-01 -2.683408e-01 5.974886e-01 -2.081461e+00 -3.499738e+00 -8.304135e-01 9.453515e-01 4.625986e-01 -2.082657e-01 -4.919514e-01 1.085505e-01 1.241996e+00 2.277007e+00 9.927291e-01 3.132315e-01 -6.027285e-01 -9.907343e-01 -1.965236e-01 9.062204e-02 -4.465824e-01 -1.159754e-01 5.519508e-02 -2.407612e-01 3.360797e-01 1.382411e+00 2.063660e-01 7.519670e-03 -9.174848e-02 -9.914888e-02 -8.969505e-02 2.111162e-02 6.384501e-02 7.864218e-03 -1.182817e-02 7.537024e-02 8.826851e-02 2.555064e-02 1.394085e-01
<VARIANCE> 39
 5.164119e+01 4.046629e+01 2.586456e+01 4.282364e+01 3.317104e+01 2.281506e+01 9.038074e+00 1.445491e+01 2.953399e+01 5.040619e+01 7.836227e+00 2.023645e+01 1.819988e+01 3.002537e+00 3.235758e+00 2.668104e+00 2.410442e+00 3.780685e+00 1.485540e+00 1.163894e+00 1.573723e+00 1.946395e+00 2.129390e+00 8.840652e-01 1.218919e+00 1.139492e+00 6.671407e-01 9.200487e-01 6.365744e-01 4.657247e-01 7.664714e-01 2.333805e-01 2.321366e-01 3.589784e-01 4.258850e-01 5.265114e-01 1.888821e-01 1.691296e-01 2.195918e-01
<GCONST> 1.088352e+02
<STATE> 3
<MEAN> 39
 1.349461e+01 2.201106e+00 -2.466423e+00 -2.736321e+00 -6.828159e+00 -4.960678e+00 1.577835e+00 2.801261e+00 6.804667e-01 -1.399119e-01 -9.097106e-01 5.690688e-01 8.663834e+00 -3.545403e-01 1.777357e-01 2.741970e-01 5.057257e-01 6.457341e-01 2.916563e-01 1.094593e-01 2.872030e-01 2.409135e-01 1.270999e-01 4.997168e-02 -6.378272e-02 -3.027444e-01 -3.148974e-01 -1.441503e-02 1.624703e-01 1.963720e-01 2.223595e-01 6.862811e-02 -6.871679e-02 -1.809521e-02 4.466334e-02 -3.432618e-02 -5.979982e-03 2.414503e-02 -2.063287e-01
<VARIANCE> 39
 8.761442e+00 7.339164e+00 1.902055e+01 1.295949e+01 1.494831e+01 1.161528e+01 9.320572e+00 1.607145e+01 6.372202e+00 1.185668e+01 1.023152e+01 1.899905e+01 5.789064e+00 1.173710e+00 3.787864e-01 1.493663e+00 1.201665e+00 1.471214e+00 7.772708e-01 5.975884e-01 1.140713e+00 5.730819e-01 1.437367e+00 8.927999e-01 1.294684e+00 5.203958e-01 1.007711e-01 1.291976e-01 2.074172e-01 1.110424e-01 2.223413e-01 1.305677e-01 6.889939e-02 1.880647e-01 1.014794e-01 1.404055e-01 1.703713e-01 1.525196e-01 5.899219e-02
<GCONST> 7.495867e+01
<STATE> 4
<MEAN> 39
 -2.457090e+00 2.495533e-02 5.455101e-01 1.068424e+00 1.864983e+00 1.193590e+00 6.581850e-01 1.374161e+00 1.783867e+00 9.474212e-01 2.114005e+00 1.660967e+00 -1.731030e+00 -1.094442e+00 -7.442803e-01 -3.231651e-01 9.404320e-02 5.316779e-01 1.418019e-01 -3.512635e-01 -2.249840e-01 4.336742e-02 1.631045e-01 2.241418e-01 8.988748e-02 -5.820680e-01 2.903085e-01 9.509338e-02 -1.309441e-02 -6.941339e-02 -1.265723e-01 -6.560005e-02 -2.116712e-03 -8.471186e-02 -1.826235e-01 -1.016392e-01 -1.219719e-01 -7.871469e-02 1.765638e-01
<VARIANCE> 39
 2.523264e+01 1.605623e+01 9.809996e+00 1.121563e+01 6.009497e+00 1.280654e+01 2.851681e+00 1.406748e+01 4.649271e+00 9.309531e+00 1.270738e+01 1.944397e+01 8.164375e+00 1.421103e+00 9.704493e-01 7.381508e-01 1.102518e+00 1.058640e+00 7.556576e-01 4.948684e-01 7.028014e-01 1.240630e+00 2.085950e+00 1.556802e+00 2.022648e+00 4.744090e-01 6.353717e-02 1.086599e-01 2.045517e-01 3.124869e-01 1.995447e-01 2.071048e-01 1.054559e-01 1.441899e-01 1.892172e-01 3.808877e-01 3.280261e-01 4.676059e-01 2.133424e-02
<GCONST> 7.853230e+01
<TRANSP> 5
 0.000000e+00 1.000000e+00 0.000000e+00 0.000000e+00 0.000000e+00
 0.000000e+00 7.855816e-01 2.144184e-01 0.000000e+00 0.000000e+00
 0.000000e+00 0.000000e+00 8.758186e-01 1.241814e-01 0.000000e+00
 0.000000e+00 0.000000e+00 0.000000e+00 7.949278e-01 2.050722e-01
 0.000000e+00 0.000000e+00 0.000000e+00 0.000000e+00 0.000000e+00
<ENDHMM>
~h "s-o+ng"
<BEGINHMM>
<NUMSTATES> 5
<STATE> 2
<MEAN> 39
 -2.724406e+00 -1.290324e+00 -2.302920e+00 -2.139803e+00 -4.916567e-01 -1.048520e+00 -9.429814e-01 1.720955e+00 3.062355e+00 3.796258e+00 2.951661e+00 1.338392e+00 -1.728978e+00 9.630433e-01 8.598251e-02 -6.030691e-01 -9.235604e-01 -1.163499e+00 -5.892385e-01 -4.353714e-01 -6.504524e-01 -2.393068e-01 1.702264e-01 7.384055e-02 2.546668e-01 5.970104e-01 6.278771e-01 2.066194e-01 2.564238e-01 2.414452e-01 5.957426e-02 1.655975e-01 9.216024e-02 -2.549264e-01 -1.943786e-01 -2.740343e-01 -4.277294e-01 -1.566245e-01 4.048691e-01
<VARIANCE> 39
 1.571004e+01 2.441053e+01 2.555591e+01 3.879118e+01 3.147896e+01 1.017580e+01 8.780236e+00 1.608187e+01 1.090979e+01 7.940498e+00 8.970726e+00 1.506776e+01 4.226881e+00 4.463096e+00 2.781420e+00 2.792043e+00 2.607331e+00 3.012710e+00 1.617432e+00 1.083391e+00 2.284710e+00 1.288610e+00 4.051789e-01 1.797806e+00 1.325653e+00 1.524792e+00 2.252544e-01 3.724962e-01 4.312989e-01 4.689783e-01 4.800568e-01 3.516560e-01 1.952481e-01 3.403589e-01 3.372666e-01 2.731605e-01 2.124783e-01 1.338619e-01 7.893447e-02
<GCONST> 9.663916e+01
<STATE> 3
<MEAN> 39
 1.100051e+01 4.592871e-01 -1.763455e+00 -3.628793e+00 -7.429956e+00 -3.889000e+00 -4.446874e-01 -1.838571e+00 1.207861e+00 3.548926e+00 6.226807e-01 1.397959e+00 7.812415e+00 -5.908144e-02 1.076181e-01 1.494882e-01 4.239672e-01 5.426464e-01 3.639117e-01 3.780770e-01 4.505793e-01 -2.503042e-02 -3.191274e-01 9.051073e-02 2.322869e-01 -9.938285e-02 -4.545318e-01 -1.612032e-01 -4.577076e-02 7.263815e-02 2.022142e-01 1.072949e-01 6.542425e-02 1.751159e-01 7.846119e-02 -4.037622e-02 9.371402e-02 8.177702e-02 -2.890644e-01
<VARIANCE> 39
 3.469329e+01 1.702296e+01 1.830015e+01 2.442171e+01 4.634444e+01 1.167268e+01 7.741023e+00 1.905909e+01 8.748003e+00 1.551666e+01 1.108462e+01 2.342155e+01 2.421126e+01 4.371431e+00 1.669830e+00 1.195623e+00 1.497565e+00 3.880772e+00 1.637662e+00 8.748454e-01 1.814178e+00 1.241716e+00 1.746524e+00 1.316418e+00 7.615148e-01 2.945904e+00 1.995518e-01 4.590186e-01 2.450470e-01 2.024893e-01 3.744910e-01 1.817219e-01 1.750547e-01 2.331292e-01 2.977111e-01 3.565260e-01 1.726345e-01 9.852757e-02 1.265904e-01
<GCONST> 9.617966e+01
<STATE> 4
<MEAN> 39
 -2.555406e-01 -4.178837e-01 -5.983285e-01 1.351721e+00 1.796317e+00 -6.172532e-02 1.282375e+00 3.452713e+00 1.863941e+00 1.217241e+00 3.773885e+00 4.105365e+00 -2.514577e-01 -1.605725e+00 -1.144693e+00 -2.413548e-01 1.560644e-01 4.205093e-01 5.053926e-01 -1.246966e-01 -4.122346e-01 -1.167019e-01 -3.687707e-01 -3.174772e-01 6.276176e-02 -8.099676e-01 2.241271e-01 8.526668e-02 9.490924e-02 3.240313e-02 -1.711028e-01 -9.133855e-02 -2.950020e-02 -2.555034e-01 -3.008078e-01 -1.362755e-01 -2.541849e-01 -2.379106e-01 1.482080e-01
<VARIANCE> 39
 1.184153e+01 1.909326e+01 1.690559e+01 1.660530e+01 1.362633e+01 3.148222e+01 8.955706e+00 8.617298e+00 8.604486e+00 1.143034e+01 1.058466e+01 2.364827e+01 5.483802e+00 5.124756e-01 8.143585e-01 5.395131e-01 6.546876e-01 6.260305e-01 1.815914e+00 1.547066e+00 1.220174e+00 1.531894e+00 2.180999e+00 1.704036e+00 7.515255e-01 1.120435e-01 1.911266e-02 1.136216e-01 5.472403e-02 1.142428e-01 9.347294e-02 1.869731e-01 3.541705e-01 2.477126e-01 7.190635e-02 6.453840e-02 2.722296e-01 1.427994e-01 2.683998e-02
<GCONST> 7.314420e+01
<TRANSP> 5
 0.000000e+00 1.000000e+00 0.000000e+00 0.000000e+00 0.000000e+00
 0.000000e+00 6.100328e-01 3.899672e-01 0.000000e+00 0.000000e+00
 0.000000e+00 0.000000e+00 7.909146e-01 2.090855e-01 0.000000e+00
 0.000000e+00 0.000000e+00 0.000000e+00 5.354980e-01 4.645020e-01
 0.000000e+00 0.000000e+00 0.000000e+00 0.000000e+00 0.000000e+00
<ENDHMM>
~h "o-ng+s"
<BEGINHMM>
<NUMSTATES> 5
<STATE> 2
<MEAN> 39
 -4.440416e+00 -3.525245e+00 -1.107468e+00 9.046000e-01 4.356988e-01 -1.723796e+00 -2.231938e+00 -9.187303e-02 -4.746517e-03 -4.173246e-02 4.035360e+00 6.298352e+00 -2.520541e+00 -9.481835e-01 -5.570377e-01 -3.840347e-01 -8.507506e-02 8.680050e-03 6.165837e-02 1.863959e-01 2.473722e-01 -3.175181e-01 -4.215439e-01 -6.356975e-01 -1.272937e+00 -5.678761e-01 2.487443e-01 1.876523e-01 -7.938579e-02 -7.396184e-02 8.261720e-02 1.654052e-02 3.081861e-01 1.592162e-01 -1.045330e-01 4.811685e-02 5.833735e-02 -1.104586e-01 1.280869e-01
<VARIANCE> 39
 3.025278e-01 9.728406e+00 1.840408e+00 8.367319e+00 6.386609e+00 1.352703e+01 7.901291e+00 1.460433e+01 1.025098e+00 2.176191e+01 1.234489e+01 2.793633e+00 1.353732e+00 7.282406e-02 1.841293e-01 1.797449e-01 3.497768e-01 7.877629e-02 3.859613e-02 2.466922e-01 2.644157e-01 2.354021e-01 3.373751e-01 3.064027e-01 7.988620e-01 7.200260e-02 3.170460e-03 2.013889e-02 2.449734e-02 7.655910e-03 2.023762e-02 3.270932e-01 6.706662e-01 1.263029e-01 6.737500e-03 2.800631e-01 2.777320e-01 2.948382e-01 3.614267e-04
<GCONST> 2.704365e+01
<STATE> 3
<MEAN> 39
 -5.892293e+00 -3.895536e+00 -2.038120e+00 3.132131e-01 1.986747e+00 1.936169e+00 1.809935e+00 3.439163e+00 2.091833e+00 1.083291e+00 3.204876e+00 2.979459e+00 -3.399217e+00 -6.227220e-01 -3.180789e-01 -4.249578e-01 -3.644699e-01 1.174776e-01 5.876033e-01 6.456025e-01 -2.164950e-01 -7.667432e-01 -5.810530e-01 -8.980377e-01 -1.687363e+00 -3.895952e-01 3.249698e-01 2.973508e-01 -8.964931e-03 -2.027166e-01 -1.824879e-01 -3.523957e-01 -3.513398e-01 -2.279534e-01 -1.543507e-01 1.557154e-02 6.977140e-02 2.928346e-01 1.884266e-01
<VARIANCE> 39
 1.787504e-01 5.204122e+00 1.203763e+00 3.424405e+00 5.115736e-01 1.691395e+01 1.643873e+01 7.291349e+00 1.404634e+00 2.462330e+01 1.463409e+01 8.528839e+00 7.031539e-01 7.429665e-02 9.164320e-02 1.310137e-02 1.113639e-01 2.510701e-01 9.947348e-01 2.476528e+00 3.472562e-01 2.200281e-01 4.150402e-01 4.119881e-01 1.493938e+00 3.660379e-02 8.395431e-03 6.191788e-02 5.253893e-02 3.552120e-02 2.721528e-02 1.640942e-01 3.306340e-01 1.304084e-01 9.763962e-03 1.929564e-01 1.605602e-01 1.783326e-01 4.665635e-03
<GCONST> 3.114354e+01
<STATE> 4
<MEAN> 39
 -5.896415e+00 -2.885256e+00 -2.762282e+00 -1.351571e+00 5.916952e-01 -4.433365e-01 -1.119352e+00 -1.732311e+00 -3.300986e+00 -1.333284e+00 1.833421e+00 9.461135e-01 -3.659747e+00 -3.452758e-01 1.498795e-01 -2.455888e-01 -5.058974e-01 -1.123647e-01 -6.791890e-01 -4.984540e-01 -7.552055e-01 -6.924069e-01 -1.945864e-02 -2.190933e-01 7.236108e-02 -1.731814e-01 4.348602e-01 1.933118e-01 1.890919e-01 1.482459e-01 -8.048197e-02 -2.349688e-01 -3.280976e-01 -3.981137e-02 3.491360e-01 1.767432e-01 2.904405e-01 6.226271e-01 2.787195e-01
<VARIANCE> 39
 1.314011e+00 6.789398e+00 3.104675e+00 1.104143e+00 7.971492e-01 2.206358e+01 1.015063e+01 1.317654e+01 4.535608e+00 9.182693e+00 1.367130e+00 1.522536e+01 1.418883e+00 1.202880e-01 3.672678e-01 1.002022e-01 8.632228e-02 2.739731e-01 2.850133e-01 8.265969e-01 2.264803e-01 6.676705e-01 7.538399e-01 4.512773e-01 8.335605e-01 3.884333e-02 3.526472e-02 5.896251e-02 2.078801e-02 6.105237e-02 7.003789e-02 2.922303e-01 3.411701e-01 4.696030e-02 3.110539e-02 1.264184e-02 5.330431e-02 9.692508e-02 9.924713e-03
<GCONST> 3.438062e+01
<TRANSP> 5
 0.000000e+00 1.000000e+00 0.000000e+00 0.000000e+00 0.000000e+00
 0.000000e+00 8.142332e-37 1.000000e+00 0.000000e+00 0.000000e+00
 0.000000e+00 0.000000e+00 2.500001e-01 7.499999e-01 0.000000e+00
 0.000000e+00 0.000000e+00 0.000000e+00 2.623965e-01 7.376035e-01
 0.000000e+00 0.000000e+00 0.000000e+00 0.000000e+00 0.000000e+00
<ENDHMM>
~h "ng-s+a"
<BEGINHMM>
<NUMSTATES> 5
<STATE> 2
<MEAN> 39
 2.292059e+00 -4.946771e-01 -3.856905e-01 2.194770e+00 6.665260e-02 -3.366281e+00 -2.690315e+00 -1.589963e+00 -3.503071e+00 -4.467033e+00 -8.873798e-01 3.623080e+00 1.709599e+00 2.511971e+00 7.535705e-01 4.563574e-01 6.574262e-01 -4.466760e-01 -9.179922e-01 -4.275922e-01 -3.265229e-02 -2.449758e-01 -1.050769e+00 -1.170561e+00 -1.624455e-01 1.561060e+00 9.933256e-02 9.103691e-03 -4.504329e-02 -6.644475e-02 -8.992629e-02 -4.118574e-02 1.167447e-01 2.507442e-01 2.059051e-01 5.574515e-02 -9.015285e-02 -2.184791e-01 5.321942e-02
<VARIANCE> 39
 6.333924e+01 2.526684e+01 1.131520e+01 1.611906e+01 6.589880e+00 9.049487e+00 6.621404e+00 1.548944e+01 1.047238e+01 2.412131e+01 1.922096e+01 1.254694e+01 2.408348e+01 2.840301e+00 2.277535e+00 1.000080e+00 2.073321e+00 1.614742e+00 1.015427e+00 1.215508e+00 1.198601e+00 1.710533e+00 1.723573e+00 1.687938e+00 8.159609e-01 1.004607e+00 1.039697e+00 4.693516e-01 2.515289e-01 4.380008e-01 2.275460e-01 1.227377e-01 2.143615e-01 1.746447e-01 3.680342e-01 4.213227e-01 2.968294e-01 1.257052e-01 3.792254e-01
<GCONST> 9.614347e+01
<STATE> 3
<MEAN> 39
 9.821101e+00 5.313591e+00 4.656338e+00 4.870347e+00 -1.282940e+00 -4.371351e+00 -7.796305e-01 2.563722e+00 4.490666e-01 -4.475714e+00 -6.742454e+00 -4.509931e+00 5.712712e+00 -5.060996e-01 3.517799e-01 4.079563e-01 4.028698e-02 2.609429e-01 4.727868e-01 2.696056e-01 1.452162e-01 2.026806e-01 4.132234e-01 3.532804e-01 -2.130677e-01 -4.168436e-01 -1.826038e-01 -6.201842e-02 2.635717e-04 1.420487e-02 1.403075e-01 1.560321e-01 4.927768e-03 -8.973753e-02 -7.884382e-02 2.506773e-02 1.265884e-01 1.345390e-01 -1.100204e-01
<VARIANCE> 39
 5.556353e+00 7.641562e+00 1.273905e+01 1.149243e+01 1.515148e+01 8.564718e+00 7.457270e+00 9.695094e+00 1.025575e+01 1.544675e+01 1.817207e+01 1.319852e+01 4.307085e+00 5.565457e-01 1.292217e-01 3.417734e-01 8.431302e-01 1.542574e+00 7.252052e-01 7.699637e-01 1.038644e+00 1.288329e+00 9.609758e-01 1.114619e+00 1.099716e+00 2.774174e-01 1.039200e-01 7.602348e-02 9.901081e-02 1.456081e-01 2.642221e-01 1.070657e-01 1.544851e-01 1.505079e-01 2.201565e-01 1.516678e-01 1.520576e-01 1.127563e-01 4.417735e-02
<GCONST> 6.971927e+01
<STATE> 4
<MEAN> 39
 -4.071031e+00 -8.418268e-02 1.431737e+00 2.841624e+00 4.397015e+00 2.665919e+00 7.439214e-01 8.403369e-01 -8.018072e-01 -1.152371e+00 4.065637e-01 -8.678871e-01 -2.785992e+00 -1.261486e+00 -1.327529e+00 -1.167521e+00 -6.359043e-01 -2.398752e-01 5.632325e-02 8.232333e-03 -2.408970e-01 1.962185e-02 2.699473e-01 3.395045e-01 1.585742e-03 -5.949495e-01 3.839934e-01 6.163096e-02 -2.896627e-02 -4.117239e-02 -3.102657e-01 -2.830174e-01 -5.096515e-02 3.848830e-02 9.528103e-02 2.683162e-02 -2.003669e-01 -1.714198e-01 2.438348e-01
<VARIANCE> 39
 1.595463e+01 1.985848e+01 1.541079e+01 2.505464e+00 3.997164e+00 5.694105e+00 6.658318e+00 5.472322e+00 1.148572e+01 6.673366e+00 7.032273e+00 2.787107e+00 3.553367e+00 1.625287e+00 7.644542e-01 5.451084e-01 9.271752e-01 1.979477e+00 1.130229e+00 4.119149e-01 6.370364e-01 2.328272e+00 2.073050e+00 5.493745e-01 8.653753e-01 5.061533e-01 1.084909e-01 2.008770e-01 1.299733e-01 1.109554e-01 2.622484e-01 1.828622e-01 4.638469e-02 1.644334e-01 5.631344e-01 4.943889e-01 8.382818e-02 1.168771e-01 2.886020e-02
<GCONST> 7.011580e+01
<TRANSP> 5
 0.000000e+00 1.000000e+00 0.000000e+00 0.000000e+00 0.000000e+00
 0.000000e+00 8.636784e-01 1.363216e-01 0.000000e+00 0.000000e+00
 0.000000e+00 0.000000e+00 9.360686e-01 6.393144e-02 0.000000e+00
 0.000000e+00 0.000000e+00 0.000000e+00 8.133041e-01 1.866959e-01
 0.000000e+00 0.000000e+00 0.000000e+00 0.000000e+00 0.000000e+00
<ENDHMM>
~h "o-s+o"
<BEGINHMM>
<NUMSTATES> 5
<STATE> 2
<MEAN> 39
 4.686619e+00 -1.443645e+00 -8.144341e-01 3.524148e+00 -1.474552e+00 -6.428558e+00 -1.737970e+00 1.142563e+00 -3.309958e+00 -6.101816e+00 -1.747811e+00 3.961665e+00 3.550714e+00 2.072933e+00 1.485490e+00 6.620950e-01 -6.488281e-01 -1.148314e+00 -3.636655e-02 6.166146e-01 3.232293e-01 1.309730e-02 -2.181313e-01 -6.631619e-01 -8.601598e-02 1.090204e+00 -6.001585e-02 -5.258962e-02 1.840244e-02 -1.222985e-01 -1.772972e-01 1.336338e-01 1.976678e-01 1.039157e-01 2.971577e-01 4.123673e-01 1.299259e-01 -1.749753e-01 -2.889450e-02
<VARIANCE> 39
 4.934727e+01 4.634130e+01 2.378355e+01 1.236345e+01 2.103533e+01 2.120943e+01 1.364776e+01 1.361317e+01 9.693726e+00 1.964623e+01 1.491350e+01 9.852470e+00 1.325312e+01 2.580109e+00 3.864422e+00 2.604393e+00 1.712282e+00 2.348697e+00 2.848103e+00 1.286336e+00 1.348294e+00 1.706051e+00 3.467779e+00 1.629599e+00 1.207885e+00 6.300494e-01 7.474573e-01 9.853714e-01 6.695990e-01 2.200667e-01 3.808010e-01 5.977053e-01 2.601470e-01 3.249479e-01 2.031955e-01 2.988878e-01 2.640879e-01 2.159104e-01 1.763135e-01
<GCONST> 1.039109e+02
<STATE> 3
<MEAN> 39
 1.053535e+01 3.696651e+00 2.965888e+00 1.769612e+00 -4.796644e+00 -4.139315e+00 1.736242e+00 3.488199e+00 2.530438e+00 -5.482701e-01 -3.812614e+00 -1.393930e+00 6.603968e+00 -5.354728e-01 2.081407e-01 3.544959e-01 3.967985e-01 7.800457e-01 4.795993e-01 4.928120e-02 7.974895e-02 2.146754e-01 2.966630e-01 1.917132e-01 -2.562193e-01 -4.014851e-01 -1.014410e-01 -4.048474e-02 -4.255277e-02 5.701710e-02 1.393739e-01 1.149346e-02 -6.030716e-02 -2.216222e-02 -4.321626e-02 -2.273216e-02 6.970818e-02 8.948732e-02 -6.101394e-02
<VARIANCE> 39
 1.638924e+01 7.094312e+00 1.282747e+01 2.933512e+01 4.932580e+01 1.382460e+01 1.224907e+01 1.412328e+01 1.021502e+01 1.041317e+01 9.187211e+00 9.414733e+00 1.027652e+01 4.689059e-01 5.000421e-01 7.639695e-01 8.333213e-01 1.405702e+00 9.641787e-01 1.032995e+00 1.154956e+00 7.567340e-01 1.001833e+00 9.362286e-01 6.706895e-01 2.653755e-01 6.263191e-02 9.913450e-02 1.449019e-01 1.704130e-01 3.208996e-01 1.307181e-01 1.766929e-01 2.184686e-01 1.105778e-01 1.418631e-01 1.196153e-01 9.500358e-02 3.487931e-02
<GCONST> 7.481141e+01
<STATE> 4
<MEAN> 39
 -4.848035e+00 1.125141e-01 1.883807e+00 1.892495e+00 4.338247e+00 3.634423e+00 1.340316e+00 8.209899e-01 1.097009e+00 1.955737e+00 1.399990e+00 -6.845009e-01 -3.187287e+00 -3.890493e-01 -3.662982e-01 -3.757879e-01 -3.366747e-01 -1.765562e-01 -9.096503e-02 -2.035786e-01 -1.369741e-01 -6.877081e-03 1.368816e-01 1.344688e-01 1.833380e-02 -1.971908e-01 7.648817e-02 1.938000e-02 -6.733060e-02 -1.304711e-01 -1.590135e-01 -6.774020e-02 -3.536896e-02 -1.938911e-02 -6.894866e-03 -6.444344e-02 -9.180582e-02 -3.663974e-02 3.644779e-02
<VARIANCE> 39
 1.125238e+01 1.324609e+01 1.698444e+01 1.950692e+01 1.759070e+01 1.568658e+01 1.158940e+01 8.571849e+00 8.720808e+00 9.646648e+00 8.527492e+00 5.945690e+00 2.722361e+00 4.401293e-01 3.417040e-01 3.367902e-01 6.745868e-01 1.009401e+00 1.235674e+00 7.394859e-01 5.502216e-01 7.153694e-01 1.510757e+00 7.535906e-01 5.330029e-01 1.094661e-01 2.334968e-02 4.066726e-02 7.622968e-02 1.369379e-01 2.071792e-01 2.521764e-01 1.313934e-01 1.105564e-01 1.305015e-01 2.634139e-01 1.962076e-01 1.323135e-01 6.730936e-03
<GCONST> 6.423383e+01
<TRANSP> 5
 0.000000e+00 1.000000e+00 0.000000e+00 0.000000e+00 0.000000e+00
 0.000000e+00 8.001767e-01 1.998232e-01 0.000000e+00 0.000000e+00
 0.000000e+00 0.000000e+00 9.130508e-01 8.694915e-02 0.000000e+00
 0.000000e+00 0.000000e+00 0.000000e+00 8.377787e-01 1.622213e-01
 0.000000e+00 0.000000e+00 0.000000e+00 0.000000e+00 0.000000e+00
<ENDHMM>
~h "t-u+ng"
<BEGINHMM>
<NUMSTATES> 5
<STATE> 2
<MEAN> 39
 -1.393191e+00 4.734090e+00 6.215654e+00 6.325488e+00 7.788506e+00 6.237460e+00 4.064424e+00 2.915012e+00 1.482627e+00 5.835137e-01 -6.124350e-01 -1.730350e+00 -1.971656e+00 -1.390297e+00 -1.432468e+00 -1.868589e+00 -1.822072e+00 -8.370076e-01 -3.887974e-01 -1.150133e-01 -8.305939e-02 -4.267898e-01 -1.183764e-01 1.642566e-01 6.313890e-02 -6.844756e-01 4.106147e-03 -2.512842e-01 -2.887336e-01 -4.165995e-01 -6.249975e-01 -5.585861e-01 -4.598332e-01 -1.740648e-01 5.316985e-02 1.629418e-01 2.016255e-01 1.554182e-01 6.074417e-02
<VARIANCE> 39
 4.280371e+00 4.102446e+00 9.982696e+00 1.899148e+01 3.164168e+01 4.358172e+01 1.874440e+01 6.947978e+00 6.348197e+00 8.924929e+00 9.553622e+00 3.675604e+00 1.203154e+00 1.495369e-01 2.494686e-01 7.745301e-01 1.625689e+00 2.765133e+00 1.134076e+00 8.256283e-01 6.263356e-01 8.649591e-01 1.119951e+00 1.180817e+00 8.758872e-01 5.900836e-02 1.835045e-02 5.477902e-02 2.491686e-01 2.612580e-01 2.704443e-01 1.667235e-01 1.823444e-01 2.088840e-01 1.679884e-01 2.847352e-01 2.085442e-01 1.053934e-01 7.113629e-03
<GCONST> 6.645895e+01
<STATE> 3
<MEAN> 39
 -5.554947e+00 8.964786e-02 1.715499e+00 7.581444e-01 3.026878e+00 3.431142e+00 1.172724e+00 1.140553e+00 5.137910e-01 3.935543e-01 -1.727778e-01 -1.408922e+00 -3.765254e+00 -9.260869e-01 -1.078101e+00 -9.953077e-01 -1.249505e+00 -8.714119e-01 -7.402752e-01 -1.041703e+00 -1.342692e+00 -6.878012e-01 -1.094112e-01 4.681310e-01 6.210333e-01 -3.984257e-01 3.160479e-01 2.958536e-01 2.506020e-01 2.924521e-01 2.078439e-01 1.132568e-01 -3.952712e-03 -1.645246e-01 -1.667674e-02 2.283886e-02 1.154427e-01 6.330265e-02 1.430807e-01
<VARIANCE> 39
 1.621136e+00 2.805263e+00 7.012694e+00 1.385460e+01 1.849012e+01 2.596495e+01 9.128458e+00 4.419315e+00 3.840221e+00 2.188383e+00 4.458498e+00 5.695538e+00 6.393976e-01 3.291533e-01 4.284231e-01 2.330851e-01 6.717988e-01 1.665088e+00 2.027920e+00 1.238626e+00 5.928982e-01 6.719048e-01 1.021531e+00 8.003711e-01 6.438412e-01 7.102826e-02 1.727426e-02 4.490035e-02 1.259590e-01 3.329663e-01 4.007204e-01 2.568961e-01 2.444155e-01 3.870034e-01 2.856083e-01 2.399552e-01 1.671043e-01 2.209601e-01 4.020074e-03
<GCONST> 5.950568e+01
<STATE> 4
<MEAN> 39
 -6.882106e+00 -2.627214e+00 -1.730467e+00 -1.586358e+00 2.158904e+00 2.625281e+00 -7.846575e-01 -2.010395e+00 -1.019633e+00 -9.244994e-02 2.768251e-01 -1.040397e+00 -4.220421e+00 -9.926001e-03 -4.282769e-02 -5.525212e-02 -4.137417e-02 -3.028544e-02 -3.326421e-02 -3.272214e-02 -3.442832e-02 -1.294844e-02 -1.904969e-02 2.730909e-03 7.365902e-03 2.055233e-04 7.147125e-03 6.249913e-03 8.983443e-03 1.196527e-02 7.778752e-03 1.115721e-02 1.355970e-02 1.962179e-02 8.194720e-03 3.464183e-03 -1.712127e-03 3.669267e-03 3.584637e-03
<VARIANCE> 39
 3.441990e-01 2.098954e+00 3.628452e+00 4.957670e+00 4.601772e+00 6.343495e+00 8.510371e+00 8.235557e+00 7.456904e+00 7.171034e+00 7.539157e+00 7.306489e+00 1.301941e-01 3.224259e-02 1.493723e-01 2.951971e-01 4.986264e-01 4.367024e-01 4.684898e-01 7.089199e-01 8.776854e-01 8.587962e-01 8.222865e-01 7.689436e-01 7.533971e-01 1.274798e-02 7.790117e-03 2.712437e-02 5.566671e-02 1.019707e-01 9.352082e-02 9.225585e-02 1.483396e-01 1.857177e-01 1.717933e-01 1.731897e-01 1.558884e-01 1.521631e-01 2.675959e-03
<GCONST> 3.808771e+01
<TRANSP> 5
 0.000000e+00 1.000000e+00 0.000000e+00 0.000000e+00 0.000000e+00
 0.000000e+00 6.171600e-01 3.828400e-01 0.000000e+00 0.000000e+00
 0.000000e+00 0.000000e+00 6.657861e-01 3.342139e-01 0.000000e+00
 0.000000e+00 0.000000e+00 0.000000e+00 9.805488e-01 1.945116e-02
 0.000000e+00 0.000000e+00 0.000000e+00 0.000000e+00 0.000000e+00
<ENDHMM>
~h "u-k+o"
<BEGINHMM>
<NUMSTATES> 5
<STATE> 2
<MEAN> 39
 -6.524097e+00 -2.415803e+00 -2.456841e+00 -3.453684e+00 6.382589e-01 2.361732e+00 -6.953563e-01 -1.700502e+00 8.663884e-01 1.759521e+00 1.844963e+00 1.789585e+00 -4.102602e+00 -1.254585e-04 -2.901781e-03 -3.814580e-02 6.375691e-02 3.568900e-01 3.339638e-01 -2.810104e-01 2.533140e-01 -2.931054e-01 1.064485e-01 2.936081e-01 5.475013e-01 -9.132857e-03 4.336610e-03 -5.304801e-02 -6.475928e-02 -3.160610e-02 -1.509018e-01 -2.546694e-01 8.387470e-02 1.587175e-01 -5.827220e-02 1.214124e-02 -9.443152e-02 -4.437553e-01 2.752011e-02
<VARIANCE> 39
 8.532326e-02 2.036756e+00 3.361919e+00 1.445760e+00 2.419239e+00 3.315276e+00 2.456456e+00 9.246470e+00 1.088901e+01 6.663251e+00 3.126888e+00 5.942091e+00 1.005399e-01 1.856745e-02 2.449468e-02 6.808534e-02 4.687505e-01 7.891082e-01 3.761365e-01 3.422027e-01 6.084861e-01 3.546455e-01 3.847783e-01 4.103266e-01 4.915850e-01 3.000027e-03 3.917811e-03 5.307088e-02 1.313281e-01 4.017372e-02 6.123555e-02 3.310675e-02 6.217900e-02 8.621068e-02 2.125461e-01 1.447455e-01 1.378054e-01 7.041603e-02 2.258233e-03
<GCONST> 1.893424e+01
<STATE> 3
<MEAN> 39
 -6.751513e+00 -3.024544e+00 -2.973499e+00 -2.938401e+00 1.593186e+00 3.318660e+00 -2.213001e+00 -2.802218e+00 -5.895252e-01 6.145555e-01 2.133657e+00 2.318128e+00 -4.192069e+00 6.205660e-03 -2.681996e-01 -4.237125e-01 -2.356625e-01 -3.500185e-01 -4.276861e-01 -4.987202e-02 3.677115e-01 -6.912622e-02 2.416764e-02 7.097272e-02 -9.226771e-02 3.417112e-02 3.928083e-02 3.467719e-02 -4.887741e-02 -2.078373e-01 -4.066631e-01 -3.276960e-01 2.210818e-01 2.135513e-01 2.474018e-01 1.774518e-01 -2.004057e-01 -6.102374e-01 2.859209e-02
<VARIANCE> 39
 1.375420e-01 1.768876e+00 5.532256e-01 6.924112e+00 6.656188e+00 5.104876e+00 2.076059e+00 1.124636e+01 7.020581e+00 4.972355e+00 4.770495e+00 1.736216e+00 8.291629e-02 4.663596e-02 1.045739e-01 4.260884e-01 8.124475e-01 1.126843e+00 5.512589e-01 6.344587e-01 1.026256e+00 2.493886e+00 1.314370e+00 6.194155e-01 1.906172e-01 2.274195e-02 2.749815e-03 3.610468e-02 6.352784e-02 1.712050e-01 1.139500e-01 1.032517e-01 6.214264e-02 1.267034e-01 3.820606e-02 6.598442e-02 2.927265e-02 1.065893e-01 2.361297e-03
<GCONST> 2.861086e+01
<STATE> 4
<MEAN> 39
 -6.922048e+00 -3.479574e+00 -3.040088e+00 -3.738729e+00 1.479468e-01 1.374663e+00 -1.109921e+00 -1.373674e+00 -1.248228e+00 8.268799e-01 1.858308e+00 7.770029e-01 -4.097852e+00 4.911324e-02 2.702132e-03 -2.550242e-01 -4.240285e-01 -6.587424e-01 -2.976603e-01 5.265188e-01 6.750912e-01 5.114497e-01 2.383120e-01 -3.061275e-01 -9.252852e-01 7.717866e-03 1.678629e-01 1.570227e-01 3.623490e-02 -2.890181e-03 -1.923255e-01 -8.266052e-02 1.199692e-01 1.481508e-01 3.672203e-01 1.484237e-01 -1.165422e-01 -2.628638e-01 7.745208e-02
<VARIANCE> 39
 3.359056e-01 1.759281e+00 2.482996e+00 3.752931e+00 4.471184e+00 3.621001e+00 8.058597e+00 8.718276e+00 5.504825e+00 4.305179e+00 2.931200e+00 4.088687e+00 1.129346e-01 3.667072e-02 1.377736e-01 3.111495e-01 3.496478e-01 5.273720e-01 5.402306e-01 3.779140e-01 1.014969e+00 1.073164e+00 7.822406e-01 5.202675e-01 3.713540e-01 1.812455e-02 3.092120e-02 5.402276e-02 4.454718e-02 1.730374e-01 1.438031e-01 4.997434e-02 1.990921e-01 3.400939e-01 2.074313e-01 4.188934e-02 1.139876e-01 1.247167e-01 7.174687e-03
<GCONST> 3.551388e+01
<TRANSP> 5
 0.000000e+00 1.000000e+00 0.000000e+00 0.000000e+00 0.000000e+00
 0.000000e+00 1.775502e-06 9.999983e-01 0.000000e+00 0.000000e+00
 0.000000e+00 0.000000e+00 1.168626e-05 9.999883e-01 0.000000e+00
 0.000000e+00 0.000000e+00 0.000000e+00 4.962447e-01 5.037553e-01
 0.000000e+00 0.000000e+00 0.000000e+00 0.000000e+00 0.000000e+00
<ENDHMM>
~h "sp"
<BEGINHMM>
<NUMSTATES> 3
<STATE> 2
~s "silst"
<TRANSP> 3
 0.000000e+00 7.000000e-01 3.000000e-01
 0.000000e+00 9.336483e-01 6.635173e-02
 0.000000e+00 0.000000e+00 0.000000e+00
<ENDHMM>
