~o
<STREAMINFO> 1 39
<VECSIZE> 39<NULLD><MFCC_D_A_Z_0><DIAGC>
~s "silst"
<MEAN> 39
 -9.827197e-01 -3.437786e+00 -1.797805e+01 -9.887056e+00 -1.343826e+01 -1.099012e+01 -3.726732e+00 -5.976367e+00 -4.787693e+00 -3.946553e+00 -4.943604e+00 -3.014629e+00 5.309188e+01 1.051863e-01 8.231787e-02 -5.934276e-02 -5.670578e-02 -2.700162e-02 1.613102e-02 5.952429e-02 -3.442190e-02 -2.728874e-02 -2.722956e-02 -7.164050e-02 3.532609e-03 2.694165e-01 -3.670231e-02 -1.847016e-02 2.166207e-02 -1.949350e-02 6.771321e-03 2.659504e-02 -1.156800e-03 -5.624384e-03 2.924288e-02 -6.994204e-03 -4.135265e-03 -2.847625e-02 -3.876966e-02
<VARIANCE> 39
 4.205086e+01 2.647596e+01 3.589272e+01 2.769906e+01 3.297289e+01 6.215195e+01 4.824424e+01 7.425184e+01 3.133758e+01 2.163431e+01 2.767833e+01 2.004668e+01 1.432428e+02 2.441934e+00 1.900033e+00 2.626636e+00 2.555074e+00 3.273509e+00 3.381591e+00 3.706978e+00 3.821502e+00 2.888824e+00 2.004772e+00 2.480985e+00 1.762405e+00 4.368847e+00 3.877904e-01 3.610728e-01 4.332452e-01 5.374036e-01 6.186389e-01 6.443579e-01 6.732642e-01 5.931758e-01 5.458435e-01 3.715067e-01 4.496292e-01 3.317121e-01 5.500674e-01
<GCONST> 1.230481e+02
~h "k"
<BEGINHMM>
<NUMSTATES> 5
<STATE> 2
<MEAN> 39
 -6.524097e+00 -2.415803e+00 -2.456841e+00 -3.453684e+00 6.382589e-01 2.361732e+00 -6.953563e-01 -1.700502e+00 8.663884e-01 1.759521e+00 1.844963e+00 1.789585e+00 -4.102602e+00 -1.254585e-04 -2.901781e-03 -3.814580e-02 6.375691e-02 3.568900e-01 3.339638e-01 -2.810104e-01 2.533140e-01 -2.931054e-01 1.064485e-01 2.936081e-01 5.475013e-01 -9.132857e-03 4.336610e-03 -5.304801e-02 -6.475928e-02 -3.160610e-02 -1.509018e-01 -2.546694e-01 8.387470e-02 1.587175e-01 -5.827220e-02 1.214124e-02 -9.443152e-02 -4.437553e-01 2.752011e-02
<VARIANCE> 39
 8.532326e-02 2.036756e+00 3.361919e+00 1.445760e+00 2.419239e+00 3.315276e+00 2.456456e+00 9.246470e+00 1.088901e+01 6.663251e+00 3.126888e+00 5.942091e+00 1.005399e-01 1.856745e-02 2.449468e-02 6.808534e-02 4.687505e-01 7.891082e-01 3.761365e-01 3.422027e-01 6.084861e-01 3.546455e-01 3.847783e-01 4.103266e-01 4.915850e-01 3.000027e-03 3.917811e-03 5.307088e-02 1.313281e-01 4.017372e-02 6.123555e-02 3.310675e-02 6.217900e-02 8.621068e-02 2.125461e-01 1.447455e-01 1.378054e-01 7.041603e-02 2.258233e-03
<GCONST> 1.893424e+01
<STATE> 3
<MEAN> 39
 -6.751513e+00 -3.024544e+00 -2.973499e+00 -2.938401e+00 1.593186e+00 3.318660e+00 -2.213001e+00 -2.802218e+00 -5.895252e-01 6.145555e-01 2.133657e+00 2.318128e+00 -4.192069e+00 6.205660e-03 -2.681996e-01 -4.237125e-01 -2.356625e-01 -3.500185e-01 -4.276861e-01 -4.987202e-02 3.677115e-01 -6.912622e-02 2.416764e-02 7.097272e-02 -9.226771e-02 3.417112e-02 3.928083e-02 3.467719e-02 -4.887741e-02 -2.078373e-01 -4.066631e-01 -3.276960e-01 2.210818e-01 2.135513e-01 2.474018e-01 1.774518e-01 -2.004057e-01 -6.102374e-01 2.859209e-02
<VARIANCE> 39
 1.375420e-01 1.768876e+00 5.532256e-01 6.924112e+00 6.656188e+00 5.104876e+00 2.076059e+00 1.124636e+01 7.020581e+00 4.972355e+00 4.770495e+00 1.736216e+00 8.291629e-02 4.663596e-02 1.045739e-01 4.260884e-01 8.124475e-01 1.126843e+00 5.512589e-01 6.344587e-01 1.026256e+00 2.493886e+00 1.314370e+00 6.194155e-01 1.906172e-01 2.274195e-02 2.749815e-03 3.610468e-02 6.352784e-02 1.712050e-01 1.139500e-01 1.032517e-01 6.214264e-02 1.267034e-01 3.820606e-02 6.598442e-02 2.927265e-02 1.065893e-01 2.361297e-03
<GCONST> 2.861086e+01
<STATE> 4
<MEAN> 39
 -6.922048e+00 -3.479574e+00 -3.040088e+00 -3.738729e+00 1.479468e-01 1.374663e+00 -1.109921e+00 -1.373674e+00 -1.248228e+00 8.268799e-01 1.858308e+00 7.770029e-01 -4.097852e+00 4.911324e-02 2.702132e-03 -2.550242e-01 -4.240285e-01 -6.587424e-01 -2.976603e-01 5.265188e-01 6.750912e-01 5.114497e-01 2.383120e-01 -3.061275e-01 -9.252852e-01 7.717866e-03 1.678629e-01 1.570227e-01 3.623490e-02 -2.890181e-03 -1.923255e-01 -8.266052e-02 1.199692e-01 1.481508e-01 3.672203e-01 1.484237e-01 -1.165422e-01 -2.628638e-01 7.745208e-02
<VARIANCE> 39
 3.359056e-01 1.759281e+00 2.482996e+00 3.752931e+00 4.471184e+00 3.621001e+00 8.058597e+00 8.718276e+00 5.504825e+00 4.305179e+00 2.931200e+00 4.088687e+00 1.129346e-01 3.667072e-02 1.377736e-01 3.111495e-01 3.496478e-01 5.273720e-01 5.402306e-01 3.779140e-01 1.014969e+00 1.073164e+00 7.822406e-01 5.202675e-01 3.713540e-01 1.812455e-02 3.092120e-02 5.402276e-02 4.454718e-02 1.730374e-01 1.438031e-01 4.997434e-02 1.990921e-01 3.400939e-01 2.074313e-01 4.188934e-02 1.139876e-01 1.247167e-01 7.174687e-03
<GCONST> 3.551388e+01
<TRANSP> 5
 0.000000e+00 1.000000e+00 0.000000e+00 0.000000e+00 0.000000e+00
 0.000000e+00 1.775502e-06 9.999983e-01 0.000000e+00 0.000000e+00
 0.000000e+00 0.000000e+00 1.168626e-05 9.999883e-01 0.000000e+00
 0.000000e+00 0.000000e+00 0.000000e+00 4.962447e-01 5.037553e-01
 0.000000e+00 0.000000e+00 0.000000e+00 0.000000e+00 0.000000e+00
<ENDHMM>
~h "k-o+s"
<BEGINHMM>
<NUMSTATES> 5
<STATE> 2
<MEAN> 39
 -2.704629e+00 2.694110e-01 -2.451618e+00 -5.685521e+00 -4.543815e+00 -1.553548e+00 1.653218e-01 2.281216e+00 3.792704e+00 3.586038e+00 4.080911e-01 -3.466312e+00 -2.153614e+00 2.423443e+00 1.629008e+00 7.962900e-01 -3.353715e-02 -1.341555e+00 -1.227164e+00 -6.248260e-02 1.317306e-01 2.202148e-01 3.058290e-01 -3.359921e-01 -5.674069e-01 1.317599e+00 5.341962e-01 2.393143e-02 1.334821e-01 1.761668e-01 -8.208245e-02 -1.434274e-01 -7.834362e-02 -3.405146e-01 -4.579554e-01 -1.771488e-01 3.446172e-02 3.929673e-01 3.923275e-01
<VARIANCE> 39
 2.203040e+01 2.013380e+01 1.447859e+01 1.563643e+01 2.631964e+01 1.364658e+01 7.171845e+00 2.000612e+01 1.604836e+01 1.562871e+01 8.800873e+00 7.828547e+00 5.351455e+00 2.377084e+00 1.653123e+00 2.067726e+00 1.297885e+00 2.326552e+00 1.511454e+00 7.839812e-01 2.147612e+00 2.740043e+00 9.147698e-01 7.421906e-01 1.706516e+00 8.231934e-01 2.791247e-01 6.162784e-01 5.601129e-01 2.358731e-01 2.891357e-01 2.597464e-01 1.852367e-01 2.771226e-01 2.224980e-01 1.458246e-01 1.079038e-01 1.859143e-01 5.834537e-02
<GCONST> 9.105271e+01
<STATE> 3
<MEAN> 39
 1.084563e+01 1.854246e+00 -4.013143e-01 -1.657774e+00 -7.008151e+00 -4.694372e+00 1.441712e+00 1.134653e+00 5.859127e-01 1.055859e+00 5.761191e-01 2.145247e+00 7.234588e+00 -1.756302e-01 -3.913967e-01 5.295559e-02 8.178325e-01 9.273543e-01 3.743637e-01 1.708139e-01 2.411184e-01 -1.920782e-02 -3.582228e-01 2.029818e-01 7.597486e-01 -2.128406e-02 -3.989727e-01 -1.886772e-01 -7.645688e-02 4.899196e-02 2.087040e-01 7.368007e-02 -5.456942e-02 8.699515e-02 1.007038e-01 3.649422e-02 8.060063e-02 1.800485e-02 -2.457644e-01
<VARIANCE> 39
 2.685451e+01 1.295440e+01 1.191635e+01 1.889049e+01 3.829608e+01 1.374559e+01 4.650292e+00 1.556635e+01 2.214422e+01 1.785467e+01 1.776715e+01 4.094090e+01 1.502649e+01 3.517489e+00 2.062803e+00 1.997864e+00 8.731220e-01 3.053727e+00 9.555850e-01 5.472007e-01 1.657034e+00 1.342691e+00 1.083773e+00 1.316321e+00 1.526201e+00 2.113930e+00 1.868290e-01 4.191832e-01 4.007879e-01 1.575508e-01 5.651175e-01 2.435167e-01 1.103192e-01 2.733189e-01 3.026147e-01 1.903068e-01 2.132077e-01 2.285085e-01 1.422991e-01
<GCONST> 9.548540e+01
<STATE> 4
<MEAN> 39
 -1.569585e+00 -6.379012e+00 -2.217437e+00 5.603232e+00 1.753177e+00 -4.913231e+00 -7.264757e-01 4.618846e+00 2.722291e+00 2.167078e-01 2.620515e+00 4.877605e+00 2.818590e-01 -9.786063e-01 -1.324622e+00 -4.952100e-01 3.221521e-01 -2.180867e-01 -1.091387e+00 -9.149331e-01 -7.577120e-01 -5.316206e-01 -2.603264e-02 -2.405074e-02 -3.204814e-01 -3.721475e-01 3.090038e-01 3.184315e-01 5.780236e-02 -2.297385e-01 -1.950818e-01 -2.264606e-02 -3.621376e-02 -2.387334e-01 -3.847650e-01 -3.049701e-01 -1.901806e-01 -1.083540e-01 1.514853e-01
<VARIANCE> 39
 8.719962e+00 2.238834e+01 8.923559e+00 1.221736e+01 2.503973e+00 1.655975e+01 1.196884e+01 2.032398e+01 8.302071e+00 6.079043e+00 6.269390e+00 1.239858e+01 2.679983e+00 5.928150e-01 1.196595e+00 7.182171e-01 1.024680e+00 3.672657e-01 6.646492e-01 3.844271e-01 1.689770e+00 1.493811e+00 1.283544e+00 9.468603e-01 8.745828e-01 1.699287e-01 6.802892e-02 1.882504e-01 1.867858e-01 1.356902e-01 1.334274e-01 2.032647e-01 1.041358e-01 4.713069e-01 1.994874e-01 1.971968e-01 1.837797e-01 3.161527e-01 2.006203e-02
<GCONST> 7.167594e+01
<TRANSP> 5
 0.000000e+00 1.000000e+00 0.000000e+00 0.000000e+00 0.000000e+00
 0.000000e+00 7.072877e-01 2.927124e-01 0.000000e+00 0.000000e+00
 0.000000e+00 0.000000e+00 8.837889e-01 1.162110e-01 0.000000e+00
 0.000000e+00 0.000000e+00 0.000000e+00 6.899570e-01 3.100431e-01
 0.000000e+00 0.000000e+00 0.000000e+00 0.000000e+00 0.000000e+00
<ENDHMM>
~h "u-ng"
<BEGINHMM>
<NUMSTATES> 5
<STATE> 2
<MEAN> 39
 -2.980312e+00 2.072614e+00 4.524899e+00 6.203113e+00 8.645088e+00 7.600800e+00 4.512118e+00 2.236338e+00 1.912557e+00 9.572423e-01 7.496892e-01 2.666568e-01 -2.477404e+00 -4.807541e-01 -1.706438e-01 -5.812111e-02 7.808017e-03 2.628608e-01 4.517636e-01 2.637809e-01 7.186641e-02 7.000984e-02 -8.606745e-02 -3.331438e-02 -1.500906e-01 -2.884364e-01 1.048534e-01 3.931336e-04 -7.706904e-02 -1.558270e-01 -2.459500e-01 -3.297181e-01 -1.151931e-01 5.534793e-02 -9.650515e-02 7.315087e-02 1.379793e-01 -4.218729e-02 8.541089e-02
<VARIANCE> 39
 3.784648e+00 1.864832e+01 2.244438e+01 3.111587e+01 3.743464e+01 3.399728e+01 1.696255e+01 8.348327e+00 1.468859e+01 1.779783e+01 1.152835e+01 1.573870e+01 8.727209e-01 1.730976e-01 1.656862e-01 1.107680e-01 1.915267e-01 5.679716e-01 4.541193e-01 2.279982e-01 5.688118e-01 9.394521e-01 7.208984e-01 4.716665e-01 1.171277e+00 7.351930e-02 3.560218e-02 5.247501e-02 2.724044e-02 3.282662e-02 1.098151e-01 1.726787e-01 2.641027e-01 2.416282e-01 3.036564e-01 3.133689e-01 2.402974e-01 1.911874e-01 8.378420e-03
<GCONST> 6.058585e+01
<STATE> 3
<MEAN> 39
 -4.996394e+00 -1.329930e+00 -4.473326e-02 1.736013e+00 4.887644e+00 4.922974e+00 3.360900e+00 2.844153e+00 1.902436e+00 1.605995e+00 2.301609e+00 9.793373e-01 -3.260233e+00 -5.522001e-01 -4.101563e-01 -3.251546e-01 -2.813651e-01 5.799168e-02 8.915135e-02 4.002783e-02 -4.095194e-01 -5.679567e-01 -2.207980e-01 -1.857793e-01 -6.215986e-01 -2.851896e-01 8.921262e-02 2.993251e-02 -9.356382e-02 -2.205993e-01 -3.211262e-01 -4.461400e-01 -4.154160e-01 -2.942429e-01 -2.516297e-01 -1.989948e-02 7.014778e-02 2.161480e-01 7.272989e-02
<VARIANCE> 39
 2.657488e+00 1.489226e+01 2.008656e+01 3.238971e+01 2.393213e+01 2.605037e+01 2.058991e+01 9.779658e+00 4.184234e+00 1.537107e+01 9.355806e+00 9.770710e+00 8.539849e-01 8.815832e-02 2.089272e-01 2.192800e-01 2.191553e-01 3.120981e-01 8.385954e-01 2.137864e+00 7.538246e-01 5.666115e-01 6.386709e-01 8.179353e-01 1.879353e+00 3.770732e-02 6.234415e-02 8.788521e-02 4.407107e-02 7.322025e-02 6.220026e-02 1.160101e-01 1.851162e-01 9.019218e-02 1.536167e-01 9.474593e-02 1.156339e-01 1.548440e-01 1.852427e-02
<GCONST> 5.812934e+01
<STATE> 4
<MEAN> 39
 -5.202848e+00 -8.017078e-02 1.737079e+00 2.448539e+00 6.135767e+00 5.620297e+00 2.369521e+00 8.342640e-01 5.815923e-01 1.095324e+00 9.859280e-01 9.841818e-03 -3.594845e+00 -4.960707e-01 -3.934356e-01 -7.344680e-01 -1.225629e+00 -1.186503e+00 -1.233721e+00 -1.313890e+00 -9.540353e-01 -4.850945e-01 -1.136481e-01 -6.894986e-03 2.621917e-01 -2.392740e-01 1.789928e-01 9.751810e-02 5.432442e-03 -3.249423e-02 -2.193142e-01 -2.407837e-01 -1.917370e-01 -8.598952e-02 4.289675e-02 -3.181641e-02 7.563392e-02 1.146116e-01 1.063080e-01
<VARIANCE> 39
 1.904891e+00 9.381914e+00 1.858947e+01 1.636306e+01 2.342748e+01 2.889827e+01 2.027016e+01 1.554848e+01 1.051165e+01 7.204978e+00 4.627947e+00 7.482799e+00 6.770846e-01 1.125740e-01 4.162501e-01 3.690156e-01 8.953380e-01 1.025958e+00 4.466817e-01 7.589082e-01 4.004279e-01 6.625282e-01 4.622805e-01 5.107637e-01 4.062913e-01 3.916984e-02 4.966051e-02 6.992576e-02 8.500554e-02 1.211361e-01 1.380826e-01 1.666264e-01 2.770106e-01 1.127697e-01 9.810320e-02 3.126394e-02 4.423884e-02 1.505318e-01 1.842185e-02
<GCONST> 5.562599e+01
<TRANSP> 5
 0.000000e+00 1.000000e+00 0.000000e+00 0.000000e+00 0.000000e+00
 0.000000e+00 4.928768e-01 5.071232e-01 0.000000e+00 0.000000e+00
 0.000000e+00 0.000000e+00 1.430573e-01 8.569427e-01 0.000000e+00
 0.000000e+00 0.000000e+00 0.000000e+00 4.596723e-01 5.403277e-01
 0.000000e+00 0.000000e+00 0.000000e+00 0.000000e+00 0.000000e+00
<ENDHMM>
~h "a-t+u"
<BEGINHMM>
<NUMSTATES> 5
<STATE> 2
<MEAN> 39
 2.155691e+00 2.070769e+00 2.279569e+00 2.818050e+00 1.255350e+00 -1.938807e+00 -9.853599e-01 2.262426e-01 -1.206508e+00 -2.131576e+00 -1.492711e+00 6.808043e-01 1.176621e+00 1.643706e+00 1.184669e+00 6.638268e-01 2.559017e-01 -3.711117e-01 -6.742682e-01 -2.163205e-01 5.082610e-01 1.776247e-01 -6.288036e-01 -6.673025e-01 -2.900768e-01 8.356109e-01 -2.080381e-03 -6.474426e-02 -8.919015e-02 -1.221274e-01 -2.294341e-01 -5.030166e-02 1.533215e-01 4.298887e-01 3.955573e-01 1.042477e-01 1.862472e-02 -1.970632e-01 5.095039e-03
<VARIANCE> 39
 3.934753e+01 3.369146e+01 2.449805e+01 1.174274e+01 1.681600e+01 1.114279e+01 7.156699e+00 1.627045e+01 1.399281e+01 2.445169e+01 1.838800e+01 6.765623e+00 1.138900e+01 3.428638e+00 2.685812e+00 2.847046e+00 1.365756e+00 2.563137e+00 1.525716e+00 4.932310e-01 2.359447e+00 2.679074e+00 9.400022e-01 2.711236e+00 4.578428e-01 1.003039e+00 7.544208e-01 7.279994e-01 6.290556e-01 1.990932e-01 2.417834e-01 6.609678e-02 8.522446e-02 2.551640e-01 3.603987e-01 5.994012e-01 5.793006e-01 8.117259e-02 1.913832e-01
<GCONST> 9.696255e+01
<STATE> 3
<MEAN> 39
 7.418264e+00 5.255835e+00 4.514524e+00 3.791728e+00 -1.743716e+00 -6.008068e+00 -2.095064e+00 5.521307e+00 5.607186e+00 1.196486e+00 -3.190930e+00 -4.290972e+00 3.853147e+00 -4.487952e-01 1.846353e-02 5.488972e-01 6.014982e-01 7.878228e-01 6.451384e-01 -4.289889e-02 -1.014816e-01 5.515353e-01 6.911878e-01 -1.068720e-02 -7.468913e-01 -2.838237e-01 -1.979325e-01 1.287321e-02 3.286528e-02 1.226105e-02 2.643973e-01 3.518999e-01 8.517586e-02 -3.942476e-01 -5.757991e-01 -4.296287e-01 -1.843111e-02 2.331635e-01 -1.104901e-01
<VARIANCE> 39
 9.599504e+00 2.632615e+00 1.113841e+01 1.314686e+01 3.319245e+01 1.523096e+01 4.640825e+00 6.710110e+00 1.207246e+01 2.264204e+01 1.238778e+01 6.239018e+00 5.655788e+00 2.482406e-01 1.698378e-01 6.612921e-01 1.544156e+00 3.679245e+00 1.795040e+00 9.850517e-01 1.592453e+00 2.063886e+00 3.257025e+00 1.634486e+00 1.008481e+00 8.230957e-02 6.903543e-02 3.544743e-02 2.630872e-01 2.719793e-01 5.550259e-01 1.312987e-01 1.020676e-01 3.113099e-01 2.989638e-01 6.251324e-01 6.203034e-01 2.148130e-01 2.308965e-02
<GCONST> 7.816972e+01
<STATE> 4
<MEAN> 39
 3.656572e+00 6.045414e+00 7.563331e+00 8.402249e+00 6.724543e+00 2.944811e+00 8.548494e-01 2.041472e+00 1.898448e+00 8.297291e-02 -1.134015e+00 -2.436000e+00 1.284929e+00 -5.872281e-01 -1.079815e-02 1.770668e-01 1.043431e-01 3.397431e-01 6.947925e-01 4.774451e-01 1.095093e-02 -2.056990e-01 -6.948826e-02 1.324566e-01 1.892892e-01 -3.897473e-01 -6.439088e-02 -8.602753e-02 -1.135227e-01 -1.003987e-01 -5.238679e-02 -6.664363e-02 3.325834e-02 2.303485e-02 -2.193710e-02 -1.110954e-02 -6.859200e-02 -4.855179e-02 -3.079420e-02
<VARIANCE> 39
 1.136236e+01 3.127605e+00 5.306253e+00 8.912084e+00 2.089836e+01 3.214017e+01 1.584833e+01 4.476736e+00 6.807284e+00 6.836079e+00 1.545708e+01 6.845192e+00 5.470628e+00 2.021874e-01 2.375852e-01 2.420537e-01 5.278089e-01 6.169830e-01 7.677210e-01 5.490735e-01 6.010712e-01 6.472137e-01 8.340767e-01 1.262008e+00 5.232940e-01 7.692747e-02 3.383066e-02 4.057551e-02 6.820117e-02 1.324612e-01 1.438342e-01 1.608412e-01 1.021595e-01 1.152212e-01 1.351689e-01 1.161649e-01 2.060185e-01 9.021921e-02 1.270097e-02
<GCONST> 5.751984e+01
<TRANSP> 5
 0.000000e+00 1.000000e+00 0.000000e+00 0.000000e+00 0.000000e+00
 0.000000e+00 6.664367e-01 3.335633e-01 0.000000e+00 0.000000e+00
 0.000000e+00 0.000000e+00 6.160579e-01 3.839421e-01 0.000000e+00
 0.000000e+00 0.000000e+00 0.000000e+00 8.832231e-01 1.167769e-01
 0.000000e+00 0.000000e+00 0.000000e+00 0.000000e+00 0.000000e+00
<ENDHMM>
~h "t-u+k"
<BEGINHMM>
<NUMSTATES> 5
<STATE> 2
<MEAN> 39
 -1.393191e+00 4.734090e+00 6.215654e+00 6.325488e+00 7.788506e+00 6.237460e+00 4.064424e+00 2.915012e+00 1.482627e+00 5.835137e-01 -6.124350e-01 -1.730350e+00 -1.971656e+00 -1.390297e+00 -1.432468e+00 -1.868589e+00 -1.822072e+00 -8.370076e-01 -3.887974e-01 -1.150133e-01 -8.305939e-02 -4.267898e-01 -1.183764e-01 1.642566e-01 6.313890e-02 -6.844756e-01 4.106147e-03 -2.512842e-01 -2.887336e-01 -4.165995e-01 -6.249975e-01 -5.585861e-01 -4.598332e-01 -1.740648e-01 5.316985e-02 1.629418e-01 2.016255e-01 1.554182e-01 6.074417e-02
<VARIANCE> 39
 4.280371e+00 4.102446e+00 9.982696e+00 1.899148e+01 3.164168e+01 4.358172e+01 1.874440e+01 6.947978e+00 6.348197e+00 8.924929e+00 9.553622e+00 3.675604e+00 1.203154e+00 1.495369e-01 2.494686e-01 7.745301e-01 1.625689e+00 2.765133e+00 1.134076e+00 8.256283e-01 6.263356e-01 8.649591e-01 1.119951e+00 1.180817e+00 8.758872e-01 5.900836e-02 1.835045e-02 5.477902e-02 2.491686e-01 2.612580e-01 2.704443e-01 1.667235e-01 1.823444e-01 2.088840e-01 1.679884e-01 2.847352e-01 2.085442e-01 1.053934e-01 7.113629e-03
<GCONST> 6.645895e+01
<STATE> 3
<MEAN> 39
 -5.554947e+00 8.964786e-02 1.715499e+00 7.581444e-01 3.026878e+00 3.431142e+00 1.172724e+00 1.140553e+00 5.137910e-01 3.935543e-01 -1.727778e-01 -1.408922e+00 -3.765254e+00 -9.260869e-01 -1.078101e+00 -9.953077e-01 -1.249505e+00 -8.714119e-01 -7.402752e-01 -1.041703e+00 -1.342692e+00 -6.878012e-01 -1.094112e-01 4.681310e-01 6.210333e-01 -3.984257e-01 3.160479e-01 2.958536e-01 2.506020e-01 2.924521e-01 2.078439e-01 1.132568e-01 -3.952712e-03 -1.645246e-01 -1.667674e-02 2.283886e-02 1.154427e-01 6.330265e-02 1.430807e-01
<VARIANCE> 39
 1.621136e+00 2.805263e+00 7.012694e+00 1.385460e+01 1.849012e+01 2.596495e+01 9.128458e+00 4.419315e+00 3.840221e+00 2.188383e+00 4.458498e+00 5.695538e+00 6.393976e-01 3.291533e-01 4.284231e-01 2.330851e-01 6.717988e-01 1.665088e+00 2.027920e+00 1.238626e+00 5.928982e-01 6.719048e-01 1.021531e+00 8.003711e-01 6.438412e-01 7.102826e-02 1.727426e-02 4.490035e-02 1.259590e-01 3.329663e-01 4.007204e-01 2.568961e-01 2.444155e-01 3.870034e-01 2.856083e-01 2.399552e-01 1.671043e-01 2.209601e-01 4.020074e-03
<GCONST> 5.950568e+01
<STATE> 4
<MEAN> 39
 -6.882106e+00 -2.627214e+00 -1.730467e+00 -1.586358e+00 2.158904e+00 2.625281e+00 -7.846575e-01 -2.010395e+00 -1.019633e+00 -9.244994e-02 2.768251e-01 -1.040397e+00 -4.220421e+00 -9.926001e-03 -4.282769e-02 -5.525212e-02 -4.137417e-02 -3.028544e-02 -3.326421e-02 -3.272214e-02 -3.442832e-02 -1.294844e-02 -1.904969e-02 2.730909e-03 7.365902e-03 2.055233e-04 7.147125e-03 6.249913e-03 8.983443e-03 1.196527e-02 7.778752e-03 1.115721e-02 1.355970e-02 1.962179e-02 8.194720e-03 3.464183e-03 -1.712127e-03 3.669267e-03 3.584637e-03
<VARIANCE> 39
 3.441990e-01 2.098954e+00 3.628452e+00 4.957670e+00 4.601772e+00 6.343495e+00 8.510371e+00 8.235557e+00 7.456904e+00 7.171034e+00 7.539157e+00 7.306489e+00 1.301941e-01 3.224259e-02 1.493723e-01 2.951971e-01 4.986264e-01 4.367024e-01 4.684898e-01 7.089199e-01 8.776854e-01 8.587962e-01 8.222865e-01 7.689436e-01 7.533971e-01 1.274798e-02 7.790117e-03 2.712437e-02 5.566671e-02 1.019707e-01 9.352082e-02 9.225585e-02 1.483396e-01 1.857177e-01 1.717933e-01 1.731897e-01 1.558884e-01 1.521631e-01 2.675959e-03
<GCONST> 3.808771e+01
<TRANSP> 5
 0.000000e+00 1.000000e+00 0.000000e+00 0.000000e+00 0.000000e+00
 0.000000e+00 6.171600e-01 3.828400e-01 0.000000e+00 0.000000e+00
 0.000000e+00 0.000000e+00 6.657861e-01 3.342139e-01 0.000000e+00
 0.000000e+00 0.000000e+00 0.000000e+00 9.805489e-01 1.945116e-02
 0.000000e+00 0.000000e+00 0.000000e+00 0.000000e+00 0.000000e+00
<ENDHMM>
~h "o-ng"
<BEGINHMM>
<NUMSTATES> 5
<STATE> 2
<MEAN> 39
 -1.168603e+00 4.692706e+00 6.825334e+00 8.677894e+00 1.109125e+01 9.588466e+00 6.296459e+00 3.644522e+00 2.400549e+00 1.129490e+00 -1.049664e-01 -1.419351e+00 -1.746893e+00 -4.733376e-01 -2.304308e-01 -2.326035e-02 1.140621e-01 3.447760e-01 6.062211e-01 5.804213e-01 2.639227e-01 2.090357e-01 2.617975e-01 3.880816e-01 2.371224e-01 -2.505409e-01 4.668944e-02 -1.446932e-02 -5.031123e-02 -1.862581e-01 -2.548221e-01 -3.229850e-01 -2.115433e-01 -1.168624e-03 4.940695e-02 1.370977e-01 1.122730e-01 -2.523221e-02 4.173334e-02
<VARIANCE> 39
 3.656811e+00 3.910245e+00 8.036173e+00 1.357997e+01 1.230022e+01 9.510698e+00 6.011320e+00 5.308836e+00 1.354813e+01 1.270459e+01 6.575379e+00 6.444310e+00 1.164381e+00 1.115812e-01 1.264760e-01 7.314346e-02 1.498210e-01 4.950099e-01 3.683526e-01 3.497544e-01 6.990877e-01 8.133857e-01 9.581252e-01 4.985595e-01 7.760462e-01 4.646803e-02 3.305107e-02 3.983511e-02 2.586435e-02 2.468292e-02 1.149212e-01 1.049206e-01 6.874191e-02 2.409315e-01 2.981716e-01 2.819035e-01 1.916041e-01 1.216203e-01 1.375801e-02
<GCONST> 4.711977e+01
<STATE> 3
<MEAN> 39
 -3.467577e+00 2.347808e+00 3.510441e+00 5.727962e+00 8.968390e+00 9.316911e+00 7.243283e+00 4.043606e+00 1.925421e+00 2.971327e+00 2.028314e+00 -1.776834e+00 -2.837980e+00 -6.185044e-01 -6.489712e-01 -1.436586e-01 -3.764175e-01 -2.617978e-01 -4.495100e-01 -3.993683e-01 -4.905315e-01 -5.460635e-01 -9.543063e-02 2.323846e-01 6.465673e-02 -2.605039e-01 -1.501637e-01 -1.998260e-01 -1.945190e-01 -3.688473e-01 -4.148993e-01 -4.904386e-01 -5.930436e-01 -4.280837e-01 -1.803730e-01 -7.328825e-02 -7.421453e-02 2.171388e-01 -5.299578e-02
<VARIANCE> 39
 2.663534e+00 9.090471e+00 2.869732e+01 4.752257e+01 3.255013e+01 1.269867e+01 3.887383e+00 3.131395e+00 2.345437e-01 5.638681e+00 1.991132e+00 1.349758e+00 9.065666e-01 5.835404e-02 3.141997e-01 5.081110e-01 2.003470e-01 1.393696e-01 1.597514e-01 1.286955e+00 1.401443e+00 9.268394e-01 6.949508e-01 3.192434e-01 1.746641e-01 4.351958e-03 8.542445e-03 2.406232e-03 2.827506e-02 7.737891e-02 4.921824e-02 1.309894e-02 2.841339e-03 2.166295e-02 8.050396e-02 1.650618e-02 1.631088e-02 1.048708e-01 7.289533e-03
<GCONST> 2.163798e+01
<STATE> 4
<MEAN> 39
 -4.850044e+00 1.597729e+00 4.237338e+00 4.020367e+00 7.713703e+00 7.338803e+00 3.851094e+00 2.224683e+00 2.003077e+00 2.363225e+00 8.121068e-01 -5.375513e-01 -3.557384e+00 -5.803074e-01 -6.426815e-01 -1.010443e+00 -1.663008e+00 -1.701467e+00 -1.537016e+00 -1.645057e+00 -1.063157e+00 -2.483440e-01 -2.154005e-01 -3.900935e-02 3.310085e-01 -2.919602e-01 6.697635e-02 2.692077e-02 -7.650205e-02 -6.611418e-03 -6.716701e-02 -4.801597e-02 -2.336507e-02 -2.132443e-02 1.951745e-02 -1.042939e-01 -4.173841e-02 -9.953711e-02 3.448935e-02
<VARIANCE> 39
 1.360374e+00 2.008093e+00 4.724469e+00 1.196333e+01 1.830242e+01 1.539528e+01 1.346571e+01 9.827580e+00 5.751616e+00 3.618297e+00 5.437429e+00 3.076011e+00 2.996858e-01 7.303983e-02 3.099957e-01 3.319240e-01 5.320433e-01 4.599470e-01 2.900687e-01 4.076985e-01 4.764685e-01 5.068243e-01 3.642147e-01 3.656061e-01 2.339365e-01 2.382705e-02 1.110061e-02 5.497537e-02 6.449967e-02 1.834628e-01 2.095394e-01 1.739705e-01 3.187376e-01 1.819962e-01 2.259407e-02 3.056994e-02 1.927898e-02 5.564006e-02 3.537516e-03
<GCONST> 3.707341e+01
<TRANSP> 5
 0.000000e+00 1.000000e+00 0.000000e+00 0.000000e+00 0.000000e+00
 0.000000e+00 7.872422e-01 2.127578e-01 0.000000e+00 0.000000e+00
 0.000000e+00 0.000000e+00 2.978464e-03 9.970216e-01 0.000000e+00
 0.000000e+00 0.000000e+00 0.000000e+00 6.921331e-01 3.078669e-01
 0.000000e+00 0.000000e+00 0.000000e+00 0.000000e+00 0.000000e+00
<ENDHMM>
~h "k+o"
<BEGINHMM>
<NUMSTATES> 5
<STATE> 2
<MEAN> 39
 -6.439487e+00 -2.509162e+00 -3.254550e+00 -3.567364e+00 1.561663e+00 3.945412e+00 -1.128503e+00 -3.813249e+00 5.992790e-01 2.465052e+00 2.652973e+00 3.714806e+00 -4.232625e+00 -1.596988e-02 1.116597e-02 -1.158528e-01 2.698990e-01 9.587866e-01 4.677406e-01 -8.035552e-01 -2.584135e-01 -5.677450e-01 -1.782442e-01 -1.311627e-02 4.715084e-01 -4.779322e-02 -2.634404e-02 -8.658678e-02 1.695589e-02 -2.848201e-03 -2.593585e-02 -1.793986e-01 1.388612e-01 3.464662e-01 -1.058227e-01 -1.246426e-01 -2.912911e-02 -4.242329e-01 4.129412e-02
<VARIANCE> 39
 1.174746e-01 2.847417e+00 2.728124e+00 7.160000e-01 4.031926e-01 1.476972e-01 1.890868e+00 1.014206e+01 1.300973e+01 9.397197e+00 2.207454e+00 9.779272e-01 1.517182e-01 4.555583e-03 2.238212e-03 4.511039e-02 8.709556e-02 1.229657e-01 3.493007e-01 7.827133e-03 2.018225e-01 7.828479e-02 1.358248e-02 2.665781e-01 2.047607e-02 6.955289e-04 3.850260e-03 9.273943e-02 2.297860e-01 1.907200e-02 2.854744e-02 2.522602e-02 3.369243e-02 6.696768e-04 6.124274e-02 1.706837e-01 1.180965e-01 1.053339e-02 5.106650e-05
<GCONST> -2.332022e+01
<STATE> 3
<MEAN> 39
 -6.879157e+00 -3.189248e+00 -3.298960e+00 -2.053848e+00 2.615390e+00 4.530100e+00 -1.885252e+00 -5.136168e+00 -1.513718e+00 1.694476e+00 3.059798e+00 1.838872e+00 -4.155031e+00 -1.318719e-01 -2.654001e-01 -9.652388e-02 9.760149e-02 2.277079e-01 -3.847055e-01 -4.940437e-01 -1.274612e-01 -8.879822e-01 -7.711523e-01 -3.221783e-01 -4.540857e-01 -2.814384e-02 4.608080e-02 1.645162e-02 3.482073e-02 -2.197882e-01 -4.189288e-01 -2.908845e-01 3.564267e-01 4.147737e-01 2.595234e-01 4.221949e-02 -1.379419e-01 -4.345581e-01 4.321131e-02
<VARIANCE> 39
 1.472928e-01 4.516729e-01 3.828266e-01 7.128096e-02 3.421561e+00 7.765087e+00 1.187310e+00 1.189087e+01 8.940078e+00 3.298038e+00 1.130504e+00 2.138531e-01 5.354797e-02 2.557896e-03 1.919929e-01 5.190328e-01 3.657902e-02 3.747353e-02 1.077426e-01 7.997158e-01 2.219491e-01 2.919454e-01 3.576680e-01 2.678402e-01 2.887824e-02 5.250663e-03 2.670984e-03 2.399058e-02 6.560522e-02 3.213111e-02 9.352499e-02 1.687380e-01 4.942559e-02 1.497478e-01 6.968652e-02 6.898042e-02 3.215059e-02 9.186389e-03 1.143937e-03
<GCONST> -5.975549e+00
<STATE> 4
<MEAN> 39
 -6.972558e+00 -3.516611e+00 -3.202169e+00 -3.532700e+00 6.729798e-01 1.733081e+00 -1.331979e+00 -2.034409e+00 -6.579618e-01 1.080835e+00 1.589351e+00 1.722463e-01 -4.190328e+00 3.114901e-02 2.886517e-02 -1.450079e-01 -2.936036e-01 -4.555290e-01 -1.797730e-01 5.834379e-01 8.229504e-01 4.639745e-01 2.608700e-02 -3.915563e-01 -8.428624e-01 5.682417e-03 1.547180e-01 7.616485e-02 -3.464121e-02 -1.733794e-02 -2.219227e-01 -8.765143e-02 1.158592e-01 1.854962e-01 3.218907e-01 7.597145e-02 -5.784057e-02 -1.037578e-01 8.635207e-02
<VARIANCE> 39
 2.732936e-01 2.036547e+00 2.438609e+00 1.926294e+00 1.674207e+00 2.178732e+00 7.920988e+00 7.701075e+00 4.643780e+00 5.005755e+00 3.373208e+00 3.446922e+00 9.441090e-02 4.009081e-02 1.278801e-01 3.091828e-01 4.268968e-01 3.410383e-01 3.750201e-01 4.060923e-01 1.201181e+00 7.084515e-01 2.586165e-01 3.617484e-01 1.641825e-01 1.551251e-02 2.679212e-02 4.473314e-02 3.403267e-02 1.073280e-01 1.277840e-01 3.934415e-02 2.298261e-01 2.868702e-01 1.295518e-01 6.241306e-02 1.370514e-01 1.461315e-01 7.834836e-03
<GCONST> 2.859468e+01
<TRANSP> 5
 0.000000e+00 1.000000e+00 0.000000e+00 0.000000e+00 0.000000e+00
 0.000000e+00 1.170608e-10 1.000000e+00 0.000000e+00 0.000000e+00
 0.000000e+00 0.000000e+00 1.166563e-07 9.999999e-01 0.000000e+00
 0.000000e+00 0.000000e+00 0.000000e+00 6.906399e-01 3.093602e-01
 0.000000e+00 0.000000e+00 0.000000e+00 0.000000e+00 0.000000e+00
<ENDHMM>
~h "s+a"
<BEGINHMM>
<NUMSTATES> 5
<STATE> 2
<MEAN> 39
 2.498131e+00 -1.098703e+00 -1.010493e+00 1.201415e+00 -1.145515e+00 -3.106858e+00 -1.092596e+00 -6.720188e-01 -2.889538e+00 -3.513727e+00 -7.691258e-01 2.684428e+00 1.982557e+00 2.286702e+00 1.055824e+00 4.453275e-01 7.639647e-02 -6.720658e-01 -5.635738e-01 1.108044e-02 8.692160e-03 -3.544115e-01 -6.998602e-01 -7.213994e-01 1.194574e-02 1.330645e+00 9.654122e-02 2.366418e-02 2.210013e-02 -2.571474e-02 -9.784362e-02 -1.194864e-02 7.915720e-02 1.842261e-01 2.142657e-01 1.401680e-01 -3.289931e-02 -1.296708e-01 5.589743e-02
<VARIANCE> 39
 5.688699e+01 3.365453e+01 2.071104e+01 3.056348e+01 1.777806e+01 2.723333e+01 1.810998e+01 2.100753e+01 1.500026e+01 2.902832e+01 1.435434e+01 1.245513e+01 2.006042e+01 2.743422e+00 2.886043e+00 2.386308e+00 2.357788e+00 1.671762e+00 2.541311e+00 2.169267e+00 2.395684e+00 1.812457e+00 2.018012e+00 1.581239e+00 9.391896e-01 8.987909e-01 8.429182e-01 6.934005e-01 5.598961e-01 3.600611e-01 2.488090e-01 4.457498e-01 3.808787e-01 4.601561e-01 3.656780e-01 3.714757e-01 2.823637e-01 1.532328e-01 2.604700e-01
<GCONST> 1.079857e+02
<STATE> 3
<MEAN> 39
 1.032341e+01 4.926016e+00 3.957496e+00 2.647591e+00 -3.520894e+00 -3.869388e+00 8.807346e-01 2.389272e+00 6.309934e-01 -2.396654e+00 -4.862538e+00 -2.879392e+00 6.155683e+00 -5.208328e-01 1.151553e-01 2.719691e-01 1.943401e-01 4.441312e-01 3.773712e-01 1.359459e-01 1.301154e-01 2.211416e-01 3.075481e-01 2.027488e-01 -1.602940e-01 -3.715373e-01 -1.267988e-01 -5.794742e-02 -1.808950e-02 3.078566e-02 9.961927e-02 8.118646e-02 1.213476e-04 -5.578256e-02 -4.279968e-02 1.177355e-02 6.310605e-02 6.657108e-02 -7.238652e-02
<VARIANCE> 39
 1.360911e+01 1.044185e+01 1.484792e+01 1.812379e+01 3.261184e+01 1.451542e+01 1.189987e+01 1.303174e+01 1.122476e+01 1.469524e+01 1.489155e+01 1.827434e+01 8.532419e+00 7.010158e-01 5.660833e-01 6.193992e-01 7.298591e-01 1.512522e+00 1.244020e+00 1.164442e+00 1.254532e+00 8.507525e-01 1.147816e+00 9.246218e-01 8.355854e-01 3.465278e-01 7.490796e-02 1.072286e-01 1.244461e-01 1.194725e-01 2.451072e-01 2.128625e-01 2.271077e-01 2.642370e-01 1.381669e-01 1.675654e-01 1.313013e-01 1.071614e-01 4.004587e-02
<GCONST> 7.819354e+01
<STATE> 4
<MEAN> 39
 -4.669666e+00 -4.725264e-01 1.263691e+00 2.134152e+00 4.038872e+00 2.771380e+00 9.399686e-01 1.086441e+00 6.508950e-01 9.316860e-01 1.076969e+00 -5.449026e-01 -2.991382e+00 -5.649783e-01 -6.224923e-01 -5.715230e-01 -3.542228e-01 -2.771674e-01 -1.079714e-01 -8.924690e-02 -8.580606e-02 6.704406e-02 1.654816e-01 1.285799e-01 1.091193e-02 -2.663736e-01 1.994070e-01 9.548360e-02 1.098664e-02 -5.561670e-02 -1.645527e-01 -1.134394e-01 -3.584693e-02 -1.361499e-02 -4.898116e-03 -1.312671e-02 -6.316096e-02 -3.747800e-02 1.071191e-01
<VARIANCE> 39
 1.188668e+01 1.696453e+01 1.717871e+01 1.632566e+01 1.657949e+01 1.886483e+01 1.076266e+01 8.032455e+00 1.054134e+01 1.131581e+01 7.829267e+00 4.926133e+00 3.074818e+00 6.683146e-01 5.859525e-01 5.391846e-01 9.267942e-01 1.153921e+00 1.016127e+00 7.152615e-01 7.287231e-01 1.242460e+00 1.430095e+00 6.479073e-01 6.670943e-01 1.702795e-01 7.148421e-02 6.053903e-02 9.273686e-02 1.555438e-01 2.464082e-01 2.248484e-01 1.016591e-01 1.314930e-01 2.862517e-01 3.214599e-01 1.725591e-01 1.359022e-01 2.289107e-02
<GCONST> 7.141923e+01
<TRANSP> 5
 0.000000e+00 1.000000e+00 0.000000e+00 0.000000e+00 0.000000e+00
 0.000000e+00 8.396748e-01 1.603252e-01 0.000000e+00 0.000000e+00
 0.000000e+00 0.000000e+00 9.376495e-01 6.235054e-02 0.000000e+00
 0.000000e+00 0.000000e+00 0.000000e+00 8.041717e-01 1.958283e-01
 0.000000e+00 0.000000e+00 0.000000e+00 0.000000e+00 0.000000e+00
<ENDHMM>
~h "t-u"
<BEGINHMM>
<NUMSTATES> 5
<STATE> 2
<MEAN> 39
 -1.393191e+00 4.734090e+00 6.215654e+00 6.325488e+00 7.788506e+00 6.237460e+00 4.064424e+00 2.915012e+00 1.482627e+00 5.835137e-01 -6.124350e-01 -1.730350e+00 -1.971656e+00 -1.390297e+00 -1.432468e+00 -1.868589e+00 -1.822072e+00 -8.370076e-01 -3.887974e-01 -1.150133e-01 -8.305939e-02 -4.267898e-01 -1.183764e-01 1.642566e-01 6.313890e-02 -6.844756e-01 4.106147e-03 -2.512842e-01 -2.887336e-01 -4.165995e-01 -6.249975e-01 -5.585861e-01 -4.598332e-01 -1.740648e-01 5.316985e-02 1.629418e-01 2.016255e-01 1.554182e-01 6.074417e-02
<VARIANCE> 39
 4.280371e+00 4.102446e+00 9.982696e+00 1.899148e+01 3.164168e+01 4.358172e+01 1.874440e+01 6.947978e+00 6.348197e+00 8.924929e+00 9.553622e+00 3.675604e+00 1.203154e+00 1.495369e-01 2.494686e-01 7.745301e-01 1.625689e+00 2.765133e+00 1.134076e+00 8.256283e-01 6.263356e-01 8.649591e-01 1.119951e+00 1.180817e+00 8.758872e-01 5.900836e-02 1.835045e-02 5.477902e-02 2.491686e-01 2.612580e-01 2.704443e-01 1.667235e-01 1.823444e-01 2.088840e-01 1.679884e-01 2.847352e-01 2.085442e-01 1.053934e-01 7.113629e-03
<GCONST> 6.645895e+01
<STATE> 3
<MEAN> 39
 -5.554947e+00 8.964786e-02 1.715499e+00 7.581444e-01 3.026878e+00 3.431142e+00 1.172724e+00 1.140553e+00 5.137910e-01 3.935543e-01 -1.727778e-01 -1.408922e+00 -3.765254e+00 -9.260869e-01 -1.078101e+00 -9.953077e-01 -1.249505e+00 -8.714119e-01 -7.402752e-01 -1.041703e+00 -1.342692e+00 -6.878012e-01 -1.094112e-01 4.681310e-01 6.210333e-01 -3.984257e-01 3.160479e-01 2.958536e-01 2.506020e-01 2.924521e-01 2.078439e-01 1.132568e-01 -3.952712e-03 -1.645246e-01 -1.667674e-02 2.283886e-02 1.154427e-01 6.330265e-02 1.430807e-01
<VARIANCE> 39
 1.621136e+00 2.805263e+00 7.012694e+00 1.385460e+01 1.849012e+01 2.596495e+01 9.128458e+00 4.419315e+00 3.840221e+00 2.188383e+00 4.458498e+00 5.695538e+00 6.393976e-01 3.291533e-01 4.284231e-01 2.330851e-01 6.717988e-01 1.665088e+00 2.027920e+00 1.238626e+00 5.928982e-01 6.719048e-01 1.021531e+00 8.003711e-01 6.438412e-01 7.102826e-02 1.727426e-02 4.490035e-02 1.259590e-01 3.329663e-01 4.007204e-01 2.568961e-01 2.444155e-01 3.870034e-01 2.856083e-01 2.399552e-01 1.671043e-01 2.209601e-01 4.020074e-03
<GCONST> 5.950568e+01
<STATE> 4
<MEAN> 39
 -6.882106e+00 -2.627214e+00 -1.730467e+00 -1.586358e+00 2.158904e+00 2.625281e+00 -7.846575e-01 -2.010395e+00 -1.019633e+00 -9.244994e-02 2.768251e-01 -1.040397e+00 -4.220421e+00 -9.926001e-03 -4.282769e-02 -5.525212e-02 -4.137417e-02 -3.028544e-02 -3.326421e-02 -3.272214e-02 -3.442832e-02 -1.294844e-02 -1.904969e-02 2.730909e-03 7.365902e-03 2.055233e-04 7.147125e-03 6.249913e-03 8.983443e-03 1.196527e-02 7.778752e-03 1.115721e-02 1.355970e-02 1.962179e-02 8.194720e-03 3.464183e-03 -1.712127e-03 3.669267e-03 3.584637e-03
<VARIANCE> 39
 3.441990e-01 2.098954e+00 3.628452e+00 4.957670e+00 4.601772e+00 6.343495e+00 8.510371e+00 8.235557e+00 7.456904e+00 7.171034e+00 7.539157e+00 7.306489e+00 1.301941e-01 3.224259e-02 1.493723e-01 2.951971e-01 4.986264e-01 4.367024e-01 4.684898e-01 7.089199e-01 8.776854e-01 8.587962e-01 8.222865e-01 7.689436e-01 7.533971e-01 1.274798e-02 7.790117e-03 2.712437e-02 5.566671e-02 1.019707e-01 9.352082e-02 9.225585e-02 1.483396e-01 1.857177e-01 1.717933e-01 1.731897e-01 1.558884e-01 1.521631e-01 2.675959e-03
<GCONST> 3.808771e+01
<TRANSP> 5
 0.000000e+00 1.000000e+00 0.000000e+00 0.000000e+00 0.000000e+00
 0.000000e+00 6.171600e-01 3.828400e-01 0.000000e+00 0.000000e+00
 0.000000e+00 0.000000e+00 6.657861e-01 3.342139e-01 0.000000e+00
 0.000000e+00 0.000000e+00 0.000000e+00 9.805489e-01 1.945116e-02
 0.000000e+00 0.000000e+00 0.000000e+00 0.000000e+00 0.000000e+00
<ENDHMM>
~h "sil"
<BEGINHMM>
<NUMSTATES> 5
<STATE> 2
<MEAN> 39
 3.157911e+00 -6.025557e-01 -2.272717e+00 -2.189275e+00 -2.065008e+00 -4.178327e-01 -1.948897e-01 -2.711741e+00 -3.054161e+00 2.706330e-01 4.419048e+00 5.757874e+00 2.221256e+00 3.510756e-02 9.852354e-02 1.198102e-01 3.934167e-02 -1.849838e-02 -1.506940e-03 3.780355e-02 6.999394e-02 2.360325e-02 3.745426e-02 2.646744e-02 5.540039e-02 9.422882e-03 -8.719299e-03 -2.702816e-03 -1.830385e-02 -2.581480e-02 3.783817e-02 6.114246e-02 6.436455e-02 5.959129e-02 7.695835e-02 1.919465e-02 -6.340349e-02 -4.357673e-02 -9.206735e-03
<VARIANCE> 39
 7.462500e+01 1.162004e+01 1.479827e+01 9.680247e+00 2.519467e+01 1.689861e+01 1.946603e+01 1.757533e+01 2.294398e+01 2.089975e+01 9.660446e+00 2.630317e+01 3.401353e+01 3.416778e+00 1.707847e+00 1.380777e+00 7.590678e-01 2.290292e+00 1.215754e+00 1.052717e+00 1.280672e+00 2.114800e+00 2.024522e+00 8.755000e-01 1.545926e+00 1.595093e+00 2.306104e-01 3.513833e-01 2.655342e-01 1.334854e-01 3.912329e-01 2.204392e-01 2.086252e-01 3.025048e-01 4.111288e-01 4.033407e-01 1.663958e-01 2.068470e-01 1.104774e-01
<GCONST> 9.745589e+01
<STATE> 3
~s "silst"
<STATE> 4
<MEAN> 39
 -6.733607e+00 -2.338599e+00 -1.865565e+00 -2.380321e+00 1.239220e+00 2.002212e+00 -1.151594e+00 -2.004908e+00 -2.126257e-01 1.228350e+00 1.804940e+00 4.726999e-01 -4.206667e+00 -1.957753e-02 -4.746588e-02 -6.920665e-02 -5.674021e-02 -2.861028e-02 4.328664e-02 2.272459e-02 1.512563e-02 6.453253e-02 7.688510e-02 1.790593e-03 1.469428e-03 -6.930587e-03 1.318750e-02 1.409287e-02 2.127730e-03 -2.402726e-03 3.357914e-03 6.422409e-03 4.333367e-03 5.922227e-03 2.581466e-03 1.351610e-02 1.613283e-02 2.183432e-02 5.237281e-03
<VARIANCE> 39
 2.374349e-01 2.171071e+00 2.985976e+00 3.745631e+00 6.338531e+00 7.565361e+00 7.723248e+00 6.769556e+00 7.281957e+00 6.426858e+00 8.517356e+00 7.357143e+00 9.610601e-02 2.913556e-02 1.771782e-01 2.581589e-01 3.566766e-01 4.557153e-01 5.632802e-01 6.659209e-01 8.029001e-01 7.873765e-01 8.229219e-01 8.364062e-01 8.702287e-01 1.167420e-02 7.367936e-03 3.605882e-02 5.604238e-02 8.044696e-02 8.109886e-02 1.003238e-01 1.359178e-01 1.698972e-01 1.639715e-01 1.668647e-01 1.778691e-01 1.768167e-01 2.631980e-03
<GCONST> 3.684518e+01
<TRANSP> 5
 0.000000e+00 1.000000e+00 0.000000e+00 0.000000e+00 0.000000e+00
 0.000000e+00 8.774863e-01 3.964162e-34 1.225137e-01 0.000000e+00
 0.000000e+00 0.000000e+00 0.000000e+00 1.000000e+00 0.000000e+00
 0.000000e+00 7.877124e-03 0.000000e+00 9.598401e-01 3.228285e-02
 0.000000e+00 0.000000e+00 0.000000e+00 0.000000e+00 0.000000e+00
<ENDHMM>
~h "s-a+t"
<BEGINHMM>
<NUMSTATES> 5
<STATE> 2
<MEAN> 39
 1.710099e+00 -6.215158e-01 -1.271326e-01 9.678279e-01 -1.865039e+00 -3.530427e+00 -6.964715e-01 1.019545e+00 2.530583e-01 -5.729759e-01 -6.589135e-01 1.833267e-01 1.344999e+00 2.361006e+00 1.028518e+00 3.606613e-01 -5.283086e-01 -9.697654e-01 -1.825405e-01 1.218785e-01 -4.909744e-01 -2.061560e-01 3.328472e-04 -2.281021e-01 3.560922e-01 1.434692e+00 2.181444e-01 1.807413e-04 -1.186740e-01 -1.443451e-01 -1.415717e-01 1.615225e-02 4.521579e-02 -6.267872e-03 3.101715e-03 1.091586e-01 1.005953e-01 1.947211e-02 1.486746e-01
<VARIANCE> 39
 5.165903e+01 4.215353e+01 2.630437e+01 4.119934e+01 3.328653e+01 2.368566e+01 8.887230e+00 1.471746e+01 2.959575e+01 4.928289e+01 7.389557e+00 2.082352e+01 1.787852e+01 2.926023e+00 3.329407e+00 2.711608e+00 2.350778e+00 3.917706e+00 1.527192e+00 1.146180e+00 1.579098e+00 1.767513e+00 2.145298e+00 9.151695e-01 1.254315e+00 1.109413e+00 6.882794e-01 9.557779e-01 6.415186e-01 4.356899e-01 7.306989e-01 2.405453e-01 2.329575e-01 3.672532e-01 4.344725e-01 5.197920e-01 1.926868e-01 1.764499e-01 2.224711e-01
<GCONST> 1.089225e+02
<STATE> 3
<MEAN> 39
 1.315862e+01 2.300216e+00 -2.227422e+00 -2.542177e+00 -6.535524e+00 -4.736922e+00 1.589085e+00 2.823599e+00 7.584409e-01 -9.341414e-02 -7.909050e-01 6.317160e-01 8.411801e+00 -4.543769e-01 1.124327e-01 2.500598e-01 5.237251e-01 6.958389e-01 2.943342e-01 1.045175e-01 3.137429e-01 2.661053e-01 1.119048e-01 7.639024e-02 -3.039949e-02 -3.557017e-01 -3.035592e-01 -3.632853e-02 1.219405e-01 1.617687e-01 1.967518e-01 5.224586e-02 -6.883795e-02 -2.446220e-02 3.436191e-02 -3.040653e-02 2.750299e-03 3.576611e-02 -1.956245e-01
<VARIANCE> 39
 1.140247e+01 7.337557e+00 1.970666e+01 1.359554e+01 1.702999e+01 1.277737e+01 9.113245e+00 1.642190e+01 6.438274e+00 1.159165e+01 1.042771e+01 1.896499e+01 7.300364e+00 1.416766e+00 5.052755e-01 1.506496e+00 1.203235e+00 1.488518e+00 7.809616e-01 5.864432e-01 1.123849e+00 6.305467e-01 1.505388e+00 9.245257e-01 1.391115e+00 5.916803e-01 1.030433e-01 1.405757e-01 2.430988e-01 1.453896e-01 2.397100e-01 1.342837e-01 6.859675e-02 1.891645e-01 1.057132e-01 1.391371e-01 1.779679e-01 1.790653e-01 6.286816e-02
<GCONST> 7.755197e+01
<STATE> 4
<MEAN> 39
 -2.935405e+00 -3.150064e-01 3.230619e-01 9.555696e-01 1.899570e+00 1.224190e+00 5.805901e-01 1.197400e+00 1.720273e+00 9.779466e-01 2.104602e+00 1.598283e+00 -1.975159e+00 -9.574734e-01 -6.917689e-01 -3.249599e-01 2.608441e-02 4.290379e-01 1.308939e-01 -3.649327e-01 -3.128179e-01 -2.319201e-02 1.921323e-01 1.872381e-01 3.574742e-02 -5.004645e-01 3.084803e-01 1.462244e-01 4.921922e-02 -2.266980e-02 -9.973483e-02 -4.608963e-02 2.798487e-03 -7.277396e-02 -1.782484e-01 -1.157871e-01 -1.454869e-01 -1.061420e-01 1.798941e-01
<VARIANCE> 39
 2.332129e+01 1.537437e+01 9.676962e+00 1.177298e+01 6.159699e+00 1.292303e+01 2.641561e+00 1.317835e+01 4.598736e+00 9.936613e+00 1.315517e+01 1.984279e+01 7.738239e+00 1.197500e+00 9.233801e-01 6.803394e-01 1.044742e+00 9.564593e-01 7.423627e-01 5.239184e-01 6.215078e-01 1.162199e+00 1.998886e+00 1.553651e+00 1.906319e+00 3.811203e-01 6.045751e-02 7.463439e-02 1.550428e-01 2.891293e-01 1.939497e-01 2.112991e-01 1.079016e-01 1.464187e-01 1.927453e-01 3.988338e-01 3.193922e-01 4.347775e-01 2.110146e-02
<GCONST> 7.666673e+01
<TRANSP> 5
 0.000000e+00 1.000000e+00 0.000000e+00 0.000000e+00 0.000000e+00
 0.000000e+00 7.772486e-01 2.227513e-01 0.000000e+00 0.000000e+00
 0.000000e+00 0.000000e+00 8.807744e-01 1.192256e-01 0.000000e+00
 0.000000e+00 0.000000e+00 0.000000e+00 7.805539e-01 2.194461e-01
 0.000000e+00 0.000000e+00 0.000000e+00 0.000000e+00 0.000000e+00
<ENDHMM>
~h "s-o+ng"
<BEGINHMM>
<NUMSTATES> 5
<STATE> 2
<MEAN> 39
 -2.401603e+00 -1.166086e+00 -2.419573e+00 -2.607980e+00 -1.208239e+00 -1.373205e+00 -1.107278e+00 1.312119e+00 3.070152e+00 4.012508e+00 2.775710e+00 1.007130e+00 -1.568546e+00 1.203740e+00 1.675686e-01 -4.866312e-01 -8.119981e-01 -1.138332e+00 -5.164866e-01 -3.922061e-01 -7.872587e-01 -3.527111e-01 1.330356e-01 -9.347942e-02 1.852002e-01 7.502053e-01 5.978767e-01 1.826841e-01 2.903425e-01 2.855324e-01 1.133843e-01 2.152688e-01 1.113771e-01 -2.483651e-01 -1.935975e-01 -2.700006e-01 -4.195971e-01 -1.595110e-01 4.010818e-01
<VARIANCE> 39
 1.654027e+01 2.511166e+01 2.550932e+01 4.192453e+01 3.339299e+01 1.002656e+01 8.425856e+00 1.720471e+01 1.135268e+01 6.117604e+00 9.585322e+00 1.783854e+01 4.409778e+00 4.598179e+00 2.534381e+00 2.645086e+00 2.678439e+00 2.979971e+00 1.948782e+00 1.219573e+00 2.480923e+00 1.250247e+00 3.925998e-01 1.455086e+00 1.261332e+00 1.700547e+00 2.387241e-01 4.059979e-01 3.953308e-01 4.551096e-01 4.399082e-01 2.957711e-01 1.840129e-01 3.470417e-01 3.464468e-01 2.667370e-01 2.325608e-01 1.248965e-01 7.714485e-02
<GCONST> 9.672174e+01
<STATE> 3
<MEAN> 39
 1.092381e+01 3.395317e-01 -1.691233e+00 -3.215103e+00 -7.062530e+00 -3.768208e+00 -2.717135e-01 -1.534415e+00 1.322202e+00 3.368990e+00 7.975033e-01 1.665924e+00 7.762245e+00 -2.389513e-01 8.901328e-03 1.546500e-01 4.705949e-01 5.598007e-01 3.682284e-01 4.155826e-01 5.475662e-01 7.089537e-03 -3.508379e-01 1.221626e-01 2.732053e-01 -1.980142e-01 -4.382524e-01 -1.531693e-01 -5.578847e-02 3.918594e-02 1.568978e-01 8.643376e-02 6.313889e-02 1.490640e-01 5.661533e-02 -5.003335e-02 5.827747e-02 5.729322e-02 -2.752499e-01
<VARIANCE> 39
 3.495764e+01 1.581810e+01 1.836312e+01 2.508725e+01 4.906705e+01 1.255746e+01 7.667454e+00 2.064462e+01 8.769374e+00 1.572491e+01 1.113131e+01 2.228846e+01 2.424151e+01 4.084011e+00 1.927312e+00 1.225751e+00 1.522382e+00 3.748840e+00 1.642691e+00 8.093724e-01 1.540563e+00 1.199206e+00 1.699217e+00 1.346290e+00 7.734064e-01 2.712167e+00 2.116653e-01 4.501265e-01 2.437141e-01 2.034012e-01 4.105034e-01 1.734632e-01 1.666724e-01 2.618760e-01 3.024617e-01 3.526977e-01 1.952450e-01 1.052725e-01 1.373728e-01
<GCONST> 9.648024e+01
<STATE> 4
<MEAN> 39
 -7.517573e-01 -4.702432e-01 -6.071134e-01 1.167982e+00 2.122210e+00 6.428480e-01 1.448184e+00 3.281355e+00 1.478493e+00 1.105789e+00 3.442173e+00 4.192211e+00 -5.618203e-01 -1.504659e+00 -1.018367e+00 -2.399736e-01 4.314639e-02 3.670152e-01 5.851940e-01 -8.156818e-02 -4.822882e-01 -1.408077e-01 -3.872226e-01 -4.376819e-01 1.840109e-02 -7.624444e-01 2.303713e-01 1.360543e-01 1.052526e-01 5.822772e-02 -1.201217e-01 -1.334147e-01 -6.562426e-02 -2.030737e-01 -2.646478e-01 -1.119823e-01 -1.670619e-01 -2.289346e-01 1.298094e-01
<VARIANCE> 39
 9.741485e+00 2.106384e+01 1.903583e+01 1.722422e+01 1.496471e+01 3.507754e+01 9.722390e+00 8.078655e+00 8.428852e+00 1.259826e+01 1.511311e+01 2.355223e+01 5.038362e+00 5.002500e-01 6.336462e-01 4.654866e-01 5.384877e-01 6.112786e-01 1.739901e+00 1.883106e+00 1.157924e+00 1.649674e+00 2.322078e+00 1.629141e+00 7.908244e-01 1.245860e-01 1.894242e-02 8.730459e-02 5.104122e-02 1.025033e-01 6.109346e-02 2.069317e-01 3.618546e-01 2.464934e-01 8.418518e-02 7.536677e-02 2.736979e-01 1.486093e-01 2.159045e-02
<GCONST> 7.285691e+01
<TRANSP> 5
 0.000000e+00 1.000000e+00 0.000000e+00 0.000000e+00 0.000000e+00
 0.000000e+00 6.085404e-01 3.914596e-01 0.000000e+00 0.000000e+00
 0.000000e+00 0.000000e+00 7.930917e-01 2.069083e-01 0.000000e+00
 0.000000e+00 0.000000e+00 0.000000e+00 5.001148e-01 4.998852e-01
 0.000000e+00 0.000000e+00 0.000000e+00 0.000000e+00 0.000000e+00
<ENDHMM>
~h "o-ng+s"
<BEGINHMM>
<NUMSTATES> 5
<STATE> 2
<MEAN> 39
 -4.440583e+00 -3.525264e+00 -1.107442e+00 9.047966e-01 4.359741e-01 -1.723411e+00 -2.231742e+00 -9.158611e-02 -4.310131e-03 -4.148465e-02 4.035502e+00 6.298142e+00 -2.520643e+00 -9.481436e-01 -5.570070e-01 -3.840767e-01 -8.513854e-02 8.719414e-03 6.188419e-02 1.865931e-01 2.473617e-01 -3.175994e-01 -4.217079e-01 -6.357888e-01 -1.273096e+00 -5.678704e-01 2.487472e-01 1.876722e-01 -7.937831e-02 -7.399604e-02 8.258559e-02 1.648623e-02 3.080941e-01 1.591830e-01 -1.045509e-01 4.812190e-02 5.834164e-02 -1.104246e-01 1.280876e-01
<VARIANCE> 39
 3.027191e-01 9.727789e+00 1.840366e+00 8.366190e+00 6.386322e+00 1.352760e+01 7.900829e+00 1.460251e+01 1.026586e+00 2.176425e+01 1.234563e+01 2.793282e+00 1.353830e+00 7.282420e-02 1.841080e-01 1.797449e-01 3.497070e-01 7.880709e-02 3.898825e-02 2.472748e-01 2.644151e-01 2.354828e-01 3.374812e-01 3.064801e-01 7.990737e-01 7.200105e-02 3.170595e-03 2.014030e-02 2.449614e-02 7.671997e-03 2.023714e-02 3.270323e-01 6.705492e-01 1.262778e-01 6.738778e-03 2.800444e-01 2.777075e-01 2.947876e-01 3.614195e-04
<GCONST> 2.706054e+01
<STATE> 3
<MEAN> 39
 -5.886818e+00 -3.903934e+00 -2.048272e+00 3.098248e-01 1.979468e+00 1.909696e+00 1.792542e+00 3.440390e+00 2.076175e+00 1.063640e+00 3.202168e+00 2.991639e+00 -3.394366e+00 -6.234639e-01 -3.195147e-01 -4.255478e-01 -3.639059e-01 1.190688e-01 5.863072e-01 6.391793e-01 -2.190918e-01 -7.666208e-01 -5.804067e-01 -8.956889e-01 -1.680326e+00 -3.898581e-01 3.248740e-01 2.963108e-01 -9.018913e-03 -2.006778e-01 -1.814862e-01 -3.508453e-01 -3.497039e-01 -2.283472e-01 -1.529871e-01 1.615294e-02 6.979941e-02 2.926017e-01 1.886853e-01
<VARIANCE> 39
 1.892242e-01 5.214512e+00 1.236957e+00 3.419258e+00 5.299664e-01 1.712621e+01 1.650658e+01 7.271235e+00 1.488180e+00 2.468727e+01 1.459361e+01 8.561481e+00 7.098280e-01 7.430445e-02 9.216596e-02 1.319361e-02 1.111762e-01 2.513612e-01 9.924514e-01 2.483815e+00 3.487899e-01 2.194378e-01 4.139848e-01 4.128302e-01 1.507474e+00 3.653267e-02 8.376520e-03 6.214570e-02 5.239927e-02 3.689812e-02 2.751083e-02 1.645599e-01 3.307358e-01 1.300832e-01 1.040758e-02 1.925159e-01 1.601103e-01 1.778498e-01 4.676539e-03
<GCONST> 3.147600e+01
<STATE> 4
<MEAN> 39
 -5.897757e+00 -2.843075e+00 -2.748279e+00 -1.368289e+00 5.963588e-01 -4.115119e-01 -1.110964e+00 -1.760009e+00 -3.287143e+00 -1.304956e+00 1.840889e+00 9.132859e-01 -3.669878e+00 -3.431988e-01 1.564163e-01 -2.432282e-01 -5.103151e-01 -1.137621e-01 -6.840779e-01 -4.939935e-01 -7.495260e-01 -6.928909e-01 -1.792597e-02 -2.187673e-01 6.960246e-02 -1.727395e-01 4.337629e-01 1.922449e-01 1.889564e-01 1.454788e-01 -8.289504e-02 -2.383951e-01 -3.333808e-01 -4.017044e-02 3.492928e-01 1.779477e-01 2.915658e-01 6.257401e-01 2.781008e-01
<VARIANCE> 39
 1.307741e+00 6.535985e+00 3.092545e+00 1.045910e+00 7.976303e-01 2.203057e+01 1.018587e+01 1.314125e+01 4.517505e+00 9.116055e+00 1.353775e+00 1.515519e+01 1.411466e+00 1.199994e-01 3.632840e-01 9.996736e-02 8.346558e-02 2.737761e-01 2.833559e-01 8.281509e-01 2.213079e-01 6.707299e-01 7.583098e-01 4.539681e-01 8.373930e-01 3.875865e-02 3.489093e-02 5.831269e-02 2.065646e-02 6.032701e-02 6.958103e-02 2.924646e-01 3.389049e-01 4.656846e-02 3.126304e-02 1.230655e-02 5.346028e-02 9.614357e-02 9.897079e-03
<GCONST> 3.409977e+01
<TRANSP> 5
 0.000000e+00 1.000000e+00 0.000000e+00 0.000000e+00 0.000000e+00
 0.000000e+00 2.119977e-07 9.999998e-01 0.000000e+00 0.000000e+00
 0.000000e+00 0.000000e+00 2.520144e-01 7.479857e-01 0.000000e+00
 0.000000e+00 0.000000e+00 0.000000e+00 2.573844e-01 7.426156e-01
 0.000000e+00 0.000000e+00 0.000000e+00 0.000000e+00 0.000000e+00
<ENDHMM>
~h "ng-s+a"
<BEGINHMM>
<NUMSTATES> 5
<STATE> 2
<MEAN> 39
 2.407740e+00 -4.711288e-01 -4.185249e-01 2.153726e+00 -4.342675e-03 -3.401656e+00 -2.648617e+00 -1.503902e+00 -3.454206e+00 -4.477687e+00 -9.096513e-01 3.650704e+00 1.773752e+00 2.478589e+00 7.458318e-01 4.430988e-01 6.255002e-01 -4.729950e-01 -9.120624e-01 -4.047417e-01 -3.086495e-02 -2.150538e-01 -1.001447e+00 -1.155418e+00 -1.796220e-01 1.540617e+00 8.426788e-02 3.564076e-03 -4.224602e-02 -5.951949e-02 -7.546334e-02 -3.034037e-02 1.153188e-01 2.492052e-01 2.058285e-01 6.263145e-02 -8.380190e-02 -2.188255e-01 4.525671e-02
<VARIANCE> 39
 6.367573e+01 2.507043e+01 1.124782e+01 1.599783e+01 6.873398e+00 9.016330e+00 6.649006e+00 1.581854e+01 1.052928e+01 2.379275e+01 1.901669e+01 1.244121e+01 2.411069e+01 2.881852e+00 2.251097e+00 9.990330e-01 2.121122e+00 1.639947e+00 1.003981e+00 1.237602e+00 1.183563e+00 1.757005e+00 1.879144e+00 1.681419e+00 8.281859e-01 1.020814e+00 1.044168e+00 4.659273e-01 2.486369e-01 4.352688e-01 2.392015e-01 1.296785e-01 2.118590e-01 1.724137e-01 3.630116e-01 4.193383e-01 2.957551e-01 1.241995e-01 3.792834e-01
<GCONST> 9.636465e+01
<STATE> 3
<MEAN> 39
 9.629048e+00 5.359347e+00 4.728693e+00 4.867547e+00 -1.121520e+00 -4.145591e+00 -7.686191e-01 2.517056e+00 4.731593e-01 -4.388969e+00 -6.718419e+00 -4.519497e+00 5.571592e+00 -5.696369e-01 3.008511e-01 3.792069e-01 2.339019e-02 2.926966e-01 5.009958e-01 2.525427e-01 1.222973e-01 1.743690e-01 4.040045e-01 3.602850e-01 -1.967984e-01 -4.478000e-01 -1.768911e-01 -7.969516e-02 -1.673026e-02 1.568753e-02 1.265105e-01 1.326034e-01 8.168955e-03 -8.407688e-02 -7.227399e-02 2.024086e-02 1.159598e-01 1.268517e-01 -1.026858e-01
<VARIANCE> 39
 6.824553e+00 7.485841e+00 1.223558e+01 1.117130e+01 1.557749e+01 1.040953e+01 7.340284e+00 9.543715e+00 1.013095e+01 1.549737e+01 1.792260e+01 1.245871e+01 4.985680e+00 6.978996e-01 2.427876e-01 3.851517e-01 8.457868e-01 1.498653e+00 7.419264e-01 7.585689e-01 1.049176e+00 1.303184e+00 9.455648e-01 1.108884e+00 1.095199e+00 3.057555e-01 9.799051e-02 9.198175e-02 1.082371e-01 1.442426e-01 2.615916e-01 1.192053e-01 1.529962e-01 1.524470e-01 2.205919e-01 1.515802e-01 1.535696e-01 1.152100e-01 4.318821e-02
<GCONST> 7.146685e+01
<STATE> 4
<MEAN> 39
 -4.514011e+00 -5.749105e-01 8.416805e-01 2.230182e+00 3.824577e+00 2.230139e+00 5.065175e-01 7.671235e-01 -6.064260e-01 -6.586915e-01 9.577615e-01 -7.947607e-01 -2.982849e+00 -1.072451e+00 -1.217419e+00 -1.163032e+00 -7.022163e-01 -3.937683e-01 -8.015583e-02 -3.117603e-02 -1.443996e-01 1.905744e-01 3.163354e-01 2.760386e-01 -1.415502e-02 -4.962660e-01 4.047002e-01 1.340354e-01 5.114301e-02 -1.840480e-04 -2.385572e-01 -2.297581e-01 -3.158486e-02 3.746431e-02 5.422110e-02 -1.106628e-02 -1.994330e-01 -1.456283e-01 2.436072e-01
<VARIANCE> 39
 1.348083e+01 1.688774e+01 1.555078e+01 8.610358e+00 9.701437e+00 6.613211e+00 8.113273e+00 5.595069e+00 1.355118e+01 1.109948e+01 5.536596e+00 2.669976e+00 3.083383e+00 1.452715e+00 8.364413e-01 5.451188e-01 1.115503e+00 1.942775e+00 9.894075e-01 4.607207e-01 6.504154e-01 2.479647e+00 2.068271e+00 5.569976e-01 8.162838e-01 4.396008e-01 8.926672e-02 1.233769e-01 1.169514e-01 1.593545e-01 3.649521e-01 1.836839e-01 6.025294e-02 1.554282e-01 5.815899e-01 5.202425e-01 8.059420e-02 1.172960e-01 2.890505e-02
<GCONST> 7.271709e+01
<TRANSP> 5
 0.000000e+00 1.000000e+00 0.000000e+00 0.000000e+00 0.000000e+00
 0.000000e+00 8.655462e-01 1.344538e-01 0.000000e+00 0.000000e+00
 0.000000e+00 0.000000e+00 9.371532e-01 6.284685e-02 0.000000e+00
 0.000000e+00 0.000000e+00 0.000000e+00 8.094310e-01 1.905690e-01
 0.000000e+00 0.000000e+00 0.000000e+00 0.000000e+00 0.000000e+00
<ENDHMM>
~h "o-s+o"
<BEGINHMM>
<NUMSTATES> 5
<STATE> 2
<MEAN> 39
 3.512104e+00 -2.414304e+00 -1.140352e+00 3.773046e+00 -1.038370e+00 -6.194057e+00 -1.853637e+00 8.378890e-01 -3.173376e+00 -5.529754e+00 -1.338950e+00 3.896349e+00 2.973741e+00 2.056658e+00 1.539850e+00 6.264473e-01 -5.929936e-01 -9.939023e-01 -8.092055e-02 4.550485e-01 2.016888e-01 -1.981348e-01 -4.735487e-01 -7.020265e-01 -5.807123e-02 1.066243e+00 4.477428e-02 1.986306e-02 3.383641e-02 -1.402496e-01 -2.085059e-01 8.750132e-02 2.164683e-01 1.909150e-01 3.436468e-01 3.631315e-01 5.625244e-02 -1.633421e-01 2.677275e-02
<VARIANCE> 39
 4.856416e+01 4.708477e+01 2.393314e+01 1.191750e+01 2.085402e+01 1.992075e+01 1.354097e+01 1.297850e+01 1.104043e+01 2.287657e+01 1.445865e+01 6.953493e+00 1.329331e+01 2.874324e+00 3.885956e+00 2.733039e+00 1.709752e+00 2.320507e+00 2.959558e+00 1.396388e+00 1.423670e+00 1.674949e+00 3.069129e+00 1.558059e+00 1.176392e+00 7.087933e-01 8.032324e-01 1.082825e+00 7.031415e-01 2.184748e-01 3.646618e-01 5.522546e-01 2.872688e-01 2.929918e-01 2.065031e-01 3.543230e-01 2.984976e-01 1.883310e-01 1.807804e-01
<GCONST> 1.041666e+02
<STATE> 3
<MEAN> 39
 1.052599e+01 3.763510e+00 2.954692e+00 1.803527e+00 -4.703748e+00 -4.288918e+00 1.605633e+00 3.455084e+00 2.344502e+00 -7.899815e-01 -3.783277e+00 -1.225273e+00 6.567237e+00 -4.983505e-01 1.765052e-01 3.337784e-01 3.397439e-01 6.792403e-01 4.566148e-01 8.769903e-02 1.059580e-01 2.573652e-01 3.545429e-01 2.021865e-01 -2.476908e-01 -3.670003e-01 -1.135742e-01 -4.294921e-02 -3.394121e-02 5.664089e-02 1.426234e-01 5.169179e-02 -3.960410e-02 -4.035759e-02 -4.924538e-02 -3.766719e-03 7.763941e-02 7.668395e-02 -6.822927e-02
<VARIANCE> 39
 1.604704e+01 6.943246e+00 1.288282e+01 2.837051e+01 4.754754e+01 1.494355e+01 1.220982e+01 1.377769e+01 1.086825e+01 1.186030e+01 9.555686e+00 1.173441e+01 1.003185e+01 4.861621e-01 5.285425e-01 8.022816e-01 9.055688e-01 1.678026e+00 9.490235e-01 1.054793e+00 1.145362e+00 7.747709e-01 1.071526e+00 9.286452e-01 6.908692e-01 2.871132e-01 6.756631e-02 9.931948e-02 1.468188e-01 1.652121e-01 3.117281e-01 1.663063e-01 1.791559e-01 2.257556e-01 1.073798e-01 1.437570e-01 1.251035e-01 1.086471e-01 3.795137e-02
<GCONST> 7.633450e+01
<STATE> 4
<MEAN> 39
 -4.851903e+00 1.451848e-01 1.818393e+00 1.901033e+00 4.449132e+00 3.604831e+00 1.325003e+00 9.473674e-01 1.085890e+00 1.974206e+00 1.499864e+00 -6.111543e-01 -3.195117e+00 -4.127213e-01 -4.141986e-01 -4.233310e-01 -3.641833e-01 -1.934272e-01 -9.676293e-02 -2.056051e-01 -1.412734e-01 2.654433e-03 1.694416e-01 1.826217e-01 3.692757e-02 -2.079396e-01 8.561240e-02 1.482172e-02 -6.696645e-02 -1.246496e-01 -1.728140e-01 -8.041498e-02 -4.560558e-02 -2.515387e-02 -6.623681e-03 -7.088063e-02 -9.747463e-02 -2.773964e-02 4.234668e-02
<VARIANCE> 39
 1.104357e+01 1.345750e+01 1.606766e+01 1.927812e+01 1.738220e+01 1.575363e+01 1.159546e+01 8.811052e+00 8.544070e+00 1.005395e+01 7.927431e+00 5.507071e+00 2.574844e+00 4.779070e-01 3.850109e-01 4.106016e-01 7.076606e-01 1.075332e+00 1.237858e+00 7.356912e-01 5.430788e-01 7.136039e-01 1.496239e+00 8.445277e-01 5.544570e-01 1.178011e-01 3.187621e-02 4.221718e-02 7.950947e-02 1.371757e-01 2.159800e-01 2.654102e-01 1.288474e-01 1.066135e-01 1.284952e-01 2.606225e-01 1.928552e-01 1.353161e-01 9.717226e-03
<GCONST> 6.548444e+01
<TRANSP> 5
 0.000000e+00 1.000000e+00 0.000000e+00 0.000000e+00 0.000000e+00
 0.000000e+00 7.949662e-01 2.050338e-01 0.000000e+00 0.000000e+00
 0.000000e+00 0.000000e+00 9.172678e-01 8.273216e-02 0.000000e+00
 0.000000e+00 0.000000e+00 0.000000e+00 8.406685e-01 1.593315e-01
 0.000000e+00 0.000000e+00 0.000000e+00 0.000000e+00 0.000000e+00
<ENDHMM>
~h "t-u+ng"
<BEGINHMM>
<NUMSTATES> 5
<STATE> 2
<MEAN> 39
 -1.393191e+00 4.734090e+00 6.215654e+00 6.325488e+00 7.788506e+00 6.237460e+00 4.064424e+00 2.915012e+00 1.482627e+00 5.835137e-01 -6.124350e-01 -1.730350e+00 -1.971656e+00 -1.390297e+00 -1.432468e+00 -1.868589e+00 -1.822072e+00 -8.370076e-01 -3.887974e-01 -1.150133e-01 -8.305939e-02 -4.267898e-01 -1.183764e-01 1.642566e-01 6.313890e-02 -6.844756e-01 4.106147e-03 -2.512842e-01 -2.887336e-01 -4.165995e-01 -6.249975e-01 -5.585861e-01 -4.598332e-01 -1.740648e-01 5.316985e-02 1.629418e-01 2.016255e-01 1.554182e-01 6.074417e-02
<VARIANCE> 39
 4.280371e+00 4.102446e+00 9.982696e+00 1.899148e+01 3.164168e+01 4.358172e+01 1.874440e+01 6.947978e+00 6.348197e+00 8.924929e+00 9.553622e+00 3.675604e+00 1.203154e+00 1.495369e-01 2.494686e-01 7.745301e-01 1.625689e+00 2.765133e+00 1.134076e+00 8.256283e-01 6.263356e-01 8.649591e-01 1.119951e+00 1.180817e+00 8.758872e-01 5.900836e-02 1.835045e-02 5.477902e-02 2.491686e-01 2.612580e-01 2.704443e-01 1.667235e-01 1.823444e-01 2.088840e-01 1.679884e-01 2.847352e-01 2.085442e-01 1.053934e-01 7.113629e-03
<GCONST> 6.645895e+01
<STATE> 3
<MEAN> 39
 -5.554947e+00 8.964786e-02 1.715499e+00 7.581444e-01 3.026878e+00 3.431142e+00 1.172724e+00 1.140553e+00 5.137910e-01 3.935543e-01 -1.727778e-01 -1.408922e+00 -3.765254e+00 -9.260869e-01 -1.078101e+00 -9.953077e-01 -1.249505e+00 -8.714119e-01 -7.402752e-01 -1.041703e+00 -1.342692e+00 -6.878012e-01 -1.094112e-01 4.681310e-01 6.210333e-01 -3.984257e-01 3.160479e-01 2.958536e-01 2.506020e-01 2.924521e-01 2.078439e-01 1.132568e-01 -3.952712e-03 -1.645246e-01 -1.667674e-02 2.283886e-02 1.154427e-01 6.330265e-02 1.430807e-01
<VARIANCE> 39
 1.621136e+00 2.805263e+00 7.012694e+00 1.385460e+01 1.849012e+01 2.596495e+01 9.128458e+00 4.419315e+00 3.840221e+00 2.188383e+00 4.458498e+00 5.695538e+00 6.393976e-01 3.291533e-01 4.284231e-01 2.330851e-01 6.717988e-01 1.665088e+00 2.027920e+00 1.238626e+00 5.928982e-01 6.719048e-01 1.021531e+00 8.003711e-01 6.438412e-01 7.102826e-02 1.727426e-02 4.490035e-02 1.259590e-01 3.329663e-01 4.007204e-01 2.568961e-01 2.444155e-01 3.870034e-01 2.856083e-01 2.399552e-01 1.671043e-01 2.209601e-01 4.020074e-03
<GCONST> 5.950568e+01
<STATE> 4
<MEAN> 39
 -6.882106e+00 -2.627214e+00 -1.730467e+00 -1.586358e+00 2.158904e+00 2.625281e+00 -7.846575e-01 -2.010395e+00 -1.019633e+00 -9.244994e-02 2.768251e-01 -1.040397e+00 -4.220421e+00 -9.926001e-03 -4.282769e-02 -5.525212e-02 -4.137417e-02 -3.028544e-02 -3.326421e-02 -3.272214e-02 -3.442832e-02 -1.294844e-02 -1.904969e-02 2.730909e-03 7.365902e-03 2.055233e-04 7.147125e-03 6.249913e-03 8.983443e-03 1.196527e-02 7.778752e-03 1.115721e-02 1.355970e-02 1.962179e-02 8.194720e-03 3.464183e-03 -1.712127e-03 3.669267e-03 3.584637e-03
<VARIANCE> 39
 3.441990e-01 2.098954e+00 3.628452e+00 4.957670e+00 4.601772e+00 6.343495e+00 8.510371e+00 8.235557e+00 7.456904e+00 7.171034e+00 7.539157e+00 7.306489e+00 1.301941e-01 3.224259e-02 1.493723e-01 2.951971e-01 4.986264e-01 4.367024e-01 4.684898e-01 7.089199e-01 8.776854e-01 8.587962e-01 8.222865e-01 7.689436e-01 7.533971e-01 1.274798e-02 7.790117e-03 2.712437e-02 5.566671e-02 1.019707e-01 9.352082e-02 9.225585e-02 1.483396e-01 1.857177e-01 1.717933e-01 1.731897e-01 1.558884e-01 1.521631e-01 2.675959e-03
<GCONST> 3.808771e+01
<TRANSP> 5
 0.000000e+00 1.000000e+00 0.000000e+00 0.000000e+00 0.000000e+00
 0.000000e+00 6.171600e-01 3.828400e-01 0.000000e+00 0.000000e+00
 0.000000e+00 0.000000e+00 6.657861e-01 3.342139e-01 0.000000e+00
 0.000000e+00 0.000000e+00 0.000000e+00 9.805489e-01 1.945116e-02
 0.000000e+00 0.000000e+00 0.000000e+00 0.000000e+00 0.000000e+00
<ENDHMM>
~h "u-k+o"
<BEGINHMM>
<NUMSTATES> 5
<STATE> 2
<MEAN> 39
 -6.524097e+00 -2.415803e+00 -2.456841e+00 -3.453684e+00 6.382589e-01 2.361732e+00 -6.953563e-01 -1.700502e+00 8.663884e-01 1.759521e+00 1.844963e+00 1.789585e+00 -4.102602e+00 -1.254585e-04 -2.901781e-03 -3.814580e-02 6.375691e-02 3.568900e-01 3.339638e-01 -2.810104e-01 2.533140e-01 -2.931054e-01 1.064485e-01 2.936081e-01 5.475013e-01 -9.132857e-03 4.336610e-03 -5.304801e-02 -6.475928e-02 -3.160610e-02 -1.509018e-01 -2.546694e-01 8.387470e-02 1.587175e-01 -5.827220e-02 1.214124e-02 -9.443152e-02 -4.437553e-01 2.752011e-02
<VARIANCE> 39
 8.532326e-02 2.036756e+00 3.361919e+00 1.445760e+00 2.419239e+00 3.315276e+00 2.456456e+00 9.246470e+00 1.088901e+01 6.663251e+00 3.126888e+00 5.942091e+00 1.005399e-01 1.856745e-02 2.449468e-02 6.808534e-02 4.687505e-01 7.891082e-01 3.761365e-01 3.422027e-01 6.084861e-01 3.546455e-01 3.847783e-01 4.103266e-01 4.915850e-01 3.000027e-03 3.917811e-03 5.307088e-02 1.313281e-01 4.017372e-02 6.123555e-02 3.310675e-02 6.217900e-02 8.621068e-02 2.125461e-01 1.447455e-01 1.378054e-01 7.041603e-02 2.258233e-03
<GCONST> 1.893424e+01
<STATE> 3
<MEAN> 39
 -6.751513e+00 -3.024544e+00 -2.973499e+00 -2.938401e+00 1.593186e+00 3.318660e+00 -2.213001e+00 -2.802218e+00 -5.895252e-01 6.145555e-01 2.133657e+00 2.318128e+00 -4.192069e+00 6.205660e-03 -2.681996e-01 -4.237125e-01 -2.356625e-01 -3.500185e-01 -4.276861e-01 -4.987202e-02 3.677115e-01 -6.912622e-02 2.416764e-02 7.097272e-02 -9.226771e-02 3.417112e-02 3.928083e-02 3.467719e-02 -4.887741e-02 -2.078373e-01 -4.066631e-01 -3.276960e-01 2.210818e-01 2.135513e-01 2.474018e-01 1.774518e-01 -2.004057e-01 -6.102374e-01 2.859209e-02
<VARIANCE> 39
 1.375420e-01 1.768876e+00 5.532256e-01 6.924112e+00 6.656188e+00 5.104876e+00 2.076059e+00 1.124636e+01 7.020581e+00 4.972355e+00 4.770495e+00 1.736216e+00 8.291629e-02 4.663596e-02 1.045739e-01 4.260884e-01 8.124475e-01 1.126843e+00 5.512589e-01 6.344587e-01 1.026256e+00 2.493886e+00 1.314370e+00 6.194155e-01 1.906172e-01 2.274195e-02 2.749815e-03 3.610468e-02 6.352784e-02 1.712050e-01 1.139500e-01 1.032517e-01 6.214264e-02 1.267034e-01 3.820606e-02 6.598442e-02 2.927265e-02 1.065893e-01 2.361297e-03
<GCONST> 2.861086e+01
<STATE> 4
<MEAN> 39
 -6.922048e+00 -3.479574e+00 -3.040088e+00 -3.738729e+00 1.479468e-01 1.374663e+00 -1.109921e+00 -1.373674e+00 -1.248228e+00 8.268799e-01 1.858308e+00 7.770029e-01 -4.097852e+00 4.911324e-02 2.702132e-03 -2.550242e-01 -4.240285e-01 -6.587424e-01 -2.976603e-01 5.265188e-01 6.750912e-01 5.114497e-01 2.383120e-01 -3.061275e-01 -9.252852e-01 7.717866e-03 1.678629e-01 1.570227e-01 3.623490e-02 -2.890181e-03 -1.923255e-01 -8.266052e-02 1.199692e-01 1.481508e-01 3.672203e-01 1.484237e-01 -1.165422e-01 -2.628638e-01 7.745208e-02
<VARIANCE> 39
 3.359056e-01 1.759281e+00 2.482996e+00 3.752931e+00 4.471184e+00 3.621001e+00 8.058597e+00 8.718276e+00 5.504825e+00 4.305179e+00 2.931200e+00 4.088687e+00 1.129346e-01 3.667072e-02 1.377736e-01 3.111495e-01 3.496478e-01 5.273720e-01 5.402306e-01 3.779140e-01 1.014969e+00 1.073164e+00 7.822406e-01 5.202675e-01 3.713540e-01 1.812455e-02 3.092120e-02 5.402276e-02 4.454718e-02 1.730374e-01 1.438031e-01 4.997434e-02 1.990921e-01 3.400939e-01 2.074313e-01 4.188934e-02 1.139876e-01 1.247167e-01 7.174687e-03
<GCONST> 3.551388e+01
<TRANSP> 5
 0.000000e+00 1.000000e+00 0.000000e+00 0.000000e+00 0.000000e+00
 0.000000e+00 1.775502e-06 9.999983e-01 0.000000e+00 0.000000e+00
 0.000000e+00 0.000000e+00 1.168626e-05 9.999883e-01 0.000000e+00
 0.000000e+00 0.000000e+00 0.000000e+00 4.962447e-01 5.037553e-01
 0.000000e+00 0.000000e+00 0.000000e+00 0.000000e+00 0.000000e+00
<ENDHMM>
