~h "sp"
<BEGINHMM>
<NUMSTATES> 3
<STATE> 2
<MEAN> 39
 -9.827197e-01 -3.437786e+00 -1.797805e+01 -9.887056e+00 -1.343826e+01 -1.099012e+01 -3.726732e+00 -5.976367e+00 -4.787693e+00 -3.946553e+00 -4.943604e+00 -3.014629e+00 5.309188e+01 1.051863e-01 8.231787e-02 -5.934276e-02 -5.670578e-02 -2.700162e-02 1.613102e-02 5.952429e-02 -3.442190e-02 -2.728874e-02 -2.722956e-02 -7.164050e-02 3.532609e-03 2.694165e-01 -3.670231e-02 -1.847016e-02 2.166207e-02 -1.949350e-02 6.771321e-03 2.659504e-02 -1.156800e-03 -5.624384e-03 2.924288e-02 -6.994204e-03 -4.135265e-03 -2.847625e-02 -3.876966e-02
<VARIANCE> 39
 4.205086e+01 2.647596e+01 3.589272e+01 2.769906e+01 3.297289e+01 6.215195e+01 4.824424e+01 7.425184e+01 3.133758e+01 2.163431e+01 2.767833e+01 2.004668e+01 1.432428e+02 2.441934e+00 1.900033e+00 2.626636e+00 2.555074e+00 3.273509e+00 3.381591e+00 3.706978e+00 3.821502e+00 2.888824e+00 2.004772e+00 2.480985e+00 1.762405e+00 4.368847e+00 3.877904e-01 3.610728e-01 4.332452e-01 5.374036e-01 6.186389e-01 6.443579e-01 6.732642e-01 5.931758e-01 5.458435e-01 3.715067e-01 4.496292e-01 3.317121e-01 5.500674e-01
<GCONST> 1.230481e+02
<TRANSP> 3
 0.000000e+00 1.000000e+00 0.000000e+00 
 0.000000e+00 9.336483e-01 6.635173e-02 
 0.000000e+00 0.000000e+00 4.361468e-01 
 <ENDHMM>
 