~o
<STREAMINFO> 1 39
<VECSIZE> 39<NULLD><MFCC_D_A_Z_0><DIAGC>
~h "a"
<BEGINHMM>
<NUMSTATES> 5
<STATE> 2
<MEAN> 39
 -1.304008e+00 -8.026935e-01 4.109035e-01 2.580677e+00 9.983591e-01 9.458489e-01 8.192992e-02 7.423942e-01 -1.166356e+00 3.433821e-01 -2.192995e-01 1.296602e+00 -4.238706e+00 4.533226e-01 -2.327607e-01 -1.782816e-01 4.558109e-02 -1.511039e-01 1.797020e-01 -1.679355e-01 -1.537128e-01 -4.116717e-01 1.100334e-01 -2.569129e-01 1.501139e-01 1.251824e+00 1.125922e-01 6.721060e-02 -1.657433e-02 4.383512e-03 5.037574e-02 -3.540954e-02 -8.045144e-02 6.723156e-02 -3.605337e-02 -7.774258e-02 -7.519127e-02 -9.089883e-02 1.127366e-01
<VARIANCE> 39
 4.585671e+01 3.715957e+01 1.695728e+01 4.307350e+01 2.395111e+01 2.969695e+01 4.240503e+01 3.483041e+01 4.068501e+01 3.237727e+01 1.723388e+01 2.031289e+01 3.292097e+02 2.372689e+00 3.385271e+00 1.391374e+00 4.242770e+00 2.953499e+00 3.306186e+00 2.807045e+00 2.584349e+00 3.301495e+00 2.870768e+00 1.831483e+00 2.380711e+00 7.250924e+00 4.257355e-01 6.761033e-01 2.694828e-01 7.678872e-01 5.220538e-01 4.984420e-01 4.954245e-01 4.978866e-01 6.695702e-01 4.878649e-01 3.608563e-01 3.669061e-01 1.186282e+00
<GCONST> 1.236999e+02
<STATE> 3
<MEAN> 39
 3.403077e+00 -2.340205e-01 -1.999162e+00 6.090194e-02 -1.924974e+00 2.901257e+00 -8.846655e-01 1.671053e-01 -4.523717e+00 3.058023e+00 -9.091460e-01 9.697579e-01 1.077886e+01 -7.402345e-02 1.215861e-02 -1.626909e-02 6.657860e-02 8.303114e-02 -5.822039e-02 2.916889e-02 5.349046e-02 1.933236e-01 -1.399556e-01 2.257592e-02 -6.369752e-02 -2.409985e-01 -2.300869e-02 -9.047073e-03 -6.877168e-03 2.582588e-02 2.961974e-02 9.936110e-03 1.880810e-02 1.864653e-02 -7.841488e-03 -9.191533e-03 1.455953e-02 3.811979e-02 -6.383255e-02
<VARIANCE> 39
 4.561134e+01 3.207502e+01 2.048690e+01 2.086131e+01 4.111513e+01 6.768392e+01 4.093306e+01 3.585331e+01 5.173628e+01 3.933933e+01 2.428123e+01 2.104071e+01 2.653326e+02 9.414011e-01 1.292556e+00 1.102417e+00 1.128587e+00 1.646597e+00 1.673526e+00 1.993482e+00 1.817043e+00 1.782485e+00 2.135273e+00 1.902123e+00 1.690384e+00 1.566444e+00 1.276757e-01 1.884236e-01 1.900715e-01 1.656601e-01 3.403449e-01 3.024157e-01 3.271879e-01 2.955561e-01 2.359743e-01 4.215732e-01 3.496523e-01 3.424813e-01 1.183146e-01
<GCONST> 1.069901e+02
<STATE> 4
<MEAN> 39
 -3.886473e+00 -4.793782e-01 3.643635e-01 -5.755030e-02 9.293207e-01 -1.020600e+00 7.010350e-01 4.404560e-01 1.674213e+00 -1.964596e+00 3.306299e-01 -4.922044e-02 -9.843259e+00 -6.228463e-02 1.052645e-02 -3.422970e-03 4.237191e-02 2.799659e-02 -1.999531e-03 -1.891268e-03 7.352521e-02 8.565550e-02 1.843028e-02 2.718416e-02 4.055355e-02 -7.313855e-02 1.039861e-02 -2.056849e-02 -1.032043e-02 -9.167098e-03 -2.522446e-02 1.263141e-03 1.072690e-02 -1.833002e-02 -1.221986e-02 6.289218e-02 5.573177e-02 3.275947e-02 2.232414e-02
<VARIANCE> 39
 4.405309e+00 6.254963e+00 6.753368e+00 1.160968e+01 1.315270e+01 1.931298e+01 1.875846e+01 2.131691e+01 2.186444e+01 2.123701e+01 2.097134e+01 1.687229e+01 3.846519e+01 2.149774e-01 4.870338e-01 5.170220e-01 9.810153e-01 1.289814e+00 2.106823e+00 2.009104e+00 1.950124e+00 1.897730e+00 1.985604e+00 2.033366e+00 1.732500e+00 1.830567e-01 4.195942e-02 1.071497e-01 1.200156e-01 2.077685e-01 2.913999e-01 4.337983e-01 4.218555e-01 3.898263e-01 3.913774e-01 4.123870e-01 4.481507e-01 3.676386e-01 5.205456e-02
<GCONST> 8.730865e+01
<TRANSP> 5
 0.000000e+00 1.000000e+00 0.000000e+00 0.000000e+00 0.000000e+00
 0.000000e+00 5.045022e-01 4.954978e-01 0.000000e+00 0.000000e+00
 0.000000e+00 0.000000e+00 7.574287e-01 2.425712e-01 0.000000e+00
 0.000000e+00 0.000000e+00 0.000000e+00 8.279212e-01 1.720788e-01
 0.000000e+00 0.000000e+00 0.000000e+00 0.000000e+00 0.000000e+00
<ENDHMM>
~h "b"
<BEGINHMM>
<NUMSTATES> 5
<STATE> 2
<MEAN> 39
 1.058291e+00 -2.675732e+00 7.643293e-01 2.051496e+00 3.066254e-02 2.174331e+00 -3.857029e+00 -7.238432e+00 -2.656295e+00 5.669353e+00 -3.613487e+00 -2.904987e-02 7.630369e+00 3.347256e-01 2.992674e-01 3.978587e-01 5.278076e-01 -5.448124e-01 -2.764273e-01 1.285090e-01 6.265233e-01 -2.323145e-01 7.102730e-01 -2.319150e-02 5.417474e-01 4.380810e-02 1.268405e-01 2.438996e-01 -1.016398e-01 9.143510e-02 3.056777e-01 1.760474e-01 -5.284492e-02 -1.031824e-01 -2.995778e-01 -1.339823e-01 1.283230e-01 2.626179e-01 -1.546504e-01
<VARIANCE> 39
 5.960867e+01 3.468333e+01 2.549215e+00 4.353229e+01 1.093825e+01 5.170714e+01 4.967062e+01 4.157574e+01 2.852775e+01 1.552758e+01 5.936095e+00 1.964519e+01 2.527732e+02 4.326592e-01 7.152423e-01 5.856863e-01 1.144921e+00 1.227513e+00 1.987121e+00 1.092946e+00 9.026956e-01 1.289005e+00 2.011086e+00 5.067488e-01 6.979835e-01 5.598596e-01 1.100677e-01 3.266025e-01 1.145468e-01 3.245371e-01 5.382358e-01 6.749772e-01 2.724304e-01 2.842547e-01 1.345070e-01 9.214470e-01 1.835139e-01 1.174827e-01 1.272350e-01
<GCONST> 9.483979e+01
<STATE> 3
<MEAN> 39
 6.724050e+00 6.383489e-01 1.252641e+00 1.687975e+00 -3.020776e+00 -2.062997e+00 -7.721411e+00 -6.724011e+00 -6.045914e+00 4.333253e+00 -9.641975e-01 4.156349e+00 1.347922e+01 -4.548327e-02 1.685103e-01 -5.672246e-03 -6.524723e-02 -2.757371e-02 -2.146900e-01 7.871097e-02 8.069314e-02 -9.588748e-03 -2.534685e-01 1.694304e-01 5.153313e-02 -5.013894e-01 -1.798824e-02 -1.184066e-02 -2.062575e-02 -2.053786e-02 8.480794e-03 -1.128685e-03 5.874126e-03 -3.151055e-03 1.137356e-02 -1.878835e-02 -4.029498e-04 -2.919376e-03 -1.244678e-02
<VARIANCE> 39
 2.488515e+01 3.569501e+01 2.427090e+01 1.749911e+01 2.261156e+01 5.794900e+01 4.401608e+01 3.032691e+01 2.824043e+01 6.404536e+01 1.938776e+01 4.397146e+01 7.984579e+01 1.192933e+00 8.950607e-01 8.851607e-01 1.031944e+00 1.776185e+00 2.795777e+00 3.241107e+00 2.060925e+00 1.653178e+00 2.723045e+00 1.903139e+00 2.472375e+00 8.613261e-01 1.428184e-01 1.292182e-01 1.426012e-01 1.733919e-01 2.774648e-01 5.073622e-01 6.200896e-01 3.885538e-01 2.630698e-01 4.568634e-01 3.398994e-01 4.198779e-01 8.817648e-02
<GCONST> 1.063315e+02
<STATE> 4
<MEAN> 39
 -6.347285e+00 8.837850e-01 1.967698e-01 1.655216e+00 2.049346e+00 -4.288372e-01 2.291494e+00 -1.686376e+00 1.393238e+00 -2.746909e+00 1.431209e+00 -6.324303e-02 -1.509862e+01 -2.193100e-02 -4.064813e-04 -1.457987e-01 6.417908e-03 9.473430e-02 7.073438e-02 4.517647e-02 1.750133e-01 4.696520e-04 -1.518309e-01 -2.345693e-02 -7.659081e-02 -6.804526e-02 2.203464e-02 -5.009113e-03 1.930524e-03 -2.871655e-03 -1.428923e-02 3.247266e-02 2.831676e-02 3.515545e-03 1.167239e-02 -1.039116e-02 -2.072210e-02 -2.836135e-02 1.483738e-02
<VARIANCE> 39
 9.506469e+00 6.052011e+00 7.360328e+00 7.844131e+00 1.197157e+01 1.938726e+01 1.598688e+01 1.956255e+01 1.620166e+01 2.097293e+01 1.517065e+01 1.391998e+01 1.842348e+01 2.306340e-01 4.603764e-01 6.601270e-01 8.104701e-01 1.573032e+00 1.855600e+00 1.592908e+00 2.058982e+00 1.502809e+00 1.469740e+00 1.521352e+00 9.555967e-01 1.127820e-01 3.528360e-02 9.119750e-02 1.529524e-01 1.788721e-01 3.372226e-01 3.855865e-01 2.833339e-01 5.011935e-01 3.013141e-01 2.756847e-01 3.492211e-01 1.887292e-01 1.349915e-02
<GCONST> 8.060544e+01
<TRANSP> 5
 0.000000e+00 1.000000e+00 0.000000e+00 0.000000e+00 0.000000e+00
 0.000000e+00 6.439613e-02 9.356039e-01 0.000000e+00 0.000000e+00
 0.000000e+00 0.000000e+00 9.657950e-01 3.420496e-02 0.000000e+00
 0.000000e+00 0.000000e+00 0.000000e+00 9.483521e-01 5.164791e-02
 0.000000e+00 0.000000e+00 0.000000e+00 0.000000e+00 0.000000e+00
<ENDHMM>
~h "d"
<BEGINHMM>
<NUMSTATES> 5
<STATE> 2
<MEAN> 39
 -4.844134e+00 -1.446677e+00 1.991523e+00 4.682126e-01 2.601125e+00 -2.421687e+00 4.437494e-01 -2.585513e+00 1.377928e+00 -4.979076e-01 -4.594148e-01 -5.923955e-01 -1.140118e+01 1.364879e+00 1.432759e+00 9.039513e-01 -3.062839e-01 -1.363808e+00 -7.914776e-01 7.203390e-02 4.053679e-01 1.729233e-01 1.716601e-01 3.562314e-01 4.108241e-01 5.531217e-01 8.003348e-01 8.600485e-01 1.987116e-01 -1.615091e-01 -6.546243e-01 -4.312154e-01 -2.826184e-01 -2.453469e-01 -8.866484e-02 -1.252121e-02 1.812428e-01 1.204023e-01 3.248867e-01
<VARIANCE> 39
 1.194494e+00 4.272791e+00 6.229783e+00 9.590236e+00 1.100849e+01 2.959778e+00 1.112702e+01 1.307513e+01 2.648573e+01 1.244193e+01 6.381696e+00 1.751302e+01 1.894268e+00 2.790546e+00 3.076010e+00 1.026819e+00 4.259357e-01 2.887905e+00 1.871157e+00 1.051980e+00 1.245980e+00 1.861964e+00 1.392380e+00 7.129660e-01 1.727289e+00 3.380082e-01 2.041776e-01 1.054783e-01 1.349676e-01 5.745750e-02 4.048388e-01 1.363836e-01 4.190688e-01 3.021234e-01 4.064224e-01 3.440162e-01 1.387615e-01 4.367612e-01 3.814540e-02
<GCONST> 7.867299e+01
<STATE> 3
<MEAN> 39
 4.959170e+00 8.404086e-01 -1.118413e+00 -4.715461e-01 -4.060364e+00 3.351450e+00 -2.099777e+00 2.304314e+00 -1.628918e+00 3.007274e+00 -1.264356e+00 2.658714e+00 1.588638e+01 2.077379e-02 -1.526172e-02 -2.266848e-02 8.327419e-02 1.170899e-01 5.445151e-02 4.484894e-02 4.510587e-03 -2.521252e-02 -5.501166e-02 5.066765e-03 -9.855894e-03 7.006974e-02 -6.111611e-02 -5.043209e-02 -3.285572e-02 -1.909474e-02 1.188320e-02 3.160220e-02 2.845254e-02 9.629925e-03 3.824569e-03 -8.023239e-05 -2.314320e-03 -1.459571e-02 -3.275975e-02
<VARIANCE> 39
 3.928555e+01 4.379447e+01 2.863032e+01 1.860345e+01 4.725220e+01 9.197764e+01 5.458116e+01 3.570269e+01 6.234350e+01 2.732973e+01 1.750757e+01 1.711340e+01 8.828735e+01 1.115334e+00 1.582652e+00 1.028097e+00 9.121805e-01 1.273255e+00 2.041567e+00 2.243668e+00 2.232845e+00 1.909063e+00 1.656549e+00 1.744751e+00 1.188247e+00 1.393650e+00 8.494145e-02 1.875542e-01 1.568781e-01 1.749498e-01 2.032652e-01 3.155309e-01 3.567013e-01 3.714460e-01 2.803127e-01 2.897398e-01 3.725776e-01 2.342707e-01 7.993671e-02
<GCONST> 1.042855e+02
<STATE> 4
<MEAN> 39
 -5.459594e+00 -2.805529e-01 1.878426e+00 1.056476e+00 1.018431e+00 -1.580219e+00 -2.743251e-01 -3.664336e-01 1.128122e+00 -2.249669e+00 -4.949689e-01 -1.161284e-01 -1.422102e+01 -3.646664e-02 2.612632e-02 1.173392e-02 -1.616249e-01 -1.046757e-01 8.489849e-02 9.375046e-02 6.462954e-02 4.692427e-02 1.569227e-01 -2.084149e-02 -7.146147e-02 -6.215687e-02 1.422518e-02 -8.432053e-03 -2.776950e-02 -5.281273e-03 1.769546e-02 5.515305e-02 1.641114e-02 -7.409073e-02 -9.479757e-03 4.612820e-02 -5.651951e-03 8.366775e-03 7.276367e-03
<VARIANCE> 39
 3.553770e+00 2.425724e+00 3.527544e+00 5.477957e+00 8.876092e+00 1.609449e+01 1.268179e+01 1.782392e+01 1.388961e+01 1.281745e+01 1.279254e+01 6.884428e+00 5.958806e+00 1.805208e-01 3.499731e-01 6.837920e-01 7.613757e-01 1.518575e+00 2.031846e+00 1.674034e+00 2.144957e+00 1.300142e+00 1.945476e+00 9.455058e-01 7.624795e-01 1.069294e-01 3.621299e-02 4.928086e-02 1.085514e-01 1.103278e-01 3.078806e-01 5.566974e-01 3.321457e-01 3.796214e-01 2.332936e-01 3.756601e-01 1.825333e-01 1.401273e-01 2.449002e-02
<GCONST> 7.157791e+01
<TRANSP> 5
 0.000000e+00 1.000000e+00 0.000000e+00 0.000000e+00 0.000000e+00
 0.000000e+00 5.762954e-01 4.237047e-01 0.000000e+00 0.000000e+00
 0.000000e+00 0.000000e+00 9.750902e-01 2.490984e-02 0.000000e+00
 0.000000e+00 0.000000e+00 0.000000e+00 9.134157e-01 8.658434e-02
 0.000000e+00 0.000000e+00 0.000000e+00 0.000000e+00 0.000000e+00
<ENDHMM>
~h "e"
<BEGINHMM>
<NUMSTATES> 5
<STATE> 2
<MEAN> 39
 -1.862367e+00 -1.321459e+00 -2.280903e+00 -5.863316e-01 5.551577e-01 3.942895e-02 9.374285e-01 1.282403e-01 4.197876e+00 -1.453698e+00 -4.286385e-01 4.710740e-01 -5.529047e+00 1.066425e+00 -7.480180e-01 4.763431e-02 -7.990848e-02 -9.279389e-01 5.572759e-02 -7.952037e-01 1.444058e-01 6.157980e-01 7.086564e-01 -7.849039e-01 7.358330e-01 1.915972e+00 -7.404407e-02 1.827642e-02 1.031131e-01 -4.998682e-02 -1.283723e-02 -1.444024e-01 -1.978212e-01 -1.064974e-01 -1.196717e-01 -6.116588e-02 -1.915729e-02 -4.159721e-02 2.445280e-02
<VARIANCE> 39
 3.069290e+01 3.357616e+01 8.915277e+00 1.804592e+01 4.334731e+01 4.965569e+01 1.657146e+01 1.621000e+01 3.484781e+01 4.591008e+01 3.106387e+01 2.381547e+01 9.071516e+01 2.703763e+00 2.070963e+00 8.892381e-01 2.368994e+00 5.593939e+00 6.037780e+00 1.523449e+00 2.484340e+00 4.007229e+00 4.837208e+00 2.263465e+00 1.941449e+00 6.312942e+00 5.695655e-01 4.328129e-01 1.683936e-01 3.214631e-01 9.637624e-01 1.150104e+00 3.223062e-01 5.652829e-01 1.096972e+00 1.124840e+00 4.736533e-01 5.447385e-01 9.435149e-01
<GCONST> 1.219419e+02
<STATE> 3
<MEAN> 39
 6.054320e+00 1.916360e+00 5.244244e-01 -2.402114e+00 -2.529308e+00 -1.638095e+00 -1.535875e+00 1.492436e+00 -1.751631e-01 4.560994e-01 -3.111450e+00 -4.249122e-01 1.167706e+01 -1.328534e-01 8.454272e-02 3.450797e-02 4.253665e-02 1.529670e-01 -3.870565e-02 4.001139e-02 -1.575565e-02 -4.190185e-02 -8.132011e-02 8.982358e-02 -5.068342e-02 -2.217476e-01 -1.642202e-02 2.257697e-02 4.752409e-03 9.766730e-03 2.012924e-02 1.922821e-02 6.609829e-04 -1.999562e-02 2.555450e-02 -6.733919e-03 4.712719e-03 2.104806e-03 -3.896449e-02
<VARIANCE> 39
 2.552841e+01 7.438251e+01 2.053257e+01 2.400868e+01 2.840464e+01 4.372899e+01 6.272913e+01 7.249706e+01 3.862401e+01 4.269054e+01 3.179945e+01 2.328161e+01 9.286670e+01 1.380178e+00 1.799058e+00 9.911807e-01 1.533156e+00 2.489350e+00 2.628483e+00 2.759739e+00 3.532207e+00 3.031327e+00 3.334374e+00 2.433531e+00 1.974913e+00 1.502546e+00 2.264902e-01 2.170403e-01 1.482788e-01 2.396818e-01 4.771209e-01 4.590163e-01 5.146838e-01 6.452782e-01 5.100067e-01 5.828035e-01 4.644099e-01 3.626924e-01 1.834731e-01
<GCONST> 1.156326e+02
<STATE> 4
<MEAN> 39
 -5.963774e+00 7.606665e-01 -4.853238e-01 1.401990e-01 1.958529e+00 -1.824916e+00 2.362402e+00 -1.197886e+00 2.204088e+00 -2.732777e+00 2.184037e+00 -2.703373e+00 -1.226588e+01 -4.139645e-02 1.389926e-02 -4.286994e-03 -1.195542e-03 -1.907870e-03 1.447748e-02 3.233381e-02 -3.926033e-02 -7.223831e-02 6.562367e-03 -2.452184e-03 -4.941106e-02 -5.798184e-02 2.186610e-02 -6.914895e-03 -1.515417e-02 -2.217112e-02 -2.292737e-02 1.540495e-02 1.537897e-02 2.641123e-02 4.511628e-03 6.717671e-03 -3.082535e-03 -4.067060e-03 1.824696e-02
<VARIANCE> 39
 2.647757e+00 1.155362e+01 7.504773e+00 1.850064e+01 1.097927e+01 1.450481e+01 1.832264e+01 1.897404e+01 1.745066e+01 1.841984e+01 1.748630e+01 1.565931e+01 9.201847e+00 1.446191e-01 4.241534e-01 6.802444e-01 8.011467e-01 9.034154e-01 1.612302e+00 1.899199e+00 2.305721e+00 1.690333e+00 1.734746e+00 1.476512e+00 1.317691e+00 5.255025e-02 3.249773e-02 8.753247e-02 1.409371e-01 1.760148e-01 1.808669e-01 3.433714e-01 4.085306e-01 5.048926e-01 3.458181e-01 3.641462e-01 3.067828e-01 2.784455e-01 1.366729e-02
<GCONST> 7.906618e+01
<TRANSP> 5
 0.000000e+00 1.000000e+00 0.000000e+00 0.000000e+00 0.000000e+00
 0.000000e+00 6.713645e-01 3.286355e-01 0.000000e+00 0.000000e+00
 0.000000e+00 0.000000e+00 9.525884e-01 4.741160e-02 0.000000e+00
 0.000000e+00 0.000000e+00 0.000000e+00 9.727074e-01 2.729266e-02
 0.000000e+00 0.000000e+00 0.000000e+00 0.000000e+00 0.000000e+00
<ENDHMM>
~h "g"
<BEGINHMM>
<NUMSTATES> 5
<STATE> 2
<MEAN> 39
 4.177274e+00 3.905128e+00 -7.929305e-01 -8.099907e+00 -3.034014e+00 -5.622910e+00 -3.209100e+00 5.803798e+00 8.227379e-01 -6.866515e-03 4.406661e+00 -3.572012e+00 5.005621e+00 1.165559e+00 6.423095e-01 -5.423950e-01 -8.471472e-01 -6.340111e-01 -9.088784e-01 -1.373152e+00 1.084172e+00 5.294763e-01 1.436419e+00 -8.977905e-02 5.947129e-02 3.513294e+00 -1.675399e-01 -9.213172e-02 -2.931420e-02 4.658561e-01 9.894038e-02 3.513972e-02 -2.533749e-03 -2.243911e-01 2.555333e-01 2.093472e-01 -3.490932e-01 1.468637e-01 6.943271e-02
<VARIANCE> 39
 3.250493e+01 2.962612e+01 5.460810e+00 7.196882e+01 1.468362e+01 2.516755e+01 2.106077e+01 4.472628e+01 2.129840e+01 2.154356e+01 2.766695e+01 1.520880e+01 1.508430e+02 3.383981e+00 3.708230e+00 4.330844e-01 1.335874e+01 1.355199e+00 1.325970e+00 9.197112e-01 2.656982e+00 2.284336e+00 3.186353e+00 7.237555e+00 2.297619e+00 4.336394e+00 6.736967e-01 9.086589e-01 7.144034e-02 2.338732e+00 2.790154e-01 3.844444e-01 1.663319e-01 3.873720e-01 2.524672e-01 1.872891e-01 9.178775e-01 5.606350e-01 8.579400e-01
<GCONST> 1.153723e+02
<STATE> 3
<MEAN> 39
 6.671272e+00 8.949517e-02 1.704963e-01 -1.479703e+00 -7.093047e-01 3.069241e+00 -5.492018e-01 -1.299897e+00 -1.644527e+00 4.327435e+00 -2.833012e+00 2.199727e+00 1.824520e+01 -1.513471e-01 -1.299381e-01 7.017677e-02 1.780993e-01 9.927119e-02 1.576965e-01 6.781538e-02 -2.368054e-01 6.466050e-03 -8.796073e-02 3.506693e-02 -2.060553e-02 -4.585244e-01 -1.092453e-03 2.366414e-02 5.450265e-03 -4.599930e-02 -9.566973e-03 -1.475181e-02 3.485043e-02 3.794748e-02 -3.755354e-02 -5.621889e-02 3.387671e-02 -1.829698e-03 -4.669354e-02
<VARIANCE> 39
 1.764985e+01 7.974335e+01 1.655307e+01 4.290398e+01 2.176320e+01 1.449672e+02 5.800932e+01 7.343159e+01 4.873384e+01 3.524942e+01 3.046126e+01 1.977812e+01 9.621440e+01 7.819432e-01 2.578258e+00 1.369331e+00 1.802203e+00 2.284613e+00 4.087413e+00 4.139124e+00 4.188364e+00 2.873747e+00 3.624983e+00 2.560466e+00 1.407006e+00 1.981400e+00 8.311863e-02 3.317559e-01 2.191968e-01 2.869343e-01 4.602507e-01 5.985312e-01 8.601336e-01 6.853645e-01 5.427924e-01 7.817124e-01 5.379786e-01 2.449006e-01 1.906813e-01
<GCONST> 1.186066e+02
<STATE> 4
<MEAN> 39
 -3.535758e+00 -2.728103e-02 7.875926e-01 1.605334e+00 9.238860e-01 -1.163105e+00 7.326066e-02 -6.108710e-01 -4.776677e-02 -2.309896e+00 1.067920e+00 -1.148403e+00 -9.391537e+00 -4.347491e-02 6.569947e-03 -1.460715e-02 -1.274401e-02 -3.536474e-03 3.902161e-03 4.274419e-02 4.302346e-02 -3.289214e-02 -1.421525e-02 7.935937e-03 3.100222e-02 -7.036357e-02 6.342859e-03 -1.230885e-02 7.604419e-04 2.881086e-03 -7.177219e-04 5.812185e-03 -3.345346e-03 -1.210243e-02 1.417852e-02 2.010904e-02 -1.375929e-02 -1.238481e-02 1.000534e-02
<VARIANCE> 39
 1.458670e+00 2.792805e+00 4.396040e+00 5.583153e+00 9.476609e+00 1.202150e+01 1.702461e+01 1.595899e+01 2.040703e+01 1.760403e+01 1.996230e+01 1.296942e+01 1.934207e+00 1.024156e-01 2.906511e-01 4.331041e-01 6.078723e-01 1.080363e+00 1.297317e+00 1.138812e+00 1.523827e+00 1.913240e+00 2.426212e+00 1.756156e+00 1.597925e+00 4.550208e-02 2.023860e-02 5.985314e-02 8.576990e-02 1.163199e-01 2.306494e-01 2.634350e-01 2.371832e-01 3.015811e-01 3.812095e-01 5.400736e-01 3.630455e-01 3.351214e-01 8.194119e-03
<GCONST> 6.898618e+01
<TRANSP> 5
 0.000000e+00 1.000000e+00 0.000000e+00 0.000000e+00 0.000000e+00
 0.000000e+00 7.901960e-01 2.098041e-01 0.000000e+00 0.000000e+00
 0.000000e+00 0.000000e+00 9.684938e-01 3.150621e-02 0.000000e+00
 0.000000e+00 0.000000e+00 0.000000e+00 9.831020e-01 1.689805e-02
 0.000000e+00 0.000000e+00 0.000000e+00 0.000000e+00 0.000000e+00
<ENDHMM>
~h "h"
<BEGINHMM>
<NUMSTATES> 5
<STATE> 2
<MEAN> 39
 4.764764e-01 -2.795888e+00 -1.847624e+00 -1.950475e+00 2.628378e+00 4.272058e+00 8.724653e-01 -9.254631e-01 -3.288000e+00 1.024585e+00 2.506722e+00 3.422004e+00 5.017247e+00 6.080155e-01 1.984846e-02 1.123287e-02 -1.194118e-01 -5.877680e-02 1.017577e-01 -2.757380e-01 1.439717e-01 -1.649602e-01 9.719250e-02 -2.123819e-01 1.578169e-01 1.035919e+00 -6.652616e-03 4.460629e-02 3.373518e-02 4.306196e-03 -9.496052e-02 -6.859817e-02 4.167046e-02 2.797349e-02 4.471441e-02 -3.302440e-02 -1.071652e-01 -6.272745e-02 7.341558e-03
<VARIANCE> 39
 4.015469e+01 3.018010e+01 1.017917e+01 3.461587e+01 4.512289e+01 3.115220e+01 4.096729e+01 3.593018e+01 5.693724e+01 3.025187e+01 2.893303e+01 2.170542e+01 1.824719e+02 3.499688e+00 2.261578e+00 1.202162e+00 3.236583e+00 5.541510e+00 2.668716e+00 2.923172e+00 2.847018e+00 2.919859e+00 3.047153e+00 3.283769e+00 1.844485e+00 4.928919e+00 5.957822e-01 3.629176e-01 2.548597e-01 6.201583e-01 9.597238e-01 4.557632e-01 5.614605e-01 5.352488e-01 5.289478e-01 4.055237e-01 5.758149e-01 4.049415e-01 5.289481e-01
<GCONST> 1.230696e+02
<STATE> 3
<MEAN> 39
 6.158982e+00 -2.200012e-01 4.554653e-01 -5.614633e-01 -2.042133e+00 -1.483600e+00 -2.544631e+00 3.082881e+00 -1.483340e-01 2.770977e+00 -2.583024e+00 1.357319e+00 1.295191e+01 -1.482551e-01 2.478798e-02 7.379007e-02 1.083181e-01 6.034001e-02 -1.631304e-02 9.524534e-02 -6.008602e-02 3.828206e-02 -2.687163e-02 1.278764e-02 -1.030854e-01 -2.784376e-01 -3.170904e-02 -1.062034e-02 -7.188821e-03 -5.577736e-03 1.058938e-02 9.605346e-03 1.103167e-02 -4.715729e-03 3.534964e-03 -1.235222e-03 2.771791e-02 1.240779e-02 -4.291050e-02
<VARIANCE> 39
 2.811873e+01 7.788562e+01 2.630763e+01 3.644122e+01 2.725858e+01 4.822731e+01 8.901970e+01 7.726085e+01 3.620558e+01 5.029439e+01 3.913076e+01 3.612957e+01 1.032850e+02 1.030247e+00 1.763406e+00 1.133240e+00 2.044852e+00 1.976943e+00 2.198884e+00 3.152690e+00 3.057178e+00 2.501884e+00 2.802649e+00 2.622501e+00 2.389382e+00 1.407114e+00 1.623493e-01 2.357586e-01 1.788155e-01 3.974855e-01 3.836425e-01 3.922672e-01 5.327005e-01 5.853091e-01 4.729496e-01 5.077311e-01 5.011183e-01 4.781299e-01 1.364570e-01
<GCONST> 1.171341e+02
<STATE> 4
<MEAN> 39
 -5.360525e+00 3.746651e-01 7.161893e-01 1.793900e+00 2.657723e+00 -1.825208e+00 1.245147e+00 -5.581914e-01 3.318438e+00 -2.077595e+00 1.912963e+00 -1.784185e+00 -1.095733e+01 -1.151026e-01 -2.526302e-02 3.559227e-02 -2.519319e-02 -6.495512e-02 2.182358e-02 1.059925e-01 -7.822432e-02 1.059603e-01 1.170491e-01 1.408687e-03 8.144040e-03 -1.336760e-01 2.508930e-02 -1.822037e-03 1.957286e-02 -1.266798e-02 -1.684320e-02 -4.932664e-03 -1.759632e-02 2.467535e-02 3.307057e-03 5.263076e-03 -4.278626e-03 -3.056585e-02 3.691520e-02
<VARIANCE> 39
 6.212584e+00 8.316092e+00 9.785365e+00 9.648808e+00 9.818049e+00 1.272186e+01 1.170374e+01 1.505955e+01 2.645747e+01 1.856312e+01 1.705626e+01 1.247202e+01 1.810453e+01 2.052670e-01 6.177683e-01 6.926352e-01 1.007568e+00 1.211936e+00 1.303495e+00 1.352557e+00 1.812998e+00 2.020574e+00 1.901961e+00 1.858918e+00 1.388064e+00 3.345175e-01 3.753504e-02 8.746836e-02 1.335981e-01 1.991626e-01 2.843499e-01 2.410711e-01 2.396147e-01 3.573334e-01 4.375923e-01 4.219571e-01 4.158677e-01 2.839449e-01 1.310119e-02
<GCONST> 8.210635e+01
<TRANSP> 5
 0.000000e+00 1.000000e+00 0.000000e+00 0.000000e+00 0.000000e+00
 0.000000e+00 8.567747e-01 1.432253e-01 0.000000e+00 0.000000e+00
 0.000000e+00 0.000000e+00 9.518719e-01 4.812815e-02 0.000000e+00
 0.000000e+00 0.000000e+00 0.000000e+00 9.057808e-01 9.421920e-02
 0.000000e+00 0.000000e+00 0.000000e+00 0.000000e+00 0.000000e+00
<ENDHMM>
~h "i"
<BEGINHMM>
<NUMSTATES> 5
<STATE> 2
<MEAN> 39
 -6.110445e-01 3.882781e+00 7.093144e-01 -2.459560e+00 -1.763134e+00 2.568533e+00 -2.035346e+00 1.085618e+00 -5.479670e-02 -1.445884e+00 1.486708e-01 1.703931e+00 -1.191748e+01 9.933131e-01 7.234083e-01 5.151986e-01 -4.492872e-01 -7.168247e-01 -2.757636e-01 -3.882313e-01 1.088619e-01 -1.083503e-01 -3.936551e-01 -2.360598e-01 -1.933141e-01 1.227071e+00 -5.126531e-02 -2.174771e-01 -1.180399e-01 5.890061e-02 1.052783e-01 -1.188836e-01 1.108032e-03 4.641649e-02 -5.456977e-02 3.957711e-04 -1.234764e-02 2.624077e-02 1.211186e-01
<VARIANCE> 39
 6.269218e+01 3.220044e+01 2.417930e+01 4.290111e+01 5.610796e+01 3.099668e+01 3.154344e+01 1.360375e+01 2.076675e+01 3.584949e+01 1.330579e+01 1.772618e+01 1.651255e+02 3.939532e+00 3.728318e+00 2.772085e+00 8.153963e+00 6.194817e+00 3.381710e+00 1.884289e+00 1.384656e+00 2.251408e+00 3.903969e+00 1.011611e+00 1.019527e+00 1.058838e+01 6.168722e-01 5.104696e-01 5.640280e-01 1.612689e+00 1.309939e+00 5.655237e-01 3.396496e-01 2.128508e-01 4.777735e-01 7.531079e-01 2.284965e-01 2.399121e-01 7.772192e-01
<GCONST> 1.229525e+02
<STATE> 3
<MEAN> 39
 6.425451e+00 3.646887e+00 -1.125504e+00 -1.941571e+00 -5.279104e+00 -6.391248e+00 -3.291396e+00 1.439167e+00 -4.586050e+00 2.049968e+00 4.525741e-01 1.513275e+00 6.862199e+00 -1.564684e-01 -6.283877e-01 -8.877122e-02 1.662275e-01 3.225579e-01 2.147258e-01 1.562679e-01 -2.272775e-01 -5.904678e-01 1.448772e-01 1.879236e-01 3.943747e-03 4.077660e-01 -1.618422e-02 -4.404789e-02 -3.098158e-03 1.000979e-02 1.555072e-02 5.988179e-02 -4.963709e-02 7.434716e-03 -5.136025e-02 6.649818e-02 5.686793e-02 1.911380e-02 -1.006925e-02
<VARIANCE> 39
 4.413235e+01 3.705296e+01 1.398223e+01 2.271060e+01 2.143039e+01 5.162302e+01 3.483581e+01 3.609941e+01 7.215417e+01 3.042490e+01 2.033743e+01 3.351608e+01 1.903978e+02 1.086620e+00 2.661476e+00 1.314393e+00 2.723617e+00 1.401173e+00 3.526708e+00 3.760383e+00 1.698645e+00 4.411228e+00 2.191565e+00 1.194063e+00 1.447777e+00 3.229316e+00 1.605418e-01 3.830489e-01 2.072603e-01 3.772282e-01 2.690497e-01 3.903067e-01 7.032947e-01 3.578994e-01 8.057265e-01 4.867542e-01 2.720392e-01 2.531776e-01 2.321665e-01
<GCONST> 1.141861e+02
<STATE> 4
<MEAN> 39
 -3.790434e+00 1.031185e+00 -2.422320e-01 2.653917e+00 1.437540e+00 1.936525e+00 1.528787e+00 8.088555e-01 -2.900316e+00 -9.859443e-01 9.211943e-01 1.168208e+00 -1.349127e+01 -2.365147e-02 1.164692e-01 2.502476e-01 6.072968e-01 3.369657e-01 1.429938e-01 -1.288115e-01 2.450246e-01 -9.793118e-02 2.217322e-01 4.492507e-01 1.918150e-01 -4.253706e-01 7.254664e-02 2.761277e-02 3.776345e-02 -2.022214e-01 -2.625919e-01 -1.369954e-01 -3.335943e-01 4.415751e-02 1.944530e-01 2.364071e-01 3.110068e-01 3.212473e-02 1.203532e-01
<VARIANCE> 39
 4.034093e+01 3.187880e+01 6.919162e+00 4.780265e+01 9.877460e+00 4.395541e+01 2.218474e+01 4.161929e+01 4.232883e+01 4.709298e+01 1.805450e+01 2.431225e+01 3.701094e+02 1.632503e-01 1.329950e+00 8.954747e-01 1.309601e+00 5.522423e-01 1.500133e+00 9.130482e-01 1.392811e+00 2.094652e+00 3.120076e+00 1.514271e+00 1.358358e+00 1.189700e+00 1.819575e-01 9.531694e-01 3.362027e-01 9.194384e-01 2.660854e-01 2.731760e-01 2.717378e-01 1.981438e-01 2.891407e-01 6.072036e-01 3.890510e-01 1.341024e-01 1.494232e+00
<GCONST> 1.058308e+02
<TRANSP> 5
 0.000000e+00 1.000000e+00 0.000000e+00 0.000000e+00 0.000000e+00
 0.000000e+00 4.024384e-01 5.975616e-01 0.000000e+00 0.000000e+00
 0.000000e+00 0.000000e+00 7.646729e-01 2.353271e-01 0.000000e+00
 0.000000e+00 0.000000e+00 0.000000e+00 1.431596e-01 8.568405e-01
 0.000000e+00 0.000000e+00 0.000000e+00 0.000000e+00 0.000000e+00
<ENDHMM>
~h "j"
<BEGINHMM>
<NUMSTATES> 5
<STATE> 2
<MEAN> 39
 7.118924e+00 4.777020e+00 4.642939e+00 -6.005775e+00 -5.707394e+00 9.808136e-01 -1.583819e+00 -5.320627e+00 -9.668859e+00 8.166285e-01 -1.373648e+00 2.182827e+00 6.647448e+00 -7.060117e-01 -1.253314e+00 -7.543787e-01 4.871268e-01 7.989727e-01 -5.333503e-02 6.674781e-01 1.532065e+00 1.257289e+00 -2.036317e-03 6.763650e-01 6.685878e-01 1.801317e-02 6.948899e-02 -4.172959e-02 -3.231454e-01 6.374338e-01 -1.214858e-01 -1.633122e-01 -3.471478e-01 4.918379e-01 4.663726e-01 2.173943e-01 -1.469790e-01 -1.842565e-01 1.953697e-01
<VARIANCE> 39
 1.478804e+01 6.889832e+01 2.048116e+01 5.567479e+01 1.287867e+01 2.789465e+01 1.010121e+01 8.574051e+01 2.492853e+01 1.141879e+02 1.984867e+01 1.665470e+01 9.669728e+01 1.374519e+00 1.013618e+00 1.940516e+00 9.320257e-01 3.101356e+00 5.565431e+00 2.126458e+00 8.910163e-01 1.295769e+00 8.921179e+00 4.745487e+00 1.729851e+00 2.315146e+00 5.554102e-02 4.025453e-01 2.397978e-01 6.134015e-01 1.172628e-01 1.045936e-01 6.789698e-02 2.553360e-01 1.146740e-01 7.920256e-01 7.695432e-02 7.234029e-02 1.233716e-01
<GCONST> 1.025653e+02
<STATE> 3
<MEAN> 39
 6.545210e+00 2.385382e+00 3.169523e+00 -6.334568e+00 -5.872416e+00 3.039363e-01 -1.540356e+00 -6.568916e-01 -5.796243e+00 1.020959e+00 1.201597e+00 1.701135e+00 6.969831e+00 -5.725859e-01 -1.205207e+00 -1.190557e+00 1.563466e+00 1.843055e-01 -3.032267e-01 4.480737e-01 2.524050e+00 1.207842e+00 1.634328e-01 2.273765e-01 4.045372e-01 2.586779e-01 1.694776e-01 2.971268e-01 -2.273490e-01 3.774742e-01 -1.384422e-01 -2.037690e-01 -3.933496e-01 -2.127890e-01 -6.762294e-02 1.186952e-01 -2.142931e-01 -2.644206e-01 1.021651e-01
<VARIANCE> 39
 2.883143e+01 5.520832e+01 1.694308e+01 4.989774e+01 1.791882e+01 4.648858e+01 1.785367e+01 7.263707e+01 4.959829e+01 7.208308e+01 4.864522e+00 1.123322e+01 1.082606e+02 1.006950e+00 2.484791e+00 3.757527e+00 3.387666e+00 3.426954e+00 2.503274e+00 2.768585e+00 8.028313e-01 6.092181e-01 6.913284e+00 3.064917e+00 7.882423e-01 2.328967e+00 1.524428e-01 1.043078e-01 9.312791e-02 4.993116e-01 3.956776e-01 6.470927e-01 1.401661e-01 2.094223e-01 9.689994e-02 2.921452e-01 4.105380e-01 7.073907e-02 5.961403e-02
<GCONST> 1.041000e+02
<STATE> 4
<MEAN> 39
 5.993080e+00 9.490135e-01 2.057306e+00 -3.438418e+00 -4.352380e+00 -5.080571e-01 -3.887036e-01 -1.726874e+00 -4.889272e+00 2.613245e+00 1.844996e+00 5.347463e-01 8.055815e+00 -2.846247e-01 -4.394509e-01 -1.150865e+00 1.136601e+00 -4.177935e-01 -8.413557e-01 -3.810137e-01 1.369936e+00 1.219242e+00 8.509118e-02 1.809684e-01 -1.332082e-01 1.784102e-01 1.759274e-01 3.784380e-01 -1.327492e-01 8.560793e-03 1.595582e-02 9.177846e-02 -5.310372e-01 -6.673668e-01 -4.539185e-01 8.416082e-02 -9.329954e-02 -1.025135e-01 -4.018977e-02
<VARIANCE> 39
 2.153824e+01 2.773516e+01 2.146633e+01 1.386090e+01 3.956070e+01 7.297215e+01 1.009184e+01 1.059697e+02 3.323132e+01 7.388195e+01 1.419562e+01 2.078579e+01 1.288670e+02 7.941307e-01 9.645137e-01 2.464860e+00 4.685561e+00 4.899853e-01 3.300884e-01 6.740928e-02 6.686918e-01 5.911348e-01 3.282070e+00 1.046491e+00 7.505697e-01 1.464426e+00 8.924347e-02 5.574516e-01 2.946135e-01 1.716287e-01 6.372986e-01 1.141799e+00 2.515559e-01 3.254691e-01 3.640174e-02 1.385540e+00 6.364405e-01 1.117967e-01 1.489315e-01
<GCONST> 9.878155e+01
<TRANSP> 5
 0.000000e+00 1.000000e+00 0.000000e+00 0.000000e+00 0.000000e+00
 0.000000e+00 0.000000e+00 1.000000e+00 0.000000e+00 0.000000e+00
 0.000000e+00 0.000000e+00 0.000000e+00 1.000000e+00 0.000000e+00
 0.000000e+00 0.000000e+00 0.000000e+00 0.000000e+00 1.000000e+00
 0.000000e+00 0.000000e+00 0.000000e+00 0.000000e+00 0.000000e+00
<ENDHMM>
~h "k"
<BEGINHMM>
<NUMSTATES> 5
<STATE> 2
<MEAN> 39
 9.774866e-01 -7.101797e+00 -2.554661e-01 3.518979e+00 -2.472181e+00 -1.778708e+00 1.427968e+00 5.517394e+00 2.949219e+00 5.509530e-01 1.200945e+00 3.245581e+00 8.718191e-01 1.913804e-01 -4.075653e-01 -4.658703e-01 -1.543588e-01 -8.984896e-01 4.537556e-01 3.545946e-01 1.154360e+00 4.248797e-01 -1.367722e-02 1.612890e-01 2.046624e-02 2.099161e+00 -1.302936e-01 1.946633e-01 -1.537707e-01 -1.761861e-01 1.396685e-02 -3.208309e-02 3.486759e-02 -3.334563e-02 9.282853e-02 8.889773e-02 1.130297e-02 -1.788848e-01 6.315263e-02
<VARIANCE> 39
 1.155659e+01 4.338004e+01 5.345800e+01 3.140049e+01 4.957603e+01 5.284500e+01 1.942040e+01 7.947009e+01 2.565796e+01 1.889005e+01 2.191154e+01 2.428436e+01 1.053304e+02 1.083270e+00 6.427119e+00 5.035298e+00 5.420885e+00 4.814846e+00 7.823314e+00 1.508484e+00 3.941567e+00 1.442467e+00 2.354613e+00 4.885445e+00 4.861649e+00 4.034668e+00 1.535993e-01 1.349273e+00 1.203873e+00 1.085130e+00 1.003873e+00 1.595677e+00 3.050642e-01 7.484378e-01 3.482506e-01 6.428390e-01 8.013501e-01 8.231640e-01 4.595839e-01
<GCONST> 1.290916e+02
<STATE> 3
<MEAN> 39
 2.800876e+00 -1.710085e+00 -2.024647e+00 -4.890183e-01 -4.502507e+00 3.371646e+00 4.079279e-01 6.636361e+00 -1.669060e-01 -6.717321e-02 -1.787348e+00 -1.738061e+00 1.733587e+01 -9.380316e-03 1.660452e-01 -1.555620e-02 -1.128449e-01 1.037841e-01 -1.547406e-01 -7.026233e-02 -2.989960e-01 -1.059691e-01 -2.586674e-04 -4.718218e-02 4.802687e-02 -4.002664e-01 -3.150715e-03 -2.542443e-02 6.292295e-04 3.717972e-02 3.700165e-02 -2.495877e-02 -3.603745e-02 -2.344038e-02 5.107569e-03 1.273833e-02 -2.607966e-02 4.519411e-02 -4.165851e-02
<VARIANCE> 39
 2.660764e+01 2.138390e+01 1.336654e+01 1.330327e+01 2.941535e+01 5.177621e+01 5.943365e+01 4.391591e+01 4.572002e+01 2.320805e+01 4.290267e+01 1.966813e+01 1.245991e+02 1.851090e+00 1.169320e+00 9.491329e-01 1.401675e+00 2.238034e+00 2.021759e+00 3.543224e+00 2.485157e+00 2.587789e+00 1.919827e+00 2.254335e+00 1.787240e+00 1.507477e+00 2.833392e-01 2.041159e-01 1.908931e-01 2.221814e-01 3.329372e-01 3.267282e-01 7.197744e-01 5.652630e-01 4.322158e-01 3.787239e-01 3.373083e-01 3.701396e-01 1.652625e-01
<GCONST> 1.102583e+02
<STATE> 4
<MEAN> 39
 -2.389750e+00 7.048324e-01 1.289305e+00 -8.848453e-01 1.583903e+00 -2.149060e+00 -4.200060e-01 -5.117335e+00 9.400245e-01 2.602616e-02 -4.754851e-01 -4.481420e-02 -8.029742e+00 -6.925978e-02 3.504180e-02 8.381590e-02 1.087372e-01 6.688109e-02 -1.728931e-01 -2.233317e-01 7.314833e-02 4.302244e-02 -2.982762e-02 3.713801e-02 2.755247e-03 -1.126816e-01 1.542165e-02 -3.044603e-02 -1.867430e-02 1.529488e-04 -7.628813e-03 6.047244e-03 1.198848e-02 3.378017e-02 -4.330972e-02 -1.977930e-02 2.631641e-02 -2.004321e-02 2.157358e-02
<VARIANCE> 39
 1.928351e+00 4.606912e+00 5.296725e+00 6.895198e+00 1.049731e+01 1.632384e+01 1.760228e+01 1.699084e+01 1.851259e+01 1.432067e+01 1.578549e+01 1.302534e+01 1.999834e+00 1.062879e-01 2.936030e-01 6.116195e-01 9.666819e-01 1.060417e+00 1.225570e+00 2.104584e+00 1.711579e+00 2.004885e+00 1.863624e+00 1.680641e+00 1.236309e+00 5.276678e-02 1.885132e-02 6.693741e-02 1.359664e-01 2.033829e-01 1.793784e-01 2.560280e-01 4.004599e-01 3.531779e-01 4.627794e-01 3.353536e-01 3.182742e-01 2.729712e-01 1.223397e-02
<GCONST> 7.255180e+01
<TRANSP> 5
 0.000000e+00 1.000000e+00 0.000000e+00 0.000000e+00 0.000000e+00
 0.000000e+00 7.007514e-01 2.992486e-01 0.000000e+00 0.000000e+00
 0.000000e+00 0.000000e+00 9.392977e-01 6.070230e-02 0.000000e+00
 0.000000e+00 0.000000e+00 0.000000e+00 9.467020e-01 5.329800e-02
 0.000000e+00 0.000000e+00 0.000000e+00 0.000000e+00 0.000000e+00
<ENDHMM>
~h "l"
<BEGINHMM>
<NUMSTATES> 5
<STATE> 2
<MEAN> 39
 3.254562e+00 -2.549335e+00 -8.494856e-01 4.090522e+00 2.160401e+00 6.477720e+00 -4.623714e-01 -6.362794e+00 -7.410738e+00 5.310150e+00 2.694642e+00 1.866358e+00 9.536872e+00 5.845875e-04 1.307824e-01 1.519094e-01 1.254538e-01 -1.456627e-01 -1.926662e-01 8.215477e-02 1.730711e-01 3.427681e-01 1.263620e-01 9.670585e-02 1.199456e-01 -4.728196e-01 2.981348e-02 5.740297e-02 4.022077e-02 -1.457981e-02 -5.484251e-02 -6.605559e-02 -2.764387e-02 -3.420625e-03 1.720334e-03 -5.252277e-02 -1.258160e-03 -2.742195e-02 -6.067031e-02
<VARIANCE> 39
 3.522596e+01 1.516000e+01 1.306019e+01 2.530729e+01 2.670339e+01 4.071295e+01 2.946084e+01 2.957627e+01 6.126334e+01 3.531131e+01 2.113149e+01 1.738132e+01 2.134981e+02 8.048249e-01 1.489769e+00 1.077720e+00 2.381252e+00 1.571872e+00 2.210001e+00 1.221807e+00 1.937894e+00 1.925919e+00 2.154152e+00 1.704481e+00 1.556688e+00 2.500252e+00 1.181630e-01 2.416714e-01 1.680608e-01 3.251906e-01 2.865728e-01 3.149698e-01 2.341491e-01 3.367327e-01 4.446380e-01 4.543457e-01 3.487318e-01 3.400347e-01 1.538875e-01
<GCONST> 1.060040e+02
<STATE> 3
<MEAN> 39
 5.215911e+00 2.006356e+00 1.619064e+00 1.040798e+00 -2.210621e+00 -2.531959e+00 -4.072618e+00 -7.293185e-01 -2.369778e+00 2.193194e+00 3.217480e-01 -1.633911e+00 5.664378e+00 -4.486377e-02 3.384756e-01 1.847791e-01 2.732746e-02 -4.825515e-02 -1.451406e-01 -5.142792e-02 -8.884142e-02 1.022263e-01 -8.441355e-02 8.621577e-02 -3.110038e-01 -4.769872e-01 -6.283553e-02 3.812732e-02 1.422785e-03 2.435080e-02 -6.944984e-03 4.831753e-02 2.518694e-02 -5.236707e-02 -1.698264e-02 -3.984352e-02 -4.627480e-02 2.048007e-02 -4.179657e-02
<VARIANCE> 39
 5.037520e+01 5.118612e+01 1.498734e+01 2.113091e+01 2.877515e+01 3.533425e+01 7.578014e+01 8.610771e+01 3.352156e+01 5.632753e+01 3.965874e+01 3.996247e+01 1.949594e+02 1.867510e+00 2.575309e+00 1.443731e+00 1.784014e+00 2.868029e+00 2.611326e+00 3.552460e+00 5.156843e+00 3.252057e+00 3.121508e+00 2.737272e+00 2.783262e+00 2.823252e+00 2.411292e-01 4.660135e-01 2.319454e-01 3.649857e-01 5.160508e-01 4.654560e-01 6.015282e-01 1.038701e+00 6.504089e-01 3.659199e-01 4.111838e-01 5.149797e-01 4.029196e-01
<GCONST> 1.235580e+02
<STATE> 4
<MEAN> 39
 -6.085191e+00 1.652752e+00 -1.964764e-01 1.756549e+00 2.173836e+00 4.355887e-01 2.805422e+00 -7.498056e-02 2.338876e+00 -1.133392e+00 2.196623e+00 -1.825953e+00 -1.478185e+01 -9.734155e-02 1.999881e-02 5.767399e-02 -2.989933e-02 -1.233279e-02 1.173624e-02 1.084619e-02 2.176991e-02 -3.246485e-02 3.041754e-02 -4.003732e-02 -3.276465e-03 -1.023819e-01 3.290092e-02 -3.287948e-02 -5.187883e-03 -1.139036e-02 3.380237e-03 2.794832e-02 2.018501e-03 2.129215e-02 6.027948e-02 -1.405116e-03 -3.273240e-02 8.956805e-03 4.729173e-02
<VARIANCE> 39
 7.675846e+00 1.312514e+01 6.732605e+00 1.419575e+01 1.234040e+01 2.306985e+01 1.370839e+01 1.971170e+01 2.160176e+01 2.015126e+01 1.598662e+01 2.610518e+01 4.879341e+01 2.681977e-01 4.986691e-01 5.282663e-01 1.016472e+00 1.081848e+00 1.741547e+00 1.180665e+00 1.402232e+00 2.618492e+00 2.248172e+00 1.540053e+00 1.791479e+00 1.916668e-01 3.584105e-02 2.157819e-01 1.064645e-01 3.831890e-01 2.463721e-01 3.676578e-01 1.985910e-01 3.114702e-01 5.937799e-01 4.880798e-01 3.215935e-01 3.931773e-01 2.871252e-01
<GCONST> 8.993724e+01
<TRANSP> 5
 0.000000e+00 1.000000e+00 0.000000e+00 0.000000e+00 0.000000e+00
 0.000000e+00 8.278114e-01 1.721887e-01 0.000000e+00 0.000000e+00
 0.000000e+00 0.000000e+00 8.156546e-01 1.843454e-01 0.000000e+00
 0.000000e+00 0.000000e+00 0.000000e+00 8.553812e-01 1.446189e-01
 0.000000e+00 0.000000e+00 0.000000e+00 0.000000e+00 0.000000e+00
<ENDHMM>
~h "m"
<BEGINHMM>
<NUMSTATES> 5
<STATE> 2
<MEAN> 39
 -8.920681e-01 -5.019082e+00 1.539953e+00 5.079813e+00 -1.902811e-01 4.735030e+00 -2.416284e+00 -2.493858e+00 -8.765719e-01 4.440927e+00 -2.149006e+00 3.141291e-01 2.578865e+00 5.036398e-01 -2.455849e-01 9.138865e-02 2.481786e-01 -5.006682e-02 2.442439e-01 -5.531830e-01 -3.383904e-01 -5.278845e-01 7.486239e-01 -2.155363e-01 4.571780e-02 2.084985e+00 4.246587e-02 1.475914e-01 -2.741852e-02 -1.298139e-01 -3.354770e-02 -1.302896e-01 -1.412708e-02 -4.871251e-02 -4.978234e-02 -9.354921e-02 -3.164538e-02 -3.355593e-02 -8.567573e-02
<VARIANCE> 39
 2.336348e+01 2.015285e+01 2.205861e+01 2.446008e+01 5.570527e+01 4.054171e+01 4.641489e+01 4.758081e+01 3.690506e+01 3.907951e+01 1.892561e+01 3.280946e+01 3.383991e+02 1.318631e+00 3.035249e+00 1.903919e+00 1.631398e+00 4.263592e+00 3.838916e+00 3.097101e+00 4.470995e+00 2.481783e+00 4.065857e+00 2.524278e+00 2.413982e+00 1.226295e+01 2.757641e-01 6.415023e-01 3.251241e-01 4.136051e-01 6.810926e-01 6.770444e-01 4.646762e-01 8.243634e-01 5.260295e-01 7.846074e-01 5.106181e-01 3.521161e-01 2.268039e+00
<GCONST> 1.263892e+02
<STATE> 3
<MEAN> 39
 6.268916e+00 2.290543e+00 3.283988e+00 1.676708e+00 -3.769064e+00 -3.094502e+00 -5.175882e+00 2.366931e-01 -2.409614e+00 3.411990e+00 -2.492258e+00 2.307559e+00 7.035599e+00 2.369794e-02 2.856426e-01 1.615739e-01 -3.205950e-01 -5.527355e-02 -3.932700e-01 -7.322422e-02 1.052630e-01 4.157951e-01 -2.551850e-01 2.280479e-01 1.271936e-01 -7.703616e-01 -5.779922e-02 1.196598e-02 5.771329e-03 4.960006e-02 -3.063731e-02 5.978392e-02 3.256180e-02 -1.416124e-02 7.440582e-02 7.305357e-03 -1.723030e-03 -4.393169e-02 4.712247e-02
<VARIANCE> 39
 5.850663e+01 4.096950e+01 3.082594e+01 1.916623e+01 4.013268e+01 1.166517e+02 4.008116e+01 8.397147e+01 4.874219e+01 2.870196e+01 2.006039e+01 2.597365e+01 2.734547e+02 1.775342e+00 3.204048e+00 1.896927e+00 2.068119e+00 3.361155e+00 5.073434e+00 2.662245e+00 2.713487e+00 4.589145e+00 2.032275e+00 1.184328e+00 3.282643e+00 2.289555e+00 2.150847e-01 4.336578e-01 3.065592e-01 3.523062e-01 5.326012e-01 8.887171e-01 4.772750e-01 5.927639e-01 9.813936e-01 3.314105e-01 2.665334e-01 6.738070e-01 3.303459e-01
<GCONST> 1.233056e+02
<STATE> 4
<MEAN> 39
 -3.752839e+00 -1.412204e-01 1.413931e+00 6.772881e-01 9.231693e-01 5.900743e-01 -8.788278e-01 2.847797e+00 2.145228e+00 1.902661e+00 -1.878799e+00 -4.937214e-01 -1.165468e+01 -2.773401e-01 6.573789e-02 7.451371e-02 1.867655e-01 -6.253260e-01 -3.057542e-01 1.157784e-01 -2.015681e-02 4.989973e-01 -8.494397e-02 4.876018e-02 1.390916e-01 -1.724133e-01 1.554102e-01 1.318196e-01 7.731264e-02 1.041226e-01 -1.657534e-01 1.492362e-01 1.447835e-01 -1.846295e-01 -1.711141e-01 -3.161796e-02 2.970283e-02 2.518575e-01 9.120785e-02
<VARIANCE> 39
 3.363287e+01 1.528684e+01 9.751887e+00 1.614754e+01 2.035977e+01 4.318171e+01 2.680811e+01 4.428793e+01 1.935600e+01 1.711287e+01 1.840561e+01 2.795125e+01 2.083133e+02 9.114397e-01 2.061608e+00 9.757715e-01 2.492307e+00 1.953772e+00 1.575603e+00 3.115413e+00 2.179569e+00 2.772111e+00 2.145394e+00 1.360821e+00 2.406284e+00 2.530935e+00 1.593943e-01 3.341198e-01 1.872291e-01 2.575295e-01 5.292088e-01 3.907239e-01 7.827320e-01 3.388720e-01 3.526786e-01 3.893101e-01 3.321387e-01 5.837570e-01 1.906596e-01
<GCONST> 1.085281e+02
<TRANSP> 5
 0.000000e+00 1.000000e+00 0.000000e+00 0.000000e+00 0.000000e+00
 0.000000e+00 7.496310e-01 2.503690e-01 0.000000e+00 0.000000e+00
 0.000000e+00 0.000000e+00 7.569630e-01 2.430369e-01 0.000000e+00
 0.000000e+00 0.000000e+00 0.000000e+00 4.133073e-01 5.866928e-01
 0.000000e+00 0.000000e+00 0.000000e+00 0.000000e+00 0.000000e+00
<ENDHMM>
~h "n"
<BEGINHMM>
<NUMSTATES> 5
<STATE> 2
<MEAN> 39
 -1.948429e+00 -1.175069e+00 1.191804e-01 -9.350481e-01 2.627884e+00 8.640256e+00 -7.878953e-01 -7.106775e-01 -3.924363e-01 4.831899e-01 2.532090e+00 5.632067e-01 -3.030279e+00 7.190815e-01 2.261495e-01 -1.717226e-02 -8.014129e-01 1.069808e-01 1.077128e+00 -6.667340e-01 2.937916e-01 -7.129657e-01 -1.908629e-01 1.455618e-01 -7.630418e-02 2.058465e+00 -4.550079e-02 5.465714e-02 -2.366224e-02 -4.043803e-02 2.463786e-02 -9.196392e-02 -1.023999e-01 8.929990e-03 -6.190062e-03 -2.266317e-02 4.215810e-02 4.702285e-02 3.081490e-02
<VARIANCE> 39
 2.787753e+01 1.867786e+01 2.141655e+01 6.908923e+01 5.211955e+01 6.379293e+01 4.407211e+01 3.549982e+01 6.655463e+01 6.180550e+01 2.803608e+01 1.837539e+01 2.783188e+02 2.437410e+00 1.488662e+00 1.760335e+00 4.864091e+00 3.311420e+00 2.728583e+00 3.421806e+00 3.048854e+00 3.409872e+00 4.666822e+00 1.801633e+00 1.670642e+00 9.991059e+00 4.338084e-01 2.048831e-01 2.069066e-01 8.395772e-01 5.904199e-01 4.129320e-01 5.877581e-01 6.310909e-01 8.627579e-01 8.333995e-01 4.033673e-01 3.748168e-01 1.760965e+00
<GCONST> 1.268176e+02
<STATE> 3
<MEAN> 39
 4.483758e+00 4.249321e-01 -7.565346e-02 2.151554e+00 -4.686624e-01 1.899087e-01 -6.317647e+00 -3.477017e+00 -4.940934e+00 4.727843e+00 3.054423e+00 3.126148e+00 1.082237e+01 -1.075746e-01 -1.909131e-02 -5.229936e-02 1.475919e-01 5.285324e-02 -2.207796e-01 2.079802e-01 -4.918991e-02 6.464338e-02 1.121081e-01 4.946135e-03 -7.290147e-02 -3.725619e-01 -1.299051e-02 -1.022169e-03 -4.497343e-03 -4.527738e-03 6.983230e-03 1.103393e-02 -5.329669e-03 3.284335e-03 6.282240e-03 -4.753917e-02 -2.187925e-02 2.394665e-02 -2.119138e-02
<VARIANCE> 39
 3.643718e+01 5.677147e+01 2.520165e+01 5.592196e+01 3.853573e+01 8.650951e+01 4.373082e+01 3.926090e+01 5.742355e+01 2.418090e+01 4.288246e+01 3.463263e+01 1.313912e+02 1.137479e+00 1.509103e+00 1.678685e+00 1.588771e+00 2.829012e+00 4.467817e+00 2.918757e+00 2.513415e+00 2.408812e+00 2.370207e+00 2.242067e+00 2.242920e+00 1.154709e+00 1.474323e-01 2.358308e-01 2.739746e-01 2.137844e-01 4.618225e-01 6.487626e-01 5.608374e-01 4.626222e-01 4.135711e-01 4.717153e-01 4.328631e-01 4.854134e-01 1.604270e-01
<GCONST> 1.173171e+02
<STATE> 4
<MEAN> 39
 -6.436026e+00 1.780761e-01 -9.832602e-01 1.258066e+00 2.578249e+00 7.875501e-01 2.248542e+00 -8.591759e-02 4.627897e-01 -1.611270e+00 9.393648e-01 -6.745200e-01 -1.554699e+01 -5.050255e-02 4.829243e-02 -6.692067e-03 8.570015e-03 8.291615e-02 8.955365e-02 -1.837784e-02 -2.397669e-02 -9.597078e-03 -7.484910e-02 -1.408447e-02 6.297813e-02 -7.927682e-02 3.033984e-02 1.266291e-04 2.407071e-02 -4.699785e-03 2.716327e-03 1.219882e-02 -4.300816e-02 -5.053222e-02 4.758132e-02 -9.002939e-03 1.003803e-02 -1.347833e-02 3.424461e-02
<VARIANCE> 39
 4.116014e+00 4.023067e+00 6.055919e+00 8.369567e+00 9.849708e+00 1.404263e+01 1.166394e+01 1.862399e+01 1.404924e+01 1.553895e+01 1.224375e+01 1.410721e+01 1.889339e+01 2.041728e-01 2.794141e-01 7.150835e-01 6.810813e-01 9.927752e-01 1.294591e+00 1.289281e+00 2.252628e+00 1.127535e+00 1.725098e+00 1.715739e+00 1.471088e+00 9.487026e-02 5.189236e-02 7.579419e-02 1.722316e-01 1.523308e-01 1.958278e-01 2.363825e-01 2.087289e-01 4.927304e-01 1.799946e-01 3.132111e-01 3.722641e-01 3.085519e-01 2.233934e-02
<GCONST> 7.579905e+01
<TRANSP> 5
 0.000000e+00 1.000000e+00 0.000000e+00 0.000000e+00 0.000000e+00
 0.000000e+00 6.064968e-01 3.935032e-01 0.000000e+00 0.000000e+00
 0.000000e+00 0.000000e+00 9.152495e-01 8.475056e-02 0.000000e+00
 0.000000e+00 0.000000e+00 0.000000e+00 8.536754e-01 1.463246e-01
 0.000000e+00 0.000000e+00 0.000000e+00 0.000000e+00 0.000000e+00
<ENDHMM>
~h "o"
<BEGINHMM>
<NUMSTATES> 5
<STATE> 2
<MEAN> 39
 1.126761e+00 -4.613405e+00 -3.912573e+00 1.137105e+00 1.215114e+00 -4.193365e+00 -9.212563e-01 1.421160e+00 2.567293e+00 -2.600816e-01 1.076998e+00 4.787011e-01 -3.377940e+00 1.062085e+00 -6.996829e-01 -1.255835e+00 -2.850462e-01 -4.648927e-01 3.015069e-01 -1.988202e-03 1.296332e+00 -1.089950e-01 -3.036286e-01 8.604559e-02 -2.808956e-01 2.106861e+00 -6.799741e-02 2.479277e-01 2.251366e-01 -1.021261e-01 -2.634002e-01 3.141833e-01 9.500238e-02 1.370780e-01 -1.544615e-01 8.098895e-02 -1.774094e-01 -3.573046e-02 3.836389e-01
<VARIANCE> 39
 2.622857e+01 4.019611e+01 4.185369e+01 1.693881e+01 2.226851e+01 2.933113e+01 2.866035e+01 5.283734e+01 1.784409e+01 3.229533e+01 1.453945e+01 1.401342e+01 4.603685e+01 1.366593e+00 5.102487e+00 3.367826e+00 1.704377e+00 2.667069e+00 3.163219e+00 2.352710e+00 4.182804e+00 2.304976e+00 2.954897e+00 1.688036e+00 1.289416e+00 3.405418e+00 4.406864e-01 1.026070e+00 8.235407e-01 3.197991e-01 2.903025e-01 8.291910e-01 4.022157e-01 6.185158e-01 4.718429e-01 7.590175e-01 3.129910e-01 2.433996e-01 2.264742e-01
<GCONST> 1.165096e+02
<STATE> 3
<MEAN> 39
 4.780146e+00 -4.863852e-01 -1.771623e+00 -1.051630e+00 -3.602973e+00 4.312719e+00 6.741667e-01 5.750787e+00 -1.169489e+00 3.637850e-01 -6.918507e-01 -1.519000e+00 1.625736e+01 -8.115447e-02 1.202086e-01 1.805986e-01 6.881049e-02 1.195011e-01 -1.523465e-02 3.027559e-02 -1.908680e-01 -8.726762e-03 4.187411e-02 -6.490649e-02 3.129987e-02 -2.260147e-01 -4.711919e-03 -1.960702e-02 -1.476992e-02 1.773296e-02 1.554076e-02 -3.726932e-02 1.987302e-02 -3.147964e-02 2.383031e-02 -1.006309e-02 1.523501e-02 1.662367e-02 -6.897276e-02
<VARIANCE> 39
 3.557548e+01 2.589103e+01 1.511336e+01 1.988312e+01 3.878414e+01 3.588718e+01 4.051874e+01 6.448152e+01 3.460501e+01 1.766755e+01 2.558922e+01 3.202430e+01 1.052775e+02 1.985881e+00 1.062636e+00 1.165491e+00 1.282592e+00 1.781060e+00 2.945631e+00 2.761297e+00 4.086750e+00 1.972211e+00 1.954283e+00 1.949360e+00 2.316959e+00 2.793674e+00 3.265871e-01 1.752495e-01 2.204639e-01 2.303771e-01 3.293894e-01 5.139794e-01 4.857105e-01 9.186656e-01 3.139943e-01 3.879100e-01 3.182045e-01 4.285543e-01 2.366797e-01
<GCONST> 1.122473e+02
<STATE> 4
<MEAN> 39
 -3.009438e+00 9.090956e-01 2.032236e+00 4.993027e-01 1.779954e+00 -2.250910e+00 -5.831372e-01 -3.094969e+00 7.729098e-01 8.649770e-01 -4.720084e-01 5.289174e-02 -9.053310e+00 -4.590262e-02 2.428499e-03 -2.748509e-02 -4.291018e-02 -7.804348e-02 -1.072729e-02 -6.721351e-03 -6.303285e-02 -1.058090e-02 2.386529e-02 -1.116026e-03 -9.304972e-03 -4.882287e-02 4.276894e-03 -5.633882e-03 -6.796692e-03 1.801683e-02 -3.619595e-03 -1.994578e-02 -5.286861e-03 1.053873e-02 1.727242e-03 -2.345197e-02 1.525463e-02 1.781365e-02 1.126347e-02
<VARIANCE> 39
 2.400290e+00 3.584919e+00 4.186329e+00 7.092265e+00 9.583846e+00 1.388211e+01 1.300137e+01 1.504604e+01 2.062928e+01 1.934961e+01 1.715545e+01 1.281231e+01 2.486847e+00 1.499274e-01 2.714934e-01 4.605646e-01 6.552757e-01 8.566693e-01 1.458162e+00 1.351352e+00 1.561505e+00 1.792219e+00 1.759592e+00 1.914888e+00 1.463063e+00 3.867653e-02 2.675308e-02 7.103772e-02 9.069905e-02 1.459250e-01 1.823647e-01 2.837178e-01 2.847220e-01 3.390012e-01 3.564390e-01 3.368815e-01 3.784891e-01 2.958033e-01 8.681888e-03
<GCONST> 7.023055e+01
<TRANSP> 5
 0.000000e+00 1.000000e+00 0.000000e+00 0.000000e+00 0.000000e+00
 0.000000e+00 6.916829e-01 3.083171e-01 0.000000e+00 0.000000e+00
 0.000000e+00 0.000000e+00 9.571012e-01 4.289882e-02 0.000000e+00
 0.000000e+00 0.000000e+00 0.000000e+00 9.462199e-01 5.378001e-02
 0.000000e+00 0.000000e+00 0.000000e+00 0.000000e+00 0.000000e+00
<ENDHMM>
~h "p"
<BEGINHMM>
<NUMSTATES> 5
<STATE> 2
<MEAN> 39
 1.731443e+00 -3.278440e+00 -2.283217e+00 1.243269e+00 3.542040e+00 8.566141e+00 -8.337668e-01 -3.355390e+00 -5.871242e+00 3.279478e+00 -1.314404e+00 2.299607e-02 1.483819e+01 3.376325e-01 -9.296073e-02 -6.153214e-02 -4.727926e-02 -1.397829e-01 3.664027e-01 -1.418272e-02 3.363143e-02 -1.458549e-01 1.102262e-01 -9.458394e-02 6.281514e-02 8.372015e-01 5.464196e-02 6.670760e-02 8.814174e-02 1.643938e-02 -5.607967e-02 -1.099450e-01 2.401461e-02 8.778972e-03 1.391660e-02 7.431133e-03 -3.030947e-03 -3.471838e-02 -7.882331e-02
<VARIANCE> 39
 2.217757e+01 1.662285e+01 1.026940e+01 2.426622e+01 4.133146e+01 6.363102e+01 2.662333e+01 3.748290e+01 4.840280e+01 3.811698e+01 2.749381e+01 2.907414e+01 1.878876e+02 2.109586e+00 1.738114e+00 1.098226e+00 2.135939e+00 3.746648e+00 5.227584e+00 2.291710e+00 2.962176e+00 3.468305e+00 3.205935e+00 2.221203e+00 3.004505e+00 7.103008e+00 3.688730e-01 2.571161e-01 1.848677e-01 3.547630e-01 5.189838e-01 7.768500e-01 4.666235e-01 5.704836e-01 5.805053e-01 6.436545e-01 3.700199e-01 6.033470e-01 8.764669e-01
<GCONST> 1.207073e+02
<STATE> 3
<MEAN> 39
 7.060986e+00 4.598344e+00 4.711065e+00 -3.679270e-01 -4.404770e+00 -2.681545e+00 2.639240e+00 -6.109467e-01 -3.766086e+00 -1.521865e+00 -8.677526e-01 -1.746577e+00 4.538558e+00 -2.992328e-01 1.789662e-01 8.588995e-02 7.175486e-02 2.196927e-01 -3.126512e-01 1.838224e-01 -1.981463e-01 2.247230e-01 -3.000470e-01 1.396033e-01 -1.414847e-03 -1.008562e+00 -1.374697e-01 -1.104853e-01 -7.161600e-02 3.768595e-02 1.386602e-01 1.571899e-01 -1.615584e-02 -2.330603e-02 -1.635081e-02 3.434143e-02 2.005116e-02 1.753272e-02 5.740517e-02
<VARIANCE> 39
 3.414423e+01 4.256312e+01 4.387254e+01 3.465250e+01 5.312831e+01 7.149377e+01 3.738466e+01 5.313581e+01 5.007128e+01 2.837196e+01 3.259968e+01 1.877205e+01 7.438734e+01 1.779374e+00 1.751595e+00 1.464047e+00 1.437753e+00 2.475148e+00 3.652978e+00 2.076716e+00 3.263463e+00 2.757535e+00 2.132672e+00 2.023267e+00 1.527225e+00 1.940073e+00 2.147334e-01 2.632946e-01 2.440470e-01 2.636426e-01 4.599267e-01 6.748939e-01 3.300800e-01 6.715645e-01 4.852182e-01 3.898466e-01 3.864788e-01 3.055262e-01 1.925015e-01
<GCONST> 1.159237e+02
<STATE> 4
<MEAN> 39
 -4.866388e+00 1.505616e+00 -3.498784e-02 -5.890875e-01 1.717438e+00 -1.965633e+00 2.644449e+00 -1.543106e-01 3.792815e+00 -3.023833e+00 2.457105e+00 -1.875176e+00 -1.069994e+01 -8.106226e-02 -4.837541e-02 -4.853972e-02 -3.615756e-02 1.261262e-02 3.678466e-02 5.274254e-02 4.283553e-02 -9.117916e-03 2.438240e-02 -1.000147e-02 -1.522456e-02 -7.577838e-02 2.540891e-02 -4.108784e-03 -3.723739e-03 -1.616916e-02 -2.551741e-03 4.610475e-04 -7.250110e-03 1.130084e-02 -3.440185e-04 1.877148e-02 8.465331e-04 5.545291e-03 2.625282e-02
<VARIANCE> 39
 3.482409e+00 5.109947e+00 6.486681e+00 1.176166e+01 1.681323e+01 1.576645e+01 1.313558e+01 1.511976e+01 1.319650e+01 1.662570e+01 1.566351e+01 1.447423e+01 7.242720e+00 1.670080e-01 4.200213e-01 5.234111e-01 7.215352e-01 1.206252e+00 1.530270e+00 1.522824e+00 1.592292e+00 1.563104e+00 1.739669e+00 1.511094e+00 1.424174e+00 8.808723e-02 2.860538e-02 8.981150e-02 9.263190e-02 1.359733e-01 2.494146e-01 3.541123e-01 3.290229e-01 3.353018e-01 3.542493e-01 3.640589e-01 3.157054e-01 2.595499e-01 1.360737e-02
<GCONST> 7.594499e+01
<TRANSP> 5
 0.000000e+00 1.000000e+00 0.000000e+00 0.000000e+00 0.000000e+00
 0.000000e+00 9.254352e-01 7.456484e-02 0.000000e+00 0.000000e+00
 0.000000e+00 0.000000e+00 8.920987e-01 1.079014e-01 0.000000e+00
 0.000000e+00 0.000000e+00 0.000000e+00 9.498090e-01 5.019100e-02
 0.000000e+00 0.000000e+00 0.000000e+00 0.000000e+00 0.000000e+00
<ENDHMM>
~h "s"
<BEGINHMM>
<NUMSTATES> 5
<STATE> 2
<MEAN> 39
 -1.671158e+00 -2.465440e+00 -8.919990e-01 -3.072447e+00 5.612144e-01 1.829729e+00 7.561963e-01 -6.580997e-02 1.267436e+00 -5.763429e-01 -9.651303e-03 1.793188e+00 -2.025163e+00 6.799837e-01 -1.284219e-01 -7.850235e-02 -5.653436e-02 -6.074553e-01 7.371625e-02 -6.281094e-02 8.337445e-01 -1.012341e-01 -1.352249e-01 -3.245798e-01 7.552419e-01 1.648556e+00 4.820016e-02 2.668587e-02 -1.435261e-02 7.601905e-02 -6.128042e-02 -9.806655e-02 -1.896203e-03 1.970372e-01 2.920411e-02 1.261418e-02 -2.199348e-02 3.357016e-02 1.664383e-01
<VARIANCE> 39
 3.115366e+01 2.428192e+01 2.073678e+01 3.456644e+01 4.214116e+01 3.938168e+01 3.237049e+01 3.385115e+01 4.587020e+01 2.572672e+01 2.269638e+01 3.049395e+01 9.017412e+01 2.886637e+00 1.671910e+00 1.857958e+00 3.232085e+00 6.025676e+00 4.545605e+00 3.162541e+00 2.630162e+00 3.130200e+00 3.512826e+00 2.899966e+00 2.977410e+00 5.180368e+00 5.443308e-01 2.810276e-01 3.208010e-01 6.801181e-01 1.161799e+00 8.269114e-01 7.620215e-01 5.674189e-01 6.407122e-01 5.975868e-01 4.530424e-01 6.850858e-01 7.725277e-01
<GCONST> 1.257359e+02
<STATE> 3
<MEAN> 39
 7.004122e+00 2.202771e+00 6.203524e-01 -2.270401e-01 -2.134946e+00 -1.043450e+00 -2.974335e+00 2.854780e+00 4.651316e-01 1.897809e+00 -2.297055e+00 1.992369e+00 1.272031e+01 -1.078179e-01 9.485602e-02 7.080764e-02 1.206670e-01 1.637235e-01 -1.532603e-02 5.296231e-02 -7.835202e-02 7.103276e-02 -4.336614e-02 8.421572e-02 -6.383882e-02 -2.977860e-01 -1.739934e-02 -8.681940e-03 6.146331e-03 -1.536345e-02 2.215589e-02 7.824980e-03 -7.448513e-03 -3.677529e-02 -1.739794e-02 8.827973e-03 -1.315152e-02 -3.025200e-02 -4.859259e-02
<VARIANCE> 39
 2.422863e+01 5.801907e+01 1.900532e+01 1.705470e+01 3.551416e+01 3.949797e+01 7.109106e+01 6.861349e+01 5.290816e+01 3.077490e+01 4.212791e+01 3.216647e+01 8.856855e+01 6.928571e-01 1.246706e+00 9.305887e-01 1.238832e+00 1.853327e+00 1.621509e+00 2.531667e+00 2.279043e+00 2.366047e+00 2.381984e+00 1.962269e+00 2.092867e+00 8.723695e-01 8.340394e-02 1.474790e-01 1.435594e-01 2.192636e-01 3.541991e-01 2.830323e-01 3.904806e-01 3.924628e-01 4.088799e-01 4.621581e-01 3.642604e-01 4.250742e-01 1.003679e-01
<GCONST> 1.075271e+02
<STATE> 4
<MEAN> 39
 -5.110161e+00 7.358369e-01 -2.537298e-01 1.051666e+00 3.117240e+00 -2.909710e-01 1.088145e+00 -1.616267e+00 2.309408e+00 -3.188211e+00 2.465270e+00 -6.367386e-01 -9.214576e+00 -8.279358e-02 -4.431824e-02 -8.206983e-02 -1.293056e-01 9.039985e-04 -5.879933e-02 -2.649565e-02 -2.757736e-02 -1.785125e-02 2.674853e-02 -5.865835e-02 -8.296153e-02 -7.369206e-02 2.650001e-02 -8.915908e-03 1.040459e-02 -6.674088e-03 -1.040471e-02 2.132925e-02 -2.152439e-03 1.508281e-02 1.822679e-02 2.431285e-02 2.666050e-02 1.994729e-02 2.811515e-02
<VARIANCE> 39
 7.204416e+00 9.266162e+00 8.238032e+00 8.679995e+00 1.217102e+01 1.410075e+01 2.124977e+01 1.619647e+01 1.648244e+01 2.164377e+01 2.642340e+01 1.528500e+01 2.366271e+01 2.147266e-01 4.204607e-01 7.621076e-01 8.279365e-01 1.233454e+00 1.349228e+00 1.348259e+00 1.737711e+00 1.685682e+00 2.158634e+00 2.573894e+00 1.714889e+00 8.707899e-02 4.541672e-02 8.423408e-02 1.796611e-01 1.621308e-01 2.836911e-01 2.630146e-01 2.563028e-01 3.396144e-01 3.693536e-01 4.421674e-01 5.578411e-01 3.442520e-01 1.858224e-02
<GCONST> 8.342091e+01
<TRANSP> 5
 0.000000e+00 1.000000e+00 0.000000e+00 0.000000e+00 0.000000e+00
 0.000000e+00 7.512721e-01 2.487279e-01 0.000000e+00 0.000000e+00
 0.000000e+00 0.000000e+00 9.470335e-01 5.296647e-02 0.000000e+00
 0.000000e+00 0.000000e+00 0.000000e+00 9.304682e-01 6.953176e-02
 0.000000e+00 0.000000e+00 0.000000e+00 0.000000e+00 0.000000e+00
<ENDHMM>
~h "t"
<BEGINHMM>
<NUMSTATES> 5
<STATE> 2
<MEAN> 39
 3.177519e+00 -1.007204e+00 -7.997005e-01 8.237611e-01 6.289623e-01 4.642840e+00 -2.031410e+00 7.738517e-01 -1.216154e+00 2.428428e+00 -1.423361e+00 5.508871e-01 1.061168e+01 8.104823e-01 -6.386530e-02 -3.252366e-01 -2.648107e-01 -4.689834e-01 1.308292e-01 1.161097e-01 1.104474e-01 -1.640855e-01 2.768866e-01 -1.466056e-02 2.624282e-01 1.339430e+00 -9.321633e-03 1.417813e-03 -8.884169e-03 -3.017233e-02 -3.876232e-02 2.247202e-02 2.275578e-02 4.809921e-02 8.219138e-03 9.755839e-03 2.132128e-02 6.813443e-02 8.377819e-02
<VARIANCE> 39
 3.885586e+01 2.177638e+01 1.195879e+01 4.056164e+01 3.431303e+01 4.961823e+01 2.850160e+01 3.889984e+01 4.076065e+01 3.606652e+01 2.210505e+01 2.246499e+01 1.947982e+02 2.325264e+00 1.665809e+00 1.287400e+00 3.232508e+00 3.321727e+00 3.230801e+00 2.644591e+00 3.549312e+00 2.813842e+00 3.044507e+00 3.790164e+00 2.445643e+00 8.447913e+00 5.556746e-01 3.044067e-01 2.338875e-01 6.700487e-01 9.126161e-01 5.965654e-01 4.458747e-01 8.464834e-01 4.835112e-01 4.571061e-01 6.924499e-01 4.785537e-01 9.744709e-01
<GCONST> 1.238743e+02
<STATE> 3
<MEAN> 39
 5.488733e+00 3.420355e-01 -3.220458e+00 -2.632427e+00 -3.876940e+00 2.238511e+00 3.536960e+00 1.649381e+00 -2.631976e+00 2.795924e+00 -3.513806e-01 1.518816e+00 1.185611e+01 -4.964493e-02 1.237126e-01 1.401447e-01 -1.940579e-02 2.458776e-02 -1.283713e-01 3.473169e-02 -7.018001e-02 -1.168621e-02 -4.438903e-02 1.398831e-01 -4.785747e-02 -4.238731e-01 -3.127487e-02 4.315895e-03 2.547808e-02 2.865111e-02 3.693143e-02 -2.771812e-03 -1.444918e-02 -1.420841e-02 5.600223e-03 -1.861488e-02 1.126835e-04 -6.505915e-02 -6.695773e-02
<VARIANCE> 39
 3.070345e+01 4.373103e+01 2.032318e+01 2.253842e+01 3.254932e+01 1.232297e+02 8.306246e+01 7.507008e+01 3.678009e+01 2.991250e+01 3.589071e+01 3.245667e+01 7.483442e+01 1.298808e+00 1.937394e+00 1.413478e+00 1.670110e+00 3.177118e+00 4.271307e+00 3.767246e+00 4.474197e+00 2.674718e+00 2.496915e+00 3.531333e+00 3.153329e+00 1.858749e+00 2.055560e-01 3.234945e-01 2.652137e-01 3.481183e-01 5.818496e-01 6.359912e-01 6.495655e-01 8.520684e-01 4.466312e-01 5.084889e-01 7.456389e-01 5.621419e-01 1.631563e-01
<GCONST> 1.217200e+02
<STATE> 4
<MEAN> 39
 -8.799157e-01 -1.096933e-01 8.058162e-01 4.740777e-01 8.387462e-01 -2.952724e+00 -1.270499e+00 -3.076919e-01 3.314624e-01 -6.056988e-01 9.228536e-01 4.442855e-01 -3.743937e+00 -6.121156e-02 -2.805701e-03 4.972237e-02 5.989351e-02 -1.506465e-02 -3.663301e-03 -2.762148e-03 -7.566600e-02 -1.686800e-02 -2.134735e-02 -1.738207e-02 -7.059807e-02 -7.175408e-02 3.674730e-03 1.210514e-03 -5.228443e-03 1.701544e-03 1.217830e-02 -2.138830e-02 1.503905e-02 1.733205e-02 -1.039011e-02 1.213716e-03 -2.145175e-02 1.554056e-02 1.543796e-02
<VARIANCE> 39
 5.691364e+00 9.086896e+00 1.150678e+01 1.316975e+01 1.691749e+01 1.938513e+01 2.367904e+01 2.864904e+01 2.576967e+01 2.447486e+01 1.851394e+01 2.013543e+01 1.120901e+01 2.373957e-01 4.915085e-01 7.030286e-01 1.075151e+00 1.581453e+00 1.510477e+00 1.845306e+00 1.997017e+00 2.129771e+00 2.557526e+00 2.094511e+00 2.129205e+00 1.753938e-01 4.391869e-02 9.777403e-02 1.330393e-01 2.095796e-01 3.089546e-01 3.023535e-01 3.966388e-01 3.841744e-01 4.431385e-01 5.379439e-01 4.643991e-01 4.513941e-01 2.455800e-02
<GCONST> 8.895185e+01
<TRANSP> 5
 0.000000e+00 1.000000e+00 0.000000e+00 0.000000e+00 0.000000e+00
 0.000000e+00 7.929351e-01 2.070649e-01 0.000000e+00 0.000000e+00
 0.000000e+00 0.000000e+00 9.387965e-01 6.120351e-02 0.000000e+00
 0.000000e+00 0.000000e+00 0.000000e+00 9.448438e-01 5.515613e-02
 0.000000e+00 0.000000e+00 0.000000e+00 0.000000e+00 0.000000e+00
<ENDHMM>
~h "u"
<BEGINHMM>
<NUMSTATES> 5
<STATE> 2
<MEAN> 39
 -1.741203e-01 -1.419671e+00 2.550195e-01 -2.202906e+00 7.106085e-01 3.357416e+00 2.206750e+00 -5.557728e-01 -1.534533e+00 9.092823e-01 5.861777e-01 1.082295e+00 3.060214e+00 3.398968e-01 -3.124434e-01 4.222777e-02 -3.410236e-01 -3.612061e-01 3.045491e-01 -2.651609e-01 1.444621e-02 2.448261e-01 2.629333e-01 -2.583380e-01 1.776315e-01 8.874178e-01 6.279434e-02 1.700197e-02 4.190921e-02 1.422707e-02 -5.180705e-02 -5.590058e-02 -4.564657e-02 3.038908e-02 5.006296e-02 2.816319e-02 1.119968e-02 -6.596589e-03 5.249915e-02
<VARIANCE> 39
 2.608025e+01 2.788277e+01 1.598162e+01 1.891896e+01 3.397241e+01 5.227014e+01 2.381622e+01 3.398549e+01 6.805650e+01 3.912169e+01 2.882232e+01 3.384052e+01 1.464724e+02 1.928336e+00 1.426085e+00 1.257219e+00 1.975588e+00 2.819017e+00 4.116086e+00 2.514464e+00 2.959794e+00 3.297876e+00 3.313653e+00 2.620389e+00 2.680817e+00 3.379464e+00 3.437399e-01 2.718744e-01 2.485992e-01 3.401333e-01 5.220471e-01 7.324454e-01 3.743028e-01 6.717811e-01 6.559460e-01 7.169599e-01 4.679199e-01 5.216609e-01 5.334039e-01
<GCONST> 1.198757e+02
<STATE> 3
<MEAN> 39
 4.558337e+00 -2.689832e+00 -3.031025e-01 -2.355857e+00 -3.926875e+00 1.155478e-01 4.145553e-01 6.512483e+00 1.977697e+00 5.918139e-01 -5.076090e+00 -8.144420e-01 1.164752e+01 -1.230288e-01 -4.629260e-02 -3.225935e-02 5.281077e-02 1.240627e-01 1.040676e-02 4.977740e-02 3.520625e-03 -7.819669e-02 -9.609131e-02 -8.724332e-04 -6.454206e-02 -5.993388e-02 -3.097906e-02 9.966319e-03 6.180303e-04 2.949742e-02 6.752174e-02 4.005169e-03 1.041339e-02 -2.339282e-02 -3.785957e-02 -1.730456e-02 1.008807e-02 -5.988483e-03 -4.538804e-02
<VARIANCE> 39
 3.642274e+01 6.641273e+01 1.557631e+01 2.581277e+01 3.461338e+01 4.249072e+01 7.872539e+01 7.393260e+01 3.448033e+01 4.412308e+01 3.988737e+01 2.606248e+01 8.592609e+01 1.610603e+00 2.153150e+00 1.001019e+00 1.605647e+00 2.349810e+00 2.469079e+00 3.048567e+00 3.525558e+00 2.609709e+00 2.752522e+00 2.648607e+00 2.428961e+00 1.917011e+00 2.689586e-01 3.111033e-01 1.819260e-01 3.165301e-01 3.865581e-01 4.866349e-01 5.564952e-01 6.251967e-01 4.921096e-01 4.804018e-01 4.740690e-01 4.623108e-01 1.674122e-01
<GCONST> 1.176807e+02
<STATE> 4
<MEAN> 39
 -5.469059e+00 -1.326689e-01 -2.475935e-02 -3.019171e-01 1.855585e+00 -1.295631e+00 1.762860e+00 -6.993678e-01 2.704233e+00 -2.956527e+00 1.478175e+00 -2.008632e+00 -9.415582e+00 -7.153343e-02 2.878424e-03 -6.673650e-02 5.251002e-02 1.056383e-01 -1.807390e-02 -2.948793e-02 -3.427685e-02 -6.514732e-02 9.731475e-03 4.625515e-02 5.603312e-02 -8.578643e-02 2.057083e-02 -2.729206e-02 -1.181708e-02 -1.109042e-02 -3.212507e-02 6.781177e-03 1.222122e-02 1.987561e-02 3.194784e-02 1.904233e-02 -5.415957e-04 2.650159e-02 3.574172e-02
<VARIANCE> 39
 6.852304e+00 8.486735e+00 7.917009e+00 8.909169e+00 1.209704e+01 1.462323e+01 1.537347e+01 2.045469e+01 2.473648e+01 2.014197e+01 1.630274e+01 1.460882e+01 2.483314e+01 1.711389e-01 4.100067e-01 5.625468e-01 7.702211e-01 1.348437e+00 1.258995e+00 1.216501e+00 2.050195e+00 1.945881e+00 1.932788e+00 1.740242e+00 1.619036e+00 1.256711e-01 2.892534e-02 7.276646e-02 1.044942e-01 1.648519e-01 2.679676e-01 2.212468e-01 2.377107e-01 3.940156e-01 4.124023e-01 4.217917e-01 3.541467e-01 3.589677e-01 1.852921e-02
<GCONST> 8.083719e+01
<TRANSP> 5
 0.000000e+00 1.000000e+00 0.000000e+00 0.000000e+00 0.000000e+00
 0.000000e+00 7.648883e-01 2.351117e-01 0.000000e+00 0.000000e+00
 0.000000e+00 0.000000e+00 9.339955e-01 6.600455e-02 0.000000e+00
 0.000000e+00 0.000000e+00 0.000000e+00 9.213637e-01 7.863624e-02
 0.000000e+00 0.000000e+00 0.000000e+00 0.000000e+00 0.000000e+00
<ENDHMM>
~h "w"
<BEGINHMM>
<NUMSTATES> 5
<STATE> 2
<MEAN> 39
 -4.323150e+00 -4.690374e-01 2.912533e-01 3.993729e-01 1.812284e+00 -3.652312e+00 1.785048e+00 2.734861e+00 3.831555e+00 -3.466426e+00 -7.876098e-02 1.093757e+00 -1.100929e+01 5.987248e-01 5.809028e-01 1.284363e-01 -1.114419e+00 -1.869313e+00 -1.434546e+00 -8.512226e-01 -6.163322e-01 -3.128891e-01 7.518063e-01 1.796823e-01 -5.248896e-01 1.018757e-01 4.864330e-01 3.290824e-01 3.692658e-01 -1.134080e-01 -6.681820e-01 -4.162280e-01 -5.559801e-01 -1.133392e+00 -6.408203e-01 3.564860e-02 2.771826e-02 -2.368411e-01 2.584460e-01
<VARIANCE> 39
 1.310968e+00 3.964938e+00 3.453841e+00 7.021193e+00 6.887009e+00 7.892185e+00 4.994300e+00 1.183242e+01 1.633077e+01 2.474519e+01 1.140470e+01 2.196178e+00 4.922887e+00 1.073520e+00 9.207008e-01 4.694504e-01 1.215486e+00 6.249828e+00 5.527025e+00 3.674996e+00 2.329205e+00 7.269382e-01 1.676568e+00 1.078047e+00 7.892762e-01 4.249041e-01 1.441468e-01 5.369574e-01 3.902005e-01 1.828105e-01 5.794585e-01 2.607031e-01 2.167010e-01 2.584474e-01 6.681908e-02 3.067476e-01 1.338472e-01 1.377596e-01 2.868610e-02
<GCONST> 7.829824e+01
<STATE> 3
<MEAN> 39
 5.853105e+00 2.529483e-01 3.294950e-02 -4.369255e-01 -4.986882e+00 -2.332598e-01 -3.144091e+00 -5.785838e-01 2.700531e-01 4.171896e+00 -2.562747e-01 9.155427e-01 1.116089e+01 3.949384e-02 -6.423417e-02 -3.778194e-02 9.381269e-02 2.590753e-01 2.154180e-01 1.135436e-01 2.109193e-02 -1.110098e-01 2.011993e-01 8.435611e-02 -4.046851e-02 1.257510e-01 -4.522956e-02 -3.768897e-02 -2.548151e-02 -5.345134e-03 7.891855e-02 4.940849e-02 3.080779e-02 5.202862e-02 1.262083e-02 -2.945050e-02 1.847454e-02 4.841508e-02 -2.794341e-02
<VARIANCE> 39
 2.093672e+01 8.086062e+01 4.619479e+01 1.358209e+01 5.415533e+01 1.089375e+02 6.537222e+01 4.575848e+01 3.347667e+01 4.121736e+01 1.861315e+01 2.153668e+01 1.058847e+02 9.219337e-01 2.143416e+00 2.054312e+00 9.363179e-01 1.514145e+00 3.063523e+00 2.752913e+00 3.359400e+00 1.677911e+00 2.179074e+00 2.182434e+00 1.530499e+00 1.676392e+00 8.415317e-02 2.309511e-01 2.972686e-01 2.181296e-01 2.866155e-01 4.829181e-01 4.223127e-01 5.451816e-01 1.914039e-01 3.485495e-01 4.165674e-01 2.984311e-01 1.568668e-01
<GCONST> 1.114708e+02
<STATE> 4
<MEAN> 39
 -3.058060e+00 6.401120e-01 1.332708e+00 -2.634650e-02 2.755238e+00 -3.681928e-01 3.244812e+00 -1.760517e+00 1.905931e-01 -1.465501e+00 2.234696e+00 -7.748554e-01 -9.619734e+00 -9.101881e-02 -1.902368e-01 8.226395e-02 -1.150833e-01 3.953026e-01 1.204370e-01 -4.442687e-01 -5.856602e-01 -2.577329e-01 -5.926296e-01 -1.073403e-01 2.846445e-01 -1.800161e-01 2.829454e-02 -5.498844e-02 5.686479e-02 1.393431e-01 -6.844077e-02 -3.978369e-02 -3.648336e-02 1.169448e-01 2.341702e-01 4.594989e-02 8.657169e-02 9.393379e-02 1.017729e-01
<VARIANCE> 39
 3.663671e+00 1.894423e+00 7.197726e+00 7.704910e+00 1.339885e+01 1.193863e+01 1.356339e+01 9.894276e+00 3.494795e+01 3.973668e+01 1.400868e+01 5.150684e+00 1.414554e+01 3.904422e-02 6.112779e-01 6.646972e-01 8.246008e-01 6.952313e-01 5.678609e-01 1.324787e+00 1.676917e+00 1.500086e+00 1.844165e+00 5.222772e-01 1.158298e+00 1.100638e-01 3.488720e-02 6.308551e-02 1.067098e-01 1.379618e-01 1.640754e-01 3.203661e-01 2.237035e-01 1.214731e-01 2.583125e-01 3.834240e-01 1.900505e-01 2.532544e-01 2.245856e-02
<GCONST> 6.957871e+01
<TRANSP> 5
 0.000000e+00 1.000000e+00 0.000000e+00 0.000000e+00 0.000000e+00
 0.000000e+00 3.347292e-01 6.652708e-01 0.000000e+00 0.000000e+00
 0.000000e+00 0.000000e+00 9.380683e-01 6.193168e-02 0.000000e+00
 0.000000e+00 0.000000e+00 0.000000e+00 5.159180e-01 4.840820e-01
 0.000000e+00 0.000000e+00 0.000000e+00 0.000000e+00 0.000000e+00
<ENDHMM>
~h "#N"
<BEGINHMM>
<NUMSTATES> 5
<STATE> 2
<MEAN> 39
 -1.811365e+00 -5.708559e+00 -2.841087e+00 3.801507e+00 4.770454e+00 4.111486e+00 -6.141127e-01 -1.361184e+00 2.883037e+00 -1.904588e+00 -1.133208e+00 1.752234e+00 -3.468317e+00 2.528181e-01 -7.356067e-01 -3.857030e-01 1.304809e-01 6.754095e-01 1.567903e+00 3.355674e-01 2.696071e-02 8.694133e-01 3.023674e-01 -3.085577e-01 5.430786e-01 6.003318e-01 -7.591662e-02 1.216412e-01 1.269659e-01 -3.469178e-02 -1.298787e-01 8.506782e-02 1.238927e-01 -3.865322e-02 -2.101050e-01 -9.600457e-03 8.836882e-02 9.936814e-02 -1.369540e-01
<VARIANCE> 39
 6.441336e+00 3.467911e+01 3.621221e+01 1.427184e+01 2.556573e+01 5.569763e+01 9.119583e+00 2.880932e+01 6.381350e+01 2.315196e+01 1.932221e+01 2.577455e+01 6.578687e+01 3.135712e-01 4.645920e+00 4.071054e+00 5.656009e-01 2.181589e+00 4.172655e+00 2.024298e+00 6.992363e-01 2.460519e+00 3.745147e+00 2.476947e+00 2.034132e+00 2.149919e+00 1.269818e-02 1.048402e+00 8.348795e-01 8.339912e-02 4.562464e-01 1.294233e+00 2.820155e-01 1.207319e-01 5.168183e-01 7.854456e-01 4.751971e-01 4.254049e-01 4.543838e-01
<GCONST> 1.080514e+02
<STATE> 3
<MEAN> 39
 3.138665e+00 -3.823292e+00 -2.499075e-01 -1.166017e+00 1.598117e+00 1.039089e+01 -5.103918e-02 -7.662797e+00 -6.472055e+00 3.441595e+00 1.351265e+00 5.519131e+00 9.861618e+00 6.691673e-02 1.941870e-01 5.172506e-02 1.901715e-01 -8.145908e-02 -2.327068e-01 2.256331e-01 3.125109e-01 -2.364494e-01 1.033650e-01 3.128568e-01 -8.830171e-02 -3.591880e-01 2.953905e-02 -6.064407e-02 -1.575643e-01 8.810396e-02 6.303245e-02 -1.563636e-01 -2.147314e-01 -1.066574e-01 2.196889e-02 -5.828362e-02 1.584664e-01 -8.825734e-02 2.930287e-02
<VARIANCE> 39
 1.577490e+01 1.569373e+00 3.624181e+00 1.578284e+01 4.544365e+00 1.903425e+01 1.068737e+01 5.292202e+01 8.318047e+01 1.496749e+01 1.514860e+01 1.763752e+01 1.352441e+02 9.824847e-02 5.123905e-01 6.128605e-01 4.099230e-01 6.229968e-01 1.648205e+00 8.934481e-01 5.201899e-01 1.102211e+00 8.611506e-01 7.310892e-01 3.996995e-01 1.736023e-01 1.506461e-02 5.166851e-02 9.719340e-02 7.824995e-02 6.587711e-02 2.590432e-01 2.204508e-01 1.503642e-01 1.846284e-01 8.727533e-02 1.400319e-01 1.524143e-01 3.353514e-02
<GCONST> 6.832427e+01
<STATE> 4
<MEAN> 39
 -1.011545e+00 -4.855606e-02 1.843426e+00 3.733799e-01 1.747749e+00 3.570481e+00 7.861297e-01 -3.033454e+00 -1.534258e+00 -4.155204e+00 -2.891248e+00 -4.043414e+00 -3.650014e+00 1.416696e-02 3.012864e-02 -5.248231e-02 -2.758132e-02 8.817323e-03 -9.354241e-04 -4.024294e-02 4.303604e-03 5.114824e-04 4.107094e-02 7.487305e-02 -1.440663e-02 -2.677088e-02 2.355999e-03 3.669014e-03 -5.737306e-03 -6.458853e-03 -6.868552e-03 -9.500293e-03 -2.585356e-02 1.142390e-03 7.015759e-03 -7.820792e-03 -2.133274e-02 2.268735e-03 3.969665e-03
<VARIANCE> 39
 4.305502e+00 4.390252e+00 9.831125e+00 1.153661e+01 1.000755e+01 1.122946e+01 1.731975e+01 1.692091e+01 2.160196e+01 1.873314e+01 2.661812e+01 1.867021e+01 4.784408e+00 1.662402e-01 3.351055e-01 9.402316e-01 1.141364e+00 1.009022e+00 8.532296e-01 1.778157e+00 1.531379e+00 1.570837e+00 1.912993e+00 2.676563e+00 1.720025e+00 6.660072e-02 3.559886e-02 6.980825e-02 1.778601e-01 2.489343e-01 2.147281e-01 1.652995e-01 3.792671e-01 2.872595e-01 3.117893e-01 3.843405e-01 6.185616e-01 3.050357e-01 1.324842e-02
<GCONST> 7.869662e+01
<TRANSP> 5
 0.000000e+00 1.000000e+00 0.000000e+00 0.000000e+00 0.000000e+00
 0.000000e+00 6.482881e-01 3.517120e-01 0.000000e+00 0.000000e+00
 0.000000e+00 0.000000e+00 7.328420e-01 2.671580e-01 0.000000e+00
 0.000000e+00 0.000000e+00 0.000000e+00 9.664072e-01 3.359282e-02
 0.000000e+00 0.000000e+00 0.000000e+00 0.000000e+00 0.000000e+00
<ENDHMM>
~h "ng"
<BEGINHMM>
<NUMSTATES> 5
<STATE> 2
<MEAN> 39
 -1.772288e+00 -4.443541e+00 1.684831e+00 5.981494e+00 -9.564407e-01 -3.347021e+00 8.792999e-01 -2.483204e+00 1.836916e+00 -8.791220e-02 -1.152872e+00 4.307094e-01 -5.722272e+00 1.767073e-01 -8.227799e-01 1.244482e-01 4.671066e-01 -4.462076e-01 -5.946660e-01 3.582612e-01 1.319831e+00 1.740136e-01 -4.245939e-01 2.439079e-01 -3.375886e-01 5.164875e-01 1.077511e-01 -1.065189e-01 -1.304725e-01 -1.860774e-01 9.681474e-02 8.883530e-02 -1.770439e-01 1.288382e-01 5.423518e-02 3.673845e-02 1.173619e-01 -1.521343e-02 2.182751e-01
<VARIANCE> 39
 3.554538e+00 3.141346e+01 1.573041e+01 4.185731e+01 1.427498e+01 9.189311e+00 9.566060e+00 3.135207e+01 2.484219e+01 1.577977e+01 1.015342e+01 1.447791e+01 8.519779e+00 6.672408e-01 6.110244e+00 3.979289e+00 3.273356e+00 2.404433e+00 9.471719e-01 1.939656e+00 3.781959e+00 1.368551e+00 1.518184e+00 1.596178e+00 8.466460e-01 2.003495e+00 8.206331e-02 1.237836e+00 6.402440e-01 5.736408e-01 4.024170e-01 1.206735e-01 3.621493e-01 3.719470e-01 3.355439e-01 3.056656e-01 3.478270e-01 2.978640e-01 2.575502e-01
<GCONST> 1.008629e+02
<STATE> 3
<MEAN> 39
 4.857875e+00 -5.687920e-01 -4.013064e+00 7.478479e-01 5.471636e-01 2.681069e+00 4.739573e-01 4.005603e+00 1.368315e+00 -3.215083e-01 1.861748e+00 -1.516072e+00 1.108648e+01 -1.449847e-02 2.571467e-01 1.743068e-01 -2.870268e-02 3.772323e-02 3.790241e-04 8.642855e-02 -1.967741e-01 -9.582017e-02 7.721188e-02 1.221661e-01 1.169275e-01 -9.539106e-02 -3.672452e-02 2.197229e-02 2.793196e-02 -3.110293e-03 4.496690e-03 3.957814e-02 3.045306e-02 -7.857769e-02 2.587204e-02 3.110259e-02 -5.665452e-03 4.148828e-02 -7.637057e-02
<VARIANCE> 39
 4.625183e+01 3.407088e+01 2.735569e+01 1.772910e+01 4.251030e+01 4.881924e+01 5.225976e+01 9.222695e+01 2.343925e+01 2.223670e+01 4.386227e+01 2.838474e+01 9.735564e+01 2.085266e+00 1.496515e+00 1.460457e+00 1.872517e+00 2.324930e+00 3.606512e+00 3.210150e+00 4.834547e+00 2.593506e+00 2.883874e+00 3.853311e+00 1.674852e+00 4.006805e+00 3.644315e-01 3.410933e-01 2.695153e-01 4.339370e-01 4.025290e-01 6.777339e-01 6.536955e-01 9.466924e-01 5.386828e-01 6.201342e-01 6.566786e-01 3.556982e-01 2.993639e-01
<GCONST> 1.218144e+02
<STATE> 4
<MEAN> 39
 -2.773082e+00 1.580494e+00 1.724602e+00 1.739935e-01 2.065422e+00 -2.543150e+00 -7.961549e-01 -3.368092e+00 -5.054837e-01 -6.372139e-01 9.132938e-01 1.679584e+00 -9.862894e+00 -1.019036e-02 -1.224905e-02 -1.593053e-02 -7.967075e-03 -1.512073e-02 1.782641e-02 -2.078634e-02 7.107697e-03 -2.373429e-03 -5.297793e-03 -1.128275e-02 4.415300e-02 -2.225546e-02 2.978710e-03 2.617910e-03 -1.145229e-02 -8.131006e-03 -7.620949e-03 2.007771e-02 1.875621e-02 7.198885e-03 -1.931601e-03 5.917384e-03 1.023765e-03 -2.390892e-03 2.998488e-03
<VARIANCE> 39
 1.823077e+00 3.604599e+00 6.810822e+00 7.741902e+00 9.911152e+00 1.145424e+01 1.728020e+01 1.964220e+01 1.454884e+01 1.419237e+01 1.701002e+01 1.576239e+01 1.216963e+00 1.272440e-01 2.926577e-01 5.180833e-01 7.549113e-01 1.086337e+00 1.208132e+00 1.597590e+00 2.014201e+00 1.491097e+00 1.601200e+00 1.453891e+00 1.849411e+00 3.992463e-02 2.352311e-02 6.098951e-02 1.109845e-01 1.493098e-01 2.224391e-01 2.559916e-01 3.058973e-01 3.994575e-01 2.989596e-01 3.350661e-01 2.987156e-01 3.742244e-01 7.740363e-03
<GCONST> 7.008429e+01
<TRANSP> 5
 0.000000e+00 1.000000e+00 0.000000e+00 0.000000e+00 0.000000e+00
 0.000000e+00 7.847250e-01 2.152751e-01 0.000000e+00 0.000000e+00
 0.000000e+00 0.000000e+00 9.230841e-01 7.691589e-02 0.000000e+00
 0.000000e+00 0.000000e+00 0.000000e+00 9.830909e-01 1.690909e-02
 0.000000e+00 0.000000e+00 0.000000e+00 0.000000e+00 0.000000e+00
<ENDHMM>
~h "sil"
<BEGINHMM>
<NUMSTATES> 5
<STATE> 2
<MEAN> 39
 -2.011158e+00 3.004035e-01 -3.263908e-01 1.734638e-02 8.608161e-01 2.049588e+00 4.877960e-01 -1.288269e+00 -8.202589e-02 3.166215e-01 3.927491e-01 1.315987e+00 -4.895574e+00 5.193977e-01 1.882455e-01 -1.119065e-01 -4.014538e-01 -4.461733e-01 4.447676e-01 -3.260775e-02 -1.169472e-01 1.701252e-02 -2.019397e-01 -2.190851e-02 2.889143e-01 7.753120e-01 7.576983e-02 -3.039226e-02 -3.293298e-03 -1.067640e-01 -4.902517e-02 -7.693292e-02 -6.315982e-02 2.215555e-02 -5.452972e-03 -3.487786e-02 2.205543e-03 -6.101053e-02 1.126123e-01
<VARIANCE> 39
 3.562882e+01 2.848997e+01 2.530235e+01 3.719386e+01 3.231831e+01 4.597772e+01 3.035094e+01 2.663875e+01 3.168733e+01 2.891590e+01 2.160736e+01 3.126145e+01 1.693608e+02 3.322040e+00 1.785419e+00 1.437429e+00 2.587665e+00 4.412001e+00 4.198521e+00 2.883792e+00 2.294124e+00 3.249171e+00 2.851697e+00 3.287833e+00 3.418922e+00 3.344494e+00 4.369370e-01 4.998932e-01 3.124010e-01 6.082069e-01 7.885939e-01 6.639549e-01 4.820725e-01 4.544238e-01 6.067161e-01 5.338262e-01 5.522633e-01 6.085610e-01 4.482178e-01
<GCONST> 1.233015e+02
<STATE> 3
<MEAN> 39
 3.313004e+00 -8.747405e-01 -7.238441e-01 -9.380285e-01 -2.956517e+00 1.814217e+00 2.628042e+00 1.011756e+00 -1.040344e+00 1.397161e+00 -1.186943e+00 6.946866e-01 3.952973e+00 -2.539495e-01 -1.259982e-01 -2.276728e-02 3.370108e-02 1.531939e-01 -8.112471e-02 9.864714e-03 -3.173370e-02 5.125839e-02 -2.204397e-02 4.354682e-02 -1.530984e-01 -3.000697e-01 -6.704035e-02 -6.037808e-03 -5.956646e-05 8.638883e-04 7.714440e-02 -8.566808e-04 -1.319165e-02 -2.524855e-02 -2.504758e-02 -2.232407e-02 -4.015118e-02 -1.544687e-02 -3.461047e-02
<VARIANCE> 39
 3.702877e+01 3.850527e+01 2.343400e+01 4.015578e+01 4.746661e+01 5.619796e+01 8.028715e+01 9.675260e+01 5.203914e+01 3.108433e+01 4.097302e+01 2.733109e+01 1.796069e+02 1.312505e+00 1.732689e+00 1.222748e+00 2.298023e+00 2.792254e+00 2.189376e+00 2.942075e+00 2.742272e+00 3.443379e+00 2.810400e+00 2.868339e+00 1.939523e+00 1.987332e+00 1.905735e-01 2.713041e-01 1.984441e-01 4.770629e-01 5.048698e-01 5.032216e-01 4.918220e-01 4.663901e-01 6.623029e-01 5.597490e-01 5.109499e-01 3.760531e-01 2.040591e-01
<GCONST> 1.202663e+02
<STATE> 4
<MEAN> 39
 -4.142190e+00 -8.432811e-02 5.846432e-02 3.285541e-01 1.951817e+00 -1.306304e+00 9.499235e-01 -1.049572e+00 1.556244e+00 -2.044439e+00 1.278889e+00 -9.374763e-01 -9.797701e+00 -3.085797e-02 -1.914674e-02 -1.292010e-02 -2.622966e-02 -7.663007e-03 -1.220414e-04 -2.006045e-02 -6.398057e-03 1.306017e-02 -7.965064e-03 -1.832286e-02 -1.303411e-02 -2.481719e-02 9.598176e-03 -4.868858e-03 7.239286e-04 7.648531e-03 -4.548808e-03 5.830698e-03 7.080648e-03 -9.924523e-04 -6.518608e-04 8.611096e-03 5.794744e-03 7.788440e-03 8.045670e-03
<VARIANCE> 39
 4.617771e+00 4.028997e+00 5.785159e+00 9.368296e+00 1.130379e+01 1.281217e+01 1.428723e+01 1.732348e+01 1.821043e+01 1.677428e+01 1.585880e+01 1.564207e+01 9.140559e+00 1.479212e-01 3.887336e-01 5.300090e-01 8.499519e-01 1.026482e+00 1.298575e+00 1.461342e+00 1.775981e+00 1.667340e+00 1.768836e+00 1.589506e+00 1.602542e+00 1.678061e-01 3.070417e-02 6.486823e-02 1.054150e-01 1.575285e-01 2.213467e-01 2.651090e-01 3.036632e-01 3.690181e-01 3.430534e-01 3.629296e-01 3.442897e-01 3.379959e-01 1.493964e-02
<GCONST> 7.656854e+01
<TRANSP> 5
 0.000000e+00 1.000000e+00 0.000000e+00 0.000000e+00 0.000000e+00
 0.000000e+00 4.734160e-01 5.265840e-01 0.000000e+00 0.000000e+00
 0.000000e+00 0.000000e+00 7.421477e-01 2.578523e-01 0.000000e+00
 0.000000e+00 0.000000e+00 0.000000e+00 9.523221e-01 4.767798e-02
 0.000000e+00 0.000000e+00 0.000000e+00 0.000000e+00 0.000000e+00
<ENDHMM>
~h "#IGN_TL"
<BEGINHMM>
<NUMSTATES> 5
<STATE> 2
<MEAN> 39
 -6.578032e-01 -1.066455e-01 1.638828e-01 1.122455e+00 2.172761e-01 6.080220e-01 -1.147730e+00 -1.209858e+00 -1.289405e+00 8.803791e-01 2.501077e-01 6.280733e-01 -3.044183e+00 1.897527e-02 6.667845e-03 6.614054e-03 1.505756e-03 -1.522175e-02 4.302420e-03 5.575333e-03 1.565030e-04 -1.125794e-04 3.768400e-03 5.042149e-03 -1.707612e-03 4.481422e-02 2.670128e-03 1.220311e-03 2.706170e-04 5.432839e-04 -5.352143e-04 -2.693312e-03 4.112573e-03 -1.911728e-03 -1.857623e-04 9.701337e-05 -5.928112e-05 -1.390268e-04 1.283662e-03
<VARIANCE> 39
 4.404936e+01 2.283954e+01 1.536663e+01 2.522698e+01 2.727781e+01 5.065286e+01 3.410622e+01 3.694387e+01 4.251049e+01 3.789576e+01 2.270908e+01 2.297425e+01 2.391388e+02 9.573103e-01 1.329978e+00 1.083095e+00 1.699301e+00 2.005662e+00 2.736717e+00 2.092441e+00 2.249590e+00 2.349078e+00 2.556661e+00 1.887981e+00 1.928875e+00 2.689629e+00 1.462205e-01 2.461180e-01 1.943396e-01 3.156566e-01 3.636816e-01 4.851784e-01 3.895516e-01 4.410181e-01 4.429973e-01 4.927513e-01 3.830878e-01 3.855104e-01 3.335573e-01
<GCONST> 1.120733e+02
<STATE> 3
<MEAN> 39
 1.436399e+00 5.700207e-02 -2.518738e-01 -7.305618e-01 -8.024163e-01 7.651789e-02 6.139904e-01 1.069672e+00 2.526549e-01 1.614074e-01 -4.602498e-01 -2.411663e-01 4.008568e+00 -7.805957e-03 -3.736882e-03 -4.635209e-03 2.173734e-03 1.264795e-02 4.715759e-03 2.497868e-03 -1.418077e-03 -1.002641e-03 3.095170e-04 7.311946e-03 1.961327e-03 -1.096624e-02 -1.258662e-03 3.212847e-04 5.498829e-05 -4.886972e-04 1.535224e-04 -5.732501e-04 -2.142737e-03 9.052410e-04 1.095483e-05 -1.331697e-03 -4.405578e-04 -4.146254e-04 -1.451468e-03
<VARIANCE> 39
 4.306377e+01 3.860629e+01 1.831084e+01 2.170375e+01 3.442183e+01 4.960867e+01 5.037892e+01 5.624423e+01 3.990590e+01 3.322337e+01 3.299950e+01 2.676914e+01 1.830157e+02 1.130963e+00 1.350967e+00 1.008153e+00 1.444037e+00 2.080797e+00 2.276596e+00 2.431554e+00 2.822191e+00 2.325421e+00 2.333834e+00 2.273957e+00 1.987272e+00 1.771190e+00 1.725066e-01 2.074100e-01 1.800386e-01 2.734572e-01 3.897582e-01 4.066882e-01 4.416812e-01 5.352541e-01 4.381070e-01 4.433948e-01 4.295890e-01 3.897407e-01 1.554423e-01
<GCONST> 1.127928e+02
<STATE> 4
<MEAN> 39
 -3.430741e+00 -8.291594e-03 5.245500e-01 4.942333e-01 2.154926e+00 -1.203514e+00 -9.096380e-02 -1.411945e+00 1.259602e+00 -1.900298e+00 1.036844e+00 -2.456309e-01 -7.655952e+00 -6.015994e-03 6.023804e-03 4.230662e-03 -7.879591e-03 -1.330192e-02 -1.249915e-02 -1.122722e-02 -5.433913e-03 8.639054e-03 -8.468260e-03 -9.992803e-03 1.931653e-03 -2.122578e-02 1.268977e-03 -2.949066e-03 -1.647461e-03 -2.000177e-04 1.707397e-03 4.595316e-03 2.392212e-03 -3.928463e-03 2.332893e-03 7.114458e-03 2.162260e-03 1.732559e-03 1.848856e-03
<VARIANCE> 39
 4.679065e+00 5.688968e+00 7.955719e+00 1.053499e+01 1.313924e+01 1.680905e+01 1.881656e+01 2.051376e+01 1.972284e+01 1.809363e+01 2.068844e+01 1.870457e+01 1.238517e+01 1.733193e-01 3.807099e-01 5.974231e-01 9.263511e-01 1.271845e+00 1.384855e+00 1.702883e+00 1.925094e+00 1.770554e+00 1.925751e+00 1.983772e+00 1.737845e+00 1.171562e-01 3.434971e-02 7.393157e-02 1.205354e-01 1.909561e-01 2.596210e-01 2.764513e-01 3.498863e-01 3.933036e-01 3.604214e-01 4.027553e-01 4.247973e-01 3.579890e-01 2.059663e-02
<GCONST> 8.179555e+01
<TRANSP> 5
 0.000000e+00 1.000000e+00 0.000000e+00 0.000000e+00 0.000000e+00
 0.000000e+00 9.975083e-01 2.491694e-03 0.000000e+00 0.000000e+00
 0.000000e+00 0.000000e+00 9.987304e-01 1.269573e-03 0.000000e+00
 0.000000e+00 0.000000e+00 0.000000e+00 9.960448e-01 3.955174e-03
 0.000000e+00 0.000000e+00 0.000000e+00 0.000000e+00 0.000000e+00
<ENDHMM>
