~o
<STREAMINFO> 1 39
<VECSIZE> 39<NULLD><MFCC_D_A_Z_0><DIAGC>
~s "silst"
<MEAN> 39
 -9.827197e-01 -3.437786e+00 -1.797805e+01 -9.887056e+00 -1.343826e+01 -1.099012e+01 -3.726732e+00 -5.976367e+00 -4.787693e+00 -3.946553e+00 -4.943604e+00 -3.014629e+00 5.309188e+01 1.051863e-01 8.231787e-02 -5.934276e-02 -5.670578e-02 -2.700162e-02 1.613102e-02 5.952429e-02 -3.442190e-02 -2.728874e-02 -2.722956e-02 -7.164050e-02 3.532609e-03 2.694165e-01 -3.670231e-02 -1.847016e-02 2.166207e-02 -1.949350e-02 6.771321e-03 2.659504e-02 -1.156800e-03 -5.624384e-03 2.924288e-02 -6.994204e-03 -4.135265e-03 -2.847625e-02 -3.876966e-02
<VARIANCE> 39
 4.205086e+01 2.647596e+01 3.589272e+01 2.769906e+01 3.297289e+01 6.215195e+01 4.824424e+01 7.425184e+01 3.133758e+01 2.163431e+01 2.767833e+01 2.004668e+01 1.432428e+02 2.441934e+00 1.900033e+00 2.626636e+00 2.555074e+00 3.273509e+00 3.381591e+00 3.706978e+00 3.821502e+00 2.888824e+00 2.004772e+00 2.480985e+00 1.762405e+00 4.368847e+00 3.877904e-01 3.610728e-01 4.332452e-01 5.374036e-01 6.186389e-01 6.443579e-01 6.732642e-01 5.931758e-01 5.458435e-01 3.715067e-01 4.496292e-01 3.317121e-01 5.500674e-01
<GCONST> 1.230481e+02
~h "a"
<BEGINHMM>
<NUMSTATES> 5
<STATE> 2
<MEAN> 39
 1.447748e+00 -7.115258e-01 2.248412e-02 1.299716e+00 -1.688205e+00 -3.380677e+00 -7.220913e-01 8.480544e-01 4.351121e-01 -3.400377e-01 -6.412576e-01 5.036961e-01 1.165398e+00 2.337637e+00 1.017949e+00 4.126160e-01 -4.616551e-01 -9.631394e-01 -2.174107e-01 8.402836e-02 -4.453736e-01 -1.901007e-01 6.358876e-02 -1.623652e-01 3.794385e-01 1.426870e+00 2.334671e-01 -4.754006e-03 -1.390633e-01 -1.648237e-01 -1.362738e-01 3.224862e-02 7.411823e-02 4.944799e-02 -1.641048e-03 4.010598e-02 8.303316e-02 -1.328986e-02 1.625903e-01
<VARIANCE> 39
 4.950517e+01 4.231092e+01 2.911077e+01 4.194226e+01 3.297805e+01 2.482760e+01 8.899990e+00 1.401100e+01 2.954645e+01 4.910432e+01 7.099617e+00 1.907687e+01 1.693457e+01 3.101725e+00 3.395545e+00 2.735066e+00 2.481515e+00 3.886694e+00 1.473041e+00 1.130040e+00 1.564191e+00 1.777167e+00 2.392411e+00 1.069083e+00 1.083644e+00 1.149565e+00 6.823036e-01 9.579286e-01 6.313510e-01 4.216970e-01 7.320267e-01 2.463478e-01 2.251951e-01 3.606030e-01 4.183187e-01 4.778540e-01 2.030392e-01 1.866821e-01 2.127070e-01
<GCONST> 1.088982e+02
<STATE> 3
<MEAN> 39
 1.210934e+01 2.308001e+00 -1.791454e+00 -1.929501e+00 -5.684375e+00 -4.318469e+00 1.549160e+00 2.920878e+00 9.572617e-01 4.588159e-02 -4.221016e-01 8.105844e-01 7.696896e+00 -6.362593e-01 -6.663497e-02 1.480593e-01 4.627959e-01 7.028177e-01 2.660927e-01 5.149200e-02 3.326666e-01 2.901853e-01 1.108023e-01 1.720051e-01 5.208112e-02 -4.408093e-01 -2.477440e-01 -4.058854e-02 6.466117e-02 7.490860e-02 1.356870e-01 5.385616e-02 -6.205757e-02 -4.910354e-02 2.191309e-03 -4.801253e-02 -1.046451e-02 3.855191e-02 -1.579759e-01
<VARIANCE> 39
 2.161622e+01 7.851017e+00 2.034400e+01 1.684239e+01 2.358125e+01 1.536741e+01 8.527489e+00 1.670832e+01 6.860945e+00 1.242550e+01 1.075428e+01 1.831955e+01 1.200241e+01 1.683835e+00 8.711607e-01 1.539805e+00 1.231177e+00 1.407245e+00 7.161624e-01 6.522868e-01 1.002056e+00 8.655291e-01 1.577177e+00 1.055618e+00 1.382472e+00 6.444911e-01 1.289834e-01 1.412530e-01 2.586651e-01 1.956773e-01 2.778978e-01 1.457719e-01 7.903266e-02 2.143272e-01 1.103008e-01 1.832062e-01 1.886709e-01 2.151309e-01 7.600208e-02
<GCONST> 8.261304e+01
<STATE> 4
<MEAN> 39
 -3.984155e+00 -8.722951e-01 1.708819e-01 7.746081e-01 2.468844e+00 1.713117e+00 1.213347e-01 5.438970e-01 1.702501e+00 1.709441e+00 2.289649e+00 1.234774e+00 -2.545859e+00 -6.359088e-01 -4.563019e-01 -1.842403e-01 6.815144e-02 4.327628e-01 3.173967e-01 -2.031837e-01 -2.860484e-01 -8.298390e-02 -5.158734e-02 -1.837832e-01 -3.046597e-01 -3.194474e-01 3.055080e-01 1.935332e-01 1.093537e-01 9.341234e-02 -1.740960e-02 -2.047213e-02 7.470775e-02 6.371448e-04 -1.756898e-01 -2.643150e-01 -2.606298e-01 -1.636001e-01 1.690450e-01
<VARIANCE> 39
 1.986140e+01 1.380032e+01 1.292380e+01 1.543344e+01 6.934598e+00 1.039149e+01 2.406544e+00 1.017402e+01 5.580478e+00 1.400896e+01 1.636889e+01 2.159803e+01 6.854014e+00 6.974941e-01 4.709461e-01 5.662474e-01 9.951264e-01 1.166903e+00 1.348597e+00 6.664669e-01 7.777842e-01 6.726702e-01 1.265856e+00 1.090561e+00 1.591748e+00 2.097230e-01 6.438801e-02 4.860874e-02 9.482650e-02 2.258577e-01 1.455179e-01 2.141452e-01 1.470194e-01 8.635142e-02 2.221994e-01 4.856922e-01 3.744746e-01 3.788183e-01 2.089116e-02
<GCONST> 7.365876e+01
<TRANSP> 5
 0.000000e+00 1.000000e+00 0.000000e+00 0.000000e+00 0.000000e+00
 0.000000e+00 7.760516e-01 2.239484e-01 0.000000e+00 0.000000e+00
 0.000000e+00 0.000000e+00 8.925192e-01 1.074808e-01 0.000000e+00
 0.000000e+00 0.000000e+00 0.000000e+00 7.364910e-01 2.635091e-01
 0.000000e+00 0.000000e+00 0.000000e+00 0.000000e+00 0.000000e+00
<ENDHMM>
~h "k"
<BEGINHMM>
<NUMSTATES> 5
<STATE> 2
<MEAN> 39
 -6.570181e+00 -2.665601e+00 -2.565261e+00 -3.180288e+00 8.806344e-01 2.551061e+00 -6.217629e-01 -1.567677e+00 7.527627e-01 2.324374e+00 2.180540e+00 1.702149e+00 -4.066371e+00 -1.581502e-02 -6.153572e-02 -3.589651e-02 1.594458e-03 2.106990e-01 1.990058e-01 -3.268546e-01 2.783653e-01 -2.373003e-01 1.014411e-01 3.054651e-01 3.989472e-01 -6.943822e-03 1.894883e-02 -3.440045e-02 -7.137594e-02 -7.395914e-02 -2.208571e-01 -2.881613e-01 1.027379e-01 1.565322e-01 -4.295236e-03 1.032349e-02 -1.405210e-01 -4.549952e-01 3.208447e-02
<VARIANCE> 39
 1.351765e-01 1.434988e+00 3.346711e+00 1.302945e+00 3.181941e+00 4.205869e+00 2.238740e+00 7.883130e+00 1.210071e+01 5.906424e+00 3.860659e+00 5.903255e+00 6.642928e-02 2.046067e-02 4.348621e-02 6.832824e-02 4.215540e-01 6.783045e-01 4.721302e-01 4.026626e-01 5.940499e-01 3.205289e-01 3.883496e-01 4.067962e-01 6.239237e-01 2.870562e-03 5.224171e-03 4.858095e-02 1.324760e-01 5.807125e-02 8.924572e-02 4.058577e-02 6.484974e-02 8.528589e-02 2.524037e-01 1.455046e-01 1.444128e-01 6.776197e-02 2.627509e-03
<GCONST> 2.137210e+01
<STATE> 3
<MEAN> 39
 -6.712202e+00 -3.147091e+00 -3.091436e+00 -3.157825e+00 1.261765e+00 2.728124e+00 -1.978997e+00 -2.088161e+00 -1.222130e-01 2.990285e-01 2.069546e+00 2.554127e+00 -4.151383e+00 9.176236e-03 -2.732220e-01 -4.746177e-01 -3.318786e-01 -4.917201e-01 -4.974563e-01 9.183376e-02 4.284662e-01 4.240610e-02 7.740431e-02 7.296972e-02 -7.660019e-02 4.241082e-02 5.293991e-02 5.994035e-02 -4.967854e-02 -2.287604e-01 -4.277605e-01 -2.860897e-01 2.389633e-01 2.075801e-01 2.522801e-01 1.996115e-01 -2.337226e-01 -6.475973e-01 3.166869e-02
<VARIANCE> 39
 1.072523e-01 1.732116e+00 6.431476e-01 7.055245e+00 6.309652e+00 5.032118e+00 2.674633e+00 1.026843e+01 4.549845e+00 3.719183e+00 4.492370e+00 1.816368e+00 7.858963e-02 4.585990e-02 1.065489e-01 3.999389e-01 8.094358e-01 1.170251e+00 6.218765e-01 4.722205e-01 1.019966e+00 2.529963e+00 1.304115e+00 6.199841e-01 1.762442e-01 2.222936e-02 6.347551e-03 3.495597e-02 6.374659e-02 1.844951e-01 1.291461e-01 9.981462e-02 6.543027e-02 1.252183e-01 4.153161e-02 5.272874e-02 5.014389e-02 9.994649e-02 2.810295e-03
<GCONST> 2.903103e+01
<STATE> 4
<MEAN> 39
 -6.954985e+00 -3.655859e+00 -3.228069e+00 -3.699604e+00 -2.096337e-02 1.102131e+00 -1.196247e+00 -1.144572e+00 -1.262491e+00 7.173930e-01 1.680739e+00 9.216638e-01 -4.067896e+00 6.783076e-02 3.625450e-02 -2.539427e-01 -5.015686e-01 -6.870002e-01 -3.338005e-01 4.508110e-01 7.167154e-01 5.231074e-01 2.415567e-01 -3.021523e-01 -9.349195e-01 1.025966e-02 1.678995e-01 1.917575e-01 7.580663e-02 5.753564e-03 -1.836107e-01 -7.106657e-02 8.924626e-02 7.157156e-02 3.215031e-01 1.682127e-01 -1.133234e-01 -3.015355e-01 6.744473e-02
<VARIANCE> 39
 3.841249e-01 1.641933e+00 2.048133e+00 4.366780e+00 4.937554e+00 3.029547e+00 9.336126e+00 9.099427e+00 6.469659e+00 4.934724e+00 2.942533e+00 3.170725e+00 1.205938e-01 4.047953e-02 1.410471e-01 3.616197e-01 2.393237e-01 5.144147e-01 4.656526e-01 3.175939e-01 1.115548e+00 1.215007e+00 9.015337e-01 5.775210e-01 3.839170e-01 2.110671e-02 3.049844e-02 3.693067e-02 3.448628e-02 1.618613e-01 1.242894e-01 5.749550e-02 2.262163e-01 3.521321e-01 2.236480e-01 4.562012e-02 1.016463e-01 8.709605e-02 7.209586e-03
<GCONST> 3.509052e+01
<TRANSP> 5
 0.000000e+00 1.000000e+00 0.000000e+00 0.000000e+00 0.000000e+00
 0.000000e+00 7.855802e-08 9.999999e-01 0.000000e+00 0.000000e+00
 0.000000e+00 0.000000e+00 4.582061e-06 9.999954e-01 0.000000e+00
 0.000000e+00 0.000000e+00 0.000000e+00 4.059126e-01 5.940875e-01
 0.000000e+00 0.000000e+00 0.000000e+00 0.000000e+00 0.000000e+00
<ENDHMM>
~h "o"
<BEGINHMM>
<NUMSTATES> 5
<STATE> 2
<MEAN> 39
 -2.511790e+00 -5.050694e-01 -2.434596e+00 -4.027598e+00 -2.431288e+00 -8.627086e-01 -3.939245e-01 1.486713e+00 2.937703e+00 3.251041e+00 1.378905e+00 -1.166445e+00 -1.834521e+00 1.918563e+00 9.970340e-01 2.364768e-01 -4.707198e-01 -1.334321e+00 -8.502671e-01 -8.787662e-02 -2.724507e-01 3.704414e-02 2.616025e-01 -2.823275e-01 -2.690740e-01 1.099922e+00 5.274464e-01 8.373551e-02 1.608874e-01 1.508484e-01 -7.197738e-02 -8.316844e-02 1.167982e-02 -2.030416e-01 -1.897662e-01 -7.660065e-02 -6.215305e-02 1.447053e-01 3.757468e-01
<VARIANCE> 39
 2.356653e+01 2.063633e+01 1.953011e+01 3.142402e+01 3.797557e+01 1.648240e+01 9.087561e+00 1.943311e+01 1.577095e+01 1.315793e+01 1.018785e+01 1.700011e+01 6.990154e+00 3.667070e+00 2.504945e+00 2.692412e+00 2.132403e+00 2.610760e+00 1.466777e+00 1.049564e+00 2.520283e+00 2.291298e+00 9.115282e-01 1.067857e+00 1.769148e+00 1.304291e+00 3.279801e-01 6.031892e-01 5.398622e-01 3.781489e-01 3.785180e-01 2.495935e-01 1.751338e-01 3.785296e-01 3.957283e-01 1.897549e-01 2.189027e-01 2.190863e-01 7.956950e-02
<GCONST> 9.981004e+01
<STATE> 3
<MEAN> 39
 9.850815e+00 7.795975e-01 -1.025465e+00 -1.717340e+00 -6.286548e+00 -4.142955e+00 1.089579e+00 8.491780e-01 9.900159e-01 1.656221e+00 9.054021e-01 2.429605e+00 6.793077e+00 -3.740790e-01 -4.518251e-01 -2.071723e-02 7.003950e-01 7.296357e-01 1.749875e-01 1.497405e-01 3.736374e-01 4.558705e-02 -2.508208e-01 2.365092e-01 5.591969e-01 -1.614888e-01 -3.355734e-01 -1.151315e-01 -2.950260e-02 3.933416e-02 1.424050e-01 4.890411e-02 -4.648607e-02 3.751601e-02 6.028933e-02 1.581039e-02 2.940749e-02 -2.943844e-02 -2.136810e-01
<VARIANCE> 39
 3.614458e+01 1.581452e+01 1.387632e+01 2.499815e+01 4.787016e+01 1.826726e+01 7.567306e+00 2.341946e+01 1.725486e+01 1.780635e+01 1.650278e+01 3.464146e+01 2.071494e+01 3.401831e+00 2.273206e+00 1.667088e+00 1.025367e+00 2.937694e+00 1.284621e+00 7.390628e-01 1.594452e+00 1.281026e+00 1.343549e+00 1.262132e+00 1.253437e+00 2.061885e+00 2.116699e-01 3.972320e-01 3.097605e-01 1.560687e-01 5.058239e-01 2.408224e-01 1.414642e-01 3.422951e-01 3.021581e-01 2.354063e-01 2.319418e-01 2.205506e-01 1.460012e-01
<GCONST> 9.855316e+01
<STATE> 4
<MEAN> 39
 -2.601549e+00 -4.012074e+00 -1.203183e+00 3.779492e+00 2.579797e+00 -1.365795e+00 -1.999463e-01 2.674711e+00 2.138629e+00 1.232846e+00 2.536760e+00 3.772145e+00 -9.485501e-01 -9.771341e-01 -7.562085e-01 -2.075135e-01 9.374703e-02 -1.375148e-01 -3.590930e-01 -4.800300e-01 -6.553694e-01 -1.863405e-01 1.570237e-01 -1.639851e-01 -4.996110e-01 -4.783728e-01 2.262444e-01 1.982049e-01 2.016000e-03 -1.350180e-01 -6.981094e-02 -5.537981e-02 8.749843e-03 -3.751063e-02 -3.380402e-01 -2.722178e-01 -2.583535e-02 8.143000e-03 1.116322e-01
<VARIANCE> 39
 7.711946e+00 3.189619e+01 1.561649e+01 2.537246e+01 1.252771e+01 3.779697e+01 1.462980e+01 1.326240e+01 8.861465e+00 8.901332e+00 7.975969e+00 1.177965e+01 4.148244e+00 4.340406e-01 3.341281e-01 2.186120e-01 5.879043e-01 3.989133e-01 1.127911e+00 1.107726e+00 1.633899e+00 1.386404e+00 1.062742e+00 1.104046e+00 8.796093e-01 1.634971e-01 3.198937e-02 1.377196e-01 1.323006e-01 1.473105e-01 4.028349e-02 1.383253e-01 1.731636e-01 2.329548e-01 1.253204e-01 1.603872e-01 1.562705e-01 1.951904e-01 1.282442e-02
<GCONST> 6.976891e+01
<TRANSP> 5
 0.000000e+00 1.000000e+00 0.000000e+00 0.000000e+00 0.000000e+00
 0.000000e+00 6.794139e-01 3.205861e-01 0.000000e+00 0.000000e+00
 0.000000e+00 0.000000e+00 8.641300e-01 1.358700e-01 0.000000e+00
 0.000000e+00 0.000000e+00 0.000000e+00 4.600940e-01 5.399060e-01
 0.000000e+00 0.000000e+00 0.000000e+00 0.000000e+00 0.000000e+00
<ENDHMM>
~h "s"
<BEGINHMM>
<NUMSTATES> 5
<STATE> 2
<MEAN> 39
 1.839994e+00 -1.329803e+00 -9.426518e-01 1.334192e+00 -9.585753e-01 -3.032637e+00 -1.071287e+00 -5.559018e-01 -2.808735e+00 -3.399135e+00 -5.885215e-01 2.678910e+00 1.600942e+00 2.255592e+00 1.027209e+00 4.191593e-01 9.248721e-02 -6.599911e-01 -6.074492e-01 -3.375714e-02 -3.642286e-02 -4.353983e-01 -8.138767e-01 -7.086724e-01 7.123731e-02 1.318689e+00 1.454487e-01 3.437140e-02 7.376211e-03 -2.393634e-02 -9.009993e-02 -2.111430e-02 5.811863e-02 1.670910e-01 1.999283e-01 1.165276e-01 -4.396761e-02 -1.083774e-01 8.411570e-02
<VARIANCE> 39
 5.400889e+01 3.458232e+01 2.042304e+01 3.137351e+01 1.690383e+01 2.738645e+01 1.814509e+01 2.124326e+01 1.512640e+01 2.930529e+01 1.425297e+01 1.328485e+01 1.882808e+01 2.883050e+00 2.979380e+00 2.435338e+00 2.340040e+00 1.652138e+00 2.422972e+00 2.179673e+00 2.329622e+00 1.746292e+00 1.758992e+00 1.577777e+00 9.208213e-01 9.300680e-01 8.192737e-01 7.008842e-01 5.493768e-01 3.645595e-01 2.556315e-01 4.386025e-01 3.801467e-01 4.770935e-01 3.903993e-01 3.823423e-01 2.812080e-01 1.622606e-01 2.493450e-01
<GCONST> 1.079271e+02
<STATE> 3
<MEAN> 39
 1.000406e+01 4.894105e+00 3.991311e+00 2.794752e+00 -3.154202e+00 -3.695450e+00 8.816444e-01 2.422947e+00 6.531647e-01 -2.243843e+00 -4.573791e+00 -2.784549e+00 5.937217e+00 -5.517548e-01 6.090532e-02 2.284810e-01 1.661689e-01 4.480674e-01 4.193908e-01 1.580367e-01 1.310275e-01 2.431132e-01 3.294398e-01 1.869185e-01 -1.729551e-01 -3.828796e-01 -1.259551e-01 -5.950667e-02 -1.543266e-02 3.033706e-02 8.374003e-02 8.670341e-02 9.359265e-03 -6.081124e-02 -5.029757e-02 -6.208259e-03 4.350668e-02 5.781782e-02 -7.061899e-02
<VARIANCE> 39
 1.653562e+01 1.106030e+01 1.567950e+01 1.812311e+01 3.459745e+01 1.572371e+01 1.163514e+01 1.291444e+01 1.159437e+01 1.553270e+01 1.625653e+01 1.802119e+01 9.737264e+00 7.890401e-01 6.521940e-01 6.750829e-01 7.396297e-01 1.488106e+00 1.316489e+00 1.144898e+00 1.268880e+00 8.814660e-01 1.231149e+00 9.595572e-01 8.568118e-01 3.597979e-01 8.492001e-02 1.055646e-01 1.299991e-01 1.173872e-01 2.475569e-01 2.363869e-01 2.241433e-01 2.629138e-01 1.561968e-01 2.086301e-01 1.505314e-01 1.099047e-01 4.384584e-02
<GCONST> 8.032784e+01
<STATE> 4
<MEAN> 39
 -4.923763e+00 -5.559752e-01 1.112453e+00 1.977872e+00 4.132223e+00 3.216214e+00 1.201537e+00 9.634996e-01 5.904750e-01 1.020535e+00 1.032323e+00 -5.927659e-01 -3.148226e+00 -4.595876e-01 -5.525599e-01 -5.297009e-01 -3.268239e-01 -3.200046e-01 -1.287600e-01 -1.298658e-01 -1.402908e-01 -5.819822e-02 6.742249e-02 9.209995e-02 8.700654e-03 -2.108077e-01 1.890112e-01 1.112453e-01 2.692037e-02 -5.739093e-02 -1.350827e-01 -1.279178e-01 -6.479868e-02 1.270806e-02 3.660287e-02 2.841043e-02 -2.791773e-02 -1.650499e-02 9.625420e-02
<VARIANCE> 39
 1.043327e+01 1.574874e+01 1.617333e+01 1.669496e+01 1.804895e+01 1.840521e+01 1.190858e+01 7.811186e+00 9.629805e+00 1.111310e+01 6.992169e+00 5.620612e+00 2.538174e+00 4.389093e-01 4.425387e-01 5.223888e-01 9.972202e-01 1.205596e+00 1.109232e+00 7.016635e-01 7.255344e-01 1.275418e+00 1.641919e+00 7.410939e-01 5.942946e-01 1.147983e-01 7.173972e-02 4.936539e-02 8.009773e-02 1.575221e-01 2.385124e-01 1.746640e-01 9.478681e-02 1.214909e-01 2.613991e-01 2.824405e-01 1.435276e-01 1.410634e-01 2.200352e-02
<GCONST> 6.909037e+01
<TRANSP> 5
 0.000000e+00 1.000000e+00 0.000000e+00 0.000000e+00 0.000000e+00
 0.000000e+00 8.392100e-01 1.607899e-01 0.000000e+00 0.000000e+00
 0.000000e+00 0.000000e+00 9.411656e-01 5.883443e-02 0.000000e+00
 0.000000e+00 0.000000e+00 0.000000e+00 7.941484e-01 2.058516e-01
 0.000000e+00 0.000000e+00 0.000000e+00 0.000000e+00 0.000000e+00
<ENDHMM>
~h "t"
<BEGINHMM>
<NUMSTATES> 5
<STATE> 2
<MEAN> 39
 1.905295e+00 1.945860e+00 2.375034e+00 3.017295e+00 1.511128e+00 -1.694993e+00 -9.748322e-01 7.263206e-01 -6.001757e-01 -2.247648e+00 -1.525171e+00 8.944600e-01 1.003407e+00 1.637022e+00 1.151958e+00 6.220361e-01 1.750370e-01 -4.153070e-01 -5.070149e-01 -4.072498e-02 5.444837e-01 9.993595e-02 -8.929884e-01 -9.379315e-01 -3.420836e-01 8.509169e-01 8.052427e-03 -6.626151e-02 -1.162526e-01 -1.361181e-01 -2.528380e-01 -1.170474e-01 1.222013e-01 3.579804e-01 3.136663e-01 1.275342e-01 2.809908e-02 -1.881215e-01 1.050097e-02
<VARIANCE> 39
 3.908089e+01 3.220761e+01 2.687916e+01 1.410736e+01 1.925204e+01 1.553268e+01 8.470158e+00 1.804946e+01 2.035448e+01 2.337244e+01 1.530860e+01 6.577759e+00 1.155856e+01 3.529666e+00 2.830210e+00 2.879666e+00 1.328458e+00 2.358272e+00 2.268086e+00 8.922065e-01 2.297194e+00 2.557099e+00 6.650336e-01 2.365810e+00 3.924899e-01 9.831603e-01 7.588932e-01 7.366213e-01 6.416007e-01 2.011198e-01 2.370949e-01 5.160646e-02 5.731251e-02 2.818895e-01 4.808947e-01 5.565161e-01 5.486430e-01 7.153902e-02 1.916298e-01
<GCONST> 9.781903e+01
<STATE> 3
<MEAN> 39
 7.285139e+00 5.033407e+00 4.682058e+00 4.482238e+00 -5.433258e-01 -3.624719e+00 -7.325114e-01 5.330152e+00 5.585244e+00 4.949282e-01 -3.697494e+00 -3.783065e+00 3.889047e+00 -4.920791e-01 1.404419e-02 6.355545e-01 8.678503e-01 8.389167e-01 5.220086e-01 2.173799e-02 5.069514e-02 6.730105e-01 4.015125e-01 -5.713906e-01 -9.244772e-01 -3.250380e-01 -1.643524e-01 2.765753e-03 -2.080654e-02 -3.545589e-02 1.639982e-01 1.072583e-01 -3.079768e-02 -4.245005e-01 -6.016501e-01 -2.550466e-01 1.274462e-01 1.473497e-01 -1.018983e-01
<VARIANCE> 39
 1.537452e+01 2.647804e+00 1.449457e+01 1.850205e+01 4.746189e+01 5.670457e+01 1.710115e+01 9.361023e+00 1.060185e+01 1.747723e+01 1.006961e+01 6.409613e+00 8.227580e+00 3.643024e-01 2.024787e-01 6.540897e-01 1.241097e+00 4.187412e+00 1.813629e+00 1.306303e+00 1.524878e+00 2.387180e+00 5.031694e+00 1.593737e+00 1.037331e+00 1.085434e-01 7.958779e-02 4.663662e-02 3.443174e-01 3.472279e-01 6.508895e-01 3.268226e-01 1.172707e-01 2.882421e-01 2.722915e-01 5.933896e-01 5.664295e-01 1.491017e-01 2.317413e-02
<GCONST> 8.540040e+01
<STATE> 4
<MEAN> 39
 3.572710e+00 5.838564e+00 7.207754e+00 8.131411e+00 6.499162e+00 2.668845e+00 8.966878e-01 2.237517e+00 1.951193e+00 6.154305e-02 -1.255312e+00 -2.748826e+00 1.250778e+00 -5.250173e-01 -2.763712e-02 7.317215e-02 -3.984002e-02 2.217893e-01 5.416082e-01 3.825964e-01 -9.495597e-02 -3.021789e-01 1.222715e-02 2.647866e-01 1.264301e-01 -3.455509e-01 -7.635603e-02 -7.034587e-02 -7.973331e-02 -1.028269e-01 -4.831498e-02 -5.257409e-02 -2.503393e-02 -1.450294e-02 -1.323692e-02 7.721310e-03 -2.549779e-02 2.011981e-02 -3.947170e-02
<VARIANCE> 39
 1.253358e+01 2.674259e+00 4.830828e+00 9.833997e+00 2.555119e+01 3.728751e+01 1.631848e+01 4.860720e+00 6.534647e+00 6.263390e+00 1.568152e+01 6.981228e+00 5.775076e+00 1.630596e-01 3.006230e-01 3.286374e-01 5.874965e-01 5.573035e-01 5.605201e-01 4.288489e-01 6.155321e-01 6.700902e-01 7.545526e-01 1.254876e+00 5.864913e-01 6.219091e-02 3.661176e-02 3.497508e-02 6.215232e-02 1.393941e-01 1.818890e-01 1.798557e-01 1.261949e-01 1.396464e-01 1.317879e-01 1.233594e-01 2.229752e-01 1.239387e-01 1.441902e-02
<GCONST> 5.870758e+01
<TRANSP> 5
 0.000000e+00 1.000000e+00 0.000000e+00 0.000000e+00 0.000000e+00
 0.000000e+00 6.622949e-01 3.377050e-01 0.000000e+00 0.000000e+00
 0.000000e+00 0.000000e+00 5.416182e-01 4.583819e-01 0.000000e+00
 0.000000e+00 0.000000e+00 0.000000e+00 8.831652e-01 1.168347e-01
 0.000000e+00 0.000000e+00 0.000000e+00 0.000000e+00 0.000000e+00
<ENDHMM>
~h "u"
<BEGINHMM>
<NUMSTATES> 5
<STATE> 2
<MEAN> 39
 -1.153250e+00 4.596739e+00 5.844412e+00 5.477442e+00 6.510183e+00 4.861187e+00 3.335536e+00 2.713050e+00 1.078084e+00 3.811544e-01 -6.289827e-01 -1.570262e+00 -1.788292e+00 -1.407404e+00 -1.416742e+00 -1.886132e+00 -2.039891e+00 -1.135221e+00 -6.677924e-01 -3.788704e-01 -1.333457e-01 -3.531408e-01 1.228940e-01 4.360715e-01 3.164503e-01 -7.115066e-01 -3.283318e-03 -2.409137e-01 -2.370197e-01 -3.002160e-01 -5.276191e-01 -4.753759e-01 -3.586417e-01 -1.626480e-01 3.687258e-02 6.654304e-02 1.140809e-01 1.247699e-01 5.971804e-02
<VARIANCE> 39
 5.767797e+00 6.249761e+00 1.428310e+01 2.738917e+01 4.552068e+01 4.255978e+01 1.765581e+01 8.038169e+00 6.856348e+00 9.689499e+00 1.022726e+01 3.989727e+00 1.633660e+00 9.577386e-02 3.336600e-01 1.074147e+00 1.547420e+00 2.563576e+00 9.075734e-01 5.154462e-01 7.518139e-01 8.801290e-01 6.854241e-01 7.953945e-01 7.607875e-01 6.347563e-02 2.891359e-02 7.945638e-02 3.396118e-01 4.386133e-01 4.300262e-01 1.706614e-01 1.844591e-01 3.178727e-01 2.674633e-01 3.822482e-01 2.535000e-01 1.498625e-01 8.429261e-03
<GCONST> 7.159236e+01
<STATE> 3
<MEAN> 39
 -5.126403e+00 5.225126e-01 1.995503e+00 9.813327e-01 3.084512e+00 2.784521e+00 9.556280e-01 1.508185e+00 1.804401e-01 -1.671681e-02 -4.545706e-01 -2.015510e+00 -3.576155e+00 -1.153656e+00 -1.244873e+00 -1.018719e+00 -1.116541e+00 -6.805615e-01 -4.928952e-01 -8.113905e-01 -1.191175e+00 -6.679643e-01 -1.344361e-01 3.381624e-01 4.016840e-01 -5.007917e-01 3.120329e-01 2.534163e-01 1.938692e-01 2.256276e-01 1.463750e-01 1.048932e-01 -8.280718e-02 -2.941386e-01 -5.986139e-02 4.402794e-02 1.736965e-01 1.426759e-01 1.496052e-01
<VARIANCE> 39
 2.565720e+00 3.644301e+00 6.202128e+00 1.113740e+01 1.841183e+01 2.878308e+01 1.027951e+01 3.875528e+00 3.448351e+00 2.067013e+00 4.710594e+00 5.404532e+00 7.452841e-01 3.313028e-01 3.090812e-01 2.470917e-01 8.884271e-01 2.287174e+00 2.738109e+00 1.776183e+00 9.145926e-01 7.603152e-01 1.025263e+00 7.226260e-01 5.807947e-01 9.053870e-02 2.342975e-02 8.445349e-02 1.404985e-01 3.285033e-01 3.800427e-01 2.651007e-01 1.924795e-01 2.283427e-01 2.212269e-01 2.175348e-01 1.572311e-01 2.082304e-01 3.883320e-03
<GCONST> 6.129280e+01
<STATE> 4
<MEAN> 39
 -6.879309e+00 -2.604196e+00 -1.691044e+00 -1.559016e+00 2.166877e+00 2.643039e+00 -7.727688e-01 -1.995807e+00 -9.961050e-01 -7.965359e-02 2.787602e-01 -1.024931e+00 -4.221970e+00 -1.180190e-02 -4.552039e-02 -6.354026e-02 -5.380777e-02 -3.835572e-02 -4.181843e-02 -4.423068e-02 -4.955842e-02 -1.840494e-02 -1.754714e-02 1.270339e-02 2.251724e-02 -1.132654e-03 9.883604e-03 8.717280e-03 1.039761e-02 1.474799e-02 1.110661e-02 1.385285e-02 1.915798e-02 2.587371e-02 1.230837e-02 5.307896e-03 -2.424802e-03 4.349086e-04 4.766478e-03
<VARIANCE> 39
 3.425690e-01 2.158563e+00 3.812325e+00 5.086837e+00 4.594733e+00 6.609593e+00 8.548676e+00 8.189342e+00 7.459990e+00 7.144186e+00 7.470823e+00 7.261011e+00 1.295415e-01 3.266792e-02 1.495062e-01 2.992508e-01 5.090394e-01 4.394837e-01 4.719276e-01 7.251802e-01 8.913501e-01 8.530544e-01 8.208573e-01 7.788547e-01 7.681107e-01 1.290749e-02 8.525567e-03 2.788119e-02 5.655876e-02 1.027539e-01 9.629755e-02 9.430234e-02 1.510474e-01 1.881762e-01 1.719605e-01 1.720435e-01 1.548007e-01 1.518315e-01 2.796114e-03
<GCONST> 3.858985e+01
<TRANSP> 5
 0.000000e+00 1.000000e+00 0.000000e+00 0.000000e+00 0.000000e+00
 0.000000e+00 5.610293e-01 4.389707e-01 0.000000e+00 0.000000e+00
 0.000000e+00 0.000000e+00 6.021313e-01 3.978687e-01 0.000000e+00
 0.000000e+00 0.000000e+00 0.000000e+00 9.807502e-01 1.924981e-02
 0.000000e+00 0.000000e+00 0.000000e+00 0.000000e+00 0.000000e+00
<ENDHMM>
~h "ng"
<BEGINHMM>
<NUMSTATES> 5
<STATE> 2
<MEAN> 39
 -3.750104e+00 4.810079e-01 2.502819e+00 4.141570e+00 6.328102e+00 6.265825e+00 4.123418e+00 2.692757e+00 2.824063e+00 1.496961e+00 1.569884e+00 1.212812e+00 -2.731092e+00 -4.019735e-01 -8.981392e-02 -1.349198e-02 -2.640692e-02 1.949967e-01 2.888151e-01 1.496289e-01 5.251856e-02 -8.192793e-03 -1.438676e-01 -1.504071e-01 -4.986151e-01 -2.448427e-01 6.185887e-02 -2.924733e-02 -7.963887e-02 -1.191570e-01 -1.306889e-01 -2.599847e-01 -1.703319e-01 -9.820397e-02 -3.174979e-01 -9.140757e-02 6.661198e-02 -3.071385e-02 6.011324e-02
<VARIANCE> 39
 4.184723e+00 2.154712e+01 2.243540e+01 2.991404e+01 3.904352e+01 4.079237e+01 1.676194e+01 7.448153e+00 9.611267e+00 1.515536e+01 1.010848e+01 1.123425e+01 1.161064e+00 2.124884e-01 1.859556e-01 1.073842e-01 1.532698e-01 4.145591e-01 4.118807e-01 3.032330e-01 5.453359e-01 9.991896e-01 3.713667e-01 3.886036e-01 9.505133e-01 8.967631e-02 3.385642e-02 6.349023e-02 4.117125e-02 3.095778e-02 6.738246e-02 1.704611e-01 3.477379e-01 1.713790e-01 9.723293e-02 1.599803e-01 2.159854e-01 2.441594e-01 6.472468e-03
<GCONST> 5.720657e+01
<STATE> 3
<MEAN> 39
 -4.806242e+00 -7.077835e-01 4.619750e-01 2.122094e+00 5.283473e+00 4.958004e+00 3.458744e+00 2.299655e+00 1.304307e+00 1.565324e+00 2.366372e+00 7.318910e-01 -3.193042e+00 -5.630187e-01 -4.027186e-01 -3.092094e-01 -3.403862e-01 4.551528e-03 2.746210e-03 4.009242e-02 -3.728904e-01 -5.594483e-01 -1.722249e-01 -7.865010e-02 -4.016484e-01 -2.856710e-01 6.847307e-02 -2.775215e-02 -1.173397e-01 -2.233616e-01 -3.081912e-01 -3.997924e-01 -4.084073e-01 -2.732384e-01 -1.991430e-01 -3.405619e-02 5.038140e-02 2.122260e-01 6.230998e-02
<VARIANCE> 39
 2.955969e+00 1.580527e+01 2.291656e+01 3.472005e+01 2.722144e+01 3.000043e+01 2.143148e+01 1.415252e+01 8.876016e+00 1.475434e+01 8.391771e+00 9.725015e+00 8.530950e-01 8.392938e-02 2.301708e-01 2.177194e-01 2.946694e-01 3.564449e-01 8.943067e-01 2.062981e+00 7.840682e-01 6.130762e-01 6.340597e-01 7.359171e-01 1.704842e+00 3.749429e-02 6.115616e-02 7.038193e-02 4.397767e-02 7.317069e-02 7.162561e-02 1.113950e-01 1.622145e-01 1.011490e-01 1.925527e-01 7.008740e-02 9.803892e-02 1.577205e-01 1.863609e-02
<GCONST> 5.979580e+01
<STATE> 4
<MEAN> 39
 -5.160019e+00 -3.757463e-01 1.702956e+00 2.701596e+00 6.432161e+00 5.507651e+00 2.700942e+00 1.361066e+00 4.863619e-01 1.049991e+00 1.009216e+00 -3.724694e-02 -3.546365e+00 -4.934322e-01 -4.114938e-01 -6.748555e-01 -1.111508e+00 -9.716409e-01 -1.118890e+00 -1.295036e+00 -8.786440e-01 -5.080401e-01 -6.761664e-02 9.337999e-04 3.292902e-01 -2.380683e-01 1.879126e-01 1.119248e-01 -3.420061e-02 -1.198195e-01 -3.365789e-01 -3.343355e-01 -3.499878e-01 -1.838860e-01 3.573232e-02 -2.767070e-02 7.847480e-02 1.697654e-01 1.151278e-01
<VARIANCE> 39
 2.057709e+00 9.830231e+00 2.026176e+01 1.859527e+01 2.694948e+01 3.422763e+01 2.530118e+01 1.577927e+01 8.777935e+00 8.664364e+00 3.785594e+00 8.941116e+00 8.271157e-01 1.170675e-01 3.751851e-01 3.463185e-01 9.361349e-01 1.119023e+00 5.763809e-01 7.582327e-01 4.560199e-01 7.629539e-01 5.087131e-01 5.869160e-01 6.148250e-01 4.496333e-02 5.742150e-02 7.225216e-02 7.698873e-02 9.847684e-02 9.713564e-02 1.768522e-01 2.595783e-01 8.774140e-02 1.026852e-01 2.158181e-02 3.635601e-02 1.152049e-01 2.196507e-02
<GCONST> 5.665723e+01
<TRANSP> 5
 0.000000e+00 1.000000e+00 0.000000e+00 0.000000e+00 0.000000e+00
 0.000000e+00 2.863311e-01 7.136689e-01 0.000000e+00 0.000000e+00
 0.000000e+00 0.000000e+00 1.615663e-01 8.384337e-01 0.000000e+00
 0.000000e+00 0.000000e+00 0.000000e+00 2.994995e-01 7.005005e-01
 0.000000e+00 0.000000e+00 0.000000e+00 0.000000e+00 0.000000e+00
<ENDHMM>
~h "sp"
<BEGINHMM>
<NUMSTATES> 3
<STATE> 2
~s "silst"
<TRANSP> 3
 0.000000e+00 7.000000e-01 3.000000e-01
 0.000000e+00 9.336483e-01 6.635173e-02
 0.000000e+00 0.000000e+00 0.000000e+00
<ENDHMM>
~h "sil"
<BEGINHMM>
<NUMSTATES> 5
<STATE> 2
<MEAN> 39
 4.070004e+00 -4.486487e-01 -2.287378e+00 -1.963088e+00 -1.904644e+00 -1.190475e-01 2.282742e-01 -2.728434e+00 -3.423341e+00 -3.731775e-02 4.231183e+00 5.866141e+00 2.811457e+00 5.652416e-02 1.189126e-01 1.342847e-01 4.307267e-02 -5.073857e-02 -3.470397e-02 8.309670e-03 1.014008e-01 9.132789e-02 1.063839e-01 4.356176e-02 7.330668e-02 2.202523e-02 -1.482867e-02 -6.921668e-03 -2.122897e-02 -3.254088e-02 9.835497e-03 1.925853e-02 5.269586e-02 7.619416e-02 8.304992e-02 9.698272e-03 -6.923049e-02 -6.661499e-02 -1.175067e-02
<VARIANCE> 39
 7.237541e+01 1.279776e+01 1.678613e+01 1.030442e+01 2.842983e+01 1.919910e+01 1.904836e+01 1.812287e+01 2.284028e+01 1.984016e+01 8.968834e+00 2.619435e+01 3.334441e+01 3.721612e+00 1.860522e+00 1.525332e+00 8.839823e-01 2.613133e+00 1.384248e+00 1.232048e+00 1.298876e+00 2.217515e+00 2.040987e+00 8.044597e-01 1.594782e+00 1.745243e+00 2.420321e-01 3.784024e-01 2.876312e-01 1.302800e-01 4.108585e-01 2.167215e-01 2.130518e-01 3.108647e-01 4.381563e-01 3.910433e-01 1.434993e-01 2.091411e-01 1.191432e-01
<GCONST> 9.899039e+01
<STATE> 3
~s "silst"
<STATE> 4
<MEAN> 39
 -6.695747e+00 -2.262998e+00 -1.792945e+00 -2.379180e+00 1.176075e+00 1.926629e+00 -1.209524e+00 -1.996050e+00 -1.466375e-01 1.312573e+00 1.920721e+00 6.048284e-01 -4.190212e+00 -3.366699e-02 -6.150346e-02 -9.065859e-02 -8.039024e-02 -5.065201e-02 1.888261e-02 -2.280656e-03 -1.143196e-02 3.361926e-02 4.419576e-02 5.143166e-04 -2.194676e-03 -1.514817e-02 1.770473e-02 1.481948e-02 6.154883e-03 7.652633e-03 1.889080e-02 2.432577e-02 2.081312e-02 1.102238e-02 1.661177e-03 1.239742e-02 1.313878e-02 1.791855e-02 7.581936e-03
<VARIANCE> 39
 3.129580e-01 2.278565e+00 3.173470e+00 3.959591e+00 6.701906e+00 7.924579e+00 7.873908e+00 7.116814e+00 7.416673e+00 6.924085e+00 9.093604e+00 8.240699e+00 1.161035e-01 4.035309e-02 1.868273e-01 2.710483e-01 3.763508e-01 4.785641e-01 5.767714e-01 6.670430e-01 8.184206e-01 7.861761e-01 8.406531e-01 8.448249e-01 8.581148e-01 1.368762e-02 1.110453e-02 3.806504e-02 5.654707e-02 8.542973e-02 8.664183e-02 1.067352e-01 1.403692e-01 1.704161e-01 1.598966e-01 1.743424e-01 1.801835e-01 1.750839e-01 3.338050e-03
<GCONST> 3.962399e+01
<TRANSP> 5
 0.000000e+00 1.000000e+00 0.000000e+00 0.000000e+00 0.000000e+00
 0.000000e+00 8.737500e-01 2.716570e-12 1.262500e-01 0.000000e+00
 0.000000e+00 0.000000e+00 1.616393e-01 8.383607e-01 0.000000e+00
 0.000000e+00 5.138263e-03 0.000000e+00 9.643138e-01 3.054793e-02
 0.000000e+00 0.000000e+00 0.000000e+00 0.000000e+00 0.000000e+00
<ENDHMM>
