~o
<STREAMINFO> 1 39
<VECSIZE> 39<NULLD><MFCC_D_A_Z_0><DIAGC>
~h "initial"
<BEGINHMM>
<NUMSTATES> 5
<STATE> 2
<MEAN> 39
 1.416939e+00 -1.692096e-01 -1.547629e-03 3.690443e-01 -5.915518e-01 -5.500997e-01 4.260952e-01 4.997403e-01 1.287822e-01 -9.651162e-02 -2.488765e-01 7.991783e-02 1.038726e+00 -6.805877e-04 5.542603e-03 1.406575e-02 2.191892e-02 1.344701e-02 6.639456e-03 -1.939877e-03 -9.035956e-04 1.113884e-02 5.855883e-03 3.877977e-03 2.748491e-03 -1.832184e-03 3.171106e-06 -9.246218e-04 -2.427259e-03 -2.543151e-03 -1.741192e-03 -4.592338e-03 -2.387455e-03 -1.463589e-03 -1.157953e-03 -1.571032e-03 -1.333261e-03 -6.047216e-04 8.158388e-05
<VARIANCE> 39
 8.182611e+01 1.743947e+01 1.987635e+01 3.258770e+01 4.828471e+01 3.485511e+01 1.398587e+01 1.557996e+01 1.021640e+01 1.193606e+01 1.189314e+01 1.104507e+01 3.490800e+01 1.337661e+00 1.066939e+00 9.641193e-01 8.961515e-01 1.377871e+00 1.295748e+00 1.120748e+00 1.164651e+00 9.135824e-01 1.049926e+00 9.123460e-01 7.410299e-01 5.167006e-01 1.133144e-01 1.894682e-01 1.869943e-01 1.244890e-01 1.939564e-01 2.305929e-01 2.009570e-01 2.462917e-01 1.738705e-01 1.891132e-01 1.758169e-01 1.363583e-01 4.407274e-02
<GCONST> 8.744074e+01
<STATE> 3
<MEAN> 39
 -2.122986e+00 -2.689782e-01 1.056020e-01 -1.787393e-01 1.145709e+00 1.625931e+00 -1.052307e-01 -1.378000e+00 -1.229256e+00 -5.857157e-01 -1.896313e-01 -4.475580e-01 -1.388952e+00 -2.740398e-04 -6.150297e-03 -1.171042e-02 -7.626124e-03 -6.380017e-03 -3.629607e-03 2.020064e-04 -1.433770e-04 -6.841329e-03 -3.357752e-03 -4.331648e-03 3.318975e-04 7.863260e-04 9.994872e-04 2.257849e-03 2.031553e-03 -3.556384e-04 -1.804524e-03 1.114565e-03 3.149888e-03 3.265138e-03 1.529950e-03 1.553910e-03 -2.538604e-03 -6.290919e-03 1.623168e-04
<VARIANCE> 39
 5.863652e+01 1.964756e+01 1.772485e+01 1.229682e+01 1.448446e+01 1.452428e+01 9.841170e+00 1.141379e+01 1.007518e+01 1.150477e+01 1.866577e+01 2.338629e+01 2.248395e+01 8.652275e-01 5.083966e-01 6.610569e-01 6.733549e-01 8.420901e-01 7.639248e-01 7.646779e-01 1.127605e+00 1.088099e+00 9.924455e-01 8.466140e-01 9.464157e-01 4.037050e-01 6.920924e-02 8.494265e-02 1.221819e-01 1.276344e-01 1.407723e-01 1.243087e-01 1.576934e-01 2.419944e-01 2.325591e-01 2.017665e-01 1.549810e-01 1.631027e-01 3.344402e-02
<GCONST> 7.811004e+01
<STATE> 4
<MEAN> 39
 1.105612e+00 3.743736e-01 -1.013127e-01 -7.469660e-02 -7.129474e-01 -1.206244e+00 -1.842659e-01 9.997880e-01 1.104832e+00 6.324717e-01 3.509807e-01 3.800688e-01 6.483043e-01 2.001022e-03 3.682389e-03 4.430469e-03 -2.313538e-04 6.539235e-03 8.234762e-03 5.525424e-03 4.104197e-03 1.271692e-02 1.617557e-02 6.652000e-03 2.825675e-03 2.517357e-04 5.765007e-05 -1.172236e-03 -1.348455e-03 -5.554832e-04 1.881391e-03 1.754835e-03 -9.510203e-05 -2.416560e-03 -2.243901e-03 1.875325e-03 4.513675e-03 7.033961e-03 1.643318e-04
<VARIANCE> 39
 6.020403e+01 1.973366e+01 1.810772e+01 2.429101e+01 3.470969e+01 2.421685e+01 1.276480e+01 1.822269e+01 1.551149e+01 2.075005e+01 1.694602e+01 1.790726e+01 2.444783e+01 2.908937e+00 1.614401e+00 1.233263e+00 1.389646e+00 2.289989e+00 1.388772e+00 1.031574e+00 1.388708e+00 1.400124e+00 1.635546e+00 1.295934e+00 1.228644e+00 1.116469e+00 2.975107e-01 2.753792e-01 2.293283e-01 2.183502e-01 3.520164e-01 2.194508e-01 1.859079e-01 2.539713e-01 2.726505e-01 2.895031e-01 2.368248e-01 2.057949e-01 1.103356e-01
<GCONST> 9.784420e+01
<TRANSP> 5
 0.000000e+00 1.000000e+00 0.000000e+00 0.000000e+00 0.000000e+00
 0.000000e+00 9.967213e-01 3.278689e-03 0.000000e+00 0.000000e+00
 0.000000e+00 0.000000e+00 9.977273e-01 2.272727e-03 0.000000e+00
 0.000000e+00 0.000000e+00 0.000000e+00 9.977974e-01 2.202643e-03
 0.000000e+00 0.000000e+00 0.000000e+00 0.000000e+00 0.000000e+00
<ENDHMM>
