~o
<STREAMINFO> 1 39
<VECSIZE> 39<NULLD><MFCC_D_A_Z_0><DIAGC>
~h "initial"
<BEGINHMM>
<NUMSTATES> 5
<STATE> 2
<MEAN> 39
 1.416931e+00 -1.692118e-01 -1.540617e-03 3.690526e-01 -5.915545e-01 -5.501038e-01 4.260974e-01 4.997377e-01 1.287868e-01 -9.650765e-02 -2.488813e-01 7.990562e-02 1.038727e+00 -6.818471e-04 5.541996e-03 1.406600e-02 2.191837e-02 1.344677e-02 6.641894e-03 -1.942249e-03 -9.069550e-04 1.113911e-02 5.857342e-03 3.877180e-03 2.749241e-03 -1.830616e-03 3.259306e-06 -9.244523e-04 -2.427696e-03 -2.542482e-03 -1.740922e-03 -4.592349e-03 -2.387387e-03 -1.464107e-03 -1.158251e-03 -1.570974e-03 -1.333334e-03 -6.046960e-04 8.139151e-05
<VARIANCE> 39
 8.182612e+01 1.743947e+01 1.987636e+01 3.258775e+01 4.828471e+01 3.485510e+01 1.398588e+01 1.557992e+01 1.021636e+01 1.193604e+01 1.189314e+01 1.104504e+01 3.490806e+01 1.337656e+00 1.066940e+00 9.641199e-01 8.961501e-01 1.377867e+00 1.295744e+00 1.120750e+00 1.164652e+00 9.135808e-01 1.049930e+00 9.123402e-01 7.410306e-01 5.167004e-01 1.133141e-01 1.894685e-01 1.869943e-01 1.244888e-01 1.939568e-01 2.305928e-01 2.009581e-01 2.462919e-01 1.738702e-01 1.891127e-01 1.758159e-01 1.363582e-01 4.407272e-02
<GCONST> 8.744068e+01
<STATE> 3
<MEAN> 39
 -2.122986e+00 -2.689792e-01 1.056031e-01 -1.787367e-01 1.145707e+00 1.625922e+00 -1.052267e-01 -1.378003e+00 -1.229256e+00 -5.857161e-01 -1.896303e-01 -4.475555e-01 -1.388953e+00 -2.733030e-04 -6.150657e-03 -1.171030e-02 -7.626472e-03 -6.379021e-03 -3.628453e-03 2.029594e-04 -1.446554e-04 -6.842670e-03 -3.360050e-03 -4.333267e-03 3.302941e-04 7.866822e-04 9.998437e-04 2.257952e-03 2.031743e-03 -3.556691e-04 -1.804230e-03 1.115100e-03 3.149862e-03 3.265423e-03 1.529327e-03 1.554110e-03 -2.538754e-03 -6.290628e-03 1.624344e-04
<VARIANCE> 39
 5.863646e+01 1.964756e+01 1.772488e+01 1.229682e+01 1.448446e+01 1.452428e+01 9.841182e+00 1.141379e+01 1.007518e+01 1.150475e+01 1.866581e+01 2.338626e+01 2.248394e+01 8.652267e-01 5.083957e-01 6.610581e-01 6.733556e-01 8.420903e-01 7.639263e-01 7.646789e-01 1.127605e+00 1.088099e+00 9.924414e-01 8.466161e-01 9.464128e-01 4.037048e-01 6.920952e-02 8.494250e-02 1.221819e-01 1.276345e-01 1.407723e-01 1.243093e-01 1.576933e-01 2.419938e-01 2.325590e-01 2.017664e-01 1.549808e-01 1.631024e-01 3.344386e-02
<GCONST> 7.811001e+01
<STATE> 4
<MEAN> 39
 1.105611e+00 3.743722e-01 -1.013149e-01 -7.469898e-02 -7.129479e-01 -1.206236e+00 -1.842705e-01 9.997895e-01 1.104827e+00 6.324685e-01 3.509775e-01 3.800712e-01 6.483067e-01 2.001550e-03 3.682948e-03 4.429793e-03 -2.309149e-04 6.540141e-03 8.235894e-03 5.526432e-03 4.102822e-03 1.271591e-02 1.617673e-02 6.653029e-03 2.825709e-03 2.518726e-04 5.697131e-05 -1.172266e-03 -1.348999e-03 -5.555245e-04 1.880836e-03 1.754599e-03 -9.502717e-05 -2.416860e-03 -2.243943e-03 1.875970e-03 4.512705e-03 7.034334e-03 1.641975e-04
<VARIANCE> 39
 6.020395e+01 1.973363e+01 1.810771e+01 2.429102e+01 3.470959e+01 2.421685e+01 1.276479e+01 1.822265e+01 1.551151e+01 2.075005e+01 1.694605e+01 1.790733e+01 2.444782e+01 2.908943e+00 1.614400e+00 1.233263e+00 1.389645e+00 2.289988e+00 1.388772e+00 1.031575e+00 1.388708e+00 1.400125e+00 1.635544e+00 1.295936e+00 1.228642e+00 1.116468e+00 2.975107e-01 2.753795e-01 2.293289e-01 2.183507e-01 3.520166e-01 2.194511e-01 1.859080e-01 2.539713e-01 2.726517e-01 2.895031e-01 2.368253e-01 2.057944e-01 1.103354e-01
<GCONST> 9.784422e+01
<TRANSP> 5
 0.000000e+00 1.000000e+00 0.000000e+00 0.000000e+00 0.000000e+00
 0.000000e+00 9.967213e-01 3.278689e-03 0.000000e+00 0.000000e+00
 0.000000e+00 0.000000e+00 9.977273e-01 2.272727e-03 0.000000e+00
 0.000000e+00 0.000000e+00 0.000000e+00 9.977974e-01 2.202643e-03
 0.000000e+00 0.000000e+00 0.000000e+00 0.000000e+00 0.000000e+00
<ENDHMM>
