~o
<STREAMINFO> 1 39
<VECSIZE> 39<NULLD><MFCC_D_A_Z_0><DIAGC>
~h "a"
<BEGINHMM>
<NUMSTATES> 5
<STATE> 2
<MEAN> 39
 7.671724e-01 1.888432e+00 2.372113e+00 3.493766e+00 3.864624e+00 3.176457e+00 2.885376e+00 2.531137e+00 8.737387e-01 -2.339227e-01 6.620746e-01 1.537008e+00 1.866773e-01 -6.151209e-01 -4.856228e-01 -3.885915e-01 -4.805411e-01 -2.715310e-01 -3.380912e-03 -9.082486e-02 -2.255936e-01 -2.503166e-01 -3.789496e-02 -1.195364e-01 -1.027620e-01 -3.077050e-01 6.731881e-02 4.447097e-02 2.651738e-02 -1.361935e-01 -2.115661e-01 -7.793550e-02 -1.151970e-01 -2.166609e-01 -9.624177e-02 1.375096e-01 9.423568e-02 -5.125587e-02 3.443159e-02
<VARIANCE> 39
 4.845638e+01 1.427927e+01 1.943228e+01 2.366345e+01 3.823270e+01 5.185368e+01 1.780024e+01 9.865688e+00 1.196594e+01 1.811248e+01 1.609709e+01 2.590392e+01 1.936365e+01 6.789380e-01 5.063100e-01 6.358694e-01 1.145543e+00 1.591099e+00 9.365335e-01 1.291467e+00 9.010406e-01 9.770820e-01 1.884477e+00 1.106945e+00 6.086472e-01 2.423002e-01 7.212926e-02 1.031495e-01 8.371761e-02 1.162189e-01 2.399689e-01 2.893584e-01 3.046483e-01 1.374397e-01 1.357367e-01 2.296461e-01 1.947274e-01 1.429708e-01 2.008532e-02
<GCONST> 8.311546e+01
<STATE> 3
<MEAN> 39
 -4.661111e+00 -1.477841e+00 -5.512263e-01 -5.048652e-01 1.816304e+00 2.191212e+00 -4.445036e-01 -1.658898e+00 -1.271148e+00 -3.998839e-01 -1.766925e-01 -1.005847e+00 -2.890056e+00 -7.570014e-02 -7.957342e-02 -7.730539e-02 -9.751857e-02 -7.823048e-02 -3.136054e-02 -4.609345e-02 -4.704206e-02 -6.816337e-03 4.714469e-02 1.065977e-02 -1.555227e-02 -3.805134e-02 2.474254e-02 1.726834e-02 1.059518e-02 1.062679e-02 5.098389e-03 1.284497e-02 5.877028e-03 2.058794e-02 2.793986e-02 1.526933e-02 -8.203784e-03 -2.123814e-02 1.362176e-02
<VARIANCE> 39
 3.421727e+01 1.425964e+01 1.199955e+01 8.389478e+00 9.206108e+00 1.176021e+01 9.191308e+00 1.144473e+01 8.832309e+00 9.658568e+00 1.364336e+01 1.518818e+01 1.185445e+01 1.053840e-01 1.845133e-01 3.438319e-01 6.542862e-01 5.909915e-01 5.753862e-01 7.587467e-01 9.102634e-01 8.896240e-01 9.820747e-01 7.796061e-01 8.041560e-01 4.270554e-02 1.942936e-02 3.320982e-02 7.344086e-02 1.517566e-01 1.215288e-01 1.121899e-01 1.434393e-01 2.212140e-01 1.963323e-01 1.786357e-01 1.444160e-01 1.644538e-01 6.356646e-03
<GCONST> 6.169911e+01
<STATE> 4
<MEAN> 39
 5.127783e+00 7.257811e-01 -7.016087e-01 -6.927145e-01 -2.850529e+00 -2.266833e+00 2.700589e-01 1.191381e+00 8.536383e-01 6.701037e-01 3.284818e-01 1.611863e+00 3.347553e+00 3.652653e-01 2.032065e-01 1.353442e-01 8.036197e-02 -3.260571e-02 -8.628093e-03 1.262054e-02 8.642516e-02 1.161508e-01 9.492239e-02 -2.552689e-02 -5.934267e-02 2.076000e-01 -5.470753e-02 -2.084120e-02 -4.133405e-03 4.334135e-02 6.469778e-02 -1.640357e-02 -7.946308e-03 2.051638e-02 -1.318186e-02 -8.429862e-02 -5.405446e-02 -1.317909e-02 -3.110286e-02
<VARIANCE> 39
 5.458709e+01 2.321848e+01 1.773677e+01 2.929862e+01 4.477636e+01 2.092027e+01 9.549319e+00 2.478103e+01 2.219287e+01 2.076953e+01 1.477342e+01 2.502880e+01 2.357355e+01 4.633248e+00 2.604786e+00 1.706224e+00 2.176542e+00 3.945354e+00 1.824858e+00 1.161120e+00 1.931783e+00 1.834875e+00 1.696406e+00 1.199900e+00 1.363736e+00 1.812448e+00 4.891036e-01 4.418224e-01 3.380892e-01 3.524120e-01 5.945417e-01 2.941075e-01 2.184974e-01 3.234590e-01 3.579537e-01 2.749547e-01 2.237573e-01 1.752183e-01 1.824008e-01
<GCONST> 1.060856e+02
<TRANSP> 5
 0.000000e+00 1.000000e+00 0.000000e+00 0.000000e+00 0.000000e+00
 0.000000e+00 5.007356e-01 4.992644e-01 0.000000e+00 0.000000e+00
 0.000000e+00 0.000000e+00 9.195265e-01 8.047347e-02 0.000000e+00
 0.000000e+00 0.000000e+00 0.000000e+00 8.779715e-01 1.220285e-01
 0.000000e+00 0.000000e+00 0.000000e+00 0.000000e+00 0.000000e+00
<ENDHMM>
~h "k"
<BEGINHMM>
<NUMSTATES> 5
<STATE> 2
<MEAN> 39
 6.060335e+00 3.648196e+00 4.145706e+00 5.433201e+00 1.512670e+00 -1.824169e+00 -3.994622e-01 1.507792e+00 2.540747e-01 -2.012763e+00 -2.962516e+00 -2.012324e+00 3.512601e+00 -5.974396e-01 1.040084e-01 1.446528e-01 1.346817e-02 3.883074e-01 6.477560e-01 3.925237e-01 1.269243e-01 -1.086002e-03 2.683734e-01 4.108243e-01 3.026086e-02 -4.352511e-01 -3.347133e-02 6.013022e-02 8.858792e-02 -2.503468e-02 -3.515085e-02 5.065142e-04 5.329781e-02 -1.220937e-02 4.821805e-02 1.564785e-01 8.308411e-02 -1.819850e-02 -2.837154e-02
<VARIANCE> 39
 4.456554e+01 1.632740e+01 1.981155e+01 2.231553e+01 1.965194e+01 3.167672e+01 1.338629e+01 8.123988e+00 5.065882e+00 1.026836e+01 1.338271e+01 9.352324e+00 1.937336e+01 4.046038e-01 8.700311e-01 1.364691e+00 9.292976e-01 1.237340e+00 1.357490e+00 1.044135e+00 9.596522e-01 5.175696e-01 8.723270e-01 8.642980e-01 4.753895e-01 1.770229e-01 5.463592e-02 8.997954e-02 1.956558e-01 1.714988e-01 2.177530e-01 2.864188e-01 2.129124e-01 1.924645e-01 1.113603e-01 1.192793e-01 1.020411e-01 9.294344e-02 2.362272e-02
<GCONST> 7.612027e+01
<STATE> 3
<MEAN> 39
 -3.951571e+00 -8.229637e-01 -2.015968e-01 -4.989219e-01 1.459296e+00 1.719487e+00 -2.805361e-01 -9.225751e-01 -3.040954e-01 2.807078e-01 1.934472e-01 -1.184794e+00 -2.529955e+00 -7.879265e-02 -4.323647e-02 -2.755761e-02 3.873630e-02 6.301139e-02 -4.142723e-02 -2.345101e-03 -1.535715e-02 4.047116e-02 7.912520e-02 5.917959e-02 -1.449610e-02 -4.866746e-02 4.016511e-02 2.228659e-02 8.667946e-03 1.502132e-03 -1.056317e-02 -2.836201e-02 -1.065032e-02 2.425953e-03 -1.451125e-03 -1.411879e-02 -4.577257e-02 -1.703453e-02 2.041293e-02
<VARIANCE> 39
 3.779574e+01 1.953048e+01 1.573111e+01 1.115928e+01 9.095397e+00 6.570544e+00 6.379997e+00 7.468614e+00 6.040683e+00 6.595479e+00 1.228827e+01 1.139887e+01 1.190893e+01 1.641065e-01 2.194082e-01 2.730385e-01 3.294528e-01 5.110095e-01 5.633734e-01 5.449858e-01 8.047958e-01 8.110842e-01 8.805640e-01 6.949536e-01 6.576331e-01 6.139334e-02 2.784195e-02 4.151862e-02 5.688746e-02 7.166217e-02 7.886948e-02 1.150238e-01 1.126498e-01 1.645729e-01 1.595616e-01 1.543353e-01 1.284433e-01 1.268217e-01 8.829032e-03
<GCONST> 5.728932e+01
<STATE> 4
<MEAN> 39
 3.108650e+00 2.034016e+00 9.756283e-01 5.336913e-01 -4.441436e-01 -1.228275e+00 1.653368e-01 7.878634e-01 5.283356e-04 2.026308e-01 4.368051e-01 3.536908e-01 1.669697e+00 1.877836e-01 1.200623e-01 4.779223e-02 1.778696e-02 2.966171e-02 1.112820e-01 -2.750347e-03 -3.562657e-02 4.381602e-02 -1.009860e-02 -1.295853e-01 -3.568854e-02 9.631211e-02 -3.208889e-02 -5.146189e-02 -2.037815e-02 2.304242e-02 2.185932e-02 6.850641e-02 2.611866e-02 -2.911660e-02 -4.708946e-02 -1.025203e-01 -4.096905e-02 -5.991952e-03 -9.594455e-03
<VARIANCE> 39
 4.905134e+01 2.395304e+01 3.174752e+01 2.743495e+01 3.165502e+01 2.016590e+01 1.094611e+01 2.175381e+01 2.313710e+01 2.269956e+01 1.783746e+01 2.481346e+01 1.886194e+01 3.951543e+00 2.222578e+00 2.115145e+00 1.714422e+00 2.685882e+00 1.879118e+00 8.131644e-01 1.919577e+00 2.493362e+00 2.562104e+00 1.830454e+00 1.697575e+00 1.466076e+00 3.514126e-01 4.076469e-01 4.200284e-01 3.029815e-01 4.025874e-01 2.514143e-01 1.316226e-01 3.940212e-01 4.906556e-01 5.180734e-01 4.107820e-01 3.118578e-01 1.188338e-01
<GCONST> 1.068281e+02
<TRANSP> 5
 0.000000e+00 1.000000e+00 0.000000e+00 0.000000e+00 0.000000e+00
 0.000000e+00 7.065906e-01 2.934095e-01 0.000000e+00 0.000000e+00
 0.000000e+00 0.000000e+00 8.486710e-01 1.513290e-01 0.000000e+00
 0.000000e+00 0.000000e+00 0.000000e+00 8.223533e-01 1.776466e-01
 0.000000e+00 0.000000e+00 0.000000e+00 0.000000e+00 0.000000e+00
<ENDHMM>
~h "o"
<BEGINHMM>
<NUMSTATES> 5
<STATE> 2
<MEAN> 39
 6.211957e+00 2.399431e+00 1.494816e+00 2.681402e+00 7.683221e-01 -6.582589e-01 1.554111e+00 3.049521e+00 1.231334e+00 -7.530589e-01 -1.450872e+00 -1.076095e+00 3.722079e+00 -4.981497e-01 -1.210522e-01 -5.322009e-02 -5.774458e-02 1.881310e-01 2.085817e-01 6.823043e-02 -1.782809e-02 3.864255e-02 7.508639e-02 9.691700e-02 -3.894686e-02 -3.247901e-01 -6.338704e-03 7.909480e-03 3.046877e-02 -4.040995e-02 -8.878025e-02 -6.196832e-02 -5.224777e-02 -7.991830e-02 -5.004684e-02 -8.439071e-03 -7.420082e-03 3.123530e-02 1.433593e-03
<VARIANCE> 39
 6.613246e+01 1.025972e+01 3.145041e+01 3.219201e+01 6.496325e+01 5.003329e+01 1.689342e+01 1.040196e+01 5.349609e+00 9.697582e+00 1.282695e+01 1.065426e+01 3.141180e+01 3.446352e-01 5.506037e-01 8.917363e-01 1.096166e+00 1.633549e+00 1.065643e+00 1.067048e+00 1.117813e+00 5.297108e-01 6.222342e-01 5.515426e-01 5.439698e-01 1.299593e-01 3.967648e-02 5.888182e-02 1.224818e-01 1.125321e-01 2.234869e-01 1.621912e-01 1.552798e-01 2.091235e-01 1.137430e-01 1.263834e-01 9.810248e-02 8.799767e-02 1.688815e-02
<GCONST> 7.521392e+01
<STATE> 3
<MEAN> 39
 -5.637442e+00 -1.774727e+00 -1.134328e+00 -1.362647e+00 1.591790e+00 1.925988e+00 -1.001969e+00 -1.632407e+00 -3.907183e-01 4.756274e-01 7.777492e-01 -4.435012e-01 -3.555907e+00 -6.678978e-02 -4.747541e-02 -4.710339e-02 -6.901515e-02 -7.096544e-02 -3.505433e-02 -5.017954e-02 -4.282166e-02 -1.073212e-02 2.247447e-02 2.887878e-04 -2.184804e-02 -3.555609e-02 2.342001e-02 9.425128e-03 8.179603e-03 1.489362e-02 1.267307e-02 -3.852107e-04 1.967002e-02 2.702594e-02 1.558595e-02 1.393846e-02 9.607000e-03 1.037928e-02 1.391931e-02
<VARIANCE> 39
 1.538725e+01 7.968046e+00 7.963078e+00 7.346684e+00 5.961532e+00 5.810570e+00 5.891101e+00 7.707145e+00 6.363708e+00 6.418335e+00 8.831129e+00 8.037076e+00 5.367106e+00 9.346501e-02 1.791700e-01 2.865006e-01 3.877229e-01 5.140215e-01 5.107449e-01 5.616956e-01 8.620856e-01 7.879020e-01 7.323412e-01 6.340437e-01 6.904801e-01 3.522656e-02 1.730786e-02 3.781714e-02 6.262176e-02 8.023380e-02 8.707141e-02 1.014878e-01 1.303890e-01 1.976848e-01 1.635226e-01 1.449916e-01 1.318328e-01 1.395404e-01 5.698736e-03
<GCONST> 5.057954e+01
<STATE> 4
<MEAN> 39
 3.615550e+00 3.015454e-01 -8.389106e-01 -1.082592e+00 -2.747500e+00 -2.355762e+00 2.071636e-01 4.661354e-01 -1.847547e-01 -2.184476e-01 1.279844e-01 1.111729e+00 2.406769e+00 7.040458e-01 2.335856e-01 1.155485e-01 1.214160e-01 -1.452478e-01 -2.194624e-01 4.251998e-02 8.576646e-02 -6.922160e-03 -7.264135e-02 -1.094840e-01 1.760906e-02 4.349619e-01 -1.976750e-02 -2.911533e-02 -1.375331e-02 4.103158e-02 3.896836e-02 7.819837e-03 -1.772641e-02 2.513116e-02 9.483576e-03 -2.461656e-03 2.366969e-02 -3.142210e-02 -9.514742e-03
<VARIANCE> 39
 6.234156e+01 2.029396e+01 2.120418e+01 3.407201e+01 2.765730e+01 2.445570e+01 1.781470e+01 2.368417e+01 2.478371e+01 3.058434e+01 1.736744e+01 2.229775e+01 2.690732e+01 4.658837e+00 2.191314e+00 2.049631e+00 1.712770e+00 2.158069e+00 2.263791e+00 1.897318e+00 2.354431e+00 2.350392e+00 2.250491e+00 1.507598e+00 1.398846e+00 1.953782e+00 4.665732e-01 4.103210e-01 3.909039e-01 2.484389e-01 3.100288e-01 3.581798e-01 3.295957e-01 4.777537e-01 4.715765e-01 3.783219e-01 2.803416e-01 2.228530e-01 1.918467e-01
<GCONST> 1.094112e+02
<TRANSP> 5
 0.000000e+00 1.000000e+00 0.000000e+00 0.000000e+00 0.000000e+00
 0.000000e+00 8.063760e-01 1.936241e-01 0.000000e+00 0.000000e+00
 0.000000e+00 0.000000e+00 9.194745e-01 8.052549e-02 0.000000e+00
 0.000000e+00 0.000000e+00 0.000000e+00 8.303412e-01 1.696588e-01
 0.000000e+00 0.000000e+00 0.000000e+00 0.000000e+00 0.000000e+00
<ENDHMM>
~h "s"
<BEGINHMM>
<NUMSTATES> 5
<STATE> 2
<MEAN> 39
 2.602023e+00 1.910370e+00 2.368177e+00 3.492808e+00 2.431987e+00 1.360476e+00 1.722955e+00 1.845958e+00 7.668597e-01 7.433875e-01 7.920087e-01 -2.640402e-01 1.429972e+00 -4.635625e-01 -4.521722e-01 -2.452135e-01 -1.388992e-01 -5.428508e-02 5.863186e-02 6.670703e-03 -8.790682e-02 -1.264213e-01 -1.390299e-01 5.236246e-02 -4.046872e-02 -1.978621e-01 -4.165081e-02 1.102755e-02 1.485238e-02 -1.466783e-01 -1.231409e-01 -2.539697e-02 -8.497266e-02 -2.063216e-01 -1.139964e-01 -3.834247e-02 -3.066081e-02 9.165103e-02 -2.471554e-02
<VARIANCE> 39
 6.861633e+01 1.918117e+01 3.076628e+01 3.224808e+01 6.329076e+01 5.740604e+01 1.725223e+01 7.290776e+00 7.722029e+00 1.291253e+01 1.708951e+01 1.715721e+01 3.152054e+01 6.385173e-01 4.664572e-01 6.731355e-01 9.865336e-01 1.228718e+00 1.183340e+00 9.964553e-01 1.076778e+00 5.841411e-01 7.093294e-01 9.559601e-01 6.586463e-01 2.936327e-01 8.485208e-02 5.721793e-02 1.135310e-01 1.183154e-01 1.811323e-01 2.348462e-01 1.771268e-01 1.964436e-01 1.392629e-01 1.704555e-01 1.591985e-01 1.298556e-01 2.745849e-02
<GCONST> 8.141277e+01
<STATE> 3
<MEAN> 39
 -4.844157e+00 -1.722733e+00 -9.464425e-01 -9.230227e-01 1.477028e+00 1.780576e+00 -5.515946e-01 -1.447364e+00 -7.717430e-01 -1.776581e-01 7.693438e-02 -8.969965e-01 -2.968483e+00 -8.564318e-02 -6.532108e-02 -6.906128e-02 -1.033182e-01 -5.939225e-02 -1.714623e-02 -3.237315e-02 -6.480218e-02 -3.412275e-02 2.175863e-02 3.340028e-02 2.054308e-02 -4.454441e-02 2.363537e-02 3.167936e-02 1.874691e-02 1.102349e-02 1.125678e-02 7.905321e-03 8.054415e-03 3.119256e-02 1.746817e-02 6.541929e-03 -4.594375e-03 5.042113e-03 7.432626e-03
<VARIANCE> 39
 3.058235e+01 1.258078e+01 1.166791e+01 9.251430e+00 7.683801e+00 1.128548e+01 7.755070e+00 8.217649e+00 6.774569e+00 8.463287e+00 1.315862e+01 1.206091e+01 1.179585e+01 9.480862e-02 1.884629e-01 3.305052e-01 4.809194e-01 5.131436e-01 5.760183e-01 6.278223e-01 8.507538e-01 7.745140e-01 8.424317e-01 7.893518e-01 7.398986e-01 4.165534e-02 2.256816e-02 3.639142e-02 6.293572e-02 9.238885e-02 1.024094e-01 1.068317e-01 1.331620e-01 1.902519e-01 1.612099e-01 1.748050e-01 1.466968e-01 1.528383e-01 8.608084e-03
<GCONST> 5.809457e+01
<STATE> 4
<MEAN> 39
 4.939491e+00 -4.272460e-01 -6.370322e-01 6.544634e-01 -2.754003e+00 -3.711588e+00 -4.543756e-01 6.021721e-01 -8.244247e-01 -1.124494e+00 4.572731e-01 2.882208e+00 3.553244e+00 3.542876e-01 3.401916e-01 2.039964e-01 1.178870e-01 5.759589e-02 5.937049e-02 9.762692e-02 1.360830e-01 4.844416e-03 -1.381983e-01 -8.701377e-02 1.155761e-01 1.581523e-01 -3.190611e-02 -3.182723e-02 -4.785417e-02 -1.874785e-02 1.677414e-02 1.834733e-02 1.846675e-02 2.807990e-02 4.577382e-02 4.383312e-02 1.433063e-02 -4.135865e-02 -1.926751e-02
<VARIANCE> 39
 6.139627e+01 2.844053e+01 1.826499e+01 2.934614e+01 3.181419e+01 2.445124e+01 1.343307e+01 2.107184e+01 2.500382e+01 3.130960e+01 1.542471e+01 2.366725e+01 2.602440e+01 5.006359e+00 3.341087e+00 2.185518e+00 1.767100e+00 3.001842e+00 2.219561e+00 1.549467e+00 1.790678e+00 2.119184e+00 2.430535e+00 1.305924e+00 1.325321e+00 2.007380e+00 4.622082e-01 6.188946e-01 4.281428e-01 2.503100e-01 4.399281e-01 3.946355e-01 3.146218e-01 3.547753e-01 4.103324e-01 4.293581e-01 2.554608e-01 1.882971e-01 1.830761e-01
<GCONST> 1.096236e+02
<TRANSP> 5
 0.000000e+00 1.000000e+00 0.000000e+00 0.000000e+00 0.000000e+00
 0.000000e+00 6.334110e-01 3.665891e-01 0.000000e+00 0.000000e+00
 0.000000e+00 0.000000e+00 9.056389e-01 9.436113e-02 0.000000e+00
 0.000000e+00 0.000000e+00 0.000000e+00 8.821821e-01 1.178180e-01
 0.000000e+00 0.000000e+00 0.000000e+00 0.000000e+00 0.000000e+00
<ENDHMM>
~h "t"
<BEGINHMM>
<NUMSTATES> 5
<STATE> 2
<MEAN> 39
 4.442810e+00 1.942537e+00 1.065738e+00 8.988066e-01 -7.435378e-01 -1.388404e-01 1.266003e+00 1.725742e+00 5.176445e-01 4.535100e-02 -3.428206e-01 1.371538e+00 2.656548e+00 -4.268331e-01 -8.618641e-02 -8.442542e-02 -1.351668e-01 -4.804714e-02 -1.309830e-01 7.189565e-02 1.004150e-01 1.644765e-01 -1.452968e-01 -5.421435e-01 -5.072565e-01 -2.506736e-01 1.055351e-01 1.293741e-01 3.092806e-02 -1.259567e-01 -1.946661e-01 -7.721068e-02 8.197903e-02 1.040253e-02 3.768154e-02 -2.515193e-02 -5.874069e-02 -7.756874e-02 3.426161e-02
<VARIANCE> 39
 6.641521e+01 1.505506e+01 1.247127e+01 2.526300e+01 5.081006e+01 3.015454e+01 1.496806e+01 1.251088e+01 8.967622e+00 1.454539e+01 1.474683e+01 1.454865e+01 2.608329e+01 6.611034e-01 6.255832e-01 6.280010e-01 1.092193e+00 1.129461e+00 8.080559e-01 1.025877e+00 1.098269e+00 1.314711e+00 1.209365e+00 1.002563e+00 6.978340e-01 1.746351e-01 7.872401e-02 8.279021e-02 8.554784e-02 1.381064e-01 2.880629e-01 2.537709e-01 2.970302e-01 3.003909e-01 1.929797e-01 2.929594e-01 2.062229e-01 1.284954e-01 2.768576e-02
<GCONST> 8.294014e+01
<STATE> 3
<MEAN> 39
 -1.390926e+00 2.844181e-01 6.480151e-01 -1.404563e-01 4.999400e-01 1.477183e+00 2.702127e-01 -1.256397e+00 -1.346692e+00 -7.988121e-01 -1.420541e+00 -1.977121e+00 -9.989544e-01 -5.402547e-02 -5.108991e-02 -2.814674e-02 -5.959186e-02 -1.195092e-01 -8.148341e-02 3.557556e-03 3.824428e-02 9.622779e-02 -3.454277e-02 -1.500949e-01 -1.776132e-01 -2.466435e-02 4.589900e-02 2.101523e-02 -3.985983e-03 2.294339e-03 -7.863048e-03 -1.768262e-02 -5.260948e-03 3.760321e-02 2.726276e-02 -1.427234e-04 -1.201382e-02 -2.180827e-04 2.395768e-02
<VARIANCE> 39
 7.035039e+01 2.695779e+01 1.822924e+01 8.408237e+00 1.655611e+01 1.127371e+01 1.078615e+01 1.280812e+01 8.517301e+00 1.009499e+01 1.893766e+01 1.716854e+01 2.334889e+01 1.090358e-01 2.104043e-01 3.390119e-01 5.772514e-01 5.217243e-01 5.416454e-01 7.493522e-01 1.035489e+00 8.967494e-01 7.700066e-01 7.204391e-01 8.345098e-01 4.074213e-02 3.187305e-02 3.942512e-02 6.145981e-02 1.364744e-01 1.194465e-01 1.054332e-01 1.439759e-01 2.413303e-01 1.917780e-01 1.610164e-01 1.266693e-01 1.481027e-01 1.059626e-02
<GCONST> 6.560509e+01
<STATE> 4
<MEAN> 39
 4.972229e+00 1.229849e+00 -2.917924e-01 -1.191823e+00 -3.709615e+00 -2.689809e+00 2.889758e-01 1.220442e+00 1.121989e+00 4.960530e-01 -7.051333e-01 1.941776e-01 3.154135e+00 5.869715e-01 2.331773e-01 1.094550e-01 3.131675e-02 -1.992510e-01 -1.926694e-01 3.561075e-02 1.757322e-01 5.753965e-02 1.666516e-02 -4.639436e-02 2.155153e-02 3.484315e-01 -5.106058e-02 -5.613303e-02 -2.223208e-02 6.356642e-02 9.201328e-02 1.795672e-02 -1.796120e-02 -9.404339e-03 -3.725880e-02 -2.221517e-02 5.360526e-02 7.124971e-02 -2.165026e-02
<VARIANCE> 39
 5.554549e+01 2.176552e+01 1.986340e+01 3.118039e+01 5.343752e+01 2.096304e+01 8.604296e+00 2.225000e+01 1.768485e+01 1.985017e+01 1.781832e+01 2.401555e+01 2.366555e+01 5.098541e+00 2.411862e+00 2.046478e+00 2.058945e+00 4.182397e+00 1.863369e+00 1.025380e+00 1.788802e+00 1.636195e+00 1.442808e+00 1.414941e+00 1.433162e+00 2.033130e+00 5.120746e-01 4.242217e-01 4.286741e-01 3.495938e-01 6.465995e-01 2.918843e-01 1.973083e-01 2.964264e-01 3.082284e-01 2.465362e-01 2.067520e-01 2.027786e-01 1.970635e-01
<GCONST> 1.061417e+02
<TRANSP> 5
 0.000000e+00 1.000000e+00 0.000000e+00 0.000000e+00 0.000000e+00
 0.000000e+00 4.666595e-01 5.333405e-01 0.000000e+00 0.000000e+00
 0.000000e+00 0.000000e+00 8.851316e-01 1.148684e-01 0.000000e+00
 0.000000e+00 0.000000e+00 0.000000e+00 8.983308e-01 1.016692e-01
 0.000000e+00 0.000000e+00 0.000000e+00 0.000000e+00 0.000000e+00
<ENDHMM>
~h "u"
<BEGINHMM>
<NUMSTATES> 5
<STATE> 2
<MEAN> 39
 8.896235e+00 3.387867e+00 1.523089e+00 1.546420e-01 -4.533394e+00 -3.505368e+00 1.242905e+00 3.205110e+00 1.546374e+00 -4.850840e-01 -2.827705e+00 -6.750346e-01 5.410321e+00 -3.829668e-01 -3.336111e-01 -8.815982e-02 2.331950e-01 1.781881e-01 1.130842e-01 1.972478e-01 -3.367376e-02 4.801559e-02 -1.235508e-02 1.357826e-02 1.023866e-01 -1.451566e-01 -9.916375e-03 4.644743e-02 1.553212e-01 -6.365910e-02 -1.816155e-01 1.207558e-01 1.533068e-01 -2.291336e-01 -7.423409e-02 6.236680e-02 4.663244e-02 -3.025849e-02 3.719462e-03
<VARIANCE> 39
 5.146450e+01 1.239043e+01 1.496878e+01 1.936113e+01 4.946442e+01 2.269987e+01 9.416926e+00 7.400348e+00 1.016770e+01 1.387791e+01 1.395364e+01 1.409212e+01 2.219733e+01 5.527524e-01 6.070663e-01 8.287874e-01 7.678956e-01 1.190359e+00 7.207087e-01 7.528175e-01 1.269196e+00 8.700454e-01 9.311635e-01 8.098174e-01 1.085533e+00 1.972752e-01 1.057183e-01 7.126682e-02 1.255073e-01 9.328111e-02 2.158993e-01 1.391953e-01 1.726009e-01 2.450003e-01 1.647504e-01 1.516268e-01 9.209491e-02 1.061247e-01 2.829198e-02
<GCONST> 7.681068e+01
<STATE> 3
<MEAN> 39
 2.450738e+00 2.234051e+00 1.977868e+00 4.756332e-01 -1.048543e+00 2.010345e-01 1.197682e+00 -1.870795e-01 -8.441282e-01 -1.088126e+00 -2.567920e+00 -2.704410e+00 1.270625e+00 -9.216168e-02 -1.149062e-01 4.068561e-02 7.848123e-02 -4.628027e-02 -3.606009e-02 5.532114e-02 -4.791211e-02 4.724494e-02 -3.309057e-02 -7.470400e-02 -1.645354e-01 -2.829805e-02 4.108644e-02 3.385619e-02 2.096931e-02 1.114537e-02 1.624014e-02 -1.167235e-02 -2.161730e-02 2.378443e-02 -1.554351e-02 -2.770863e-02 -1.699714e-02 5.550465e-03 1.505247e-02
<VARIANCE> 39
 8.435368e+01 3.094136e+01 2.139476e+01 7.629580e+00 2.222076e+01 1.234775e+01 9.306232e+00 1.156380e+01 8.243636e+00 9.923567e+00 2.214864e+01 2.032555e+01 2.926129e+01 1.353113e-01 2.788649e-01 3.272258e-01 3.903221e-01 5.128075e-01 5.891114e-01 6.626295e-01 1.010078e+00 6.894978e-01 7.345253e-01 5.729609e-01 8.817381e-01 5.754029e-02 3.663686e-02 4.355361e-02 6.103134e-02 8.539542e-02 9.386316e-02 1.052634e-01 1.256466e-01 2.281731e-01 1.548296e-01 1.397962e-01 1.074131e-01 1.321660e-01 1.629113e-02
<GCONST> 6.559953e+01
<STATE> 4
<MEAN> 39
 4.952436e+00 1.532316e+00 2.436357e-01 -2.587838e-01 -2.550953e+00 -2.220315e+00 3.710567e-01 1.173778e+00 9.886623e-01 2.824361e-01 -4.488677e-01 4.422500e-01 3.079445e+00 1.136598e-01 1.071305e-01 6.849249e-02 -1.525433e-02 -2.124828e-02 -9.805249e-03 -2.848049e-02 1.893612e-02 7.901485e-03 1.267094e-02 8.620353e-02 1.412679e-01 5.055838e-02 -6.134922e-02 -2.134031e-02 -7.445499e-03 7.646546e-03 3.040832e-02 1.626260e-02 -1.478260e-02 -7.146223e-03 -2.309332e-02 3.400333e-04 3.337320e-02 1.500784e-02 -3.841849e-02
<VARIANCE> 39
 5.798537e+01 1.957645e+01 2.067579e+01 2.334440e+01 3.703385e+01 1.866011e+01 9.738708e+00 1.822546e+01 1.828049e+01 2.415572e+01 2.088595e+01 2.223139e+01 2.483203e+01 4.761067e+00 2.234151e+00 1.877518e+00 1.879305e+00 3.055463e+00 1.580255e+00 1.050816e+00 1.598776e+00 1.672042e+00 1.849362e+00 1.605610e+00 1.505084e+00 1.878107e+00 4.575831e-01 4.190373e-01 3.767478e-01 3.383408e-01 4.921504e-01 2.292160e-01 2.002810e-01 2.821082e-01 3.274611e-01 3.130371e-01 2.667101e-01 2.573353e-01 1.775540e-01
<GCONST> 1.049590e+02
<TRANSP> 5
 0.000000e+00 1.000000e+00 0.000000e+00 0.000000e+00 0.000000e+00
 0.000000e+00 5.555648e-01 4.444352e-01 0.000000e+00 0.000000e+00
 0.000000e+00 0.000000e+00 8.234636e-01 1.765364e-01 0.000000e+00
 0.000000e+00 0.000000e+00 0.000000e+00 8.831573e-01 1.168428e-01
 0.000000e+00 0.000000e+00 0.000000e+00 0.000000e+00 0.000000e+00
<ENDHMM>
~h "ng"
<BEGINHMM>
<NUMSTATES> 5
<STATE> 2
<MEAN> 39
 2.021689e+00 3.561765e+00 4.557382e+00 5.643842e+00 5.411750e+00 3.874686e+00 3.266851e+00 2.717616e+00 1.772902e+00 6.994714e-01 -2.713686e-02 -1.260691e+00 6.238233e-01 -6.187490e-01 -1.064852e-01 -2.573670e-02 -8.326524e-02 2.360138e-01 2.699631e-01 -5.563690e-02 -1.949859e-01 -9.482697e-02 2.723407e-02 8.082087e-02 -5.907610e-02 -4.141321e-01 -1.124758e-02 -6.235299e-03 -2.555181e-02 -4.885764e-02 -6.839870e-02 -7.906236e-02 -1.002949e-01 -9.207525e-02 -5.836854e-02 -3.442512e-02 -4.269356e-02 2.507312e-02 -4.687553e-03
<VARIANCE> 39
 4.576207e+01 8.328775e+00 1.861950e+01 2.870651e+01 5.877095e+01 4.543992e+01 1.614452e+01 8.215466e+00 6.404153e+00 1.411892e+01 1.762136e+01 1.002297e+01 2.100050e+01 2.243754e-01 4.761412e-01 6.984273e-01 1.096275e+00 1.546287e+00 1.361124e+00 1.306059e+00 9.811171e-01 6.563675e-01 6.335565e-01 9.990284e-01 8.827426e-01 1.237577e-01 4.071575e-02 4.222552e-02 7.938657e-02 1.205394e-01 1.646291e-01 1.670280e-01 1.827047e-01 1.561405e-01 1.160541e-01 1.099880e-01 1.586651e-01 1.441933e-01 2.108191e-02
<GCONST> 7.463481e+01
<STATE> 3
<MEAN> 39
 -4.939051e+00 -1.317600e+00 -8.214859e-01 -1.309758e+00 1.290967e+00 1.825242e+00 -6.448061e-01 -1.629111e+00 -6.459802e-01 -3.120935e-01 -1.486648e-01 -8.284861e-01 -3.156177e+00 -9.975052e-02 -2.520040e-02 -5.189103e-02 -5.260098e-02 9.980283e-03 1.269607e-02 -5.075721e-02 -6.788022e-02 -2.667176e-02 4.523083e-02 6.413256e-02 4.362275e-02 -6.334058e-02 1.411769e-02 4.268965e-03 1.300816e-03 2.102743e-02 2.271833e-02 9.075798e-03 1.737718e-02 3.485258e-02 1.761331e-02 2.237035e-02 1.868756e-02 8.720499e-03 8.960312e-03
<VARIANCE> 39
 2.586832e+01 1.189649e+01 1.247873e+01 1.122621e+01 7.012857e+00 9.721684e+00 9.213616e+00 8.769029e+00 7.105950e+00 9.334479e+00 1.548590e+01 1.251009e+01 9.136119e+00 1.152154e-01 2.002226e-01 3.455755e-01 4.714900e-01 6.043316e-01 6.182187e-01 7.086675e-01 8.275592e-01 7.441003e-01 7.937046e-01 9.298617e-01 8.674212e-01 6.385131e-02 1.663501e-02 3.643983e-02 6.120763e-02 7.820273e-02 9.664928e-02 1.157459e-01 1.405395e-01 1.796256e-01 1.588509e-01 1.637853e-01 1.849745e-01 1.684281e-01 6.636333e-03
<GCONST> 5.898607e+01
<STATE> 4
<MEAN> 39
 4.284930e+00 5.618138e-01 -8.726902e-02 6.099989e-01 -1.572634e+00 -2.323650e+00 -2.190451e-01 2.398551e-02 -1.019604e+00 -6.827260e-01 1.325547e+00 3.547078e+00 2.856900e+00 1.998786e-01 -2.307079e-01 -8.296093e-02 3.357437e-01 1.749204e-01 -1.610474e-01 1.555493e-02 3.590252e-01 1.905664e-01 1.003454e-01 1.754945e-01 3.242500e-01 1.858528e-01 -3.305122e-02 -1.204474e-01 -5.825300e-02 -1.465994e-03 -2.521340e-02 7.454541e-03 3.903473e-02 1.917207e-02 5.002106e-02 2.396781e-04 -5.251679e-02 -7.227246e-02 3.895358e-03
<VARIANCE> 39
 5.326818e+01 2.049551e+01 1.851725e+01 2.961092e+01 3.745643e+01 2.158194e+01 1.152753e+01 2.202126e+01 2.399167e+01 2.902715e+01 2.425685e+01 3.735442e+01 2.458864e+01 4.340372e+00 2.744009e+00 1.498211e+00 1.192279e+00 3.021944e+00 2.079342e+00 1.261535e+00 1.678930e+00 1.971599e+00 2.258626e+00 1.713567e+00 1.829010e+00 1.852154e+00 3.145965e-01 4.088479e-01 2.636430e-01 1.807036e-01 3.816208e-01 2.532289e-01 1.847548e-01 3.601033e-01 3.978672e-01 3.922442e-01 3.111235e-01 3.234914e-01 1.553839e-01
<GCONST> 1.065097e+02
<TRANSP> 5
 0.000000e+00 1.000000e+00 0.000000e+00 0.000000e+00 0.000000e+00
 0.000000e+00 7.958866e-01 2.041133e-01 0.000000e+00 0.000000e+00
 0.000000e+00 0.000000e+00 9.282874e-01 7.171264e-02 0.000000e+00
 0.000000e+00 0.000000e+00 0.000000e+00 7.935039e-01 2.064961e-01
 0.000000e+00 0.000000e+00 0.000000e+00 0.000000e+00 0.000000e+00
<ENDHMM>
~h "sil"
<BEGINHMM>
<NUMSTATES> 5
<STATE> 2
<MEAN> 39
 6.993103e+00 1.761895e+00 2.102908e+00 1.537482e+00 -3.128133e+00 -1.965925e+00 2.829407e+00 4.447615e+00 3.940961e+00 1.446263e+00 -1.624051e+00 -3.268923e-01 4.637167e+00 -3.779979e-01 -1.905123e-01 1.501443e-01 3.799812e-01 3.430260e-01 2.732837e-02 -2.783859e-01 -2.794503e-01 -2.348295e-01 -1.273094e-01 7.112747e-02 1.126682e-02 -1.959927e-01 9.444327e-03 3.805320e-02 -9.373311e-03 -2.513117e-02 -3.213945e-03 -3.859200e-03 -2.354086e-02 -8.473079e-02 -4.634394e-02 -4.070941e-02 -3.215003e-02 -3.609726e-02 6.566385e-04
<VARIANCE> 39
 6.717527e+01 1.248970e+01 1.479392e+01 2.831399e+01 9.053806e+01 5.208254e+01 1.457043e+01 1.467637e+01 7.464830e+00 5.843905e+00 1.271080e+01 6.905879e+00 3.402556e+01 2.559330e-01 4.117588e-01 6.889454e-01 8.537885e-01 1.125521e+00 8.080605e-01 1.010053e+00 1.176778e+00 5.947576e-01 5.856078e-01 6.347727e-01 4.574394e-01 1.414053e-01 2.056826e-02 7.285164e-02 9.724685e-02 8.489164e-02 1.408148e-01 9.705286e-02 1.314916e-01 1.479670e-01 1.038072e-01 1.041802e-01 1.071799e-01 9.664536e-02 1.895227e-02
<GCONST> 7.050276e+01
<STATE> 3
<MEAN> 39
 -6.184736e+00 -2.038167e+00 -1.419001e+00 -1.860309e+00 8.772662e-01 7.697354e-01 -1.826866e+00 -1.721107e+00 3.787251e-01 1.885052e+00 2.592941e+00 1.671357e+00 -3.867716e+00 -4.824234e-02 -5.341216e-02 -2.863005e-02 3.382269e-02 6.759968e-02 5.995386e-02 4.929701e-02 -5.416745e-03 3.555717e-02 5.527939e-02 8.468772e-04 -4.507212e-02 -1.944559e-02 2.044372e-02 1.792706e-02 -6.436313e-03 -2.215254e-02 -4.795069e-03 2.316889e-02 4.397853e-02 3.178295e-02 4.280350e-03 7.214815e-03 7.118512e-03 6.685469e-03 8.785645e-03
<VARIANCE> 39
 7.549473e+00 5.630137e+00 5.514858e+00 8.291739e+00 1.025181e+01 1.515742e+01 1.166969e+01 9.602608e+00 7.144712e+00 8.006973e+00 1.442263e+01 1.376153e+01 3.312040e+00 1.155189e-01 2.608289e-01 2.835810e-01 3.691983e-01 4.751464e-01 6.184723e-01 7.675459e-01 6.949555e-01 6.638717e-01 1.059548e+00 1.257683e+00 1.237880e+00 2.576667e-02 1.848556e-02 5.682828e-02 5.953262e-02 7.873858e-02 8.385538e-02 1.010927e-01 1.443530e-01 1.153557e-01 1.215144e-01 2.520027e-01 2.790903e-01 2.375338e-01 4.525444e-03
<GCONST> 5.568492e+01
<STATE> 4
<MEAN> 39
 2.954504e+00 7.224898e-01 4.983513e-01 4.120490e-01 -2.004752e+00 -2.721420e+00 -5.092568e-01 1.124167e+00 1.556781e+00 6.789634e-01 -2.531563e-01 -3.853594e-01 1.924332e+00 1.943787e-01 7.718658e-02 -3.366059e-02 1.458881e-02 1.672244e-02 -6.080635e-02 -6.595036e-02 2.230823e-02 5.472448e-02 -5.334823e-02 -1.158741e-01 -5.498648e-02 1.150078e-01 3.152365e-03 -2.352978e-03 -2.308487e-02 -1.797157e-02 2.349802e-03 -3.852579e-03 -8.573763e-03 2.374942e-02 -3.132138e-02 -3.631445e-02 5.337558e-03 4.741818e-02 -7.503864e-04
<VARIANCE> 39
 6.412695e+01 2.472947e+01 1.857063e+01 2.276915e+01 3.060072e+01 2.168028e+01 8.622879e+00 1.752125e+01 1.917023e+01 2.744569e+01 2.394094e+01 1.725275e+01 2.492351e+01 4.067879e+00 2.080911e+00 1.924204e+00 1.662918e+00 2.910074e+00 1.429103e+00 1.037515e+00 1.426243e+00 1.604060e+00 2.375201e+00 1.705407e+00 1.258336e+00 1.540636e+00 4.416805e-01 3.835236e-01 4.054347e-01 2.930505e-01 4.367489e-01 1.973398e-01 1.678014e-01 2.771440e-01 3.256294e-01 3.850582e-01 2.858140e-01 1.475332e-01 1.626199e-01
<GCONST> 1.032788e+02
<TRANSP> 5
 0.000000e+00 1.000000e+00 0.000000e+00 0.000000e+00 0.000000e+00
 0.000000e+00 7.938406e-01 2.061594e-01 0.000000e+00 0.000000e+00
 0.000000e+00 0.000000e+00 9.065198e-01 9.348019e-02 0.000000e+00
 0.000000e+00 0.000000e+00 0.000000e+00 7.741234e-01 2.258766e-01
 0.000000e+00 0.000000e+00 0.000000e+00 0.000000e+00 0.000000e+00
<ENDHMM>
