~o
<STREAMINFO> 1 39
<VECSIZE> 39<NULLD><MFCC_D_A_Z_0><DIAGC>
~s "silst"
<MEAN> 39
 -9.827197e-01 -3.437786e+00 -1.797805e+01 -9.887056e+00 -1.343826e+01 -1.099012e+01 -3.726732e+00 -5.976367e+00 -4.787693e+00 -3.946553e+00 -4.943604e+00 -3.014629e+00 5.309188e+01 1.051863e-01 8.231787e-02 -5.934276e-02 -5.670578e-02 -2.700162e-02 1.613102e-02 5.952429e-02 -3.442190e-02 -2.728874e-02 -2.722956e-02 -7.164050e-02 3.532609e-03 2.694165e-01 -3.670231e-02 -1.847016e-02 2.166207e-02 -1.949350e-02 6.771321e-03 2.659504e-02 -1.156800e-03 -5.624384e-03 2.924288e-02 -6.994204e-03 -4.135265e-03 -2.847625e-02 -3.876966e-02
<VARIANCE> 39
 4.205086e+01 2.647596e+01 3.589272e+01 2.769906e+01 3.297289e+01 6.215195e+01 4.824424e+01 7.425184e+01 3.133758e+01 2.163431e+01 2.767833e+01 2.004668e+01 1.432428e+02 2.441934e+00 1.900033e+00 2.626636e+00 2.555074e+00 3.273509e+00 3.381591e+00 3.706978e+00 3.821502e+00 2.888824e+00 2.004772e+00 2.480985e+00 1.762405e+00 4.368847e+00 3.877904e-01 3.610728e-01 4.332452e-01 5.374036e-01 6.186389e-01 6.443579e-01 6.732642e-01 5.931758e-01 5.458435e-01 3.715067e-01 4.496292e-01 3.317121e-01 5.500674e-01
<GCONST> 1.230481e+02
~h "k"
<BEGINHMM>
<NUMSTATES> 5
<STATE> 2
<MEAN> 39
 -6.524097e+00 -2.415803e+00 -2.456841e+00 -3.453684e+00 6.382589e-01 2.361732e+00 -6.953563e-01 -1.700502e+00 8.663884e-01 1.759521e+00 1.844963e+00 1.789585e+00 -4.102602e+00 -1.254585e-04 -2.901781e-03 -3.814580e-02 6.375691e-02 3.568900e-01 3.339638e-01 -2.810104e-01 2.533140e-01 -2.931054e-01 1.064485e-01 2.936081e-01 5.475013e-01 -9.132857e-03 4.336610e-03 -5.304801e-02 -6.475928e-02 -3.160610e-02 -1.509018e-01 -2.546694e-01 8.387470e-02 1.587175e-01 -5.827220e-02 1.214124e-02 -9.443152e-02 -4.437553e-01 2.752011e-02
<VARIANCE> 39
 8.532326e-02 2.036756e+00 3.361919e+00 1.445760e+00 2.419239e+00 3.315276e+00 2.456456e+00 9.246470e+00 1.088901e+01 6.663251e+00 3.126888e+00 5.942091e+00 1.005399e-01 1.856745e-02 2.449468e-02 6.808534e-02 4.687505e-01 7.891082e-01 3.761365e-01 3.422027e-01 6.084861e-01 3.546455e-01 3.847783e-01 4.103266e-01 4.915850e-01 3.000027e-03 3.917811e-03 5.307088e-02 1.313281e-01 4.017372e-02 6.123555e-02 3.310675e-02 6.217900e-02 8.621068e-02 2.125461e-01 1.447455e-01 1.378054e-01 7.041603e-02 2.258233e-03
<GCONST> 1.893424e+01
<STATE> 3
<MEAN> 39
 -6.751513e+00 -3.024544e+00 -2.973499e+00 -2.938401e+00 1.593186e+00 3.318660e+00 -2.213001e+00 -2.802218e+00 -5.895252e-01 6.145555e-01 2.133657e+00 2.318128e+00 -4.192069e+00 6.205660e-03 -2.681996e-01 -4.237125e-01 -2.356625e-01 -3.500185e-01 -4.276861e-01 -4.987202e-02 3.677115e-01 -6.912622e-02 2.416764e-02 7.097272e-02 -9.226771e-02 3.417112e-02 3.928083e-02 3.467719e-02 -4.887741e-02 -2.078373e-01 -4.066631e-01 -3.276960e-01 2.210818e-01 2.135513e-01 2.474018e-01 1.774518e-01 -2.004057e-01 -6.102374e-01 2.859209e-02
<VARIANCE> 39
 1.375420e-01 1.768876e+00 5.532256e-01 6.924112e+00 6.656188e+00 5.104876e+00 2.076059e+00 1.124636e+01 7.020581e+00 4.972355e+00 4.770495e+00 1.736216e+00 8.291629e-02 4.663596e-02 1.045739e-01 4.260884e-01 8.124475e-01 1.126843e+00 5.512589e-01 6.344587e-01 1.026256e+00 2.493886e+00 1.314370e+00 6.194155e-01 1.906172e-01 2.274195e-02 2.749815e-03 3.610468e-02 6.352784e-02 1.712050e-01 1.139500e-01 1.032517e-01 6.214264e-02 1.267034e-01 3.820606e-02 6.598442e-02 2.927265e-02 1.065893e-01 2.361297e-03
<GCONST> 2.861086e+01
<STATE> 4
<MEAN> 39
 -6.922048e+00 -3.479574e+00 -3.040088e+00 -3.738729e+00 1.479468e-01 1.374663e+00 -1.109921e+00 -1.373674e+00 -1.248228e+00 8.268799e-01 1.858308e+00 7.770029e-01 -4.097852e+00 4.911324e-02 2.702132e-03 -2.550242e-01 -4.240285e-01 -6.587424e-01 -2.976603e-01 5.265188e-01 6.750912e-01 5.114497e-01 2.383120e-01 -3.061275e-01 -9.252852e-01 7.717866e-03 1.678629e-01 1.570227e-01 3.623490e-02 -2.890181e-03 -1.923255e-01 -8.266052e-02 1.199692e-01 1.481508e-01 3.672203e-01 1.484237e-01 -1.165422e-01 -2.628638e-01 7.745208e-02
<VARIANCE> 39
 3.359056e-01 1.759281e+00 2.482996e+00 3.752931e+00 4.471184e+00 3.621001e+00 8.058597e+00 8.718276e+00 5.504825e+00 4.305179e+00 2.931200e+00 4.088687e+00 1.129346e-01 3.667072e-02 1.377736e-01 3.111495e-01 3.496478e-01 5.273720e-01 5.402306e-01 3.779140e-01 1.014969e+00 1.073164e+00 7.822407e-01 5.202675e-01 3.713540e-01 1.812455e-02 3.092120e-02 5.402276e-02 4.454718e-02 1.730374e-01 1.438031e-01 4.997434e-02 1.990921e-01 3.400939e-01 2.074313e-01 4.188934e-02 1.139876e-01 1.247167e-01 7.174687e-03
<GCONST> 3.551388e+01
<TRANSP> 5
 0.000000e+00 1.000000e+00 0.000000e+00 0.000000e+00 0.000000e+00
 0.000000e+00 1.775502e-06 9.999983e-01 0.000000e+00 0.000000e+00
 0.000000e+00 0.000000e+00 1.168626e-05 9.999883e-01 0.000000e+00
 0.000000e+00 0.000000e+00 0.000000e+00 4.962447e-01 5.037553e-01
 0.000000e+00 0.000000e+00 0.000000e+00 0.000000e+00 0.000000e+00
<ENDHMM>
~h "k-o+s"
<BEGINHMM>
<NUMSTATES> 5
<STATE> 2
<MEAN> 39
 -2.567016e+00 -3.632130e-01 -2.312987e+00 -4.084652e+00 -2.790213e+00 -1.113767e+00 -1.443001e-01 1.754336e+00 3.213827e+00 3.654740e+00 1.355146e+00 -1.396509e+00 -1.891153e+00 1.869731e+00 9.514603e-01 1.972783e-01 -4.361553e-01 -1.329790e+00 -9.054024e-01 -1.290548e-01 -1.872179e-01 1.887474e-02 3.166013e-01 -1.637027e-01 -2.688378e-01 1.072908e+00 5.414978e-01 7.495513e-02 1.530909e-01 1.748043e-01 -2.221939e-02 -2.940200e-02 -1.185394e-02 -2.388723e-01 -2.499086e-01 -1.777916e-01 -1.152374e-01 1.581647e-01 3.845262e-01
<VARIANCE> 39
 2.045480e+01 2.178855e+01 1.963831e+01 3.077961e+01 3.439872e+01 1.448484e+01 9.774567e+00 1.971861e+01 1.507081e+01 1.157070e+01 1.030052e+01 1.625207e+01 5.423854e+00 3.823764e+00 2.597476e+00 2.721646e+00 2.022217e+00 2.310875e+00 1.586981e+00 1.092353e+00 2.629705e+00 2.270791e+00 7.435285e-01 1.185777e+00 1.902907e+00 1.311502e+00 2.807060e-01 5.731400e-01 5.381387e-01 3.514434e-01 3.700164e-01 2.944435e-01 1.817412e-01 3.541300e-01 3.795357e-01 2.162890e-01 2.183790e-01 2.261090e-01 6.907062e-02
<GCONST> 9.895726e+01
<STATE> 3
<MEAN> 39
 1.046635e+01 1.009874e+00 -9.734380e-01 -1.921985e+00 -6.640040e+00 -4.250540e+00 1.037044e+00 5.804630e-01 9.684805e-01 1.819949e+00 7.794009e-01 2.170988e+00 7.186595e+00 -3.079730e-01 -3.833050e-01 -7.615220e-04 6.949490e-01 7.692635e-01 2.704795e-01 2.091537e-01 4.124624e-01 4.314363e-02 -3.213691e-01 2.111711e-01 5.776433e-01 -1.323021e-01 -3.831927e-01 -1.464869e-01 -4.227115e-02 4.127444e-02 1.630760e-01 5.777189e-02 -3.814632e-02 5.433173e-02 6.660905e-02 1.220605e-02 4.499839e-02 -1.209091e-03 -2.408551e-01
<VARIANCE> 39
 3.232069e+01 1.503433e+01 1.399292e+01 2.297421e+01 4.501503e+01 1.456381e+01 6.474349e+00 2.162550e+01 1.706044e+01 1.776687e+01 1.576059e+01 3.420772e+01 1.919597e+01 3.483822e+00 2.259890e+00 1.752316e+00 1.101453e+00 3.172037e+00 1.273957e+00 6.907001e-01 1.603782e+00 1.261997e+00 1.357741e+00 1.304560e+00 1.214397e+00 2.174589e+00 2.045270e-01 4.017281e-01 3.191490e-01 1.668008e-01 5.206821e-01 2.304377e-01 1.323955e-01 3.041674e-01 2.916760e-01 2.440390e-01 2.248439e-01 2.099382e-01 1.427831e-01
<GCONST> 9.761063e+01
<STATE> 4
<MEAN> 39
 -1.837231e+00 -4.129920e+00 -1.494084e+00 3.871347e+00 2.007872e+00 -2.397609e+00 -9.918722e-02 3.766818e+00 2.113367e+00 7.314959e-01 2.985068e+00 4.481961e+00 -3.850873e-01 -1.145435e+00 -1.011870e+00 -2.851002e-01 1.338176e-01 1.658697e-02 -3.490753e-01 -6.044975e-01 -8.248987e-01 -3.646106e-01 -1.007751e-01 -2.580563e-01 -3.596519e-01 -5.358940e-01 2.533165e-01 2.498620e-01 5.326856e-02 -1.131112e-01 -7.055474e-02 -1.987874e-02 -4.427139e-02 -1.776402e-01 -3.491265e-01 -2.820922e-01 -1.152133e-01 -6.002349e-02 1.169520e-01
<VARIANCE> 39
 8.989814e+00 3.130043e+01 1.417416e+01 2.184684e+01 7.844119e+00 3.716719e+01 1.511326e+01 1.457325e+01 8.437147e+00 9.669484e+00 8.083562e+00 1.644631e+01 3.795460e+00 5.138446e-01 5.183071e-01 3.740428e-01 7.852358e-01 6.007184e-01 1.619939e+00 1.000765e+00 1.225478e+00 1.671950e+00 1.813281e+00 1.306476e+00 8.169602e-01 1.894480e-01 4.415134e-02 1.558246e-01 1.377555e-01 1.434004e-01 5.448553e-02 1.762753e-01 2.059605e-01 3.404782e-01 1.591430e-01 1.468763e-01 1.765405e-01 2.334219e-01 1.915409e-02
<GCONST> 7.478003e+01
<TRANSP> 5
 0.000000e+00 1.000000e+00 0.000000e+00 0.000000e+00 0.000000e+00
 0.000000e+00 6.832496e-01 3.167504e-01 0.000000e+00 0.000000e+00
 0.000000e+00 0.000000e+00 8.567557e-01 1.432443e-01 0.000000e+00
 0.000000e+00 0.000000e+00 0.000000e+00 5.600494e-01 4.399506e-01
 0.000000e+00 0.000000e+00 0.000000e+00 0.000000e+00 0.000000e+00
<ENDHMM>
~h "u-ng"
<BEGINHMM>
<NUMSTATES> 5
<STATE> 2
<MEAN> 39
 -2.980312e+00 2.072614e+00 4.524899e+00 6.203113e+00 8.645088e+00 7.600800e+00 4.512118e+00 2.236338e+00 1.912557e+00 9.572423e-01 7.496892e-01 2.666568e-01 -2.477404e+00 -4.807541e-01 -1.706438e-01 -5.812111e-02 7.808017e-03 2.628608e-01 4.517636e-01 2.637809e-01 7.186641e-02 7.000984e-02 -8.606745e-02 -3.331438e-02 -1.500906e-01 -2.884364e-01 1.048534e-01 3.931336e-04 -7.706904e-02 -1.558270e-01 -2.459500e-01 -3.297181e-01 -1.151931e-01 5.534793e-02 -9.650515e-02 7.315087e-02 1.379793e-01 -4.218729e-02 8.541089e-02
<VARIANCE> 39
 3.784648e+00 1.864832e+01 2.244438e+01 3.111587e+01 3.743464e+01 3.399728e+01 1.696255e+01 8.348327e+00 1.468859e+01 1.779783e+01 1.152835e+01 1.573870e+01 8.727209e-01 1.730976e-01 1.656862e-01 1.107680e-01 1.915267e-01 5.679716e-01 4.541193e-01 2.279982e-01 5.688118e-01 9.394521e-01 7.208984e-01 4.716665e-01 1.171277e+00 7.351930e-02 3.560218e-02 5.247501e-02 2.724044e-02 3.282662e-02 1.098151e-01 1.726787e-01 2.641027e-01 2.416282e-01 3.036564e-01 3.133689e-01 2.402974e-01 1.911874e-01 8.378420e-03
<GCONST> 6.058585e+01
<STATE> 3
<MEAN> 39
 -4.996394e+00 -1.329930e+00 -4.473326e-02 1.736013e+00 4.887644e+00 4.922974e+00 3.360900e+00 2.844153e+00 1.902436e+00 1.605995e+00 2.301609e+00 9.793373e-01 -3.260233e+00 -5.522001e-01 -4.101563e-01 -3.251546e-01 -2.813651e-01 5.799168e-02 8.915135e-02 4.002783e-02 -4.095194e-01 -5.679567e-01 -2.207980e-01 -1.857793e-01 -6.215986e-01 -2.851896e-01 8.921262e-02 2.993251e-02 -9.356382e-02 -2.205993e-01 -3.211262e-01 -4.461400e-01 -4.154160e-01 -2.942429e-01 -2.516297e-01 -1.989948e-02 7.014778e-02 2.161480e-01 7.272989e-02
<VARIANCE> 39
 2.657488e+00 1.489226e+01 2.008656e+01 3.238971e+01 2.393213e+01 2.605037e+01 2.058991e+01 9.779658e+00 4.184234e+00 1.537107e+01 9.355806e+00 9.770710e+00 8.539849e-01 8.815832e-02 2.089272e-01 2.192800e-01 2.191553e-01 3.120981e-01 8.385954e-01 2.137864e+00 7.538246e-01 5.666115e-01 6.386709e-01 8.179353e-01 1.879353e+00 3.770732e-02 6.234415e-02 8.788521e-02 4.407107e-02 7.322025e-02 6.220026e-02 1.160101e-01 1.851162e-01 9.019218e-02 1.536167e-01 9.474593e-02 1.156339e-01 1.548440e-01 1.852427e-02
<GCONST> 5.812934e+01
<STATE> 4
<MEAN> 39
 -5.202848e+00 -8.017078e-02 1.737079e+00 2.448539e+00 6.135767e+00 5.620297e+00 2.369521e+00 8.342640e-01 5.815923e-01 1.095324e+00 9.859280e-01 9.841818e-03 -3.594845e+00 -4.960707e-01 -3.934356e-01 -7.344680e-01 -1.225629e+00 -1.186503e+00 -1.233721e+00 -1.313890e+00 -9.540353e-01 -4.850945e-01 -1.136481e-01 -6.894986e-03 2.621917e-01 -2.392740e-01 1.789928e-01 9.751810e-02 5.432442e-03 -3.249423e-02 -2.193142e-01 -2.407837e-01 -1.917370e-01 -8.598952e-02 4.289675e-02 -3.181641e-02 7.563392e-02 1.146116e-01 1.063080e-01
<VARIANCE> 39
 1.904891e+00 9.381914e+00 1.858947e+01 1.636306e+01 2.342748e+01 2.889827e+01 2.027016e+01 1.554848e+01 1.051165e+01 7.204979e+00 4.627947e+00 7.482798e+00 6.770846e-01 1.125740e-01 4.162501e-01 3.690156e-01 8.953380e-01 1.025958e+00 4.466817e-01 7.589082e-01 4.004279e-01 6.625282e-01 4.622805e-01 5.107637e-01 4.062913e-01 3.916984e-02 4.966051e-02 6.992576e-02 8.500554e-02 1.211361e-01 1.380826e-01 1.666264e-01 2.770106e-01 1.127697e-01 9.810320e-02 3.126394e-02 4.423884e-02 1.505318e-01 1.842185e-02
<GCONST> 5.562599e+01
<TRANSP> 5
 0.000000e+00 1.000000e+00 0.000000e+00 0.000000e+00 0.000000e+00
 0.000000e+00 4.928768e-01 5.071232e-01 0.000000e+00 0.000000e+00
 0.000000e+00 0.000000e+00 1.430573e-01 8.569427e-01 0.000000e+00
 0.000000e+00 0.000000e+00 0.000000e+00 4.596723e-01 5.403277e-01
 0.000000e+00 0.000000e+00 0.000000e+00 0.000000e+00 0.000000e+00
<ENDHMM>
~h "a-t+u"
<BEGINHMM>
<NUMSTATES> 5
<STATE> 2
<MEAN> 39
 2.040722e+00 1.959019e+00 2.350996e+00 2.991090e+00 1.344761e+00 -1.828834e+00 -9.199901e-01 4.965354e-01 -8.592136e-01 -2.260729e+00 -1.519120e+00 9.185227e-01 1.129032e+00 1.626613e+00 1.154393e+00 6.389338e-01 2.411144e-01 -3.715792e-01 -5.603793e-01 -1.755824e-01 5.827184e-01 2.472063e-01 -7.738312e-01 -8.554354e-01 -3.100159e-01 8.353132e-01 -6.825384e-05 -5.585841e-02 -1.118475e-01 -1.389186e-01 -2.176034e-01 -6.487480e-02 1.323888e-01 3.757190e-01 3.495010e-01 1.153895e-01 3.499231e-02 -1.849647e-01 3.119325e-04
<VARIANCE> 39
 3.887590e+01 3.193354e+01 2.568296e+01 1.356274e+01 1.762588e+01 1.232059e+01 7.581499e+00 1.634627e+01 1.568228e+01 2.292537e+01 1.816949e+01 6.670551e+00 1.141689e+01 3.513258e+00 2.764663e+00 2.831061e+00 1.341427e+00 2.557879e+00 2.060383e+00 5.620937e-01 2.353152e+00 2.767069e+00 7.356652e-01 2.431732e+00 4.295192e-01 1.003298e+00 7.539167e-01 7.265640e-01 6.330757e-01 1.998877e-01 2.472600e-01 5.915629e-02 8.301704e-02 2.621607e-01 3.909694e-01 5.833117e-01 5.579677e-01 7.651071e-02 1.913033e-01
<GCONST> 9.727197e+01
<STATE> 3
<MEAN> 39
 7.285581e+00 5.189662e+00 4.545919e+00 4.015902e+00 -1.378375e+00 -5.135150e+00 -1.714959e+00 5.732352e+00 5.719105e+00 9.271028e-01 -3.425097e+00 -3.891512e+00 3.772303e+00 -4.578735e-01 3.868639e-02 5.352936e-01 6.202870e-01 8.331158e-01 6.757426e-01 3.666729e-04 -1.357127e-01 5.240217e-01 5.454386e-01 -1.724581e-01 -7.703320e-01 -3.021584e-01 -1.885386e-01 1.328115e-02 8.087857e-03 -1.767307e-02 2.419402e-01 2.619431e-01 5.325842e-02 -4.619052e-01 -6.454453e-01 -3.664580e-01 7.088508e-02 2.203041e-01 -1.076666e-01
<VARIANCE> 39
 1.129484e+01 2.180946e+00 1.172659e+01 1.525486e+01 3.756978e+01 3.192502e+01 7.862162e+00 6.111412e+00 1.182079e+01 2.095450e+01 1.080670e+01 7.602253e+00 6.538407e+00 2.622436e-01 1.606436e-01 6.614292e-01 1.497306e+00 3.823776e+00 1.993977e+00 1.081736e+00 1.470214e+00 2.104468e+00 3.788690e+00 1.772202e+00 1.024711e+00 9.182838e-02 7.075888e-02 3.602078e-02 2.860759e-01 2.942041e-01 5.742743e-01 1.943540e-01 9.892267e-02 2.729091e-01 2.611003e-01 6.189304e-01 5.647918e-01 2.076780e-01 2.245352e-02
<GCONST> 8.041805e+01
<STATE> 4
<MEAN> 39
 3.693146e+00 5.901643e+00 7.368257e+00 8.297826e+00 6.625917e+00 2.734297e+00 7.412934e-01 2.006554e+00 1.864213e+00 -2.912585e-02 -1.241231e+00 -2.668095e+00 1.333606e+00 -5.619715e-01 3.148373e-04 1.524442e-01 5.247077e-02 2.770936e-01 6.054670e-01 4.471218e-01 -3.651201e-02 -2.566841e-01 -5.523516e-03 2.185810e-01 1.812813e-01 -3.759760e-01 -6.790662e-02 -8.375344e-02 -9.565502e-02 -8.874148e-02 -5.264352e-02 -6.028658e-02 3.036680e-02 3.194108e-02 -3.994273e-03 6.726217e-04 -6.122458e-02 -3.065113e-02 -3.248200e-02
<VARIANCE> 39
 1.189720e+01 2.889978e+00 5.040963e+00 9.328941e+00 2.285673e+01 3.339384e+01 1.617591e+01 4.554039e+00 6.928597e+00 6.700674e+00 1.588873e+01 6.516188e+00 5.683494e+00 1.947860e-01 2.459948e-01 2.499262e-01 5.221523e-01 5.604432e-01 6.024069e-01 5.582687e-01 6.081585e-01 6.145494e-01 7.805095e-01 1.203602e+00 5.479795e-01 7.564607e-02 3.578852e-02 4.119770e-02 6.683346e-02 1.351538e-01 1.535460e-01 1.618799e-01 1.067303e-01 1.152382e-01 1.300468e-01 1.182087e-01 2.116217e-01 9.783448e-02 1.376635e-02
<GCONST> 5.758725e+01
<TRANSP> 5
 0.000000e+00 1.000000e+00 0.000000e+00 0.000000e+00 0.000000e+00
 0.000000e+00 6.666487e-01 3.333513e-01 0.000000e+00 0.000000e+00
 0.000000e+00 0.000000e+00 6.036347e-01 3.963653e-01 0.000000e+00
 0.000000e+00 0.000000e+00 0.000000e+00 8.789631e-01 1.210369e-01
 0.000000e+00 0.000000e+00 0.000000e+00 0.000000e+00 0.000000e+00
<ENDHMM>
~h "t-u+k"
<BEGINHMM>
<NUMSTATES> 5
<STATE> 2
<MEAN> 39
 -1.393191e+00 4.734090e+00 6.215654e+00 6.325488e+00 7.788506e+00 6.237460e+00 4.064424e+00 2.915012e+00 1.482627e+00 5.835137e-01 -6.124350e-01 -1.730350e+00 -1.971656e+00 -1.390297e+00 -1.432468e+00 -1.868589e+00 -1.822072e+00 -8.370076e-01 -3.887974e-01 -1.150133e-01 -8.305939e-02 -4.267898e-01 -1.183764e-01 1.642566e-01 6.313890e-02 -6.844756e-01 4.106147e-03 -2.512842e-01 -2.887336e-01 -4.165995e-01 -6.249975e-01 -5.585861e-01 -4.598332e-01 -1.740648e-01 5.316985e-02 1.629418e-01 2.016255e-01 1.554182e-01 6.074417e-02
<VARIANCE> 39
 4.280371e+00 4.102446e+00 9.982696e+00 1.899148e+01 3.164168e+01 4.358172e+01 1.874440e+01 6.947978e+00 6.348197e+00 8.924929e+00 9.553622e+00 3.675604e+00 1.203154e+00 1.495369e-01 2.494686e-01 7.745301e-01 1.625689e+00 2.765133e+00 1.134076e+00 8.256283e-01 6.263356e-01 8.649591e-01 1.119951e+00 1.180817e+00 8.758872e-01 5.900836e-02 1.835045e-02 5.477902e-02 2.491686e-01 2.612580e-01 2.704443e-01 1.667235e-01 1.823444e-01 2.088840e-01 1.679884e-01 2.847352e-01 2.085442e-01 1.053934e-01 7.113629e-03
<GCONST> 6.645895e+01
<STATE> 3
<MEAN> 39
 -5.554947e+00 8.964786e-02 1.715499e+00 7.581444e-01 3.026878e+00 3.431142e+00 1.172724e+00 1.140553e+00 5.137910e-01 3.935543e-01 -1.727778e-01 -1.408922e+00 -3.765254e+00 -9.260869e-01 -1.078101e+00 -9.953077e-01 -1.249505e+00 -8.714119e-01 -7.402752e-01 -1.041703e+00 -1.342692e+00 -6.878012e-01 -1.094112e-01 4.681310e-01 6.210333e-01 -3.984257e-01 3.160479e-01 2.958536e-01 2.506020e-01 2.924521e-01 2.078439e-01 1.132568e-01 -3.952712e-03 -1.645246e-01 -1.667674e-02 2.283886e-02 1.154427e-01 6.330265e-02 1.430807e-01
<VARIANCE> 39
 1.621136e+00 2.805263e+00 7.012695e+00 1.385460e+01 1.849012e+01 2.596495e+01 9.128458e+00 4.419315e+00 3.840221e+00 2.188383e+00 4.458498e+00 5.695538e+00 6.393976e-01 3.291533e-01 4.284231e-01 2.330851e-01 6.717988e-01 1.665088e+00 2.027920e+00 1.238626e+00 5.928982e-01 6.719048e-01 1.021531e+00 8.003711e-01 6.438412e-01 7.102826e-02 1.727426e-02 4.490035e-02 1.259590e-01 3.329663e-01 4.007204e-01 2.568961e-01 2.444155e-01 3.870034e-01 2.856083e-01 2.399552e-01 1.671043e-01 2.209601e-01 4.020074e-03
<GCONST> 5.950568e+01
<STATE> 4
<MEAN> 39
 -6.882106e+00 -2.627214e+00 -1.730467e+00 -1.586358e+00 2.158904e+00 2.625281e+00 -7.846575e-01 -2.010395e+00 -1.019633e+00 -9.244994e-02 2.768251e-01 -1.040397e+00 -4.220421e+00 -9.926001e-03 -4.282769e-02 -5.525212e-02 -4.137417e-02 -3.028544e-02 -3.326421e-02 -3.272214e-02 -3.442832e-02 -1.294844e-02 -1.904969e-02 2.730909e-03 7.365902e-03 2.055233e-04 7.147125e-03 6.249913e-03 8.983443e-03 1.196527e-02 7.778752e-03 1.115721e-02 1.355970e-02 1.962179e-02 8.194720e-03 3.464183e-03 -1.712127e-03 3.669267e-03 3.584637e-03
<VARIANCE> 39
 3.441990e-01 2.098954e+00 3.628452e+00 4.957670e+00 4.601772e+00 6.343495e+00 8.510371e+00 8.235557e+00 7.456904e+00 7.171035e+00 7.539157e+00 7.306489e+00 1.301941e-01 3.224259e-02 1.493723e-01 2.951971e-01 4.986264e-01 4.367024e-01 4.684898e-01 7.089199e-01 8.776854e-01 8.587962e-01 8.222865e-01 7.689436e-01 7.533971e-01 1.274798e-02 7.790117e-03 2.712437e-02 5.566672e-02 1.019707e-01 9.352082e-02 9.225585e-02 1.483396e-01 1.857177e-01 1.717933e-01 1.731897e-01 1.558884e-01 1.521631e-01 2.675959e-03
<GCONST> 3.808771e+01
<TRANSP> 5
 0.000000e+00 1.000000e+00 0.000000e+00 0.000000e+00 0.000000e+00
 0.000000e+00 6.171600e-01 3.828400e-01 0.000000e+00 0.000000e+00
 0.000000e+00 0.000000e+00 6.657861e-01 3.342139e-01 0.000000e+00
 0.000000e+00 0.000000e+00 0.000000e+00 9.805488e-01 1.945116e-02
 0.000000e+00 0.000000e+00 0.000000e+00 0.000000e+00 0.000000e+00
<ENDHMM>
~h "o-ng"
<BEGINHMM>
<NUMSTATES> 5
<STATE> 2
<MEAN> 39
 -2.980312e+00 2.072614e+00 4.524899e+00 6.203113e+00 8.645088e+00 7.600800e+00 4.512118e+00 2.236338e+00 1.912557e+00 9.572423e-01 7.496892e-01 2.666568e-01 -2.477404e+00 -4.807541e-01 -1.706438e-01 -5.812111e-02 7.808017e-03 2.628608e-01 4.517636e-01 2.637809e-01 7.186641e-02 7.000984e-02 -8.606745e-02 -3.331438e-02 -1.500906e-01 -2.884364e-01 1.048534e-01 3.931336e-04 -7.706904e-02 -1.558270e-01 -2.459500e-01 -3.297181e-01 -1.151931e-01 5.534793e-02 -9.650515e-02 7.315087e-02 1.379793e-01 -4.218729e-02 8.541089e-02
<VARIANCE> 39
 3.784648e+00 1.864832e+01 2.244438e+01 3.111587e+01 3.743464e+01 3.399728e+01 1.696255e+01 8.348327e+00 1.468859e+01 1.779783e+01 1.152835e+01 1.573870e+01 8.727209e-01 1.730976e-01 1.656862e-01 1.107680e-01 1.915267e-01 5.679716e-01 4.541193e-01 2.279982e-01 5.688118e-01 9.394521e-01 7.208984e-01 4.716665e-01 1.171277e+00 7.351930e-02 3.560218e-02 5.247501e-02 2.724044e-02 3.282662e-02 1.098151e-01 1.726787e-01 2.641027e-01 2.416282e-01 3.036564e-01 3.133689e-01 2.402974e-01 1.911874e-01 8.378420e-03
<GCONST> 6.058585e+01
<STATE> 3
<MEAN> 39
 -4.996394e+00 -1.329930e+00 -4.473326e-02 1.736013e+00 4.887644e+00 4.922974e+00 3.360900e+00 2.844153e+00 1.902436e+00 1.605995e+00 2.301609e+00 9.793373e-01 -3.260233e+00 -5.522001e-01 -4.101563e-01 -3.251546e-01 -2.813651e-01 5.799168e-02 8.915135e-02 4.002783e-02 -4.095194e-01 -5.679567e-01 -2.207980e-01 -1.857793e-01 -6.215986e-01 -2.851896e-01 8.921262e-02 2.993251e-02 -9.356382e-02 -2.205993e-01 -3.211262e-01 -4.461400e-01 -4.154160e-01 -2.942429e-01 -2.516297e-01 -1.989948e-02 7.014778e-02 2.161480e-01 7.272989e-02
<VARIANCE> 39
 2.657488e+00 1.489226e+01 2.008656e+01 3.238971e+01 2.393213e+01 2.605037e+01 2.058991e+01 9.779658e+00 4.184234e+00 1.537107e+01 9.355806e+00 9.770710e+00 8.539849e-01 8.815832e-02 2.089272e-01 2.192800e-01 2.191553e-01 3.120981e-01 8.385954e-01 2.137864e+00 7.538246e-01 5.666115e-01 6.386709e-01 8.179353e-01 1.879353e+00 3.770732e-02 6.234415e-02 8.788521e-02 4.407107e-02 7.322025e-02 6.220026e-02 1.160101e-01 1.851162e-01 9.019218e-02 1.536167e-01 9.474593e-02 1.156339e-01 1.548440e-01 1.852427e-02
<GCONST> 5.812934e+01
<STATE> 4
<MEAN> 39
 -5.202848e+00 -8.017078e-02 1.737079e+00 2.448539e+00 6.135767e+00 5.620297e+00 2.369521e+00 8.342640e-01 5.815923e-01 1.095324e+00 9.859280e-01 9.841818e-03 -3.594845e+00 -4.960707e-01 -3.934356e-01 -7.344680e-01 -1.225629e+00 -1.186503e+00 -1.233721e+00 -1.313890e+00 -9.540353e-01 -4.850945e-01 -1.136481e-01 -6.894986e-03 2.621917e-01 -2.392740e-01 1.789928e-01 9.751810e-02 5.432442e-03 -3.249423e-02 -2.193142e-01 -2.407837e-01 -1.917370e-01 -8.598952e-02 4.289675e-02 -3.181641e-02 7.563392e-02 1.146116e-01 1.063080e-01
<VARIANCE> 39
 1.904891e+00 9.381914e+00 1.858947e+01 1.636306e+01 2.342748e+01 2.889827e+01 2.027016e+01 1.554848e+01 1.051165e+01 7.204979e+00 4.627947e+00 7.482798e+00 6.770846e-01 1.125740e-01 4.162501e-01 3.690156e-01 8.953380e-01 1.025958e+00 4.466817e-01 7.589082e-01 4.004279e-01 6.625282e-01 4.622805e-01 5.107637e-01 4.062913e-01 3.916984e-02 4.966051e-02 6.992576e-02 8.500554e-02 1.211361e-01 1.380826e-01 1.666264e-01 2.770106e-01 1.127697e-01 9.810320e-02 3.126394e-02 4.423884e-02 1.505318e-01 1.842185e-02
<GCONST> 5.562599e+01
<TRANSP> 5
 0.000000e+00 1.000000e+00 0.000000e+00 0.000000e+00 0.000000e+00
 0.000000e+00 4.928768e-01 5.071232e-01 0.000000e+00 0.000000e+00
 0.000000e+00 0.000000e+00 1.430573e-01 8.569427e-01 0.000000e+00
 0.000000e+00 0.000000e+00 0.000000e+00 4.596723e-01 5.403277e-01
 0.000000e+00 0.000000e+00 0.000000e+00 0.000000e+00 0.000000e+00
<ENDHMM>
~h "k+o"
<BEGINHMM>
<NUMSTATES> 5
<STATE> 2
<MEAN> 39
 -6.524097e+00 -2.415803e+00 -2.456841e+00 -3.453684e+00 6.382589e-01 2.361732e+00 -6.953563e-01 -1.700502e+00 8.663884e-01 1.759521e+00 1.844963e+00 1.789585e+00 -4.102602e+00 -1.254585e-04 -2.901781e-03 -3.814580e-02 6.375691e-02 3.568900e-01 3.339638e-01 -2.810104e-01 2.533140e-01 -2.931054e-01 1.064485e-01 2.936081e-01 5.475013e-01 -9.132857e-03 4.336610e-03 -5.304801e-02 -6.475928e-02 -3.160610e-02 -1.509018e-01 -2.546694e-01 8.387470e-02 1.587175e-01 -5.827220e-02 1.214124e-02 -9.443152e-02 -4.437553e-01 2.752011e-02
<VARIANCE> 39
 8.532326e-02 2.036756e+00 3.361919e+00 1.445760e+00 2.419239e+00 3.315276e+00 2.456456e+00 9.246470e+00 1.088901e+01 6.663251e+00 3.126888e+00 5.942091e+00 1.005399e-01 1.856745e-02 2.449468e-02 6.808534e-02 4.687505e-01 7.891082e-01 3.761365e-01 3.422027e-01 6.084861e-01 3.546455e-01 3.847783e-01 4.103266e-01 4.915850e-01 3.000027e-03 3.917811e-03 5.307088e-02 1.313281e-01 4.017372e-02 6.123555e-02 3.310675e-02 6.217900e-02 8.621068e-02 2.125461e-01 1.447455e-01 1.378054e-01 7.041603e-02 2.258233e-03
<GCONST> 1.893424e+01
<STATE> 3
<MEAN> 39
 -6.751513e+00 -3.024544e+00 -2.973499e+00 -2.938401e+00 1.593186e+00 3.318660e+00 -2.213001e+00 -2.802218e+00 -5.895252e-01 6.145555e-01 2.133657e+00 2.318128e+00 -4.192069e+00 6.205660e-03 -2.681996e-01 -4.237125e-01 -2.356625e-01 -3.500185e-01 -4.276861e-01 -4.987202e-02 3.677115e-01 -6.912622e-02 2.416764e-02 7.097272e-02 -9.226771e-02 3.417112e-02 3.928083e-02 3.467719e-02 -4.887741e-02 -2.078373e-01 -4.066631e-01 -3.276960e-01 2.210818e-01 2.135513e-01 2.474018e-01 1.774518e-01 -2.004057e-01 -6.102374e-01 2.859209e-02
<VARIANCE> 39
 1.375420e-01 1.768876e+00 5.532256e-01 6.924112e+00 6.656188e+00 5.104876e+00 2.076059e+00 1.124636e+01 7.020581e+00 4.972355e+00 4.770495e+00 1.736216e+00 8.291629e-02 4.663596e-02 1.045739e-01 4.260884e-01 8.124475e-01 1.126843e+00 5.512589e-01 6.344587e-01 1.026256e+00 2.493886e+00 1.314370e+00 6.194155e-01 1.906172e-01 2.274195e-02 2.749815e-03 3.610468e-02 6.352784e-02 1.712050e-01 1.139500e-01 1.032517e-01 6.214264e-02 1.267034e-01 3.820606e-02 6.598442e-02 2.927265e-02 1.065893e-01 2.361297e-03
<GCONST> 2.861086e+01
<STATE> 4
<MEAN> 39
 -6.922048e+00 -3.479574e+00 -3.040088e+00 -3.738729e+00 1.479468e-01 1.374663e+00 -1.109921e+00 -1.373674e+00 -1.248228e+00 8.268799e-01 1.858308e+00 7.770029e-01 -4.097852e+00 4.911324e-02 2.702132e-03 -2.550242e-01 -4.240285e-01 -6.587424e-01 -2.976603e-01 5.265188e-01 6.750912e-01 5.114497e-01 2.383120e-01 -3.061275e-01 -9.252852e-01 7.717866e-03 1.678629e-01 1.570227e-01 3.623490e-02 -2.890181e-03 -1.923255e-01 -8.266052e-02 1.199692e-01 1.481508e-01 3.672203e-01 1.484237e-01 -1.165422e-01 -2.628638e-01 7.745208e-02
<VARIANCE> 39
 3.359056e-01 1.759281e+00 2.482996e+00 3.752931e+00 4.471184e+00 3.621001e+00 8.058597e+00 8.718276e+00 5.504825e+00 4.305179e+00 2.931200e+00 4.088687e+00 1.129346e-01 3.667072e-02 1.377736e-01 3.111495e-01 3.496478e-01 5.273720e-01 5.402306e-01 3.779140e-01 1.014969e+00 1.073164e+00 7.822407e-01 5.202675e-01 3.713540e-01 1.812455e-02 3.092120e-02 5.402276e-02 4.454718e-02 1.730374e-01 1.438031e-01 4.997434e-02 1.990921e-01 3.400939e-01 2.074313e-01 4.188934e-02 1.139876e-01 1.247167e-01 7.174687e-03
<GCONST> 3.551388e+01
<TRANSP> 5
 0.000000e+00 1.000000e+00 0.000000e+00 0.000000e+00 0.000000e+00
 0.000000e+00 1.775502e-06 9.999983e-01 0.000000e+00 0.000000e+00
 0.000000e+00 0.000000e+00 1.168626e-05 9.999883e-01 0.000000e+00
 0.000000e+00 0.000000e+00 0.000000e+00 4.962447e-01 5.037553e-01
 0.000000e+00 0.000000e+00 0.000000e+00 0.000000e+00 0.000000e+00
<ENDHMM>
~h "s+a"
<BEGINHMM>
<NUMSTATES> 5
<STATE> 2
<MEAN> 39
 2.498131e+00 -1.098703e+00 -1.010493e+00 1.201415e+00 -1.145515e+00 -3.106858e+00 -1.092596e+00 -6.720188e-01 -2.889538e+00 -3.513727e+00 -7.691258e-01 2.684428e+00 1.982557e+00 2.286702e+00 1.055824e+00 4.453275e-01 7.639647e-02 -6.720658e-01 -5.635738e-01 1.108044e-02 8.692160e-03 -3.544115e-01 -6.998602e-01 -7.213994e-01 1.194574e-02 1.330645e+00 9.654122e-02 2.366418e-02 2.210013e-02 -2.571474e-02 -9.784362e-02 -1.194864e-02 7.915720e-02 1.842261e-01 2.142657e-01 1.401680e-01 -3.289931e-02 -1.296708e-01 5.589743e-02
<VARIANCE> 39
 5.688699e+01 3.365453e+01 2.071104e+01 3.056348e+01 1.777806e+01 2.723333e+01 1.810998e+01 2.100753e+01 1.500026e+01 2.902832e+01 1.435434e+01 1.245513e+01 2.006042e+01 2.743422e+00 2.886043e+00 2.386308e+00 2.357788e+00 1.671762e+00 2.541311e+00 2.169267e+00 2.395684e+00 1.812457e+00 2.018012e+00 1.581239e+00 9.391897e-01 8.987909e-01 8.429182e-01 6.934005e-01 5.598961e-01 3.600611e-01 2.488090e-01 4.457498e-01 3.808787e-01 4.601561e-01 3.656780e-01 3.714757e-01 2.823637e-01 1.532328e-01 2.604700e-01
<GCONST> 1.079857e+02
<STATE> 3
<MEAN> 39
 1.032341e+01 4.926016e+00 3.957496e+00 2.647591e+00 -3.520894e+00 -3.869388e+00 8.807346e-01 2.389272e+00 6.309934e-01 -2.396654e+00 -4.862538e+00 -2.879392e+00 6.155683e+00 -5.208328e-01 1.151553e-01 2.719691e-01 1.943401e-01 4.441312e-01 3.773712e-01 1.359459e-01 1.301154e-01 2.211416e-01 3.075481e-01 2.027488e-01 -1.602940e-01 -3.715373e-01 -1.267988e-01 -5.794742e-02 -1.808950e-02 3.078566e-02 9.961927e-02 8.118646e-02 1.213476e-04 -5.578256e-02 -4.279968e-02 1.177355e-02 6.310605e-02 6.657108e-02 -7.238652e-02
<VARIANCE> 39
 1.360911e+01 1.044185e+01 1.484792e+01 1.812379e+01 3.261184e+01 1.451542e+01 1.189987e+01 1.303174e+01 1.122476e+01 1.469524e+01 1.489155e+01 1.827434e+01 8.532419e+00 7.010158e-01 5.660833e-01 6.193992e-01 7.298591e-01 1.512522e+00 1.244020e+00 1.164442e+00 1.254532e+00 8.507524e-01 1.147816e+00 9.246218e-01 8.355854e-01 3.465278e-01 7.490796e-02 1.072286e-01 1.244461e-01 1.194725e-01 2.451072e-01 2.128625e-01 2.271077e-01 2.642370e-01 1.381669e-01 1.675654e-01 1.313013e-01 1.071614e-01 4.004587e-02
<GCONST> 7.819354e+01
<STATE> 4
<MEAN> 39
 -4.669666e+00 -4.725264e-01 1.263691e+00 2.134152e+00 4.038872e+00 2.771380e+00 9.399686e-01 1.086441e+00 6.508950e-01 9.316860e-01 1.076969e+00 -5.449026e-01 -2.991382e+00 -5.649783e-01 -6.224923e-01 -5.715230e-01 -3.542228e-01 -2.771674e-01 -1.079714e-01 -8.924690e-02 -8.580606e-02 6.704406e-02 1.654816e-01 1.285799e-01 1.091193e-02 -2.663736e-01 1.994070e-01 9.548360e-02 1.098664e-02 -5.561670e-02 -1.645527e-01 -1.134394e-01 -3.584693e-02 -1.361499e-02 -4.898116e-03 -1.312671e-02 -6.316096e-02 -3.747800e-02 1.071191e-01
<VARIANCE> 39
 1.188668e+01 1.696453e+01 1.717871e+01 1.632566e+01 1.657949e+01 1.886483e+01 1.076266e+01 8.032455e+00 1.054134e+01 1.131581e+01 7.829267e+00 4.926133e+00 3.074818e+00 6.683146e-01 5.859525e-01 5.391846e-01 9.267942e-01 1.153921e+00 1.016127e+00 7.152615e-01 7.287231e-01 1.242460e+00 1.430095e+00 6.479073e-01 6.670943e-01 1.702795e-01 7.148421e-02 6.053903e-02 9.273686e-02 1.555438e-01 2.464082e-01 2.248484e-01 1.016591e-01 1.314930e-01 2.862517e-01 3.214599e-01 1.725591e-01 1.359022e-01 2.289107e-02
<GCONST> 7.141923e+01
<TRANSP> 5
 0.000000e+00 1.000000e+00 0.000000e+00 0.000000e+00 0.000000e+00
 0.000000e+00 8.396748e-01 1.603252e-01 0.000000e+00 0.000000e+00
 0.000000e+00 0.000000e+00 9.376495e-01 6.235054e-02 0.000000e+00
 0.000000e+00 0.000000e+00 0.000000e+00 8.041717e-01 1.958283e-01
 0.000000e+00 0.000000e+00 0.000000e+00 0.000000e+00 0.000000e+00
<ENDHMM>
~h "t-u"
<BEGINHMM>
<NUMSTATES> 5
<STATE> 2
<MEAN> 39
 -1.393191e+00 4.734090e+00 6.215654e+00 6.325488e+00 7.788506e+00 6.237460e+00 4.064424e+00 2.915012e+00 1.482627e+00 5.835137e-01 -6.124350e-01 -1.730350e+00 -1.971656e+00 -1.390297e+00 -1.432468e+00 -1.868589e+00 -1.822072e+00 -8.370076e-01 -3.887974e-01 -1.150133e-01 -8.305939e-02 -4.267898e-01 -1.183764e-01 1.642566e-01 6.313890e-02 -6.844756e-01 4.106147e-03 -2.512842e-01 -2.887336e-01 -4.165995e-01 -6.249975e-01 -5.585861e-01 -4.598332e-01 -1.740648e-01 5.316985e-02 1.629418e-01 2.016255e-01 1.554182e-01 6.074417e-02
<VARIANCE> 39
 4.280371e+00 4.102446e+00 9.982696e+00 1.899148e+01 3.164168e+01 4.358172e+01 1.874440e+01 6.947978e+00 6.348197e+00 8.924929e+00 9.553622e+00 3.675604e+00 1.203154e+00 1.495369e-01 2.494686e-01 7.745301e-01 1.625689e+00 2.765133e+00 1.134076e+00 8.256283e-01 6.263356e-01 8.649591e-01 1.119951e+00 1.180817e+00 8.758872e-01 5.900836e-02 1.835045e-02 5.477902e-02 2.491686e-01 2.612580e-01 2.704443e-01 1.667235e-01 1.823444e-01 2.088840e-01 1.679884e-01 2.847352e-01 2.085442e-01 1.053934e-01 7.113629e-03
<GCONST> 6.645895e+01
<STATE> 3
<MEAN> 39
 -5.554947e+00 8.964786e-02 1.715499e+00 7.581444e-01 3.026878e+00 3.431142e+00 1.172724e+00 1.140553e+00 5.137910e-01 3.935543e-01 -1.727778e-01 -1.408922e+00 -3.765254e+00 -9.260869e-01 -1.078101e+00 -9.953077e-01 -1.249505e+00 -8.714119e-01 -7.402752e-01 -1.041703e+00 -1.342692e+00 -6.878012e-01 -1.094112e-01 4.681310e-01 6.210333e-01 -3.984257e-01 3.160479e-01 2.958536e-01 2.506020e-01 2.924521e-01 2.078439e-01 1.132568e-01 -3.952712e-03 -1.645246e-01 -1.667674e-02 2.283886e-02 1.154427e-01 6.330265e-02 1.430807e-01
<VARIANCE> 39
 1.621136e+00 2.805263e+00 7.012695e+00 1.385460e+01 1.849012e+01 2.596495e+01 9.128458e+00 4.419315e+00 3.840221e+00 2.188383e+00 4.458498e+00 5.695538e+00 6.393976e-01 3.291533e-01 4.284231e-01 2.330851e-01 6.717988e-01 1.665088e+00 2.027920e+00 1.238626e+00 5.928982e-01 6.719048e-01 1.021531e+00 8.003711e-01 6.438412e-01 7.102826e-02 1.727426e-02 4.490035e-02 1.259590e-01 3.329663e-01 4.007204e-01 2.568961e-01 2.444155e-01 3.870034e-01 2.856083e-01 2.399552e-01 1.671043e-01 2.209601e-01 4.020074e-03
<GCONST> 5.950568e+01
<STATE> 4
<MEAN> 39
 -6.882106e+00 -2.627214e+00 -1.730467e+00 -1.586358e+00 2.158904e+00 2.625281e+00 -7.846575e-01 -2.010395e+00 -1.019633e+00 -9.244994e-02 2.768251e-01 -1.040397e+00 -4.220421e+00 -9.926001e-03 -4.282769e-02 -5.525212e-02 -4.137417e-02 -3.028544e-02 -3.326421e-02 -3.272214e-02 -3.442832e-02 -1.294844e-02 -1.904969e-02 2.730909e-03 7.365902e-03 2.055233e-04 7.147125e-03 6.249913e-03 8.983443e-03 1.196527e-02 7.778752e-03 1.115721e-02 1.355970e-02 1.962179e-02 8.194720e-03 3.464183e-03 -1.712127e-03 3.669267e-03 3.584637e-03
<VARIANCE> 39
 3.441990e-01 2.098954e+00 3.628452e+00 4.957670e+00 4.601772e+00 6.343495e+00 8.510371e+00 8.235557e+00 7.456904e+00 7.171035e+00 7.539157e+00 7.306489e+00 1.301941e-01 3.224259e-02 1.493723e-01 2.951971e-01 4.986264e-01 4.367024e-01 4.684898e-01 7.089199e-01 8.776854e-01 8.587962e-01 8.222865e-01 7.689436e-01 7.533971e-01 1.274798e-02 7.790117e-03 2.712437e-02 5.566672e-02 1.019707e-01 9.352082e-02 9.225585e-02 1.483396e-01 1.857177e-01 1.717933e-01 1.731897e-01 1.558884e-01 1.521631e-01 2.675959e-03
<GCONST> 3.808771e+01
<TRANSP> 5
 0.000000e+00 1.000000e+00 0.000000e+00 0.000000e+00 0.000000e+00
 0.000000e+00 6.171600e-01 3.828400e-01 0.000000e+00 0.000000e+00
 0.000000e+00 0.000000e+00 6.657861e-01 3.342139e-01 0.000000e+00
 0.000000e+00 0.000000e+00 0.000000e+00 9.805488e-01 1.945116e-02
 0.000000e+00 0.000000e+00 0.000000e+00 0.000000e+00 0.000000e+00
<ENDHMM>
~h "sil"
<BEGINHMM>
<NUMSTATES> 5
<STATE> 2
<MEAN> 39
 3.324867e+00 -5.787126e-01 -2.238434e+00 -2.117076e+00 -2.030653e+00 -4.442215e-01 -1.655226e-01 -2.639408e+00 -3.071353e+00 3.912899e-01 4.502732e+00 5.900931e+00 2.344992e+00 4.096791e-02 9.578309e-02 9.808921e-02 3.153705e-02 -3.861986e-02 -2.999319e-02 1.517452e-02 6.483257e-02 3.224675e-02 3.931937e-02 4.085895e-02 6.935160e-02 1.093306e-02 -9.112105e-03 -6.914672e-03 -2.336077e-02 -2.742645e-02 3.139906e-02 6.063107e-02 7.268842e-02 6.166290e-02 6.891202e-02 2.744677e-03 -7.489737e-02 -5.986525e-02 -9.687483e-03
<VARIANCE> 39
 7.428320e+01 1.167901e+01 1.518301e+01 9.457867e+00 2.503686e+01 1.634559e+01 1.889990e+01 1.783169e+01 2.323778e+01 2.141135e+01 8.983212e+00 2.519760e+01 3.374002e+01 3.475338e+00 1.750041e+00 1.442451e+00 7.923428e-01 2.341203e+00 1.291045e+00 1.107523e+00 1.303939e+00 2.158409e+00 2.011890e+00 8.013918e-01 1.527811e+00 1.623490e+00 2.340986e-01 3.556783e-01 2.687545e-01 1.351807e-01 3.968998e-01 2.266423e-01 2.125894e-01 3.056377e-01 4.159132e-01 4.034020e-01 1.641807e-01 2.061749e-01 1.123762e-01
<GCONST> 9.766297e+01
<STATE> 3
~s "silst"
<STATE> 4
<MEAN> 39
 -6.724409e+00 -2.313274e+00 -1.849569e+00 -2.383867e+00 1.227574e+00 2.002764e+00 -1.154565e+00 -2.014840e+00 -2.039557e-01 1.212507e+00 1.800143e+00 4.673035e-01 -4.207272e+00 -2.478531e-02 -5.318064e-02 -7.256095e-02 -6.184532e-02 -3.426169e-02 3.646552e-02 1.873671e-02 1.260908e-02 5.703451e-02 7.090281e-02 4.466150e-04 -3.176124e-03 -9.277780e-03 1.493973e-02 1.576326e-02 6.397892e-03 2.962902e-03 1.026237e-02 1.144281e-02 9.002071e-03 9.667454e-03 4.969209e-03 1.740198e-02 1.763908e-02 2.289022e-02 6.332130e-03
<VARIANCE> 39
 2.633746e-01 2.252529e+00 3.057597e+00 3.852391e+00 6.590312e+00 7.751096e+00 7.881160e+00 6.842127e+00 7.287189e+00 6.451810e+00 8.548244e+00 7.463019e+00 9.756362e-02 3.055131e-02 1.788646e-01 2.592201e-01 3.570216e-01 4.648100e-01 5.622402e-01 6.605940e-01 7.984770e-01 7.785461e-01 8.304516e-01 8.554837e-01 8.736922e-01 1.186862e-02 8.014462e-03 3.686200e-02 5.679309e-02 8.206207e-02 8.346137e-02 1.015276e-01 1.382920e-01 1.699237e-01 1.630542e-01 1.672573e-01 1.765165e-01 1.764579e-01 2.752817e-03
<GCONST> 3.750576e+01
<TRANSP> 5
 0.000000e+00 1.000000e+00 0.000000e+00 0.000000e+00 0.000000e+00
 0.000000e+00 8.829661e-01 4.411583e-23 1.170339e-01 0.000000e+00
 0.000000e+00 0.000000e+00 2.107328e-14 1.000000e+00 0.000000e+00
 0.000000e+00 5.321033e-03 0.000000e+00 9.629371e-01 3.174189e-02
 0.000000e+00 0.000000e+00 0.000000e+00 0.000000e+00 0.000000e+00
<ENDHMM>
~h "s-a+t"
<BEGINHMM>
<NUMSTATES> 5
<STATE> 2
<MEAN> 39
 1.600519e+00 -6.095368e-01 -4.374038e-02 1.142661e+00 -1.735037e+00 -3.430207e+00 -7.388766e-01 9.082642e-01 3.106002e-01 -5.543892e-01 -5.457287e-01 6.082348e-01 1.250066e+00 2.361954e+00 1.035950e+00 4.248309e-01 -4.841493e-01 -9.954226e-01 -2.198476e-01 1.047505e-01 -4.717675e-01 -2.519978e-01 3.743229e-02 -1.904707e-01 3.168954e-01 1.436093e+00 2.246479e-01 -5.786225e-03 -1.322184e-01 -1.554862e-01 -1.465317e-01 1.413603e-02 5.800210e-02 4.998800e-02 1.698844e-02 8.213697e-02 8.593129e-02 -2.117882e-02 1.557897e-01
<VARIANCE> 39
 5.056311e+01 4.270020e+01 2.756190e+01 4.191394e+01 3.339357e+01 2.408814e+01 8.696101e+00 1.421098e+01 2.979700e+01 4.918103e+01 7.241114e+00 1.864323e+01 1.747452e+01 2.955827e+00 3.333658e+00 2.741163e+00 2.472052e+00 3.794491e+00 1.439267e+00 1.145277e+00 1.562944e+00 1.682011e+00 2.259317e+00 1.024155e+00 1.154589e+00 1.118150e+00 6.853501e-01 9.580147e-01 6.316631e-01 4.278709e-01 7.277893e-01 2.407966e-01 2.335733e-01 3.563014e-01 4.283408e-01 5.155841e-01 1.964882e-01 1.846168e-01 2.182136e-01
<GCONST> 1.087591e+02
<STATE> 3
<MEAN> 39
 1.270127e+01 2.392567e+00 -1.971585e+00 -2.292531e+00 -6.164310e+00 -4.492561e+00 1.666059e+00 2.805859e+00 8.414963e-01 -7.282909e-03 -6.114097e-01 7.170830e-01 8.068572e+00 -5.545954e-01 1.581692e-02 2.059657e-01 5.150056e-01 7.066477e-01 2.739614e-01 1.101778e-01 3.631751e-01 2.858403e-01 9.562575e-02 1.323036e-01 -7.874712e-03 -4.016889e-01 -2.840571e-01 -5.076730e-02 8.268644e-02 1.142116e-01 1.666630e-01 5.522578e-02 -6.931565e-02 -2.810529e-02 3.060421e-02 -3.692226e-02 -6.964258e-03 4.065797e-02 -1.788971e-01
<VARIANCE> 39
 1.568929e+01 7.943266e+00 2.133997e+01 1.491262e+01 2.068885e+01 1.485455e+01 8.958244e+00 1.669867e+01 7.049194e+00 1.184345e+01 9.953153e+00 1.846262e+01 9.717003e+00 1.626473e+00 7.253842e-01 1.534962e+00 1.198978e+00 1.420309e+00 7.108040e-01 5.736184e-01 9.990264e-01 7.085000e-01 1.590684e+00 1.034283e+00 1.320361e+00 6.456014e-01 1.094771e-01 1.416651e-01 2.603379e-01 1.821631e-01 2.649830e-01 1.411769e-01 7.142683e-02 2.118619e-01 1.112964e-01 1.495279e-01 1.860434e-01 2.176185e-01 6.835993e-02
<GCONST> 8.045773e+01
<STATE> 4
<MEAN> 39
 -3.471293e+00 -6.494422e-01 2.942222e-01 9.430165e-01 2.187696e+00 1.354855e+00 2.826505e-01 8.995733e-01 1.474576e+00 1.420748e+00 2.380995e+00 1.312827e+00 -2.232147e+00 -7.940285e-01 -5.990952e-01 -2.830598e-01 -1.115277e-04 3.630526e-01 1.909164e-01 -3.362717e-01 -3.017477e-01 -3.628654e-02 1.375833e-01 -2.934575e-03 -1.268165e-01 -4.013316e-01 3.159274e-01 1.868993e-01 7.908903e-02 3.064090e-02 -4.233214e-02 -1.281695e-02 2.804289e-02 -4.215065e-02 -1.481495e-01 -1.906732e-01 -2.210609e-01 -1.274781e-01 1.748348e-01
<VARIANCE> 39
 2.129946e+01 1.472087e+01 1.231628e+01 1.410062e+01 5.976619e+00 1.145651e+01 1.935574e+00 1.246535e+01 3.785403e+00 1.175814e+01 1.357895e+01 2.162170e+01 7.484335e+00 8.885770e-01 6.856703e-01 6.103629e-01 1.031747e+00 9.786019e-01 9.829733e-01 5.966251e-01 6.818380e-01 1.047483e+00 1.680312e+00 1.266848e+00 1.827165e+00 2.635011e-01 6.521583e-02 5.566205e-02 1.122655e-01 2.438779e-01 1.650989e-01 2.222883e-01 1.138848e-01 1.154013e-01 2.039111e-01 4.371887e-01 3.480247e-01 3.684222e-01 2.336007e-02
<GCONST> 7.457602e+01
<TRANSP> 5
 0.000000e+00 1.000000e+00 0.000000e+00 0.000000e+00 0.000000e+00
 0.000000e+00 7.763924e-01 2.236076e-01 0.000000e+00 0.000000e+00
 0.000000e+00 0.000000e+00 8.857990e-01 1.142010e-01 0.000000e+00
 0.000000e+00 0.000000e+00 0.000000e+00 7.618849e-01 2.381151e-01
 0.000000e+00 0.000000e+00 0.000000e+00 0.000000e+00 0.000000e+00
<ENDHMM>
~h "s-o+ng"
<BEGINHMM>
<NUMSTATES> 5
<STATE> 2
<MEAN> 39
 -2.567016e+00 -3.632130e-01 -2.312987e+00 -4.084652e+00 -2.790213e+00 -1.113767e+00 -1.443001e-01 1.754336e+00 3.213827e+00 3.654740e+00 1.355146e+00 -1.396509e+00 -1.891153e+00 1.869731e+00 9.514603e-01 1.972783e-01 -4.361553e-01 -1.329790e+00 -9.054024e-01 -1.290548e-01 -1.872179e-01 1.887474e-02 3.166013e-01 -1.637027e-01 -2.688378e-01 1.072908e+00 5.414978e-01 7.495513e-02 1.530909e-01 1.748043e-01 -2.221939e-02 -2.940200e-02 -1.185394e-02 -2.388723e-01 -2.499086e-01 -1.777916e-01 -1.152374e-01 1.581647e-01 3.845262e-01
<VARIANCE> 39
 2.045480e+01 2.178855e+01 1.963831e+01 3.077961e+01 3.439872e+01 1.448484e+01 9.774567e+00 1.971861e+01 1.507081e+01 1.157070e+01 1.030052e+01 1.625207e+01 5.423854e+00 3.823764e+00 2.597476e+00 2.721646e+00 2.022217e+00 2.310875e+00 1.586981e+00 1.092353e+00 2.629705e+00 2.270791e+00 7.435285e-01 1.185777e+00 1.902907e+00 1.311502e+00 2.807060e-01 5.731400e-01 5.381387e-01 3.514434e-01 3.700164e-01 2.944435e-01 1.817412e-01 3.541300e-01 3.795357e-01 2.162890e-01 2.183790e-01 2.261090e-01 6.907062e-02
<GCONST> 9.895726e+01
<STATE> 3
<MEAN> 39
 1.046635e+01 1.009874e+00 -9.734380e-01 -1.921985e+00 -6.640040e+00 -4.250540e+00 1.037044e+00 5.804630e-01 9.684805e-01 1.819949e+00 7.794009e-01 2.170988e+00 7.186595e+00 -3.079730e-01 -3.833050e-01 -7.615220e-04 6.949490e-01 7.692635e-01 2.704795e-01 2.091537e-01 4.124624e-01 4.314363e-02 -3.213691e-01 2.111711e-01 5.776433e-01 -1.323021e-01 -3.831927e-01 -1.464869e-01 -4.227115e-02 4.127444e-02 1.630760e-01 5.777189e-02 -3.814632e-02 5.433173e-02 6.660905e-02 1.220605e-02 4.499839e-02 -1.209091e-03 -2.408551e-01
<VARIANCE> 39
 3.232069e+01 1.503433e+01 1.399292e+01 2.297421e+01 4.501503e+01 1.456381e+01 6.474349e+00 2.162550e+01 1.706044e+01 1.776687e+01 1.576059e+01 3.420772e+01 1.919597e+01 3.483822e+00 2.259890e+00 1.752316e+00 1.101453e+00 3.172037e+00 1.273957e+00 6.907001e-01 1.603782e+00 1.261997e+00 1.357741e+00 1.304560e+00 1.214397e+00 2.174589e+00 2.045270e-01 4.017281e-01 3.191490e-01 1.668008e-01 5.206821e-01 2.304377e-01 1.323955e-01 3.041674e-01 2.916760e-01 2.440390e-01 2.248439e-01 2.099382e-01 1.427831e-01
<GCONST> 9.761063e+01
<STATE> 4
<MEAN> 39
 -1.837231e+00 -4.129920e+00 -1.494084e+00 3.871347e+00 2.007872e+00 -2.397609e+00 -9.918722e-02 3.766818e+00 2.113367e+00 7.314959e-01 2.985068e+00 4.481961e+00 -3.850873e-01 -1.145435e+00 -1.011870e+00 -2.851002e-01 1.338176e-01 1.658697e-02 -3.490753e-01 -6.044975e-01 -8.248987e-01 -3.646106e-01 -1.007751e-01 -2.580563e-01 -3.596519e-01 -5.358940e-01 2.533165e-01 2.498620e-01 5.326856e-02 -1.131112e-01 -7.055474e-02 -1.987874e-02 -4.427139e-02 -1.776402e-01 -3.491265e-01 -2.820922e-01 -1.152133e-01 -6.002349e-02 1.169520e-01
<VARIANCE> 39
 8.989814e+00 3.130043e+01 1.417416e+01 2.184684e+01 7.844119e+00 3.716719e+01 1.511326e+01 1.457325e+01 8.437147e+00 9.669484e+00 8.083562e+00 1.644631e+01 3.795460e+00 5.138446e-01 5.183071e-01 3.740428e-01 7.852358e-01 6.007184e-01 1.619939e+00 1.000765e+00 1.225478e+00 1.671950e+00 1.813281e+00 1.306476e+00 8.169602e-01 1.894480e-01 4.415134e-02 1.558246e-01 1.377555e-01 1.434004e-01 5.448553e-02 1.762753e-01 2.059605e-01 3.404782e-01 1.591430e-01 1.468763e-01 1.765405e-01 2.334219e-01 1.915409e-02
<GCONST> 7.478003e+01
<TRANSP> 5
 0.000000e+00 1.000000e+00 0.000000e+00 0.000000e+00 0.000000e+00
 0.000000e+00 6.832496e-01 3.167504e-01 0.000000e+00 0.000000e+00
 0.000000e+00 0.000000e+00 8.567557e-01 1.432443e-01 0.000000e+00
 0.000000e+00 0.000000e+00 0.000000e+00 5.600494e-01 4.399506e-01
 0.000000e+00 0.000000e+00 0.000000e+00 0.000000e+00 0.000000e+00
<ENDHMM>
~h "o-ng+s"
<BEGINHMM>
<NUMSTATES> 5
<STATE> 2
<MEAN> 39
 -2.980312e+00 2.072614e+00 4.524899e+00 6.203113e+00 8.645088e+00 7.600800e+00 4.512118e+00 2.236338e+00 1.912557e+00 9.572423e-01 7.496892e-01 2.666568e-01 -2.477404e+00 -4.807541e-01 -1.706438e-01 -5.812111e-02 7.808017e-03 2.628608e-01 4.517636e-01 2.637809e-01 7.186641e-02 7.000984e-02 -8.606745e-02 -3.331438e-02 -1.500906e-01 -2.884364e-01 1.048534e-01 3.931336e-04 -7.706904e-02 -1.558270e-01 -2.459500e-01 -3.297181e-01 -1.151931e-01 5.534793e-02 -9.650515e-02 7.315087e-02 1.379793e-01 -4.218729e-02 8.541089e-02
<VARIANCE> 39
 3.784648e+00 1.864832e+01 2.244438e+01 3.111587e+01 3.743464e+01 3.399728e+01 1.696255e+01 8.348327e+00 1.468859e+01 1.779783e+01 1.152835e+01 1.573870e+01 8.727209e-01 1.730976e-01 1.656862e-01 1.107680e-01 1.915267e-01 5.679716e-01 4.541193e-01 2.279982e-01 5.688118e-01 9.394521e-01 7.208984e-01 4.716665e-01 1.171277e+00 7.351930e-02 3.560218e-02 5.247501e-02 2.724044e-02 3.282662e-02 1.098151e-01 1.726787e-01 2.641027e-01 2.416282e-01 3.036564e-01 3.133689e-01 2.402974e-01 1.911874e-01 8.378420e-03
<GCONST> 6.058585e+01
<STATE> 3
<MEAN> 39
 -4.996394e+00 -1.329930e+00 -4.473326e-02 1.736013e+00 4.887644e+00 4.922974e+00 3.360900e+00 2.844153e+00 1.902436e+00 1.605995e+00 2.301609e+00 9.793373e-01 -3.260233e+00 -5.522001e-01 -4.101563e-01 -3.251546e-01 -2.813651e-01 5.799168e-02 8.915135e-02 4.002783e-02 -4.095194e-01 -5.679567e-01 -2.207980e-01 -1.857793e-01 -6.215986e-01 -2.851896e-01 8.921262e-02 2.993251e-02 -9.356382e-02 -2.205993e-01 -3.211262e-01 -4.461400e-01 -4.154160e-01 -2.942429e-01 -2.516297e-01 -1.989948e-02 7.014778e-02 2.161480e-01 7.272989e-02
<VARIANCE> 39
 2.657488e+00 1.489226e+01 2.008656e+01 3.238971e+01 2.393213e+01 2.605037e+01 2.058991e+01 9.779658e+00 4.184234e+00 1.537107e+01 9.355806e+00 9.770710e+00 8.539849e-01 8.815832e-02 2.089272e-01 2.192800e-01 2.191553e-01 3.120981e-01 8.385954e-01 2.137864e+00 7.538246e-01 5.666115e-01 6.386709e-01 8.179353e-01 1.879353e+00 3.770732e-02 6.234415e-02 8.788521e-02 4.407107e-02 7.322025e-02 6.220026e-02 1.160101e-01 1.851162e-01 9.019218e-02 1.536167e-01 9.474593e-02 1.156339e-01 1.548440e-01 1.852427e-02
<GCONST> 5.812934e+01
<STATE> 4
<MEAN> 39
 -5.202848e+00 -8.017078e-02 1.737079e+00 2.448539e+00 6.135767e+00 5.620297e+00 2.369521e+00 8.342640e-01 5.815923e-01 1.095324e+00 9.859280e-01 9.841818e-03 -3.594845e+00 -4.960707e-01 -3.934356e-01 -7.344680e-01 -1.225629e+00 -1.186503e+00 -1.233721e+00 -1.313890e+00 -9.540353e-01 -4.850945e-01 -1.136481e-01 -6.894986e-03 2.621917e-01 -2.392740e-01 1.789928e-01 9.751810e-02 5.432442e-03 -3.249423e-02 -2.193142e-01 -2.407837e-01 -1.917370e-01 -8.598952e-02 4.289675e-02 -3.181641e-02 7.563392e-02 1.146116e-01 1.063080e-01
<VARIANCE> 39
 1.904891e+00 9.381914e+00 1.858947e+01 1.636306e+01 2.342748e+01 2.889827e+01 2.027016e+01 1.554848e+01 1.051165e+01 7.204979e+00 4.627947e+00 7.482798e+00 6.770846e-01 1.125740e-01 4.162501e-01 3.690156e-01 8.953380e-01 1.025958e+00 4.466817e-01 7.589082e-01 4.004279e-01 6.625282e-01 4.622805e-01 5.107637e-01 4.062913e-01 3.916984e-02 4.966051e-02 6.992576e-02 8.500554e-02 1.211361e-01 1.380826e-01 1.666264e-01 2.770106e-01 1.127697e-01 9.810320e-02 3.126394e-02 4.423884e-02 1.505318e-01 1.842185e-02
<GCONST> 5.562599e+01
<TRANSP> 5
 0.000000e+00 1.000000e+00 0.000000e+00 0.000000e+00 0.000000e+00
 0.000000e+00 4.928768e-01 5.071232e-01 0.000000e+00 0.000000e+00
 0.000000e+00 0.000000e+00 1.430573e-01 8.569427e-01 0.000000e+00
 0.000000e+00 0.000000e+00 0.000000e+00 4.596723e-01 5.403277e-01
 0.000000e+00 0.000000e+00 0.000000e+00 0.000000e+00 0.000000e+00
<ENDHMM>
~h "ng-s+a"
<BEGINHMM>
<NUMSTATES> 5
<STATE> 2
<MEAN> 39
 2.498131e+00 -1.098703e+00 -1.010493e+00 1.201415e+00 -1.145515e+00 -3.106858e+00 -1.092596e+00 -6.720188e-01 -2.889538e+00 -3.513727e+00 -7.691258e-01 2.684428e+00 1.982557e+00 2.286702e+00 1.055824e+00 4.453275e-01 7.639647e-02 -6.720658e-01 -5.635738e-01 1.108044e-02 8.692160e-03 -3.544115e-01 -6.998602e-01 -7.213994e-01 1.194574e-02 1.330645e+00 9.654122e-02 2.366418e-02 2.210013e-02 -2.571474e-02 -9.784362e-02 -1.194864e-02 7.915720e-02 1.842261e-01 2.142657e-01 1.401680e-01 -3.289931e-02 -1.296708e-01 5.589743e-02
<VARIANCE> 39
 5.688699e+01 3.365453e+01 2.071104e+01 3.056348e+01 1.777806e+01 2.723333e+01 1.810998e+01 2.100753e+01 1.500026e+01 2.902832e+01 1.435434e+01 1.245513e+01 2.006042e+01 2.743422e+00 2.886043e+00 2.386308e+00 2.357788e+00 1.671762e+00 2.541311e+00 2.169267e+00 2.395684e+00 1.812457e+00 2.018012e+00 1.581239e+00 9.391897e-01 8.987909e-01 8.429182e-01 6.934005e-01 5.598961e-01 3.600611e-01 2.488090e-01 4.457498e-01 3.808787e-01 4.601561e-01 3.656780e-01 3.714757e-01 2.823637e-01 1.532328e-01 2.604700e-01
<GCONST> 1.079857e+02
<STATE> 3
<MEAN> 39
 1.032341e+01 4.926016e+00 3.957496e+00 2.647591e+00 -3.520894e+00 -3.869388e+00 8.807346e-01 2.389272e+00 6.309934e-01 -2.396654e+00 -4.862538e+00 -2.879392e+00 6.155683e+00 -5.208328e-01 1.151553e-01 2.719691e-01 1.943401e-01 4.441312e-01 3.773712e-01 1.359459e-01 1.301154e-01 2.211416e-01 3.075481e-01 2.027488e-01 -1.602940e-01 -3.715373e-01 -1.267988e-01 -5.794742e-02 -1.808950e-02 3.078566e-02 9.961927e-02 8.118646e-02 1.213476e-04 -5.578256e-02 -4.279968e-02 1.177355e-02 6.310605e-02 6.657108e-02 -7.238652e-02
<VARIANCE> 39
 1.360911e+01 1.044185e+01 1.484792e+01 1.812379e+01 3.261184e+01 1.451542e+01 1.189987e+01 1.303174e+01 1.122476e+01 1.469524e+01 1.489155e+01 1.827434e+01 8.532419e+00 7.010158e-01 5.660833e-01 6.193992e-01 7.298591e-01 1.512522e+00 1.244020e+00 1.164442e+00 1.254532e+00 8.507524e-01 1.147816e+00 9.246218e-01 8.355854e-01 3.465278e-01 7.490796e-02 1.072286e-01 1.244461e-01 1.194725e-01 2.451072e-01 2.128625e-01 2.271077e-01 2.642370e-01 1.381669e-01 1.675654e-01 1.313013e-01 1.071614e-01 4.004587e-02
<GCONST> 7.819354e+01
<STATE> 4
<MEAN> 39
 -4.669666e+00 -4.725264e-01 1.263691e+00 2.134152e+00 4.038872e+00 2.771380e+00 9.399686e-01 1.086441e+00 6.508950e-01 9.316860e-01 1.076969e+00 -5.449026e-01 -2.991382e+00 -5.649783e-01 -6.224923e-01 -5.715230e-01 -3.542228e-01 -2.771674e-01 -1.079714e-01 -8.924690e-02 -8.580606e-02 6.704406e-02 1.654816e-01 1.285799e-01 1.091193e-02 -2.663736e-01 1.994070e-01 9.548360e-02 1.098664e-02 -5.561670e-02 -1.645527e-01 -1.134394e-01 -3.584693e-02 -1.361499e-02 -4.898116e-03 -1.312671e-02 -6.316096e-02 -3.747800e-02 1.071191e-01
<VARIANCE> 39
 1.188668e+01 1.696453e+01 1.717871e+01 1.632566e+01 1.657949e+01 1.886483e+01 1.076266e+01 8.032455e+00 1.054134e+01 1.131581e+01 7.829267e+00 4.926133e+00 3.074818e+00 6.683146e-01 5.859525e-01 5.391846e-01 9.267942e-01 1.153921e+00 1.016127e+00 7.152615e-01 7.287231e-01 1.242460e+00 1.430095e+00 6.479073e-01 6.670943e-01 1.702795e-01 7.148421e-02 6.053903e-02 9.273686e-02 1.555438e-01 2.464082e-01 2.248484e-01 1.016591e-01 1.314930e-01 2.862517e-01 3.214599e-01 1.725591e-01 1.359022e-01 2.289107e-02
<GCONST> 7.141923e+01
<TRANSP> 5
 0.000000e+00 1.000000e+00 0.000000e+00 0.000000e+00 0.000000e+00
 0.000000e+00 8.396748e-01 1.603252e-01 0.000000e+00 0.000000e+00
 0.000000e+00 0.000000e+00 9.376495e-01 6.235054e-02 0.000000e+00
 0.000000e+00 0.000000e+00 0.000000e+00 8.041717e-01 1.958283e-01
 0.000000e+00 0.000000e+00 0.000000e+00 0.000000e+00 0.000000e+00
<ENDHMM>
~h "o-s+o"
<BEGINHMM>
<NUMSTATES> 5
<STATE> 2
<MEAN> 39
 2.498131e+00 -1.098703e+00 -1.010493e+00 1.201415e+00 -1.145515e+00 -3.106858e+00 -1.092596e+00 -6.720188e-01 -2.889538e+00 -3.513727e+00 -7.691258e-01 2.684428e+00 1.982557e+00 2.286702e+00 1.055824e+00 4.453275e-01 7.639647e-02 -6.720658e-01 -5.635738e-01 1.108044e-02 8.692160e-03 -3.544115e-01 -6.998602e-01 -7.213994e-01 1.194574e-02 1.330645e+00 9.654122e-02 2.366418e-02 2.210013e-02 -2.571474e-02 -9.784362e-02 -1.194864e-02 7.915720e-02 1.842261e-01 2.142657e-01 1.401680e-01 -3.289931e-02 -1.296708e-01 5.589743e-02
<VARIANCE> 39
 5.688699e+01 3.365453e+01 2.071104e+01 3.056348e+01 1.777806e+01 2.723333e+01 1.810998e+01 2.100753e+01 1.500026e+01 2.902832e+01 1.435434e+01 1.245513e+01 2.006042e+01 2.743422e+00 2.886043e+00 2.386308e+00 2.357788e+00 1.671762e+00 2.541311e+00 2.169267e+00 2.395684e+00 1.812457e+00 2.018012e+00 1.581239e+00 9.391897e-01 8.987909e-01 8.429182e-01 6.934005e-01 5.598961e-01 3.600611e-01 2.488090e-01 4.457498e-01 3.808787e-01 4.601561e-01 3.656780e-01 3.714757e-01 2.823637e-01 1.532328e-01 2.604700e-01
<GCONST> 1.079857e+02
<STATE> 3
<MEAN> 39
 1.032341e+01 4.926016e+00 3.957496e+00 2.647591e+00 -3.520894e+00 -3.869388e+00 8.807346e-01 2.389272e+00 6.309934e-01 -2.396654e+00 -4.862538e+00 -2.879392e+00 6.155683e+00 -5.208328e-01 1.151553e-01 2.719691e-01 1.943401e-01 4.441312e-01 3.773712e-01 1.359459e-01 1.301154e-01 2.211416e-01 3.075481e-01 2.027488e-01 -1.602940e-01 -3.715373e-01 -1.267988e-01 -5.794742e-02 -1.808950e-02 3.078566e-02 9.961927e-02 8.118646e-02 1.213476e-04 -5.578256e-02 -4.279968e-02 1.177355e-02 6.310605e-02 6.657108e-02 -7.238652e-02
<VARIANCE> 39
 1.360911e+01 1.044185e+01 1.484792e+01 1.812379e+01 3.261184e+01 1.451542e+01 1.189987e+01 1.303174e+01 1.122476e+01 1.469524e+01 1.489155e+01 1.827434e+01 8.532419e+00 7.010158e-01 5.660833e-01 6.193992e-01 7.298591e-01 1.512522e+00 1.244020e+00 1.164442e+00 1.254532e+00 8.507524e-01 1.147816e+00 9.246218e-01 8.355854e-01 3.465278e-01 7.490796e-02 1.072286e-01 1.244461e-01 1.194725e-01 2.451072e-01 2.128625e-01 2.271077e-01 2.642370e-01 1.381669e-01 1.675654e-01 1.313013e-01 1.071614e-01 4.004587e-02
<GCONST> 7.819354e+01
<STATE> 4
<MEAN> 39
 -4.669666e+00 -4.725264e-01 1.263691e+00 2.134152e+00 4.038872e+00 2.771380e+00 9.399686e-01 1.086441e+00 6.508950e-01 9.316860e-01 1.076969e+00 -5.449026e-01 -2.991382e+00 -5.649783e-01 -6.224923e-01 -5.715230e-01 -3.542228e-01 -2.771674e-01 -1.079714e-01 -8.924690e-02 -8.580606e-02 6.704406e-02 1.654816e-01 1.285799e-01 1.091193e-02 -2.663736e-01 1.994070e-01 9.548360e-02 1.098664e-02 -5.561670e-02 -1.645527e-01 -1.134394e-01 -3.584693e-02 -1.361499e-02 -4.898116e-03 -1.312671e-02 -6.316096e-02 -3.747800e-02 1.071191e-01
<VARIANCE> 39
 1.188668e+01 1.696453e+01 1.717871e+01 1.632566e+01 1.657949e+01 1.886483e+01 1.076266e+01 8.032455e+00 1.054134e+01 1.131581e+01 7.829267e+00 4.926133e+00 3.074818e+00 6.683146e-01 5.859525e-01 5.391846e-01 9.267942e-01 1.153921e+00 1.016127e+00 7.152615e-01 7.287231e-01 1.242460e+00 1.430095e+00 6.479073e-01 6.670943e-01 1.702795e-01 7.148421e-02 6.053903e-02 9.273686e-02 1.555438e-01 2.464082e-01 2.248484e-01 1.016591e-01 1.314930e-01 2.862517e-01 3.214599e-01 1.725591e-01 1.359022e-01 2.289107e-02
<GCONST> 7.141923e+01
<TRANSP> 5
 0.000000e+00 1.000000e+00 0.000000e+00 0.000000e+00 0.000000e+00
 0.000000e+00 8.396748e-01 1.603252e-01 0.000000e+00 0.000000e+00
 0.000000e+00 0.000000e+00 9.376495e-01 6.235054e-02 0.000000e+00
 0.000000e+00 0.000000e+00 0.000000e+00 8.041717e-01 1.958283e-01
 0.000000e+00 0.000000e+00 0.000000e+00 0.000000e+00 0.000000e+00
<ENDHMM>
~h "t-u+ng"
<BEGINHMM>
<NUMSTATES> 5
<STATE> 2
<MEAN> 39
 -1.393191e+00 4.734090e+00 6.215654e+00 6.325488e+00 7.788506e+00 6.237460e+00 4.064424e+00 2.915012e+00 1.482627e+00 5.835137e-01 -6.124350e-01 -1.730350e+00 -1.971656e+00 -1.390297e+00 -1.432468e+00 -1.868589e+00 -1.822072e+00 -8.370076e-01 -3.887974e-01 -1.150133e-01 -8.305939e-02 -4.267898e-01 -1.183764e-01 1.642566e-01 6.313890e-02 -6.844756e-01 4.106147e-03 -2.512842e-01 -2.887336e-01 -4.165995e-01 -6.249975e-01 -5.585861e-01 -4.598332e-01 -1.740648e-01 5.316985e-02 1.629418e-01 2.016255e-01 1.554182e-01 6.074417e-02
<VARIANCE> 39
 4.280371e+00 4.102446e+00 9.982696e+00 1.899148e+01 3.164168e+01 4.358172e+01 1.874440e+01 6.947978e+00 6.348197e+00 8.924929e+00 9.553622e+00 3.675604e+00 1.203154e+00 1.495369e-01 2.494686e-01 7.745301e-01 1.625689e+00 2.765133e+00 1.134076e+00 8.256283e-01 6.263356e-01 8.649591e-01 1.119951e+00 1.180817e+00 8.758872e-01 5.900836e-02 1.835045e-02 5.477902e-02 2.491686e-01 2.612580e-01 2.704443e-01 1.667235e-01 1.823444e-01 2.088840e-01 1.679884e-01 2.847352e-01 2.085442e-01 1.053934e-01 7.113629e-03
<GCONST> 6.645895e+01
<STATE> 3
<MEAN> 39
 -5.554947e+00 8.964786e-02 1.715499e+00 7.581444e-01 3.026878e+00 3.431142e+00 1.172724e+00 1.140553e+00 5.137910e-01 3.935543e-01 -1.727778e-01 -1.408922e+00 -3.765254e+00 -9.260869e-01 -1.078101e+00 -9.953077e-01 -1.249505e+00 -8.714119e-01 -7.402752e-01 -1.041703e+00 -1.342692e+00 -6.878012e-01 -1.094112e-01 4.681310e-01 6.210333e-01 -3.984257e-01 3.160479e-01 2.958536e-01 2.506020e-01 2.924521e-01 2.078439e-01 1.132568e-01 -3.952712e-03 -1.645246e-01 -1.667674e-02 2.283886e-02 1.154427e-01 6.330265e-02 1.430807e-01
<VARIANCE> 39
 1.621136e+00 2.805263e+00 7.012695e+00 1.385460e+01 1.849012e+01 2.596495e+01 9.128458e+00 4.419315e+00 3.840221e+00 2.188383e+00 4.458498e+00 5.695538e+00 6.393976e-01 3.291533e-01 4.284231e-01 2.330851e-01 6.717988e-01 1.665088e+00 2.027920e+00 1.238626e+00 5.928982e-01 6.719048e-01 1.021531e+00 8.003711e-01 6.438412e-01 7.102826e-02 1.727426e-02 4.490035e-02 1.259590e-01 3.329663e-01 4.007204e-01 2.568961e-01 2.444155e-01 3.870034e-01 2.856083e-01 2.399552e-01 1.671043e-01 2.209601e-01 4.020074e-03
<GCONST> 5.950568e+01
<STATE> 4
<MEAN> 39
 -6.882106e+00 -2.627214e+00 -1.730467e+00 -1.586358e+00 2.158904e+00 2.625281e+00 -7.846575e-01 -2.010395e+00 -1.019633e+00 -9.244994e-02 2.768251e-01 -1.040397e+00 -4.220421e+00 -9.926001e-03 -4.282769e-02 -5.525212e-02 -4.137417e-02 -3.028544e-02 -3.326421e-02 -3.272214e-02 -3.442832e-02 -1.294844e-02 -1.904969e-02 2.730909e-03 7.365902e-03 2.055233e-04 7.147125e-03 6.249913e-03 8.983443e-03 1.196527e-02 7.778752e-03 1.115721e-02 1.355970e-02 1.962179e-02 8.194720e-03 3.464183e-03 -1.712127e-03 3.669267e-03 3.584637e-03
<VARIANCE> 39
 3.441990e-01 2.098954e+00 3.628452e+00 4.957670e+00 4.601772e+00 6.343495e+00 8.510371e+00 8.235557e+00 7.456904e+00 7.171035e+00 7.539157e+00 7.306489e+00 1.301941e-01 3.224259e-02 1.493723e-01 2.951971e-01 4.986264e-01 4.367024e-01 4.684898e-01 7.089199e-01 8.776854e-01 8.587962e-01 8.222865e-01 7.689436e-01 7.533971e-01 1.274798e-02 7.790117e-03 2.712437e-02 5.566672e-02 1.019707e-01 9.352082e-02 9.225585e-02 1.483396e-01 1.857177e-01 1.717933e-01 1.731897e-01 1.558884e-01 1.521631e-01 2.675959e-03
<GCONST> 3.808771e+01
<TRANSP> 5
 0.000000e+00 1.000000e+00 0.000000e+00 0.000000e+00 0.000000e+00
 0.000000e+00 6.171600e-01 3.828400e-01 0.000000e+00 0.000000e+00
 0.000000e+00 0.000000e+00 6.657861e-01 3.342139e-01 0.000000e+00
 0.000000e+00 0.000000e+00 0.000000e+00 9.805488e-01 1.945116e-02
 0.000000e+00 0.000000e+00 0.000000e+00 0.000000e+00 0.000000e+00
<ENDHMM>
~h "u-k+o"
<BEGINHMM>
<NUMSTATES> 5
<STATE> 2
<MEAN> 39
 -6.524097e+00 -2.415803e+00 -2.456841e+00 -3.453684e+00 6.382589e-01 2.361732e+00 -6.953563e-01 -1.700502e+00 8.663884e-01 1.759521e+00 1.844963e+00 1.789585e+00 -4.102602e+00 -1.254585e-04 -2.901781e-03 -3.814580e-02 6.375691e-02 3.568900e-01 3.339638e-01 -2.810104e-01 2.533140e-01 -2.931054e-01 1.064485e-01 2.936081e-01 5.475013e-01 -9.132857e-03 4.336610e-03 -5.304801e-02 -6.475928e-02 -3.160610e-02 -1.509018e-01 -2.546694e-01 8.387470e-02 1.587175e-01 -5.827220e-02 1.214124e-02 -9.443152e-02 -4.437553e-01 2.752011e-02
<VARIANCE> 39
 8.532326e-02 2.036756e+00 3.361919e+00 1.445760e+00 2.419239e+00 3.315276e+00 2.456456e+00 9.246470e+00 1.088901e+01 6.663251e+00 3.126888e+00 5.942091e+00 1.005399e-01 1.856745e-02 2.449468e-02 6.808534e-02 4.687505e-01 7.891082e-01 3.761365e-01 3.422027e-01 6.084861e-01 3.546455e-01 3.847783e-01 4.103266e-01 4.915850e-01 3.000027e-03 3.917811e-03 5.307088e-02 1.313281e-01 4.017372e-02 6.123555e-02 3.310675e-02 6.217900e-02 8.621068e-02 2.125461e-01 1.447455e-01 1.378054e-01 7.041603e-02 2.258233e-03
<GCONST> 1.893424e+01
<STATE> 3
<MEAN> 39
 -6.751513e+00 -3.024544e+00 -2.973499e+00 -2.938401e+00 1.593186e+00 3.318660e+00 -2.213001e+00 -2.802218e+00 -5.895252e-01 6.145555e-01 2.133657e+00 2.318128e+00 -4.192069e+00 6.205660e-03 -2.681996e-01 -4.237125e-01 -2.356625e-01 -3.500185e-01 -4.276861e-01 -4.987202e-02 3.677115e-01 -6.912622e-02 2.416764e-02 7.097272e-02 -9.226771e-02 3.417112e-02 3.928083e-02 3.467719e-02 -4.887741e-02 -2.078373e-01 -4.066631e-01 -3.276960e-01 2.210818e-01 2.135513e-01 2.474018e-01 1.774518e-01 -2.004057e-01 -6.102374e-01 2.859209e-02
<VARIANCE> 39
 1.375420e-01 1.768876e+00 5.532256e-01 6.924112e+00 6.656188e+00 5.104876e+00 2.076059e+00 1.124636e+01 7.020581e+00 4.972355e+00 4.770495e+00 1.736216e+00 8.291629e-02 4.663596e-02 1.045739e-01 4.260884e-01 8.124475e-01 1.126843e+00 5.512589e-01 6.344587e-01 1.026256e+00 2.493886e+00 1.314370e+00 6.194155e-01 1.906172e-01 2.274195e-02 2.749815e-03 3.610468e-02 6.352784e-02 1.712050e-01 1.139500e-01 1.032517e-01 6.214264e-02 1.267034e-01 3.820606e-02 6.598442e-02 2.927265e-02 1.065893e-01 2.361297e-03
<GCONST> 2.861086e+01
<STATE> 4
<MEAN> 39
 -6.922048e+00 -3.479574e+00 -3.040088e+00 -3.738729e+00 1.479468e-01 1.374663e+00 -1.109921e+00 -1.373674e+00 -1.248228e+00 8.268799e-01 1.858308e+00 7.770029e-01 -4.097852e+00 4.911324e-02 2.702132e-03 -2.550242e-01 -4.240285e-01 -6.587424e-01 -2.976603e-01 5.265188e-01 6.750912e-01 5.114497e-01 2.383120e-01 -3.061275e-01 -9.252852e-01 7.717866e-03 1.678629e-01 1.570227e-01 3.623490e-02 -2.890181e-03 -1.923255e-01 -8.266052e-02 1.199692e-01 1.481508e-01 3.672203e-01 1.484237e-01 -1.165422e-01 -2.628638e-01 7.745208e-02
<VARIANCE> 39
 3.359056e-01 1.759281e+00 2.482996e+00 3.752931e+00 4.471184e+00 3.621001e+00 8.058597e+00 8.718276e+00 5.504825e+00 4.305179e+00 2.931200e+00 4.088687e+00 1.129346e-01 3.667072e-02 1.377736e-01 3.111495e-01 3.496478e-01 5.273720e-01 5.402306e-01 3.779140e-01 1.014969e+00 1.073164e+00 7.822407e-01 5.202675e-01 3.713540e-01 1.812455e-02 3.092120e-02 5.402276e-02 4.454718e-02 1.730374e-01 1.438031e-01 4.997434e-02 1.990921e-01 3.400939e-01 2.074313e-01 4.188934e-02 1.139876e-01 1.247167e-01 7.174687e-03
<GCONST> 3.551388e+01
<TRANSP> 5
 0.000000e+00 1.000000e+00 0.000000e+00 0.000000e+00 0.000000e+00
 0.000000e+00 1.775502e-06 9.999983e-01 0.000000e+00 0.000000e+00
 0.000000e+00 0.000000e+00 1.168626e-05 9.999883e-01 0.000000e+00
 0.000000e+00 0.000000e+00 0.000000e+00 4.962447e-01 5.037553e-01
 0.000000e+00 0.000000e+00 0.000000e+00 0.000000e+00 0.000000e+00
<ENDHMM>
