~o
<STREAMINFO> 1 39
<VECSIZE> 39<NULLD><MFCC_D_A_Z_0><DIAGC>
~s "silst"
<MEAN> 39
 -9.827197e-01 -3.437786e+00 -1.797805e+01 -9.887056e+00 -1.343826e+01 -1.099012e+01 -3.726732e+00 -5.976367e+00 -4.787693e+00 -3.946553e+00 -4.943604e+00 -3.014629e+00 5.309188e+01 1.051863e-01 8.231787e-02 -5.934276e-02 -5.670578e-02 -2.700162e-02 1.613102e-02 5.952429e-02 -3.442190e-02 -2.728874e-02 -2.722956e-02 -7.164050e-02 3.532609e-03 2.694165e-01 -3.670231e-02 -1.847016e-02 2.166207e-02 -1.949350e-02 6.771321e-03 2.659504e-02 -1.156800e-03 -5.624384e-03 2.924288e-02 -6.994204e-03 -4.135265e-03 -2.847625e-02 -3.876966e-02
<VARIANCE> 39
 4.205086e+01 2.647596e+01 3.589272e+01 2.769906e+01 3.297289e+01 6.215195e+01 4.824424e+01 7.425184e+01 3.133758e+01 2.163431e+01 2.767833e+01 2.004668e+01 1.432428e+02 2.441934e+00 1.900033e+00 2.626636e+00 2.555074e+00 3.273509e+00 3.381591e+00 3.706978e+00 3.821502e+00 2.888824e+00 2.004772e+00 2.480985e+00 1.762405e+00 4.368847e+00 3.877904e-01 3.610728e-01 4.332452e-01 5.374036e-01 6.186389e-01 6.443579e-01 6.732642e-01 5.931758e-01 5.458435e-01 3.715067e-01 4.496292e-01 3.317121e-01 5.500674e-01
<GCONST> 1.230481e+02
~h "a"
<BEGINHMM>
<NUMSTATES> 5
<STATE> 2
<MEAN> 39
 9.946713e-01 -8.588711e-01 4.847851e-02 1.699932e+00 -1.119905e+00 -3.056307e+00 -6.773432e-01 1.200220e+00 3.458549e-01 -5.822096e-01 -5.467827e-01 6.570268e-01 8.758082e-01 2.308927e+00 1.049268e+00 4.168445e-01 -4.519604e-01 -9.566554e-01 -1.603998e-01 1.085391e-01 -3.654305e-01 -1.355430e-01 -5.869449e-02 -3.027090e-01 3.667027e-01 1.399523e+00 2.700076e-01 -6.333813e-04 -1.571475e-01 -1.956828e-01 -1.618944e-01 9.267509e-03 4.671880e-02 -2.269169e-02 -2.567391e-02 5.117364e-02 8.319134e-02 -2.429515e-03 1.872353e-01
<VARIANCE> 39
 4.701359e+01 4.225665e+01 3.177955e+01 4.322504e+01 3.314568e+01 3.043905e+01 9.640403e+00 1.368033e+01 2.856916e+01 4.617846e+01 7.150855e+00 1.799777e+01 1.577232e+01 3.283211e+00 3.360638e+00 2.673405e+00 2.483854e+00 4.003260e+00 1.807566e+00 1.159778e+00 1.619300e+00 1.830789e+00 2.420828e+00 1.012438e+00 1.075233e+00 1.199316e+00 6.522436e-01 9.750207e-01 6.440141e-01 4.266422e-01 7.018995e-01 2.628394e-01 2.242211e-01 3.387149e-01 4.358652e-01 4.812730e-01 1.996828e-01 1.792456e-01 1.886384e-01
<GCONST> 1.091826e+02
<STATE> 3
<MEAN> 39
 1.078965e+01 2.203137e+00 -8.955418e-01 -4.739351e-01 -4.043713e+00 -3.791582e+00 9.895866e-01 2.756638e+00 1.491261e+00 -7.977676e-02 -8.415718e-01 4.232383e-01 6.846709e+00 -6.449727e-01 -1.130839e-01 8.981951e-02 3.440768e-01 6.484017e-01 3.282914e-01 -9.759398e-03 1.160925e-01 1.261469e-01 1.075729e-01 2.048879e-01 6.926325e-02 -4.358981e-01 -1.788857e-01 -1.782007e-02 2.734740e-02 2.673682e-02 9.727826e-02 4.122889e-02 -1.270781e-02 -2.600316e-02 -5.002651e-02 -4.719998e-02 -4.579730e-03 1.520095e-02 -1.211580e-01
<VARIANCE> 39
 3.027961e+01 7.262564e+00 2.228716e+01 2.836281e+01 3.614529e+01 1.742234e+01 9.935749e+00 1.560180e+01 7.506180e+00 1.433327e+01 1.436973e+01 2.036866e+01 1.510252e+01 1.540581e+00 8.322430e-01 1.390983e+00 1.193304e+00 1.432263e+00 6.981035e-01 7.321950e-01 1.118734e+00 8.445898e-01 1.358886e+00 9.370065e-01 1.289833e+00 5.998973e-01 1.486093e-01 1.277395e-01 2.314771e-01 1.893005e-01 2.906866e-01 1.324358e-01 9.548827e-02 1.929199e-01 1.157598e-01 2.054387e-01 1.908954e-01 2.157112e-01 8.297213e-02
<GCONST> 8.469122e+01
<STATE> 4
<MEAN> 39
 -4.477880e+00 -7.006358e-01 5.411917e-01 1.183921e+00 3.409482e+00 2.752707e+00 1.174576e-01 2.026529e-01 1.398713e+00 1.296132e+00 1.523510e+00 3.618319e-01 -2.933403e+00 -4.159644e-01 -3.183856e-01 -1.810231e-01 4.461943e-02 4.106135e-01 3.071562e-01 6.019086e-02 -9.586345e-02 -2.354833e-01 -2.641270e-01 -3.806437e-01 -5.469540e-01 -2.081585e-01 2.519765e-01 1.760753e-01 9.335830e-02 5.491907e-02 -6.874011e-02 -1.022479e-01 5.247816e-02 -1.193207e-03 -1.746726e-01 -2.016883e-01 -1.364940e-01 -6.471875e-02 1.357325e-01
<VARIANCE> 39
 1.555834e+01 1.502192e+01 1.631245e+01 2.072457e+01 1.295109e+01 1.142834e+01 3.701239e+00 7.151048e+00 6.626042e+00 1.051341e+01 1.377389e+01 1.823547e+01 4.659698e+00 4.879296e-01 4.351472e-01 3.968659e-01 8.019168e-01 1.010755e+00 1.383066e+00 6.195602e-01 4.941118e-01 7.444991e-01 1.365930e+00 8.596997e-01 1.295576e+00 1.456303e-01 6.804962e-02 6.199975e-02 1.342385e-01 2.948473e-01 2.134400e-01 2.601393e-01 1.516515e-01 8.410520e-02 2.372556e-01 4.513760e-01 3.542134e-01 3.532190e-01 1.738127e-02
<GCONST> 7.287580e+01
<TRANSP> 5
 0.000000e+00 1.000000e+00 0.000000e+00 0.000000e+00 0.000000e+00
 0.000000e+00 7.721567e-01 2.278433e-01 0.000000e+00 0.000000e+00
 0.000000e+00 0.000000e+00 9.125651e-01 8.743492e-02 0.000000e+00
 0.000000e+00 0.000000e+00 0.000000e+00 6.932843e-01 3.067157e-01
 0.000000e+00 0.000000e+00 0.000000e+00 0.000000e+00 0.000000e+00
<ENDHMM>
~h "k"
<BEGINHMM>
<NUMSTATES> 5
<STATE> 2
<MEAN> 39
 -6.576252e+00 -2.660459e+00 -2.489923e+00 -3.101938e+00 9.626775e-01 2.679571e+00 -5.775011e-01 -1.422256e+00 7.784834e-01 2.322895e+00 2.259544e+00 1.619632e+00 -4.048953e+00 -2.259780e-02 -6.027701e-02 -1.643959e-02 -2.044067e-03 1.702089e-01 1.459170e-01 -3.440199e-01 2.487779e-01 -2.461357e-01 8.836855e-02 2.854138e-01 3.630904e-01 -8.263826e-03 2.046286e-02 -3.499196e-02 -8.122542e-02 -8.575312e-02 -2.400897e-01 -2.996698e-01 1.113900e-01 1.448239e-01 -1.256451e-03 8.744746e-03 -1.576533e-01 -4.577636e-01 3.185790e-02
<VARIANCE> 39
 1.425896e-01 1.268826e+00 3.066566e+00 1.341629e+00 3.575260e+00 4.942905e+00 2.179238e+00 7.464928e+00 1.231349e+01 6.042863e+00 3.962306e+00 5.639415e+00 6.275558e-02 2.147807e-02 5.102867e-02 8.535427e-02 4.173608e-01 6.380239e-01 4.535224e-01 4.231545e-01 6.307439e-01 3.231089e-01 3.992732e-01 4.107931e-01 6.491981e-01 3.242493e-03 5.485149e-03 4.580982e-02 1.222972e-01 5.815846e-02 9.646264e-02 4.596879e-02 6.464045e-02 8.588585e-02 2.576609e-01 1.459716e-01 1.378393e-01 6.896371e-02 2.698713e-03
<GCONST> 2.217989e+01
<STATE> 3
<MEAN> 39
 -6.701211e+00 -3.148828e+00 -3.075517e+00 -3.208448e+00 1.156587e+00 2.474267e+00 -2.066427e+00 -2.001026e+00 -9.040733e-02 3.844059e-01 2.079893e+00 2.520899e+00 -4.149050e+00 7.455386e-03 -2.647309e-01 -4.689524e-01 -3.615177e-01 -5.407363e-01 -5.190472e-01 1.309625e-01 4.365364e-01 4.681028e-02 8.397670e-02 7.186405e-02 -1.112109e-01 4.291543e-02 5.396048e-02 5.544395e-02 -6.445009e-02 -2.287373e-01 -4.202107e-01 -2.641332e-01 2.533576e-01 2.062424e-01 2.562675e-01 1.923708e-01 -2.487217e-01 -6.452138e-01 3.194873e-02
<VARIANCE> 39
 1.080551e-01 1.734021e+00 7.066417e-01 7.028453e+00 5.993446e+00 4.322022e+00 2.927738e+00 1.001879e+01 4.088440e+00 3.834532e+00 4.505673e+00 1.976715e+00 7.687378e-02 4.646321e-02 1.207443e-01 4.332830e-01 7.950361e-01 1.142912e+00 6.223269e-01 4.109220e-01 1.018675e+00 2.550645e+00 1.303845e+00 6.216989e-01 2.339253e-01 2.235188e-02 6.966570e-03 3.409968e-02 5.777124e-02 1.874803e-01 1.321984e-01 9.674823e-02 6.899600e-02 1.248962e-01 4.025569e-02 5.079458e-02 5.101666e-02 1.022611e-01 2.876461e-03
<GCONST> 2.934105e+01
<STATE> 4
<MEAN> 39
 -7.000946e+00 -3.297915e+00 -2.631370e+00 -3.814363e+00 -2.867709e-01 7.384405e-01 -2.418435e+00 -1.995924e+00 -2.232300e+00 8.691870e-02 1.828913e+00 1.101128e+00 -4.121938e+00 5.497349e-02 -3.946379e-03 -2.248068e-01 -4.724962e-01 -8.417686e-01 -6.091020e-01 2.515084e-01 1.954004e-01 2.553003e-01 2.842156e-01 -4.458815e-01 -1.139611e+00 3.087230e-02 1.733928e-01 1.976561e-01 6.237639e-02 -1.787011e-02 -2.120730e-01 -5.217909e-02 3.014840e-01 2.513658e-01 4.275466e-01 2.340691e-01 -2.159106e-01 -4.264548e-01 7.406937e-02
<VARIANCE> 39
 4.978924e-01 1.539591e+00 1.544680e+00 5.892868e+00 6.714062e+00 3.927157e+00 6.588952e+00 1.007757e+01 3.698147e+00 4.932236e+00 2.989895e+00 3.711805e+00 1.503735e-01 5.489988e-02 1.763185e-01 4.228512e-01 3.337058e-01 6.704607e-01 3.857361e-01 1.502320e-01 4.285136e-01 1.429253e+00 1.301156e+00 7.717133e-01 3.857875e-01 2.847943e-02 3.887037e-02 4.651665e-02 3.419036e-02 2.097075e-01 1.672268e-01 5.781025e-02 1.012019e-01 2.697915e-01 1.907073e-01 2.112353e-02 8.900188e-02 7.400078e-02 7.887552e-03
<GCONST> 3.478968e+01
<TRANSP> 5
 0.000000e+00 1.000000e+00 0.000000e+00 0.000000e+00 0.000000e+00
 0.000000e+00 1.437828e-09 1.000000e+00 0.000000e+00 0.000000e+00
 0.000000e+00 0.000000e+00 4.782362e-06 9.999952e-01 0.000000e+00
 0.000000e+00 0.000000e+00 0.000000e+00 1.076508e-01 8.923492e-01
 0.000000e+00 0.000000e+00 0.000000e+00 0.000000e+00 0.000000e+00
<ENDHMM>
~h "o"
<BEGINHMM>
<NUMSTATES> 5
<STATE> 2
<MEAN> 39
 -2.436896e+00 -1.006672e+00 -2.466803e+00 -3.434261e+00 -1.811344e+00 -6.570680e-01 -3.236020e-01 1.400305e+00 3.170239e+00 3.679070e+00 1.956121e+00 -2.153826e-01 -1.628073e+00 1.587949e+00 6.712717e-01 -1.746773e-01 -7.881966e-01 -1.309865e+00 -6.007427e-01 1.453574e-01 7.964802e-02 4.735530e-01 3.640982e-01 -3.516022e-01 -4.351068e-01 9.298493e-01 4.505559e-01 1.125261e-01 1.575985e-01 8.996312e-02 -1.270111e-01 -8.617315e-02 3.188997e-02 -1.471048e-01 -1.248344e-01 -1.015710e-01 -1.421563e-01 -1.542019e-02 3.139344e-01
<VARIANCE> 39
 3.142826e+01 1.828065e+01 1.770683e+01 2.967654e+01 3.292682e+01 1.745942e+01 1.028546e+01 2.007912e+01 1.718370e+01 1.467307e+01 9.518902e+00 1.823740e+01 1.105005e+01 3.513099e+00 2.413070e+00 2.114354e+00 2.070416e+00 2.777278e+00 1.564379e+00 1.010274e+00 2.218904e+00 1.567353e+00 9.408219e-01 1.051426e+00 1.499683e+00 1.301100e+00 4.400775e-01 5.623573e-01 4.372815e-01 3.551005e-01 3.567556e-01 2.741327e-01 1.521154e-01 2.941502e-01 3.655256e-01 2.454433e-01 2.344940e-01 1.746935e-01 1.098342e-01
<GCONST> 9.956038e+01
<STATE> 3
<MEAN> 39
 7.576870e+00 4.749506e-01 -1.095506e+00 -1.777503e+00 -5.618767e+00 -3.865280e+00 1.112204e+00 1.767625e+00 2.188098e+00 2.091722e+00 3.385364e-01 9.527819e-01 5.210032e+00 -3.914689e-01 -4.667787e-01 3.465262e-02 7.463632e-01 6.178251e-01 2.743005e-02 2.181897e-02 1.817899e-01 -6.628770e-02 -2.488885e-01 1.542445e-01 4.243255e-01 -1.606022e-01 -2.215227e-01 -9.108914e-02 -2.233611e-02 6.014428e-02 1.206055e-01 1.837285e-02 -7.994173e-02 -3.138234e-02 -4.640419e-02 -3.713411e-02 3.203559e-02 1.175658e-02 -1.354309e-01
<VARIANCE> 39
 4.966194e+01 2.074360e+01 1.425783e+01 3.569829e+01 6.087366e+01 2.333517e+01 8.487264e+00 2.365321e+01 1.288724e+01 1.681785e+01 1.449610e+01 2.773196e+01 2.500397e+01 3.761394e+00 2.098619e+00 1.382118e+00 9.037117e-01 3.107901e+00 1.519239e+00 8.574769e-01 2.094912e+00 1.105153e+00 1.227064e+00 1.260636e+00 1.222222e+00 1.944761e+00 2.537590e-01 3.464809e-01 2.618956e-01 1.781936e-01 5.248321e-01 2.587353e-01 1.381458e-01 3.641208e-01 2.633997e-01 2.054423e-01 2.202804e-01 1.998975e-01 1.644465e-01
<GCONST> 9.950350e+01
<STATE> 4
<MEAN> 39
 -3.913036e+00 -2.413702e+00 -6.790934e-01 2.367937e+00 3.122399e+00 9.283817e-01 4.262190e-01 1.411430e+00 1.420475e+00 1.551632e+00 1.484082e+00 1.905579e+00 -2.222287e+00 -5.597306e-01 -4.819186e-01 -2.392519e-01 -4.173264e-03 -2.223340e-01 -2.784638e-01 -2.486389e-01 -2.063505e-01 -1.390162e-01 -3.935088e-02 -1.642431e-01 -6.161691e-01 -2.710641e-01 1.880850e-01 1.406304e-01 2.898852e-02 -9.731408e-02 -7.334329e-02 -1.301987e-01 -6.430931e-02 -4.772343e-03 -2.561576e-01 -2.021435e-01 6.952631e-02 7.339593e-02 9.719677e-02
<VARIANCE> 39
 5.805793e+00 2.261768e+01 1.814848e+01 2.854195e+01 2.130767e+01 4.086897e+01 1.682720e+01 8.157158e+00 8.242276e+00 1.001061e+01 7.148108e+00 1.348856e+01 4.199940e+00 4.257208e-01 3.162351e-01 2.388202e-01 4.058087e-01 2.283106e-01 9.488993e-01 9.933454e-01 1.557006e+00 1.204875e+00 7.659734e-01 8.645475e-01 8.191997e-01 1.316383e-01 2.884274e-02 7.282040e-02 1.001909e-01 1.063763e-01 4.544315e-02 1.056123e-01 2.518477e-01 2.314723e-01 1.105642e-01 1.952414e-01 1.486534e-01 1.970162e-01 7.888985e-03
<GCONST> 6.593014e+01
<TRANSP> 5
 0.000000e+00 1.000000e+00 0.000000e+00 0.000000e+00 0.000000e+00
 0.000000e+00 6.114681e-01 3.885319e-01 0.000000e+00 0.000000e+00
 0.000000e+00 0.000000e+00 8.581087e-01 1.418913e-01 0.000000e+00
 0.000000e+00 0.000000e+00 0.000000e+00 5.199080e-02 9.480092e-01
 0.000000e+00 0.000000e+00 0.000000e+00 0.000000e+00 0.000000e+00
<ENDHMM>
~h "s"
<BEGINHMM>
<NUMSTATES> 5
<STATE> 2
<MEAN> 39
 1.147290e+00 -1.497645e+00 -1.067916e+00 1.011370e+00 -1.118320e+00 -2.860837e+00 -9.349720e-01 -3.234933e-01 -2.416434e+00 -2.765618e+00 -1.889495e-01 2.451199e+00 1.138613e+00 2.268875e+00 1.055406e+00 4.747920e-01 9.782699e-02 -7.113705e-01 -6.138672e-01 -9.750038e-02 -2.443067e-01 -6.313190e-01 -7.961461e-01 -5.572445e-01 2.322602e-01 1.329785e+00 1.896453e-01 7.375287e-03 -2.080911e-02 7.401325e-03 -5.297327e-02 -5.297633e-02 2.694111e-02 1.643591e-01 1.747400e-01 7.149777e-02 -4.217733e-02 -3.240330e-02 1.222266e-01
<VARIANCE> 39
 5.105935e+01 3.654845e+01 2.129181e+01 3.007599e+01 1.620100e+01 2.573510e+01 1.731590e+01 2.134659e+01 1.723983e+01 2.748141e+01 1.244062e+01 1.464628e+01 1.744087e+01 2.838331e+00 3.146458e+00 2.680736e+00 2.253132e+00 1.466510e+00 2.212051e+00 2.026259e+00 2.159406e+00 1.922725e+00 1.700616e+00 1.666044e+00 1.307464e+00 9.238794e-01 7.945195e-01 7.724195e-01 6.411049e-01 3.865446e-01 3.211785e-01 3.893949e-01 3.840082e-01 5.052342e-01 4.752935e-01 3.659800e-01 2.638002e-01 2.369351e-01 2.294875e-01
<GCONST> 1.087704e+02
<STATE> 3
<MEAN> 39
 9.766687e+00 4.440110e+00 3.630055e+00 2.790595e+00 -2.795815e+00 -3.369195e+00 8.732705e-01 2.063080e+00 4.007403e-01 -1.954804e+00 -3.686891e+00 -1.739568e+00 5.886493e+00 -5.614656e-01 1.078373e-02 1.998097e-01 1.939836e-01 4.703635e-01 4.047217e-01 1.618203e-01 1.615375e-01 2.519283e-01 3.060088e-01 1.703234e-01 -1.513651e-01 -3.804367e-01 -1.224460e-01 -3.636432e-02 1.308043e-05 1.347905e-02 5.266809e-02 7.080962e-02 1.344371e-02 -4.758871e-02 -4.768709e-02 -7.579183e-03 3.530562e-02 2.978851e-02 -7.386835e-02
<VARIANCE> 39
 2.120069e+01 1.411818e+01 1.796083e+01 1.783979e+01 3.655249e+01 1.889497e+01 1.158823e+01 1.356579e+01 1.247998e+01 1.683699e+01 2.220245e+01 2.677670e+01 1.241791e+01 9.081339e-01 8.126538e-01 7.967831e-01 7.345921e-01 1.485020e+00 1.345048e+00 1.130249e+00 1.320127e+00 9.691931e-01 1.271535e+00 9.851425e-01 8.433776e-01 4.696485e-01 9.532419e-02 1.199859e-01 1.339795e-01 1.117793e-01 2.221604e-01 2.427263e-01 2.182979e-01 2.569562e-01 1.780239e-01 2.268579e-01 1.595163e-01 1.219826e-01 5.439784e-02
<GCONST> 8.398528e+01
<STATE> 4
<MEAN> 39
 -5.005164e+00 -5.513667e-01 9.901177e-01 1.726091e+00 3.927314e+00 3.160263e+00 1.190687e+00 8.349760e-01 4.278873e-01 9.929500e-01 1.201824e+00 -5.197190e-01 -3.216020e+00 -3.475255e-01 -4.445076e-01 -4.763131e-01 -3.808752e-01 -3.665686e-01 -1.759317e-01 -1.925461e-01 -1.103679e-01 4.262245e-02 1.103776e-01 6.590787e-02 -2.668478e-02 -1.631884e-01 1.380298e-01 9.111018e-02 1.548950e-02 -6.778261e-02 -7.703622e-02 -4.207597e-02 -3.989262e-02 2.152981e-02 9.237491e-02 5.570725e-02 -5.015116e-02 -2.380016e-02 6.511252e-02
<VARIANCE> 39
 1.048954e+01 1.500950e+01 1.618429e+01 1.707873e+01 1.655662e+01 1.544977e+01 1.177912e+01 8.287310e+00 8.180675e+00 9.534466e+00 6.821516e+00 6.146196e+00 2.401600e+00 2.989917e-01 3.268935e-01 4.563172e-01 9.939299e-01 1.228840e+00 1.025722e+00 5.716686e-01 6.303096e-01 1.208936e+00 1.557955e+00 7.956789e-01 5.609550e-01 8.309372e-02 5.945868e-02 4.667831e-02 7.955810e-02 1.506307e-01 2.305884e-01 1.613718e-01 8.124718e-02 1.204829e-01 1.980352e-01 2.355949e-01 1.430361e-01 1.311274e-01 1.847848e-02
<GCONST> 6.562445e+01
<TRANSP> 5
 0.000000e+00 1.000000e+00 0.000000e+00 0.000000e+00 0.000000e+00
 0.000000e+00 8.525397e-01 1.474603e-01 0.000000e+00 0.000000e+00
 0.000000e+00 0.000000e+00 9.484993e-01 5.150069e-02 0.000000e+00
 0.000000e+00 0.000000e+00 0.000000e+00 7.837293e-01 2.162707e-01
 0.000000e+00 0.000000e+00 0.000000e+00 0.000000e+00 0.000000e+00
<ENDHMM>
~h "t"
<BEGINHMM>
<NUMSTATES> 5
<STATE> 2
<MEAN> 39
 1.076076e+00 1.654946e+00 2.358438e+00 3.154179e+00 2.316980e+00 -6.046243e-01 -4.786998e-01 5.958428e-01 -1.138243e+00 -2.088932e+00 -1.039405e+00 8.561347e-01 4.572887e-01 1.654715e+00 1.187604e+00 4.623354e-01 -1.190252e-01 -5.099747e-01 -5.007785e-01 1.643185e-01 4.091504e-01 -3.702116e-01 -9.383823e-01 -8.158156e-01 -3.064939e-01 8.528432e-01 5.137859e-02 -4.323627e-02 -9.259760e-02 -1.545175e-01 -3.357601e-01 -1.936817e-01 7.617196e-02 3.645998e-01 3.727510e-01 1.412096e-01 1.366824e-02 -1.335435e-01 4.289760e-02
<VARIANCE> 39
 3.785852e+01 3.319091e+01 2.714431e+01 1.533707e+01 2.991541e+01 2.536520e+01 9.136567e+00 1.794093e+01 1.678766e+01 2.164752e+01 1.241646e+01 6.522501e+00 1.109198e+01 3.891181e+00 3.269667e+00 3.528235e+00 1.549399e+00 1.878729e+00 1.818105e+00 9.012542e-01 1.830662e+00 1.994068e+00 8.165650e-01 2.554575e+00 3.927915e-01 1.107643e+00 7.720433e-01 8.004936e-01 6.960435e-01 2.364785e-01 3.114589e-01 1.005686e-01 7.681165e-02 3.026005e-01 4.425300e-01 4.977940e-01 5.483789e-01 7.186300e-02 1.876094e-01
<GCONST> 9.990564e+01
<STATE> 3
<MEAN> 39
 6.870903e+00 4.884187e+00 4.263293e+00 3.616812e+00 2.792740e-02 -2.062382e+00 5.211270e-01 4.776306e+00 4.005640e+00 2.165103e-01 -3.320991e+00 -3.526370e+00 3.698095e+00 -5.184774e-01 -7.895897e-02 3.652246e-01 5.726686e-01 5.890910e-01 3.705456e-01 -1.736988e-02 1.453563e-01 8.001223e-01 4.494365e-01 -6.621630e-01 -7.449226e-01 -3.276109e-01 -1.922217e-01 -1.473505e-02 6.050275e-02 4.280026e-02 3.480915e-02 -5.221527e-02 -1.771866e-01 -2.884911e-01 -2.386179e-01 -2.131568e-01 -1.313889e-02 8.397157e-02 -1.223082e-01
<VARIANCE> 39
 2.354421e+01 1.619638e+00 1.220538e+01 1.774007e+01 5.490583e+01 6.351276e+01 1.545013e+01 1.389989e+01 2.408435e+01 2.050962e+01 9.439592e+00 7.641840e+00 1.133476e+01 6.623026e-01 7.012419e-01 1.766725e+00 2.686505e+00 4.768075e+00 1.495624e+00 1.298494e+00 1.727519e+00 3.058631e+00 4.876484e+00 1.746159e+00 1.018178e+00 1.893811e-01 1.199654e-01 7.137524e-02 3.553894e-01 4.235647e-01 7.976394e-01 3.283354e-01 1.125952e-01 2.322641e-01 4.476558e-01 7.373371e-01 5.013777e-01 1.987449e-01 3.693679e-02
<GCONST> 9.395718e+01
<STATE> 4
<MEAN> 39
 2.882681e+00 6.038688e+00 7.287837e+00 7.819258e+00 6.328516e+00 2.803839e+00 1.218363e+00 2.614601e+00 2.072082e+00 2.495461e-01 -9.349884e-01 -2.549982e+00 7.251291e-01 -5.101495e-01 -1.425662e-01 -2.754844e-02 -8.326357e-02 -4.708622e-03 2.625965e-01 2.808658e-01 -4.625477e-02 -1.390523e-01 7.283325e-02 3.088837e-01 8.774749e-02 -3.113141e-01 -9.528225e-02 -9.474960e-02 -6.933872e-02 -9.099449e-02 -3.845830e-02 -2.950419e-02 -5.801035e-02 -1.011028e-01 -5.165655e-02 3.088498e-02 2.446878e-02 3.999912e-02 -4.033754e-02
<VARIANCE> 39
 1.303230e+01 1.543686e+00 4.004459e+00 1.057858e+01 3.106538e+01 4.348052e+01 1.784725e+01 5.595839e+00 6.799149e+00 6.368491e+00 1.755364e+01 7.096088e+00 5.381996e+00 2.436610e-01 3.312494e-01 4.698854e-01 7.969998e-01 9.350672e-01 8.283005e-01 4.411768e-01 8.570315e-01 8.533802e-01 7.777818e-01 1.415510e+00 7.229200e-01 7.343764e-02 4.454900e-02 2.533897e-02 6.310098e-02 1.383464e-01 1.751583e-01 1.943437e-01 1.213065e-01 1.878621e-01 1.894033e-01 1.279432e-01 2.952830e-01 1.342537e-01 1.708327e-02
<GCONST> 6.308126e+01
<TRANSP> 5
 0.000000e+00 1.000000e+00 0.000000e+00 0.000000e+00 0.000000e+00
 0.000000e+00 6.343723e-01 3.656277e-01 0.000000e+00 0.000000e+00
 0.000000e+00 0.000000e+00 4.939439e-01 5.060561e-01 0.000000e+00
 0.000000e+00 0.000000e+00 0.000000e+00 8.640748e-01 1.359252e-01
 0.000000e+00 0.000000e+00 0.000000e+00 0.000000e+00 0.000000e+00
<ENDHMM>
~h "u"
<BEGINHMM>
<NUMSTATES> 5
<STATE> 2
<MEAN> 39
 -1.162135e+00 3.717153e+00 4.482952e+00 3.139792e+00 3.120064e+00 2.229027e+00 2.104791e+00 2.094745e+00 1.408685e+00 6.593095e-01 -1.129095e-01 -1.773515e+00 -1.627298e+00 -1.380093e+00 -1.318114e+00 -1.612823e+00 -1.951780e+00 -1.106155e+00 -7.224523e-01 -5.551969e-01 -1.474092e-01 -1.546792e-01 2.015638e-01 4.433546e-01 3.518004e-01 -6.730286e-01 2.868646e-02 -1.564444e-01 -1.384898e-01 -4.355047e-02 -1.295147e-01 -2.711118e-01 -2.835042e-01 -1.434393e-01 -4.182292e-02 -3.520092e-02 5.830083e-03 3.924771e-02 5.739103e-02
<VARIANCE> 39
 9.258944e+00 6.692822e+00 1.523385e+01 3.086835e+01 3.966905e+01 3.662709e+01 1.909167e+01 9.378920e+00 7.549650e+00 9.272259e+00 1.154397e+01 5.933764e+00 2.762304e+00 1.127751e-01 4.816568e-01 1.535462e+00 1.715658e+00 2.485631e+00 1.248404e+00 5.358239e-01 8.840221e-01 9.244684e-01 8.494712e-01 9.077480e-01 9.268917e-01 8.516335e-02 5.110373e-02 1.193050e-01 4.121032e-01 5.821791e-01 5.379024e-01 2.299284e-01 2.074729e-01 4.527794e-01 3.592473e-01 4.751056e-01 3.000556e-01 1.809984e-01 1.528222e-02
<GCONST> 7.963624e+01
<STATE> 3
<MEAN> 39
 -4.003086e+00 1.180922e+00 2.187721e+00 1.010731e+00 2.100742e+00 1.040653e+00 -2.309978e-02 1.714206e+00 4.646877e-01 -2.324579e-01 -5.983233e-01 -1.718039e+00 -2.911617e+00 -1.450790e+00 -1.373892e+00 -9.613513e-01 -7.042721e-01 -9.333205e-02 -9.228417e-02 -3.553588e-01 -9.430541e-01 -8.311331e-01 -4.273536e-01 -7.590194e-02 -1.328627e-01 -6.570117e-01 2.206554e-01 1.329626e-01 1.269716e-01 2.422933e-01 2.386597e-01 2.420744e-01 -4.704295e-02 -4.421323e-01 -1.909119e-01 2.997856e-02 1.869499e-01 3.040077e-02 1.078311e-01
<VARIANCE> 39
 5.298256e+00 7.426027e+00 9.791401e+00 1.884421e+01 2.803568e+01 4.071862e+01 1.642231e+01 5.008383e+00 3.135129e+00 2.193135e+00 5.524155e+00 5.555007e+00 1.118835e+00 3.231763e-01 2.603567e-01 2.456517e-01 1.030964e+00 1.952309e+00 2.604557e+00 2.189540e+00 1.602491e+00 1.274318e+00 1.411681e+00 5.573509e-01 5.040415e-01 1.188914e-01 4.975539e-02 1.560450e-01 2.063356e-01 3.772207e-01 3.051043e-01 2.243333e-01 1.626619e-01 2.235465e-01 2.707741e-01 2.861006e-01 1.912305e-01 2.063239e-01 6.927650e-03
<GCONST> 6.953217e+01
<STATE> 4
<MEAN> 39
 -6.866278e+00 -2.596853e+00 -1.666827e+00 -1.553533e+00 2.149747e+00 2.611671e+00 -7.414120e-01 -1.973705e+00 -1.024475e+00 -6.943512e-02 3.473908e-01 -9.924846e-01 -4.210146e+00 -2.309155e-02 -7.220756e-02 -8.902894e-02 -7.866277e-02 -5.733173e-02 -3.731184e-02 -5.356330e-02 -6.622995e-02 -3.135800e-02 -1.301396e-02 2.825500e-02 4.570844e-02 -4.192680e-03 2.047902e-02 1.536524e-02 1.250401e-02 1.767848e-02 1.195970e-02 1.315534e-02 1.729109e-02 3.084078e-02 2.091155e-02 5.330049e-03 -1.354548e-03 6.556969e-03 1.014829e-02
<VARIANCE> 39
 3.651540e-01 2.313998e+00 4.163671e+00 5.374241e+00 5.039923e+00 7.072645e+00 8.785700e+00 8.851957e+00 7.881947e+00 7.496414e+00 7.574239e+00 7.342619e+00 1.362152e-01 4.550761e-02 1.670295e-01 3.118840e-01 5.302687e-01 4.763560e-01 5.251232e-01 7.517530e-01 9.458092e-01 9.167894e-01 8.797625e-01 7.701349e-01 7.721261e-01 1.618713e-02 1.279995e-02 2.877287e-02 5.605983e-02 1.014022e-01 9.918654e-02 1.000765e-01 1.543010e-01 2.035998e-01 1.810552e-01 1.764406e-01 1.513169e-01 1.537211e-01 4.079838e-03
<GCONST> 4.152798e+01
<TRANSP> 5
 0.000000e+00 1.000000e+00 0.000000e+00 0.000000e+00 0.000000e+00
 0.000000e+00 4.556783e-01 5.443217e-01 0.000000e+00 0.000000e+00
 0.000000e+00 0.000000e+00 2.511360e-01 7.488640e-01 0.000000e+00
 0.000000e+00 0.000000e+00 0.000000e+00 9.816575e-01 1.834247e-02
 0.000000e+00 0.000000e+00 0.000000e+00 0.000000e+00 0.000000e+00
<ENDHMM>
~h "ng"
<BEGINHMM>
<NUMSTATES> 5
<STATE> 2
<MEAN> 39
 -4.412207e+00 -1.445997e+00 7.788050e-01 2.312082e+00 3.483083e+00 3.489854e+00 2.297259e+00 1.833266e+00 1.935563e+00 4.388765e-01 1.515025e+00 1.710992e+00 -2.767251e+00 -4.847231e-01 -1.337916e-01 -3.240762e-02 -5.424580e-02 9.656897e-02 1.332746e-01 3.658506e-02 1.118954e-01 -3.330196e-02 -1.506233e-01 -1.838858e-01 -3.816002e-01 -2.875603e-01 5.933228e-02 3.785975e-03 -9.084243e-02 -1.093827e-01 -4.899818e-02 -1.623369e-01 -1.097242e-01 -5.034921e-02 -1.955169e-01 5.277194e-02 1.897114e-01 1.030665e-01 4.628034e-02
<VARIANCE> 39
 4.249761e+00 1.944143e+01 2.151831e+01 2.656860e+01 2.784686e+01 3.601676e+01 1.369995e+01 1.109938e+01 1.063233e+01 1.466764e+01 9.883783e+00 1.363573e+01 1.917119e+00 3.435725e-01 1.682672e-01 1.208916e-01 2.172320e-01 5.086987e-01 5.173498e-01 4.742862e-01 5.419436e-01 1.102984e+00 4.279249e-01 4.789172e-01 9.443592e-01 1.426543e-01 3.715346e-02 6.917655e-02 5.207572e-02 3.985297e-02 6.775059e-02 2.097051e-01 4.361535e-01 2.280802e-01 1.430093e-01 1.439143e-01 2.120097e-01 2.334998e-01 6.397901e-03
<GCONST> 6.165971e+01
<STATE> 3
<MEAN> 39
 -4.919800e+00 -8.862307e-01 3.109107e-01 1.639028e+00 4.959310e+00 4.280446e+00 2.112684e+00 1.232824e+00 4.988617e-01 8.824631e-01 2.211395e+00 9.460006e-01 -3.177238e+00 -5.266763e-01 -3.436796e-01 -2.545006e-01 -2.584502e-01 -1.121495e-03 1.006143e-02 -7.877715e-02 -3.473577e-01 -4.888560e-01 -1.742286e-01 7.206668e-02 -1.645904e-01 -2.594187e-01 4.712499e-02 -8.228575e-02 -1.339292e-01 -1.554344e-01 -2.255188e-01 -2.975226e-01 -2.287755e-01 -1.770125e-01 -1.398705e-01 1.028509e-02 7.954786e-02 1.883459e-01 5.328386e-02
<VARIANCE> 39
 2.982407e+00 1.739649e+01 2.281061e+01 3.090837e+01 2.963042e+01 3.496055e+01 1.923036e+01 1.416468e+01 9.277689e+00 1.741580e+01 1.054212e+01 1.106477e+01 9.341736e-01 9.466520e-02 1.491123e-01 1.519184e-01 2.994948e-01 3.246967e-01 9.325218e-01 1.956423e+00 8.587918e-01 7.267654e-01 4.880405e-01 5.985786e-01 1.360620e+00 4.800386e-02 5.278358e-02 6.055452e-02 4.754790e-02 7.655352e-02 9.751803e-02 1.325026e-01 1.397032e-01 1.455780e-01 2.727105e-01 8.075745e-02 1.083807e-01 1.770286e-01 1.755043e-02
<GCONST> 6.078856e+01
<STATE> 4
<MEAN> 39
 -5.013348e+00 -9.028219e-01 1.256635e-01 1.721924e+00 4.867030e+00 3.886699e+00 1.601874e+00 9.470534e-01 6.730139e-02 8.174552e-01 1.605898e+00 7.129610e-01 -3.441480e+00 -4.635890e-01 -3.881269e-01 -5.124761e-01 -5.328892e-01 -1.593715e-01 -2.747115e-01 -3.836106e-01 -4.290684e-01 -4.750158e-01 -2.396258e-02 -3.438135e-02 3.251910e-03 -2.194266e-01 1.690332e-01 1.164847e-02 -6.820289e-02 -1.208021e-01 -2.804189e-01 -2.997854e-01 -2.635234e-01 -1.496063e-01 4.939042e-03 1.727870e-02 6.614345e-02 1.328250e-01 1.170702e-01
<VARIANCE> 39
 3.524935e+00 1.495096e+01 2.185227e+01 2.470130e+01 2.242275e+01 3.715988e+01 3.190325e+01 1.949349e+01 9.597086e+00 1.113462e+01 1.368877e+00 9.572062e+00 1.066292e+00 1.363227e-01 3.662676e-01 2.609565e-01 5.433811e-01 5.739611e-01 5.697594e-01 1.656927e+00 9.143428e-01 8.154406e-01 6.715421e-01 8.137865e-01 1.318970e+00 5.694572e-02 6.043018e-02 5.931059e-02 7.488243e-02 1.184022e-01 1.109402e-01 1.638572e-01 2.647027e-01 9.954693e-02 1.780480e-01 2.042691e-02 6.050082e-02 9.027395e-02 2.070429e-02
<GCONST> 6.064524e+01
<TRANSP> 5
 0.000000e+00 1.000000e+00 0.000000e+00 0.000000e+00 0.000000e+00
 0.000000e+00 4.940441e-02 9.505956e-01 0.000000e+00 0.000000e+00
 0.000000e+00 0.000000e+00 1.780358e-03 9.982196e-01 0.000000e+00
 0.000000e+00 0.000000e+00 0.000000e+00 4.073129e-05 9.999593e-01
 0.000000e+00 0.000000e+00 0.000000e+00 0.000000e+00 0.000000e+00
<ENDHMM>
~h "sp"
<BEGINHMM>
<NUMSTATES> 3
<STATE> 2
~s "silst"
<TRANSP> 3
 0.000000e+00 7.000000e-01 3.000000e-01
 0.000000e+00 9.336483e-01 6.635173e-02
 0.000000e+00 0.000000e+00 0.000000e+00
<ENDHMM>
~h "sil"
<BEGINHMM>
<NUMSTATES> 5
<STATE> 2
<MEAN> 39
 -1.651438e+00 -1.315084e+00 -2.110293e+00 -1.822985e+00 3.607048e-01 4.312210e-01 -1.594650e+00 -4.037282e+00 -5.087052e+00 -2.149587e+00 3.019798e+00 4.186776e+00 -1.006875e+00 1.651057e+00 5.596504e-01 1.350188e-01 -4.507528e-01 -1.194126e+00 -7.802777e-01 9.410851e-02 -1.852309e-01 -2.316405e-01 1.020136e-01 3.446908e-01 1.103705e+00 1.022904e+00 2.322684e-01 -3.382822e-02 -7.198586e-02 -1.082510e-01 -2.143813e-01 -1.882052e-02 1.172313e-01 6.600183e-02 3.013393e-01 2.474993e-01 -1.341335e-02 -1.300891e-02 1.775695e-01
<VARIANCE> 39
 3.305616e+01 2.171427e+01 2.426619e+01 1.506004e+01 3.031194e+01 2.776189e+01 1.815140e+01 2.119770e+01 2.798388e+01 1.956629e+01 6.680589e+00 2.540790e+01 1.002592e+01 2.459317e+00 2.921725e+00 2.127637e+00 8.137948e-01 1.732757e+00 5.589051e-01 1.192880e+00 9.624834e-01 1.787505e+00 1.594263e+00 3.948733e-01 2.003088e+00 8.158767e-01 2.552350e-01 7.778535e-01 5.698086e-01 1.140429e-01 2.486398e-01 1.167969e-01 1.836522e-01 2.212233e-01 3.033737e-01 2.592466e-01 5.507525e-02 4.240540e-01 3.939763e-02
<GCONST> 9.319704e+01
<STATE> 3
~s "silst"
<STATE> 4
<MEAN> 39
 -6.647901e+00 -2.133305e+00 -1.651473e+00 -2.265561e+00 1.192192e+00 1.895040e+00 -1.283842e+00 -2.001389e+00 -9.549916e-02 1.332937e+00 1.939211e+00 7.009058e-01 -4.184010e+00 -3.953993e-02 -5.649089e-02 -9.400946e-02 -9.612985e-02 -7.553333e-02 -3.340488e-02 -4.419971e-02 -4.759419e-02 -1.754707e-03 1.929499e-02 1.364861e-03 1.063039e-02 -1.991193e-02 2.428158e-02 1.703390e-02 1.960404e-03 1.533623e-04 1.859096e-02 3.171745e-02 3.468113e-02 1.810560e-02 -8.423004e-03 1.420651e-03 5.770379e-03 1.306481e-02 1.121460e-02
<VARIANCE> 39
 4.334998e-01 2.220756e+00 3.369495e+00 4.496910e+00 7.430696e+00 8.626875e+00 8.732525e+00 7.802395e+00 7.677313e+00 7.390774e+00 9.837243e+00 9.042999e+00 1.425343e-01 6.313726e-02 2.025260e-01 2.805095e-01 4.473678e-01 5.352821e-01 5.955698e-01 7.179083e-01 8.079073e-01 7.577124e-01 8.341459e-01 8.783351e-01 8.779935e-01 1.843125e-02 1.382083e-02 3.970077e-02 5.639559e-02 8.655588e-02 8.792333e-02 1.039588e-01 1.402754e-01 1.675047e-01 1.565286e-01 1.783577e-01 1.884764e-01 1.774280e-01 4.000569e-03
<GCONST> 4.270868e+01
<TRANSP> 5
 0.000000e+00 1.000000e+00 0.000000e+00 0.000000e+00 0.000000e+00
 0.000000e+00 5.228924e-01 2.771077e-01 2.000000e-01 0.000000e+00
 0.000000e+00 0.000000e+00 8.329650e-01 1.670350e-01 0.000000e+00
 0.000000e+00 2.000000e-01 0.000000e+00 7.752922e-01 2.470787e-02
 0.000000e+00 0.000000e+00 0.000000e+00 0.000000e+00 0.000000e+00
<ENDHMM>
